svm_type c_svc
kernel_type linear
nr_class 5
total_sv 158
rho -0.678608 -0.769805 0.314477 -0.642697 -0.467104 0.587902 -0.0923322 0.771907 0.465243 -0.793079
label 1 4 5 3 2
nr_sv 50 17 6 58 27
SV
0 0 1 0.6505660176218649 6:0.5900607 13:0.80735889 
1 0 0 0 1:0.24948276 31:0.93569049 55:0.24948276 
0 0.04593259445158382 1 0 9:1 
0 0 1 1 1:0.22191662 5:0.399799 55:0.22191662 80:0.76277621 81:0.399799 
0 0 1 1 2:0.46420887 5:0.45984163 17:0.38224548 56:0.46420887 81:0.45984163 
0 0 0.58804803316088 0.7533673386437406 6:0.52677529 18:0.60104401 72:0.60104401 
1 0.1218558375050875 1 0 1:0.24948276 32:0.93569049 55:0.24948276 
0 0 0.07153196438200624 0 1:0.34255553 55:0.34255553 71:0.87482079 
0.3566499620317498 0.1412542343065166 1 0 1:0.20389393 55:0.20389393 62:0.70082824 66:0.65245253 
0 0 1 0 1:0.33838316 6:0.71707531 17:0.50675109 55:0.33838316 
0 0 0.3154478005925399 0 3:0.50293174 4:0.49705096 63:0.49705096 65:0.50293174 
0.3216232126664879 0.2306483807140459 0.9989954495611116 0.6253861050869974 3:0.50293174 4:0.49705096 63:0.49705096 65:0.50293174 
0 0 1 1 9:0.62789633 74:0.77829698 
0.08462503372973278 0 0 0 18:0.70710678 72:0.70710678 
0 0 1 0 9:0.66897584 71:0.74328415 
0.321703383040894 0.2306483807140459 0.5076157172718832 0 13:1 
0.2459630880588954 0 1 1 5:0.70710678 81:0.70710678 
0.2682539261633897 0 1 0 17:0.30458184 18:0.491762 66:0.6508227 72:0.491762 
1 0 1 1 5:0.70710678 81:0.70710678 
1 0.4315563915375026 1 1 6:0.81665639 17:0.5771242 
1 0 1 1 5:0.70710678 81:0.70710678 
0.00338427749821938 0.08102800886681894 1 1 1:0.3406959 2:0.61961787 55:0.3406959 56:0.61961787 
0.1792696931841971 0.1326296192127939 0.2962929900890945 0.3808192649646774 1:0.22502499 55:0.22502499 76:0.9480124 
1 0 1 1 2:0.57229229 17:0.23562268 18:0.38042412 56:0.57229229 72:0.38042412 
0 0 0 0.6995992385436027 1:0.34317222 5:0.61824981 55:0.34317222 81:0.61824981 
0 0 0.1223162312977457 0.5741684371513427 1:0.28444205 17:0.42597072 55:0.28444205 74:0.8103915 
1 0.1366795217835952 0.3447576791556274 0 1:0.2149338 25:0.95268406 55:0.2149338 
1 0.5831544684037877 0 0 18:0.70710678 72:0.70710678 
1 0.2298848274770441 1 0.3572090410285489 31:1 
0.2167323913916256 0.1577669316993698 0.5850988713123226 1 1:0.16330498 55:0.16330498 77:0.6879909 78:0.6879909 
0.6803230282788166 0.9984190940467186 1 0.8085105112497282 9:1 
1 0.2299950897435326 1 0.1033905446148752 71:1 
0 0 0.3351458557649689 0 1:0.37054623 9:0.85169888 55:0.37054623 
0 0 0.3305716900714426 0 8:1 
0.8148892572724618 0.2298848274770442 0.9842242079334007 0.3571877639557873 8:1 
0 0 1 0 1:0.33838316 6:0.71707531 17:0.50675109 55:0.33838316 
0.3330004935551632 0 1 0 1:0.1461548 12:0.43977187 17:0.65662966 55:0.1461548 58:0.43977187 71:0.37325118 
0.2705360667252738 0 0 0 1:0.11255949 17:0.33713077 18:0.2721567 31:0.84431335 55:0.11255949 72:0.2721567 
0 0 1 0 1:0.30522388 5:0.54988311 17:0.45709287 55:0.30522388 81:0.54988311 
0 0 1 1 17:1 
0.3905190803252615 0 1 1 5:0.54363943 6:0.63946253 81:0.54363943 
0 0 1 1 17:1 
0.1510711176230427 0.1134410132182691 1 0.6610292465680968 1:0.26904983 55:0.26904983 80:0.92478342 
0.5411120467845543 0 1 1 5:0.22313402 71:0.94890591 81:0.22313402 
0.2172070810240758 0.7055847166918579 1 0.845157137794503 17:1 
0 0 1 0 1:0.30522388 5:0.54988311 17:0.45709287 55:0.30522388 81:0.54988311 
0.321757880714825 0.4757071436321296 1 1 74:1 
0.08968401694087469 0.06847083103898514 1 0 1:0.20817442 14:0.63880188 17:0.31175492 55:0.20817442 57:0.63880188 
0.1684263585003216 0.1253493122099168 0.6678435306272564 1 1:0.24204428 55:0.24204428 75:0.93958988 
0.7034167501744366 0.4937799446352561 1 1 5:0.70710678 81:0.70710678 
-1 0.4429753637700239 1 0.8856397919319031 1:0.11290163 6:0.23925236 26:0.50043121 33:0.57742244 34:0.57742244 55:0.11290163 
-1 0.5141660919058128 1 0.889435068927218 1:0.061596008 35:0.94507706 36:0.31502573 55:0.061596008 
-1 0.8699225514312234 0.9954693893119307 1 18:0.70710678 72:0.70710678 
-1 0.02636129854395345 1 0.4154394288864982 1:0.17319024 18:0.41875529 27:0.76765767 55:0.17319024 72:0.41875529 
-1 0.3709153333860349 1 0.8432930083435039 2:0.23098331 8:0.30708633 25:0.56294734 28:0.56294734 56:0.23098331 66:0.40641358 
-1 0 0.8078276990739282 0.7187236634310609 5:0.25474441 10:0.44287988 25:0.62675381 31:0.53032788 81:0.25474441 
-1 0.5244217862116777 1 1 2:0.28030103 5:0.27766398 6:0.16330293 7:0.23187413 8:0.18632659 9:0.17712572 11:0.24659404 15:0.25828079 27:0.3415719 29:0.3415719 56:0.28030103 59:0.25828079 64:0.23187413 67:0.24659404 81:0.27766398 
-1 0.4504981930312969 1 1 5:0.28451162 6:0.16733024 9:0.18149392 12:0.23759252 17:0.35475279 19:0.3723439 20:0.3723439 21:0.3723439 29:0.34999561 58:0.23759252 81:0.28451162 
-1 0.3130424560045235 1 0.3594088217844366 5:0.19109953 10:0.33223158 17:0.15885237 31:0.79566322 32:0.39783173 81:0.19109953 
-0.7253371446248884 0.05526692990560517 1 0.1502182030694769 17:0.14780155 22:0.46539196 23:0.46539196 24:0.46539196 30:0.43745888 32:0.37015593 
-1 0.4314452080807902 1 0.7157510043852754 22:0.53329238 24:0.53329238 30:0.50128388 32:0.42416147 
-0.9548110010594109 0.3121629867999854 1 0.57382414957652 7:0.24655795 19:0.3863941 23:0.77278838 28:0.36320251 64:0.24655795 
-1 0.1602795248947932 1 1 5:0.4990091 10:0.57836078 26:0.40924154 81:0.4990091 
-1 0.4987064530005412 1 1 71:1 
-1 0.08513726323855947 1 1 1:0.15912816 5:0.286681 17:0.2383049 21:0.75036551 55:0.15912816 71:0.40638263 81:0.286681 
-1 0.1268152490975217 1 1 5:0.39734171 31:0.82718748 81:0.39734171 
-1 0.4781980252454899 1 1 1:0.1796948 6:0.38079527 17:0.26910481 20:0.84734711 55:0.1796948 
-1 -1 1 1 5:0.1859441 9:0.47446478 17:0.15456689 18:0.24955566 41:0.52786636 42:0.52786636 72:0.24955566 81:0.1859441 
-1 -1 1 1 9:0.19812684 11:0.27583175 37:0.40646716 43:0.44085228 44:0.44085228 45:0.44085228 67:0.27583175 74:0.24558436 
-1 -1 1 1 9:0.14174984 37:0.29080693 46:0.63081538 47:0.31540776 48:0.31540776 49:0.31540776 50:0.31540776 51:0.31540776 
-1 -1 1 1 6:0.23265786 52:0.561507 53:0.561507 54:0.561507 
-0.9636711693659019 -0.6603147145478325 0.9656630022665331 0.6589186018641268 38:0.57735027 39:0.57735027 40:0.57735027 
-1 -1 1 1 17:0.59141535 38:0.46555626 39:0.46555626 40:0.46555626 
-0.4419155030023548 -0.2657010393772697 -0.147227325284838 0 2:0.39055685 56:0.39055685 68:0.83362503 
-1 -0.4938324819457277 -0 0.1632821224464039 1:0.17841316 2:0.32447699 5:0.32142434 17:0.26718547 32:0.66914241 55:0.17841316 56:0.32447699 81:0.32142434 
-1 -0.7258106574134023 -0 1 5:0.70710678 81:0.70710678 
-0.6135674386909414 -0 -0 0 1:0.071711858 6:0.45589876 7:0.21577709 9:0.16482939 17:0.10739323 55:0.071711858 62:0.24648942 64:0.21577709 66:0.22947512 71:0.73255289 
-0 -0 -0 1 6:0.20234077 9:0.21946792 17:0.42897776 73:0.6563941 74:0.54407437 
-1 -0 -0 1 5:0.63011023 6:0.37058766 17:0.26189118 81:0.63011023 
-0.4347812463659939 -1 -0.06737151846508639 0 5:0.24092783 6:0.56678891 26:0.59276054 62:0.45966601 81:0.24092783 
-1 -0 -0 0 1:0.24962804 9:0.57376896 17:0.37383445 55:0.24962804 71:0.6375019 
-1 -0 -0.02376611827671281 1 9:0.51496263 71:0.5721635 74:0.63831216 
-0.6858678439445456 -0.760420299387972 -0.6186029919270043 0.6784491126796231 11:0.70710678 67:0.70710678 
-0 -0.5654973658576585 -0 0 15:0.52987565 17:0.078919512 28:0.23358376 59:0.52987565 66:0.50589948 71:0.26916374 79:0.22201469 
-0.815639173292115 -0.3129243746844884 -0.3281807999945256 1 17:0.31802475 73:0.72993179 74:0.6050288 
-1 -0 -0 1 5:0.19886117 6:0.23391288 17:0.16530426 62:0.75881414 71:0.28189425 75:0.42849092 81:0.19886117 
-1 -0.4119728548795155 -0.2283557968581682 0 14:0.54209006 57:0.54209006 60:0.6420878 
-1 -0 -0 1 5:0.26285891 9:0.67072468 16:0.48901816 74:0.41569223 81:0.26285891 
-0 -0.000738459212862939 -0 0 2:0.70710678 56:0.70710678 
-0 -0 -0 1 2:0.42092989 10:0.72491302 17:0.34660808 56:0.42092989 
-0 -0 -0 0.1354328629481059 2:0.70710678 56:0.70710678 
-0 -0 -0 0.5171669726256268 2:0.42795238 5:0.31794464 7:0.17700801 17:0.17619551 56:0.42795238 60:0.42763215 64:0.17700801 68:0.22836107 70:0.22836107 71:0.15023346 74:0.16760217 81:0.31794464 
-0.9412432887235238 -0.2618899865853985 -0.1448944135546206 0.4380183724977213 5:0.40587952 61:0.81885508 81:0.40587952 
-0 -0 -0 1 2:0.70710678 56:0.70710678 
-1 -0 -0 1 2:0.70710678 56:0.70710678 
-0.685597061597053 -0 -0.2281101934786454 0 69:1 
-0 -1 -0 0 2:0.27395205 7:0.45324383 9:0.34622722 32:0.56494895 56:0.27395205 64:0.45324383 
-1 -1 -0.2280441637765265 0.882347092114659 1:0.70710678 55:0.70710678 
-1 -1 -0 1 5:0.70710678 81:0.70710678 
-1 -0 -0 1 80:1 
-1 -0.4124075357367689 -0.228060372256635 1 80:1 
-0.6029903845863035 -0 -0 1 14:0.49286052 57:0.49286052 73:0.55206793 74:0.45760029 
-0.7068428811770268 -0.670688355833307 -0.1763272192985546 0 2:0.20455932 12:0.67687184 56:0.20455932 58:0.67687184 
-1 -0 -0 1 5:0.6814031 6:0.26716969 81:0.6814031 
-0.5547173172975719 -0.1791664069488088 -0.09621752220532884 1 2:0.70710678 56:0.70710678 
-1 -1 -0.2241726388357623 1 5:0.70710678 81:0.70710678 
-0 -0.1940913292620776 -0 0.04660309291873779 9:0.5520427 10:0.75224993 17:0.35967888 
-1 -0 -0 0 9:1 
-0.4935299929336118 -0 -0 0.225562150789247 2:0.19664423 5:0.19479422 12:0.65068138 56:0.19664423 58:0.65068138 81:0.19479422 
-1 -0 -0 0 17:1 
-0.8036444777279848 -1 -0.1393828213817966 0.2865806270992571 10:0.77502408 71:0.63193171 
-1 -0 -0 0 17:1 
-0.8939454359421767 -0.1822164472625416 -0.06923265593712889 1 6:0.32398338 7:0.46002461 17:0.68686933 64:0.46002461 
-0.9408492368586755 -0 -0 0 6:0.55213891 66:0.83375213 
-1 -0 -0 1 5:0.45815962 17:0.76169517 81:0.45815962 
-1 -0 -0 0.7854690307767069 17:1 
-1 -1 -0.06127630555416646 0.05247318410845975 6:0.55750129 17:0.59097218 27:0.58304733 
-0 -0 -0 0.6353494384805263 5:0.30584472 6:0.35975359 16:0.56898822 17:0.25423484 66:0.5432425 81:0.30584472 
-0.4983506552500742 -0.1906829933253869 -0.1386054091195678 0 9:0.4117345 32:0.67183906 62:0.61571664 
-0.7117512644604845 -0.2557760540363122 -0.1750556339058625 0.1593658104037 15:0.6742539 17:0.30126956 59:0.6742539 
-0 -0.6301716661327661 -0 0.4173967452770169 10:0.62793754 69:0.77826374 
-1 -0.0006089443354599092 -0.311688433946909 1 5:0.36431439 6:0.85705896 81:0.36431439 
-1 -0.2390990266644336 -0.9731652729722684 0 9:1 
-0 -0 -0 0.2737149463376523 2:0.32217778 5:0.31914675 9:0.40717606 16:0.59373509 17:0.26529221 56:0.32217778 81:0.31914675 
-1 -0.364976715503752 -0.1346644743351311 0 66:1 
-0.6858591950225215 -1 -0.2281054779929525 0.2069676343564839 30:1 
-0.6367976243473208 -0 -0 0 2:0.475993 6:0.73950072 56:0.475993 
-0 -0 -0 0.4722415463449102 2:0.2673287 5:0.26481369 7:0.44228573 56:0.2673287 64:0.44228573 68:0.5706004 81:0.26481369 
-1 -0.4416032963166918 -0.7332396671373502 0 17:1 
-1 -1 -0.1263905929255186 0 71:1 
-0 -0.2430207976832568 -0.1355251828454722 0 16:0.72328101 66:0.69055382 
-1 -0 -0 -1 2:0.46420887 5:0.45984163 17:0.38224548 56:0.46420887 81:0.45984163 
-0.6940423407993146 -0 -0 -1 2:0.32235869 9:0.40740469 56:0.32235869 73:0.60924175 74:0.50499076 
-1 -0 -0 -1 5:0.60959925 17:0.50673219 81:0.60959925 
-1 -1 -0.03709122444327918 -1 10:0.49636609 17:0.23733123 29:0.70244631 74:0.45151275 
-0.9923757662194014 -0 -0 -1 2:0.17427008 5:0.34526111 16:0.16057955 17:0.14350014 56:0.17427008 73:0.16468095 74:0.13650141 76:0.20184562 78:0.20184562 79:0.20184562 80:0.16468095 81:0.34526111 82:0.45184762 83:0.45184762 84:0.22592376 
-0 -0 -0 -1 2:0.20364156 5:0.40345143 17:0.083842768 56:0.20364156 73:0.19243629 74:0.3190146 76:0.23586469 78:0.23586469 79:0.23586469 81:0.40345143 82:0.26400095 83:0.26400095 84:0.26400095 85:0.26400095 
-0 -0.1271642977280205 -0 -1 2:0.27216059 7:0.45027992 56:0.27216059 64:0.45027992 73:0.51436987 74:0.42635297 
-1 -0 -0 -0.691584688951683 2:0.13784495 5:0.27309607 56:0.13784495 73:0.26052005 74:0.21594091 75:0.2942235 76:0.31931338 77:0.31931338 78:0.63862658 81:0.27309607 
-1 -1 -0.2592587738233638 -1 2:0.30578892 56:0.30578892 71:0.42939089 86:0.79284913 
-1 -0.7119123402257936 -0.09300772329697073 -1 6:0.49351871 7:0.35037389 64:0.35037389 73:0.40024386 74:0.33175574 77:0.49056961 
-1 -1 -0.5345730872381018 -1 87:1 
-1 -1 -1 -1 17:1 
-1 -0.5243748214877037 -0 -1 1:0.30522388 5:0.54988311 17:0.45709287 55:0.30522388 81:0.54988311 
-1 -0.05366428726716024 -0.5353291709448963 -1 74:1 
-1 -1 -0.6651799053579273 -1 9:0.23937396 11:0.33325591 67:0.33325591 71:0.26596307 73:0.35796498 74:0.29671145 79:0.43874936 85:0.49108771 
-0.4713149685157452 -0 -0.04535334707324511 -0.6848360532531552 5:0.17395957 6:0.20462207 77:0.40679885 80:0.33189732 81:0.17395957 86:0.45532582 88:0.45532582 89:0.45532582 
-1 -0 -0 -1 2:0.24008822 6:0.27974985 17:0.39539402 56:0.24008822 75:0.5124569 90:0.62250045 
-1 -1 -0.4425347195357842 -1 4:0.26978959 6:0.77343165 17:0.18219248 63:0.26978959 75:0.47226745 
-1 -0.08401345574962811 -0 -1 2:0.24008822 6:0.27974985 17:0.39539402 56:0.24008822 75:0.5124569 90:0.62250045 
-1 -1 -0.5269889544110058 -1 1:0.2013152 5:0.36268405 6:0.42661154 18:0.48675843 55:0.2013152 72:0.48675843 81:0.36268405 
-1 -1 -0 -1 5:0.70710678 81:0.70710678 
-0.6586575716893041 -0 -0 -1 5:0.25037578 16:0.46579477 80:0.47769176 81:0.25037578 87:0.65533941 
-1 -1 -0.4226530312781477 -1 2:0.70710678 56:0.70710678 
-1 -1 -0 -1 5:0.70710678 81:0.70710678 
-1 -0.7975897426855354 -0.1161960357885701 -1 5:0.25389006 10:0.44139456 80:0.48439664 81:0.25389006 88:0.66453774 
-1 -0.351822784063124 -0.1902304728976139 -1 5:0.27542913 17:0.22895173 80:0.52549102 81:0.27542913 89:0.72091461 
-1 -0.9011914111289276 -0.7905221557752207 -1 5:0.4364935 9:0.55689029 10:0.37942797 16:0.40602273 81:0.4364935 
