svm_type c_svc
kernel_type linear
nr_class 4
total_sv 921
rho -1.05843 -1.0977 -0.921221 -1.07008 -0.812722 0.95332
label 3 1 4 2
nr_sv 467 418 1 35
SV
0 0 0.3267821732950874 186:0.12154071 246:0.64368811 285:0.74573543 338:0.12154071 
1 0 0 4:0.3206322 90:0.3206322 181:0.37591253 195:0.25345613 210:0.3206322 234:0.37023818 246:0.3859886 285:0.44718143 
1 0 0 185:0.30978015 221:0.65457143 227:0.68961765 
0.1819238308197578 0 0 13:0.36289777 95:0.36289777 185:0.3000667 190:0.36289777 191:0.39384159 206:0.59980364 
1 0 0 23:0.41131383 104:0.41131383 179:0.54962915 185:0.17878523 227:0.39800308 230:0.41131383 
1 0 0 9:0.25588643 11:0.19753362 94:0.25588643 168:0.19753362 184:0.11612793 186:0.052589332 198:0.19753362 214:0.46816039 224:0.24588344 229:0.25588643 246:0.55703359 247:0.2785168 338:0.052589332 
0 0 0.3186602080402576 45:0.20618288 107:0.20618288 178:0.33056225 179:0.63420447 181:0.24452318 185:0.10314812 207:0.20618288 279:0.42282908 337:0.33431063 
0.3982867246071849 0 0 26:0.2711657 69:0.22278942 187:0.22278942 188:0.2711657 191:0.32387826 206:0.49325253 234:0.57614412 341:0.2711657 
1 0 0 5:0.15058497 69:0.066456684 92:0.15058497 186:0.033830997 187:0.066456684 192:0.1089793 199:0.12989943 213:0.14999529 214:0.15058497 215:0.15058497 217:0.15239134 222:0.15684095 238:0.52348242 250:0.72461688 338:0.033830997 
0.3495760487735641 0 0.5971761299129097 23:0.38465663 69:0.075477601 104:0.38465663 187:0.075477601 192:0.24754459 194:0.13175019 205:0.16710631 206:0.16710631 225:0.17964942 230:0.38465663 250:0.20574429 281:0.37923719 328:0.25956503 329:0.35275934 
1 0 0.04210871575283303 23:0.34971427 26:0.16704305 67:0.45032315 69:0.13724237 104:0.34971427 186:0.069865751 187:0.13724237 188:0.16704305 205:0.30385261 206:0.30385261 228:0.33839697 230:0.34971427 338:0.069865751 341:0.16704305 
1 0 0 32:0.38533238 52:0.21424117 105:0.21424117 108:0.38533238 200:0.21424117 206:0.24034487 228:0.26766916 247:0.29267791 250:0.59183383 
1 0 0 175:0.57335587 194:0.31793817 251:0.49649996 285:0.56891666 
1 0 0.1059500540530551 14:0.53397372 125:0.53397372 194:0.31385745 206:0.39808339 218:0.41565279 
1 0 0 13:0.24155938 29:0.22190137 95:0.24155938 96:0.22190137 185:0.19973649 186:0.09180156 189:0.22190137 190:0.24155938 222:0.42559324 227:0.44464375 251:0.49156805 338:0.09180156 
1 0 0 4:0.26617537 13:0.1592045 17:0.26617537 45:0.26313591 90:0.26617537 95:0.1592045 107:0.26313591 137:0.26617537 184:0.13360433 186:0.060503637 190:0.1592045 193:0.2068826 195:0.21040862 207:0.26313591 208:0.26515228 210:0.26617537 211:0.26617537 260:0.32953734 338:0.060503637 
1 0 0 13:0.15065884 39:0.4243165 95:0.15065884 112:0.4243165 185:0.24914864 190:0.15065884 199:0.43968684 222:0.26543944 231:0.28799596 337:0.40375415 
0.007842348486086032 0 0 23:0.28197368 68:0.3355515 104:0.28197368 192:0.1814633 193:0.19262029 195:0.19590324 204:0.23361569 209:0.24687291 230:0.28197368 238:0.29055317 345:0.58354474 
1 0 0.7935804418689144 23:0.33481458 26:0.31985252 104:0.33481458 188:0.31985252 191:0.19101456 224:0.31274254 230:0.33481458 337:0.47168445 341:0.31985252 
1 0 1 2:0.50195175 26:0.17765363 188:0.17765363 191:0.21218815 201:0.29278624 225:0.34740944 242:0.38725385 266:0.50195175 341:0.17765363 
1 0 0 23:0.37192133 25:0.41441134 26:0.17765039 103:0.41441134 104:0.37192133 188:0.17765039 230:0.37192133 238:0.38323762 341:0.17765039 
0.4349058610383917 0 1 1:0.39599333 13:0.16306966 52:0.24025146 95:0.16306966 105:0.24025146 186:0.061972542 190:0.16306966 200:0.24025146 238:0.31964313 241:0.32130198 246:0.32821093 257:0.33560518 265:0.39599333 338:0.061972542 
1 0 0 4:0.24405937 25:0.30941307 31:0.251921 90:0.24405937 103:0.30941307 110:0.251921 184:0.1225034 186:0.055476505 210:0.24405937 219:0.251921 226:0.26162756 231:0.2790453 252:0.29705898 258:0.30042664 264:0.3057152 338:0.055476505 
1 0 0.07265990641816984 172:0.31719756 185:0.096730616 186:0.044458684 214:0.19788981 220:0.20271454 224:0.20786828 228:0.64601129 231:0.22362596 244:0.23293738 285:0.27278446 330:0.40816984 338:0.044458684 
1 0 0 18:0.2718314 29:0.13316592 37:0.30726474 96:0.13316592 101:0.2718314 133:0.30726474 182:0.2718314 189:0.13316592 191:0.15732375 193:0.18837603 205:0.23959724 225:0.25758157 226:0.25981102 227:0.5336733 
1 0 0.8917044275461228 70:0.54926348 164:0.3383742 180:0.3383742 184:0.13954128 185:0.13748997 201:0.24900285 203:0.25932098 284:0.54926348 
1 0 0 39:0.34636028 52:0.18118643 69:0.27542546 78:0.27264869 105:0.18118643 112:0.34636028 126:0.27264869 184:0.10320435 185:0.20337459 186:0.046736797 187:0.27542546 191:0.13346583 193:0.15980907 196:0.16927645 200:0.18118643 206:0.20326265 252:0.25026063 257:0.25309775 260:0.25455527 338:0.046736797 
1 0 0 11:0.35766529 14:0.27774606 68:0.28359794 125:0.27774606 168:0.35766529 186:0.047610576 192:0.15336726 193:0.16279682 198:0.35766529 226:0.44906357 238:0.24556671 250:0.25493944 338:0.047610576 
1 0 0 185:0.32595994 186:0.14981555 191:0.42782682 261:0.81598096 338:0.14981555 
1 0 0 5:0.2200466 13:0.13008334 17:0.21748746 45:0.21500397 47:0.33396412 92:0.2200466 95:0.13008334 107:0.21500397 137:0.21748746 140:0.33396412 178:0.34470464 186:0.049436513 190:0.13008334 191:0.14117538 203:0.20287187 205:0.21500397 207:0.21500397 211:0.21748746 215:0.2200466 249:0.26325552 338:0.049436513 
1 0 0 185:0.36063072 186:0.1657507 261:0.90277289 338:0.1657507 
0.9888032070259698 0 0 69:0.29574903 185:0.32757202 186:0.15055648 187:0.29574903 261:0.82001651 338:0.15055648 
0.9420943915957407 0 0.2601915379084673 25:0.70710678 103:0.70710678 
1 0 0 11:0.42333762 168:0.42333762 185:0.24521716 186:0.11270508 198:0.42333762 261:0.61385621 338:0.11270508 
1 0 0 11:0.53626558 168:0.53626558 185:0.31063037 186:0.14276987 198:0.53626558 338:0.14276987 
1 0 0 5:0.15532493 11:0.13107434 14:0.20357236 29:0.084349839 67:0.22492321 68:0.41572291 92:0.15532493 96:0.084349839 125:0.20357236 168:0.13107434 185:0.075924455 186:0.10468755 189:0.084349839 192:0.11240964 193:0.23864196 198:0.13107434 215:0.15532493 226:0.49370779 238:0.17998669 248:0.1848111 250:0.18685637 252:0.18685637 253:0.18685637 261:0.19006296 338:0.10468755 
0.6125211714588854 0 0 29:0.42992429 96:0.42992429 185:0.38698114 189:0.42992429 195:0.30926738 232:0.44731934 
0.2479838883362721 0 0 17:0.23307482 29:0.25612318 52:0.2053883 69:0.10407175 96:0.25612318 105:0.2053883 132:0.26780058 137:0.23307482 186:0.1589387 187:0.10407175 189:0.25612318 193:0.18115546 196:0.19188744 200:0.2053883 201:0.20876113 202:0.21298256 211:0.23307482 226:0.24985231 233:0.26780058 244:0.27758216 338:0.1589387 
1 0 0 13:0.17389543 29:0.31948778 64:0.306379 95:0.17389543 96:0.31948778 109:0.306379 186:0.06608674 189:0.31948778 190:0.17389543 193:0.22597313 196:0.23936018 222:0.306379 223:0.306379 232:0.33241448 338:0.06608674 
0.5620022041245674 0 0 11:0.26333641 67:0.45188454 168:0.26333641 184:0.1548127 193:0.23972317 196:0.25392481 198:0.26333641 205:0.30490615 225:0.32779262 226:0.33062976 241:0.36348093 
1 0 0 17:0.22645436 29:0.24884804 52:0.19955427 69:0.1011156 96:0.24884804 105:0.19955427 132:0.26019374 137:0.22645436 186:0.15442407 187:0.1011156 189:0.24884804 193:0.17600977 196:0.18643691 200:0.19955427 201:0.2028313 202:0.20693282 211:0.22645436 221:0.23664924 226:0.24275529 233:0.26019374 244:0.26969748 338:0.15442407 
1 0 0 194:1 
1 0 1 13:0.10270424 26:0.27996267 47:0.26367353 48:0.30213645 69:0.15334458 95:0.10270424 140:0.26367353 169:0.31236224 184:0.086189346 186:0.039031437 187:0.15334458 188:0.27996267 190:0.10270424 193:0.26692362 203:0.16017272 222:0.18095026 274:0.30213645 285:0.23948459 328:0.26367353 338:0.039031437 341:0.27996267 
1 0 0 26:0.57735027 188:0.57735027 341:0.57735027 
1 0 0 4:0.35707846 69:0.15944142 90:0.35707846 185:0.17659753 187:0.15944142 210:0.35707846 234:0.41232316 235:0.41232316 261:0.44207954 
1 0 0 26:0.20803457 52:0.33731694 105:0.33731694 186:0.087010452 188:0.20803457 191:0.24847492 200:0.33731694 257:0.4711951 264:0.47948979 338:0.087010452 341:0.20803457 
1 0.1505314445060767 0 14:0.26368974 125:0.26368974 164:0.24203732 178:0.3151723 179:0.60467788 180:0.24203732 181:0.23313894 185:0.098345865 191:0.12908027 202:0.18171209 227:0.21893283 250:0.24203732 251:0.24203732 
1 0 0.159145571275142 69:0.27564723 185:0.30530724 187:0.27564723 204:0.58193194 221:0.64512008 
1 0 0 53:0.55059686 135:0.55059686 185:0.19673738 199:0.34719383 250:0.48418699 
1 0 0 13:0.15490389 14:0.34342583 30:0.42001202 53:0.35846164 95:0.15490389 106:0.42001202 125:0.34342583 135:0.35846164 186:0.058869248 190:0.15490389 191:0.16811235 197:0.21709242 338:0.058869248 
1 0 0 13:0.24247713 95:0.24247713 164:0.24671801 180:0.24671801 186:0.046075204 190:0.24247713 192:0.14842139 199:0.35382617 206:0.20038533 228:0.22316671 238:0.23764754 250:0.24671801 256:0.4962081 328:0.31125709 338:0.046075204 
1 0 0 185:0.3072376 186:0.14121051 199:0.54219996 254:0.75613719 338:0.14121051 
0.9576504947285685 0 0 29:0.3614481 69:0.29373784 96:0.3614481 185:0.32534443 187:0.29373784 189:0.3614481 199:0.57415413 
0 0 0.3990063298137618 26:0.1416784 52:0.22972395 105:0.22972395 185:0.1289279 186:0.059256984 188:0.1416784 200:0.22972395 221:0.27242713 285:0.36358216 337:0.41786477 338:0.059256984 341:0.1416784 346:0.61383853 
1 0 0 4:0.27840945 13:0.16652193 52:0.24533772 90:0.27840945 95:0.16652193 105:0.24533772 164:0.33886848 180:0.33886848 186:0.063284535 190:0.16652193 200:0.24533772 210:0.27840945 220:0.2885532 328:0.42751324 338:0.063284535 
0.05742101792923707 0 0 208:0.63752145 246:0.77043261 
0.2579415116516561 0 0 9:0.37255691 68:0.45608171 69:0.30081321 94:0.37255691 184:0.33815238 186:0.076567246 187:0.30081321 193:0.26180956 229:0.37255691 338:0.076567246 
1 0 0 26:0.1984852 53:0.50549661 69:0.1630752 135:0.50549661 185:0.18062231 187:0.1630752 188:0.1984852 199:0.31875464 238:0.42818367 341:0.1984852 
0 0 0.0570774539549862 26:0.22039249 68:0.54907585 188:0.22039249 191:0.26323513 204:0.38227435 205:0.40089566 220:0.42030157 341:0.22039249 
1 0 0 29:0.24540535 96:0.24540535 189:0.24540535 194:0.34812173 220:0.46291622 221:0.46675062 235:0.51574445 
1 0 0 193:0.44284376 224:0.60553559 236:0.66122315 
1 0 0 11:0.42533762 13:0.29796433 95:0.29796433 168:0.42533762 185:0.24637565 186:0.11323754 190:0.29796433 191:0.32337137 198:0.42533762 338:0.11323754 
1 0 0.5244731399248469 26:0.22107727 69:0.18163682 187:0.18163682 188:0.22107727 248:0.48970411 336:0.73998684 341:0.22107727 
1 0 0 67:0.56251351 191:0.24922072 194:0.29924717 196:0.31608989 248:0.46219661 253:0.46731165 
1 0 0 29:0.51230175 96:0.51230175 185:0.46112988 189:0.51230175 
0.09921569807803253 0 0 11:0.11837059 45:0.13705633 52:0.12217073 54:0.1980188 69:0.061904801 105:0.12217073 107:0.13705633 138:0.1980188 168:0.11837059 186:0.06302743 187:0.061904801 191:0.08999359 192:0.10151488 198:0.11837059 200:0.12217073 204:0.13069016 207:0.13705633 234:0.16008879 238:0.16254234 338:0.06302743 342:0.82174823 
1 0 0 13:0.12522044 32:0.33181857 69:0.093481413 95:0.12522044 108:0.33181857 186:0.047588432 187:0.093481413 190:0.12522044 191:0.13589783 201:0.18751761 213:0.21099114 224:0.22250153 228:0.23049607 239:0.24545249 247:0.50406335 248:0.25203167 250:0.25482086 260:0.25919376 338:0.047588432 
1 0 0 11:0.31486474 69:0.16466623 168:0.31486474 186:0.083826371 187:0.16466623 191:0.23938217 195:0.29151622 198:0.31486474 199:0.32186454 239:0.43236121 250:0.44886346 338:0.083826371 
1 0 0 11:0.15140983 14:0.23515552 26:0.096377307 52:0.15627065 53:0.24545105 69:0.15836696 105:0.15627065 125:0.23515552 135:0.24545105 168:0.15140983 186:0.040309805 187:0.15836696 188:0.096377307 191:0.11511233 198:0.15140983 200:0.15627065 205:0.17531107 225:0.18847004 237:0.20684855 239:0.41582132 250:0.21584614 261:0.21955021 277:0.30730552 285:0.24732825 338:0.040309805 341:0.096377307 
1 0 0 5:0.20925111 13:0.12370145 29:0.11363467 31:0.42695905 69:0.18469486 92:0.20925111 95:0.12370145 96:0.11363467 110:0.42695905 147:0.26714238 185:0.10228414 186:0.047011157 187:0.18469486 189:0.11363467 190:0.12370145 195:0.16348691 215:0.20925111 219:0.42695905 231:0.23646483 338:0.047011157 
1 0 0 4:0.37596665 90:0.37596665 167:0.51272963 183:0.38189589 185:0.18593891 186:0.08546001 202:0.34355637 210:0.37596665 338:0.08546001 
0.3447960998212478 0 0 26:0.30963489 69:0.25439565 187:0.25439565 188:0.30963489 191:0.36982557 240:0.66796217 341:0.30963489 
1 0 0 26:0.24628191 69:0.20234492 184:0.22746128 187:0.20234492 188:0.24628191 195:0.35822054 234:0.52327369 240:0.53129349 341:0.24628191 
0 0 0.07457663198581992 179:0.55642346 185:0.18099531 192:0.26797187 237:0.42687601 255:0.44794692 259:0.45049431 
0 0.2142659253956794 0 179:0.89569587 185:0.14567754 192:0.21568228 255:0.36053865 
1 0 0 25:0.25165365 26:0.10787921 29:0.21812909 64:0.41835825 69:0.17726686 96:0.21812909 103:0.25165365 109:0.41835825 187:0.17726686 188:0.10787921 189:0.21812909 223:0.41835825 237:0.23153436 240:0.23272323 341:0.10787921 
0.4463225329841868 0 0 13:0.19866428 29:0.18249706 95:0.19866428 96:0.18249706 173:0.53866553 185:0.32853655 186:0.075499826 189:0.18249706 190:0.19866428 213:0.33474089 328:0.51003259 338:0.075499826 
0.6966216092327932 0 0.090355725684546 13:0.11071465 23:0.21061062 26:0.10059939 29:0.20340947 95:0.11071465 96:0.20340947 104:0.21061062 173:0.30019571 185:0.18309184 186:0.04207569 188:0.10059939 189:0.20340947 190:0.11071465 203:0.17266537 204:0.17449126 213:0.18654949 224:0.1967265 230:0.21061062 242:0.21928908 282:0.41528663 328:0.28423871 336:0.3367249 338:0.04207569 341:0.10059939 
1 0 0 49:0.6055148 122:0.6055148 193:0.24381982 197:0.26295577 242:0.3716313 
1 0 0 5:0.29001622 13:0.17144677 29:0.1574945 92:0.29001622 95:0.17144677 96:0.1574945 185:0.14176298 186:0.065156158 189:0.1574945 190:0.17144677 197:0.24027669 206:0.28337016 215:0.29001622 221:0.2995479 227:0.31558591 232:0.32773369 251:0.34889043 338:0.065156158 
1 0 0 23:0.24717937 26:0.11806666 32:0.34432019 37:0.27541828 104:0.24717937 108:0.34432019 133:0.27541828 142:0.35662409 185:0.10744113 186:0.049381378 188:0.11806666 192:0.15907152 222:0.22893272 225:0.23088452 226:0.2328829 228:0.23918026 230:0.24717937 338:0.049381378 341:0.11806666 
1 0 0 26:0.1838847 67:0.49572572 69:0.15107945 186:0.07690977 187:0.15107945 188:0.1838847 225:0.35959457 226:0.36270697 241:0.39874532 260:0.4188945 338:0.07690977 341:0.1838847 
1 0 0 71:0.66268669 143:0.66268669 185:0.33176374 186:0.076241455 338:0.076241455 
0.1813930048863971 0 0 52:0.40195604 68:0.61760593 69:0.20367405 105:0.40195604 185:0.22558966 187:0.20367405 200:0.40195604 
0.5995355176338034 0 0 13:0.13589739 52:0.40043681 68:0.30763581 69:0.20290425 95:0.13589739 105:0.40043681 185:0.11236851 186:0.051646068 187:0.20290425 190:0.13589739 193:0.17659554 200:0.40043681 213:0.22898133 214:0.22988153 222:0.23943185 247:0.2735212 338:0.051646068 
0.3286425208726456 0 0 13:0.42926913 95:0.42926913 183:0.36450894 184:0.18012134 186:0.081569188 190:0.42926913 193:0.27891291 252:0.43677696 338:0.081569188 
1 0 0 184:0.14143242 185:0.1393533 192:0.20631897 201:0.25237747 204:0.79684456 228:0.31022162 262:0.3508802 
1 0 0 9:0.31502468 13:0.34072069 26:0.15479576 94:0.31502468 95:0.34072069 188:0.15479576 190:0.34072069 195:0.22515264 229:0.31502468 243:0.3374277 247:0.34288518 341:0.15479576 
1 0 0 12:0.28503581 13:0.084251232 17:0.28172073 29:0.077394899 39:0.23728569 78:0.1867871 95:0.084251232 96:0.077394899 111:0.28503581 112:0.23728569 126:0.1867871 137:0.28172073 175:0.19798899 176:0.24058474 181:0.16514616 184:0.070703588 186:0.032018606 189:0.077394899 190:0.084251232 193:0.10948255 202:0.12871747 203:0.13139427 205:0.13925188 208:0.28063775 211:0.28172073 216:0.28503581 218:0.14539775 338:0.032018606 
1 0 0 9:0.27395185 52:0.21826865 55:0.35377783 69:0.22119664 94:0.27395185 105:0.21826865 187:0.22119664 193:0.19251613 200:0.21826865 229:0.27395185 257:0.60979539 
1 0 1 1:0.18751576 2:0.19824452 9:0.14279033 11:0.22045633 53:0.35738272 94:0.14279033 135:0.35738272 147:0.16675968 168:0.22045633 177:0.24919966 179:0.39257672 185:0.1915482 186:0.058691925 192:0.18906383 195:0.10205429 196:0.10628863 198:0.22045633 227:0.14213838 229:0.14279033 242:0.15294489 265:0.18751576 266:0.19824452 338:0.058691925 
1 0 0 38:0.4440519 52:0.26230762 105:0.26230762 166:0.4440519 186:0.067661899 193:0.23135914 194:0.23200707 200:0.26230762 202:0.27200648 217:0.30478226 231:0.34033749 338:0.067661899 
1 0 0 52:0.39353634 105:0.39353634 186:0.10151217 200:0.39353634 217:0.45726042 261:0.55289322 338:0.10151217 
1 0 0 5:0.20143018 7:0.23837614 29:0.21877497 38:0.29699372 45:0.19681417 78:0.26399894 89:0.23837614 92:0.20143018 96:0.21877497 107:0.19681417 126:0.26399894 166:0.29699372 186:0.045254077 189:0.21877497 191:0.12923164 194:0.1551725 203:0.18570847 207:0.19681417 215:0.20143018 235:0.22988899 245:0.23837614 338:0.045254077 
1 0 0 4:0.16414114 9:0.18154348 29:0.36074554 41:0.29858985 90:0.16414114 94:0.18154348 96:0.36074554 120:0.29858985 185:0.16235617 189:0.36074554 191:0.10654724 210:0.16414114 229:0.18154348 255:0.40181638 285:0.22892545 
1 0 0 13:0.22985563 26:0.20885524 95:0.22985563 186:0.087353699 188:0.20885524 190:0.22985563 209:0.38282049 224:0.40842556 228:0.4231004 238:0.45055453 338:0.087353699 341:0.20885524 
1 0 0 26:0.47946059 69:0.39392424 187:0.39392424 188:0.47946059 341:0.47946059 
0.7584275905293171 0 0 29:0.32490559 96:0.32490559 189:0.32490559 191:0.38384721 260:0.73209999 
0 0 0.06769179134170339 185:0.28825515 195:0.4607356 212:0.58284907 220:0.60408496 
0.646575408867246 0 0 52:0.36518133 69:0.18504004 105:0.36518133 187:0.18504004 193:0.32209524 200:0.36518133 209:0.41281523 255:0.50723407 
1 0 0 4:0.42834133 90:0.42834133 185:0.21184145 201:0.383658 210:0.42834133 243:0.50744543 
1 0 0 23:0.32001571 26:0.15285736 29:0.1545369 64:0.29639232 96:0.1545369 104:0.32001571 109:0.29639232 185:0.1391008 188:0.15285736 189:0.1545369 203:0.26235919 223:0.29639232 228:0.30965951 230:0.32001571 231:0.32157916 341:0.15285736 
1 0 0 192:0.38676663 258:0.6502032 261:0.65394753 
0.6652973060699071 0 0 12:0.29985825 29:0.16283925 69:0.13233449 96:0.16283925 111:0.29985825 164:0.36073041 180:0.36073041 184:0.1487607 185:0.14657386 187:0.13233449 189:0.16283925 205:0.29298664 216:0.29985825 228:0.32629567 237:0.34569329 
1 0 0 18:0.36368869 23:0.36894562 29:0.17816536 96:0.17816536 101:0.36368869 104:0.36894562 182:0.36368869 185:0.1603691 189:0.17816536 197:0.27181255 230:0.36894562 
1 0 0.7981112922028977 29:0.25997263 42:0.8607196 96:0.25997263 184:0.23749624 189:0.25997263 
1 0 0 26:0.4752982 188:0.4752982 191:0.56769257 341:0.4752982 
1 0 0 7:0.35681237 29:0.16373622 62:0.50897973 89:0.35681237 96:0.16373622 184:0.2991605 186:0.067738383 189:0.16373622 205:0.29460049 217:0.30512678 245:0.35681237 338:0.067738383 
1 0 0 9:0.26072373 10:0.3484623 29:0.12952121 94:0.26072373 96:0.12952121 98:0.3484623 132:0.27085291 185:0.11658383 186:0.053583486 189:0.12952121 199:0.20574223 220:0.24432014 228:0.25953331 229:0.26072373 233:0.27085291 256:0.28853437 258:0.29017521 338:0.053583486 
1 0 0 6:0.36829996 13:0.14199922 46:0.38054701 78:0.31481584 91:0.36829996 95:0.14199922 119:0.38054701 126:0.31481584 167:0.32377072 185:0.11741388 186:0.05396499 190:0.14199922 208:0.23649719 338:0.05396499 
1 0 0.01739177546805642 29:0.19495986 37:0.44984701 96:0.19495986 133:0.44984701 162:0.67046713 184:0.17810426 189:0.19495986 
1 0 0 29:0.17378022 37:0.40097747 96:0.17378022 133:0.40097747 186:0.07189363 189:0.17378022 192:0.23158992 193:0.49165774 201:0.28328989 204:0.29814865 224:0.33614142 338:0.07189363 
0.0684552311987649 0 0 176:0.41914811 186:0.11156578 192:0.17969297 205:0.24260542 213:0.2473231 214:0.2482954 226:0.26307299 235:0.28337551 244:0.29227014 249:0.29705134 331:0.51213702 338:0.11156578 
1 0 0 4:0.40998542 25:0.25988523 29:0.11263204 90:0.40998542 96:0.11263204 103:0.25988523 184:0.10289424 185:0.10138166 186:0.046596364 189:0.11263204 201:0.18360846 210:0.40998542 212:0.20499271 220:0.21246154 231:0.23437843 237:0.23910784 261:0.25379039 338:0.046596364 
0.3821387760932807 0 0 29:0.11393669 37:0.26289555 45:0.20499928 64:0.2185236 96:0.11393669 107:0.20499928 109:0.2185236 133:0.26289555 178:0.32866464 186:0.047136104 189:0.11393669 195:0.16392143 196:0.1707227 207:0.20499928 208:0.20657015 214:0.20980726 221:0.43340557 223:0.2185236 337:0.33239149 338:0.047136104 
0 0 0.3745916943812881 69:0.28120478 187:0.28120478 217:0.64482863 220:0.6527203 
1 0 0 19:0.3433217 23:0.23188952 26:0.33229032 45:0.20147945 69:0.18200612 104:0.23188952 107:0.20147945 113:0.3433217 186:0.04632678 187:0.18200612 188:0.33229032 192:0.14923179 207:0.20147945 230:0.23188952 240:0.23894512 338:0.04632678 341:0.33229032 
1 0 0 11:0.1564338 13:0.10958752 26:0.19915063 44:0.30077014 69:0.32724356 95:0.10958752 118:0.30077014 168:0.1564338 169:0.33329686 183:0.37221963 186:0.041647337 187:0.32724356 188:0.19915063 190:0.10958752 198:0.1564338 224:0.19472372 227:0.20172019 234:0.21156689 338:0.041647337 341:0.19915063 
1 0 0 26:0.080259357 31:0.15243576 110:0.15243576 132:0.16968136 186:0.067136815 188:0.080259357 202:0.13494806 219:0.15243576 233:0.16968136 258:0.9089313 338:0.067136815 341:0.080259357 
1 0 0 4:0.18951001 12:0.19173994 29:0.41650064 90:0.18951001 96:0.41650064 111:0.19173994 184:0.19024584 185:0.093724496 186:0.043077031 189:0.41650064 194:0.14770758 196:0.1560211 205:0.18734599 210:0.18951001 214:0.19173994 216:0.19173994 232:0.21667628 235:0.21882968 338:0.043077031 
1 0 0 17:0.27238611 26:0.1480344 137:0.27238611 183:0.27668181 188:0.1480344 193:0.21170984 196:0.22425191 211:0.27238611 248:0.65581644 253:0.33153712 341:0.1480344 
1 0 0 18:0.20121194 26:0.097499276 44:0.29449965 101:0.20121194 118:0.29449965 164:0.2183589 180:0.2183589 182:0.20121194 184:0.1800971 186:0.040779069 188:0.097499276 194:0.13982806 197:0.60152502 221:0.18747705 224:0.1906641 237:0.20925656 259:0.22083436 338:0.040779069 341:0.097499276 
0.07697649135276903 0 0 29:0.17653098 96:0.17653098 132:0.36915908 185:0.31779624 186:0.073031634 189:0.17653098 196:0.26451396 203:0.29969881 209:0.3200552 227:0.35373103 232:0.36734711 233:0.36915908 338:0.073031634 
0 0 1 26:0.090836812 48:0.29409414 69:0.074631415 185:0.16532386 186:0.075984838 187:0.074631415 188:0.090836812 191:0.1084948 196:0.13760537 197:0.28021036 225:0.17763536 234:0.19300042 253:0.20343768 254:0.40687535 274:0.29409414 283:0.37498553 337:0.26791314 338:0.075984838 341:0.090836812 347:0.39356131 
1 0 0 194:0.57780217 228:0.81617685 
1 0 0 11:0.2416011 26:0.30757425 67:0.41458681 168:0.2416011 188:0.30757425 198:0.2416011 203:0.26395478 206:0.27973975 238:0.33175815 241:0.33347987 341:0.30757425 
1 0 0 11:0.21043438 26:0.13394837 68:0.33371287 69:0.22010363 164:0.2999901 168:0.21043438 180:0.2999901 185:0.12189354 187:0.22010363 188:0.13394837 193:0.19156484 198:0.21043438 204:0.23233561 224:0.26194189 228:0.27135353 243:0.29198402 258:0.30339099 341:0.13394837 
1 0 0 12:0.1876865 25:0.23517751 29:0.10192393 31:0.19147916 64:0.19548385 65:0.3436861 96:0.10192393 103:0.23517751 109:0.19548385 110:0.19147916 111:0.1876865 132:0.21314187 134:0.3436861 186:0.084332576 189:0.10192393 193:0.28836244 195:0.14663859 205:0.18338545 216:0.1876865 219:0.19147916 223:0.19548385 233:0.21314187 243:0.21976168 338:0.084332576 
1 0 0.1338337794997925 20:0.58623984 136:0.58623984 185:0.20947321 256:0.51842712 
1 0 0 5:0.42132116 13:0.12453462 25:0.26396468 26:0.11315672 29:0.11440004 69:0.092969423 92:0.42132116 95:0.12453462 96:0.11440004 103:0.26396468 184:0.10450939 185:0.2059463 186:0.094655402 187:0.092969423 188:0.11315672 189:0.11440004 190:0.12453462 215:0.42132116 222:0.21941228 262:0.25927772 338:0.094655402 341:0.11315672 
1 0 0 4:0.18913072 13:0.11312264 23:0.2151913 40:0.2560798 69:0.084449983 90:0.18913072 95:0.11312264 104:0.2151913 141:0.2560798 185:0.093536915 186:0.042990816 187:0.084449983 190:0.11312264 192:0.1384857 196:0.15570884 197:0.15853745 202:0.17282667 203:0.35284152 210:0.18913072 230:0.2151913 231:0.43248525 236:0.21949048 240:0.22173883 242:0.22405851 338:0.042990816 
1 0 0 4:0.13798328 11:0.11781035 13:0.082530394 21:0.2140571 23:0.15699618 40:0.18682703 45:0.13640765 53:0.19098281 69:0.061611808 90:0.13798328 95:0.082530394 99:0.2140571 104:0.15699618 107:0.13640765 135:0.19098281 141:0.18682703 168:0.11781035 183:0.14015936 185:0.20472409 186:0.062729124 187:0.061611808 190:0.082530394 192:0.20206882 198:0.11781035 201:0.12358926 207:0.13640765 209:0.27490571 210:0.13798328 220:0.28602117 222:0.14540681 224:0.1466465 230:0.15699618 231:0.31552639 237:0.16094662 257:0.16985151 261:0.17082964 338:0.062729124 
1 0 0 9:0.24631572 13:0.13320373 38:0.33222483 94:0.24631572 95:0.13320373 166:0.33222483 185:0.22028264 190:0.13320373 225:0.23668687 226:0.47747092 229:0.24631572 234:0.25715975 247:0.26809967 252:0.27106667 
1 0 0 5:0.28400808 26:0.15255553 92:0.28400808 186:0.063806346 188:0.15255553 194:0.21878669 204:0.26461004 215:0.28400808 218:0.57949428 238:0.32910155 256:0.34358204 338:0.063806346 341:0.15255553 
1 0 0 12:0.15619849 13:0.09233872 20:0.21368016 45:0.15261902 95:0.09233872 107:0.15261902 111:0.15619849 136:0.21368016 147:0.19941226 184:0.077490603 185:0.38175758 186:0.070184167 190:0.09233872 191:0.10021232 193:0.11999205 204:0.29105994 206:0.15261902 207:0.15261902 216:0.15619849 217:0.1580722 220:0.16000675 222:0.16268768 227:0.50990998 242:0.18289244 256:0.18896292 338:0.070184167 
1 0 0 5:0.25146574 26:0.13507535 29:0.27311901 52:0.21901746 69:0.11097774 92:0.25146574 96:0.27311901 105:0.21901746 147:0.32103609 178:0.39392296 186:0.056495259 187:0.11097774 188:0.13507535 189:0.27311901 193:0.19317658 200:0.21901746 208:0.24758588 215:0.25146574 338:0.056495259 341:0.13507535 
1 0 0 23:0.30582633 26:0.14607972 44:0.44123842 69:0.12001892 104:0.30582633 118:0.44123842 183:0.27302844 184:0.26983313 186:0.061097839 187:0.12001892 188:0.14607972 192:0.19681359 193:0.20891437 230:0.30582633 338:0.061097839 341:0.14607972 
1 0 0 5:0.4224434 11:0.17824399 23:0.23753113 29:0.11470476 92:0.4224434 96:0.11470476 104:0.23753113 168:0.17824399 184:0.10478776 186:0.047453858 189:0.11470476 198:0.17824399 205:0.20638122 206:0.20638122 215:0.4224434 230:0.23753113 238:0.24475839 338:0.047453858 
1 0 0 20:0.31852597 26:0.12507045 29:0.12644468 69:0.20551547 78:0.30516528 96:0.12644468 126:0.30516528 136:0.31852597 186:0.052310713 187:0.20551547 188:0.12507045 189:0.12644468 197:0.19290648 213:0.23192815 214:0.23283993 238:0.26980917 264:0.28826942 328:0.35338053 338:0.052310713 341:0.12507045 
1 0 0 26:0.27320374 186:0.11426745 188:0.27320374 191:0.32631248 206:0.49695973 264:0.62969536 338:0.11426745 341:0.27320374 
1 0 0 5:0.30995193 29:0.16832067 55:0.43755586 64:0.32282874 92:0.30995193 96:0.16832067 109:0.32282874 189:0.16832067 215:0.30995193 223:0.32282874 232:0.35026209 
0.6551684248063775 0 0.01330056112475752 192:0.44908615 199:0.53529464 237:0.7153889 
0.4094464871378155 0 0.5253524312907317 185:0.30656576 328:0.95184948 
1 0 0 11:0.21096852 13:0.14779105 26:0.26857695 95:0.14779105 168:0.21096852 186:0.056166104 188:0.26857695 190:0.14779105 191:0.16039301 198:0.21096852 208:0.49228656 235:0.28532167 241:0.291198 328:0.3794253 338:0.056166104 341:0.26857695 
1 0 0 52:0.27859844 69:0.14116786 105:0.27859844 173:0.51272582 187:0.14116786 192:0.23149477 200:0.27859844 280:0.64094805 
1 0 0 26:0.13445041 29:0.1359277 45:0.24456635 69:0.1104643 96:0.1359277 107:0.24456635 164:0.30111448 178:0.39210045 180:0.30111448 185:0.1223504 186:0.05623388 187:0.1104643 188:0.13445041 189:0.1359277 207:0.24456635 227:0.27237057 239:0.29004415 241:0.29154939 244:0.29463249 338:0.05623388 341:0.13445041 
1 0 0 4:0.12876919 7:0.15418092 19:0.21691756 29:0.070751474 47:0.19773227 52:0.11347294 89:0.15418092 90:0.12876919 96:0.070751474 105:0.11347294 113:0.21691756 140:0.19773227 147:0.16632879 173:0.20883284 185:0.25473763 186:0.029270192 189:0.070751474 192:0.094287648 200:0.11347294 208:0.12827424 210:0.12876919 212:0.51507675 224:0.1368539 227:0.42531341 245:0.15418092 255:0.15761304 338:0.029270192 
1 0 0.001077405119047582 13:0.16855068 47:0.43272166 53:0.39004153 95:0.16855068 135:0.39004153 140:0.43272166 185:0.1393683 190:0.16855068 227:0.310255 259:0.34688538 
0.8415192796346984 0 0 13:0.076129287 23:0.14481946 26:0.069173858 45:0.12582779 52:0.22432343 69:0.056833159 95:0.076129287 104:0.14481946 105:0.22432343 107:0.12582779 147:0.1644068 185:0.12589708 186:0.028931964 187:0.056833159 188:0.069173858 190:0.076129287 192:0.37279248 200:0.22432343 207:0.12582779 227:0.42039876 230:0.14481946 244:0.30317298 251:0.15492143 259:0.31335556 285:0.35503469 338:0.028931964 341:0.069173858 
1 0 0 28:0.29264381 52:0.15511983 105:0.15511983 184:0.17671361 185:0.43528955 192:0.12889314 195:0.27829947 199:0.15363602 200:0.15511983 212:0.17603011 227:0.38760814 244:0.20964435 247:0.21191139 251:0.21425658 259:0.43337122 
1 0 0 8:0.30899957 64:0.24219967 69:0.1026249 93:0.30899957 109:0.24219967 147:0.29687302 185:0.11366748 186:0.10448598 187:0.1026249 202:0.21002159 223:0.24219967 225:0.24426458 231:0.26278132 244:0.2737231 248:0.27668308 263:0.2862054 264:0.28789678 338:0.10448598 
1 0 0 69:0.20776348 185:0.23011911 187:0.20776348 227:0.51228009 239:0.54552091 241:0.54835199 
1 0 0 11:0.20986196 29:0.13505177 62:0.41981312 76:0.42594156 96:0.13505177 139:0.42594156 168:0.20986196 186:0.055871503 189:0.13505177 191:0.15955172 198:0.20986196 205:0.24299034 249:0.29752263 264:0.30789192 338:0.055871503 
1 0 0 11:0.35471075 12:0.14011235 29:0.076088585 37:0.17556548 45:0.13690151 69:0.12366974 96:0.076088585 107:0.13690151 111:0.14011235 133:0.17556548 164:0.16855559 168:0.35471075 180:0.16855559 184:0.069510213 185:0.068488386 186:0.031478178 187:0.12366974 189:0.076088585 194:0.10793607 198:0.35471075 207:0.13690151 209:0.13795056 216:0.14011235 220:0.14352841 225:0.29435485 232:0.15833437 242:0.16405721 247:0.33342128 252:0.16855559 338:0.031478178 
0.1319436457169907 0 0 41:0.48202585 120:0.48202585 194:0.20653011 214:0.26809775 255:0.64866868 
0.4602705191525772 0 0 183:0.44282282 186:0.099094135 192:0.63842102 194:0.33978561 238:0.51110957 338:0.099094135 
1 0 0.002794196119390225 5:0.23601587 13:0.27904735 92:0.23601587 95:0.27904735 184:0.11708828 186:0.053024232 190:0.27904735 195:0.1843981 203:0.43518948 206:0.23060729 215:0.23601587 220:0.24177016 256:0.28552292 277:0.40423512 338:0.053024232 
1 0 0 5:0.22059575 29:0.11979543 52:0.19213083 68:0.29520925 69:0.19470818 92:0.22059575 96:0.11979543 105:0.19213083 170:0.39661972 184:0.21887681 185:0.10782952 186:0.049559889 187:0.19470818 189:0.11979543 191:0.2830556 200:0.19213083 205:0.21554054 206:0.21554054 215:0.22059575 252:0.26537739 257:0.26838588 338:0.049559889 
1 0 0 23:0.2292449 25:0.2554349 29:0.22140662 52:0.35509732 96:0.22140662 103:0.2554349 104:0.2292449 105:0.35509732 189:0.22140662 195:0.15926954 200:0.35509732 208:0.4014157 230:0.2292449 
1 0 0 29:0.27913578 31:0.2621989 54:0.36281194 96:0.27913578 110:0.2621989 132:0.29186239 138:0.36281194 184:0.1275013 185:0.2512542 186:0.057739842 189:0.27913578 195:0.20079719 219:0.2621989 233:0.29186239 338:0.057739842 
1 0 0 13:0.14744859 29:0.27089857 95:0.14744859 96:0.27089857 185:0.24383976 186:0.11207169 189:0.27089857 190:0.14744859 193:0.19160607 196:0.20295716 208:0.24557303 214:0.24942134 220:0.25550246 251:0.30005466 252:0.30005466 253:0.30005466 262:0.30698399 338:0.11207169 
1 0 0 11:0.19848309 20:0.32176169 29:0.12772916 69:0.20760319 96:0.12772916 132:0.26710541 136:0.32176169 168:0.19848309 184:0.11668611 185:0.11497078 186:0.10568401 187:0.20760319 189:0.12772916 198:0.19848309 201:0.41643843 203:0.21684736 217:0.23802668 231:0.26579436 233:0.26710541 338:0.10568401 
1 0 0 21:0.23210119 23:0.17023028 26:0.24393458 63:0.19576802 99:0.23210119 104:0.17023028 164:0.1821048 165:0.19576802 180:0.1821048 184:0.075097735 186:0.068016918 188:0.24393458 195:0.11826871 197:0.37624036 206:0.14790622 213:0.15078239 214:0.15137516 230:0.17023028 241:0.17632013 252:0.1821048 337:0.23981924 338:0.068016918 341:0.24393458 348:0.35229169 
1 0 0 21:0.28382448 26:0.099431587 52:0.16122301 99:0.28382448 105:0.16122301 164:0.22268649 180:0.22268649 184:0.091833117 186:0.083174353 188:0.099431587 194:0.14259928 195:0.28924915 197:0.61344648 200:0.16122301 213:0.18438395 242:0.21674348 247:0.22024904 338:0.083174353 341:0.099431587 
1 0 0 9:0.2022024 17:0.18281975 26:0.099357532 29:0.20089847 94:0.2022024 96:0.20089847 137:0.18281975 174:0.59297985 183:0.18570293 186:0.041556285 188:0.099357532 189:0.20089847 193:0.28419025 195:0.14451694 201:0.32749704 202:0.16705973 211:0.18281975 229:0.2022024 338:0.041556285 341:0.099357532 
1 0 0.3537953172912889 13:0.09523056 20:0.66111657 29:0.087480734 95:0.09523056 96:0.087480734 136:0.66111657 184:0.079917434 185:0.078742617 186:0.036191159 189:0.087480734 190:0.09523056 202:0.14549148 262:0.19826746 338:0.036191159 
0.1227000161080938 0 0 26:0.30645327 188:0.30645327 203:0.52598555 241:0.66452869 341:0.30645327 
1 0 0 13:0.26597672 78:0.29483876 95:0.26597672 126:0.29483876 164:0.2706286 180:0.2706286 186:0.1516215 190:0.26597672 191:0.14432821 225:0.23630436 260:0.27527277 261:0.27527277 263:0.27687838 328:0.34142246 338:0.1516215 
1 0 0 31:0.323191 110:0.323191 185:0.15485004 186:0.071171149 194:0.24404 199:0.27327282 212:0.31310526 219:0.323191 232:0.35798892 254:0.38109878 256:0.38323976 338:0.071171149 
1 0 0 186:0.068492178 196:0.24807247 206:0.29787882 221:0.31488487 236:0.3496882 237:0.70293082 238:0.35327023 338:0.068492178 
1 0 0 5:0.13723576 12:0.13723576 42:0.24674278 92:0.13723576 111:0.13723576 172:0.43995039 186:0.030831913 191:0.17609292 199:0.11838398 202:0.12394686 203:0.12652445 212:0.13563971 213:0.13669836 215:0.13723576 216:0.13723576 236:0.15741296 238:0.15902541 244:0.16154111 255:0.66409017 338:0.030831913 
1 0 0 13:0.13743142 26:0.24975066 66:0.42570422 69:0.20519467 95:0.13743142 172:0.37263654 178:0.36417615 187:0.20519467 188:0.24975066 190:0.13743142 192:0.16824472 193:0.17858899 255:0.2812411 258:0.28284047 341:0.24975066 
1 0 0 26:0.22049244 69:0.18115632 175:0.57025387 187:0.18115632 188:0.22049244 235:0.46847894 251:0.49381377 341:0.22049244 
0 0 0.1697088647199273 183:0.75821023 184:0.37466836 186:0.084835496 194:0.29089392 235:0.43096109 338:0.084835496 
0.7756467496350593 0 0 183:0.66016323 186:0.1477302 194:0.50655467 195:0.51374941 338:0.1477302 
1 0 0 9:0.27488363 11:0.42439733 94:0.27488363 168:0.42439733 186:0.056493604 191:0.16132824 192:0.18198203 193:0.19317092 198:0.42439733 206:0.24569591 225:0.26413801 229:0.27488363 338:0.056493604 
1 0 0 13:0.27809356 95:0.27809356 186:0.10568591 190:0.27809356 194:0.36238826 195:0.36753537 203:0.43370167 236:0.53958155 338:0.10568591 
1 0 0.802342943669867 10:0.17492973 20:0.32758433 29:0.13004052 37:0.30005325 62:0.60635323 96:0.13004052 98:0.17492973 132:0.13596945 133:0.30005325 136:0.32758433 147:0.15285535 186:0.053798223 189:0.13004052 199:0.10328357 213:0.11926187 220:0.12264987 233:0.13596945 243:0.14019242 338:0.053798223 
1 0 0 9:0.10638257 13:0.23012001 23:0.10943844 26:0.1045479 28:0.15990411 38:0.1434863 52:0.33903747 67:0.14092265 69:0.12884454 94:0.10638257 95:0.23012001 104:0.10943844 105:0.33903747 166:0.1434863 178:0.15244745 186:0.02186356 187:0.12884454 188:0.1045479 190:0.23012001 194:0.074968342 195:0.07603314 200:0.33903747 213:0.19387137 224:0.20444782 229:0.10638257 230:0.10943844 234:0.11106605 240:0.11276827 246:0.11579095 247:0.11579095 249:0.11642615 257:0.11839959 259:0.11839959 263:0.119776 285:0.1341479 327:0.18174526 338:0.02186356 341:0.1045479 
1 0 0 47:0.65263236 69:0.18977566 140:0.65263236 187:0.18977566 191:0.27588478 
1 0 0 181:0.73321265 185:0.15464691 186:0.1421553 191:0.40595259 202:0.28573863 262:0.38938825 338:0.1421553 
1 0 0.2006100047004558 11:0.11689382 13:0.040944165 18:0.15355523 26:0.14881359 48:0.12044998 69:0.061132485 95:0.040944165 101:0.15355523 168:0.11689382 175:0.096218106 182:0.15355523 184:0.034360321 186:0.015560308 187:0.061132485 188:0.14881359 190:0.040944165 193:0.10641201 196:0.056358024 198:0.11689382 203:0.1277092 234:0.07904577 235:0.07904577 238:0.080257242 255:0.083788566 274:0.12044998 280:0.13878069 338:0.015560308 339:0.83268416 341:0.14881359 
1 0 0 18:0.34975277 26:0.16947623 52:0.27479666 69:0.13924147 101:0.34975277 105:0.27479666 182:0.34975277 187:0.13924147 188:0.16947623 191:0.20242113 200:0.27479666 208:0.31064087 251:0.37955813 341:0.16947623 
1 0 0 29:0.33910562 37:0.26081548 69:0.091860263 96:0.33910562 133:0.26081548 142:0.33771572 184:0.20652528 187:0.091860263 189:0.33910562 193:0.15989919 199:0.17955449 201:0.18426569 256:0.503617 
1 0 0 5:0.45571063 25:0.1903402 26:0.08159528 29:0.082491819 46:0.24065626 92:0.45571063 96:0.082491819 103:0.1903402 119:0.24065626 185:0.074252026 186:0.034127223 188:0.08159528 189:0.082491819 195:0.11868149 201:0.13447502 208:0.14955978 212:0.15013687 215:0.45571063 236:0.17423723 249:0.18173166 338:0.034127223 341:0.08159528 
1 0 0 186:0.11172574 228:0.54114716 240:0.5762611 246:0.59170737 338:0.11172574 
1 0 0.05243576082148967 11:0.52066661 69:0.27229536 168:0.52066661 186:0.13861696 187:0.27229536 198:0.52066661 338:0.13861696 
1 0 0 4:0.31434153 43:0.57182002 69:0.14035867 90:0.31434153 121:0.57182002 186:0.071452162 187:0.14035867 210:0.31434153 338:0.071452162 
1 0 0 185:1 
1 0 0.3604053208745492 26:0.17763901 67:0.47888826 78:0.43342976 126:0.43342976 188:0.17763901 197:0.54797488 341:0.17763901 
1 0 0.2857836842697988 5:0.32595243 19:0.5426959 92:0.32595243 113:0.5426959 204:0.30368955 215:0.32595243 
1 0 0 45:0.39040256 107:0.39040256 181:0.46299902 194:0.30780172 207:0.39040256 255:0.48337101 
1 0 0 25:0.30062359 103:0.30062359 172:0.38456232 183:0.24086602 184:0.11902345 192:0.17362918 193:0.18430451 196:0.19522304 201:0.21239005 212:0.23712638 232:0.27111847 236:0.27519053 244:0.2824074 249:0.28702726 255:0.29024188 
1 0 0.1227790162225708 174:0.62170805 193:0.29795847 327:0.72436169 
1 0 0 13:0.15910475 26:0.14456841 78:0.35273925 95:0.15910475 126:0.35273925 164:0.32377469 180:0.32377469 185:0.26311588 186:0.060465732 188:0.14456841 190:0.15910475 193:0.41350597 218:0.27457728 225:0.28270984 338:0.060465732 341:0.14456841 
1 0 0 13:0.27030184 95:0.27030184 190:0.27030184 193:0.35125105 199:0.39442791 222:0.47623338 236:0.52446337 
1 0.01440298358839304 0 13:0.21079131 95:0.21079131 164:0.4289557 180:0.4289557 184:0.17689595 190:0.21079131 193:0.54783696 236:0.40899581 
1 0 0 13:0.15602648 78:0.34591463 95:0.15602648 126:0.34591463 164:0.31751046 180:0.31751046 185:0.25802524 186:0.059295871 190:0.15602648 193:0.40550566 218:0.2692649 225:0.27724012 246:0.3140351 338:0.059295871 
1 0 0.3572685345578657 14:0.23719778 30:0.29009443 106:0.29009443 125:0.23719778 186:0.081319612 191:0.11611205 192:0.13097711 197:0.14994166 209:0.17818865 220:0.18539348 241:0.63241386 250:0.21772071 332:0.37329353 338:0.081319612 
1 0 0 13:0.39220072 95:0.39220072 186:0.14905088 190:0.39220072 226:0.70292492 338:0.14905088 
1 0 0 9:0.37897064 52:0.30194142 69:0.15299592 94:0.37897064 105:0.30194142 187:0.15299592 193:0.26631672 200:0.30194142 229:0.37897064 257:0.42177934 
1 0 0 13:0.33615947 69:0.25095473 95:0.33615947 185:0.2779578 187:0.25095473 190:0.33615947 248:0.67658948 
1 0 0 11:0.42209566 13:0.295693 95:0.295693 168:0.42209566 190:0.295693 198:0.42209566 208:0.24623592 212:0.24718602 234:0.28542893 
1 0 0 44:0.59875793 118:0.59875793 196:0.30029036 247:0.43909404 
1 0 0 11:0.2612299 18:0.34315945 101:0.34315945 168:0.2612299 182:0.34315945 195:0.24185862 198:0.2612299 234:0.35329702 238:0.35871172 241:0.36057333 
1 0 0 77:0.72091596 185:0.20574644 186:0.094563816 214:0.42091249 243:0.49284544 338:0.094563816 
1 0 0 9:0.21560307 11:0.16643655 26:0.10594231 54:0.27842698 69:0.26112622 94:0.21560307 138:0.27842698 168:0.16643655 175:0.27399584 184:0.097846295 186:0.044310367 187:0.26112622 188:0.10594231 198:0.16643655 222:0.20542345 229:0.21560307 240:0.45708966 246:0.23467081 257:0.2399577 338:0.044310367 341:0.10594231 
1 0 0.07050015725604983 186:0.099307611 220:0.4528046 222:0.4603914 244:0.52031353 260:0.54088593 338:0.099307611 
1 0 0 13:0.30162758 26:0.27406987 95:0.30162758 186:0.11462971 188:0.27406987 190:0.30162758 192:0.36925505 234:0.58231459 338:0.11462971 341:0.27406987 
1 0 0 5:0.17976574 12:0.17976574 13:0.1062708 26:0.09656154 38:0.26505112 63:0.46496888 92:0.17976574 95:0.1062708 111:0.17976574 165:0.46496888 166:0.26505112 186:0.040386861 188:0.09656154 190:0.1062708 199:0.15507171 202:0.16235855 208:0.17699214 215:0.17976574 216:0.17976574 236:0.20619593 241:0.20938915 338:0.040386861 341:0.09656154 
1 0 0 4:0.14262953 90:0.14262953 167:0.19451296 172:0.23131101 184:0.14318334 186:0.097262127 194:0.11116808 196:0.23485005 202:0.13033413 210:0.14262953 212:0.4278886 214:0.14430783 231:0.16307549 258:0.70228354 338:0.097262127 
1 0 0 20:0.26423919 29:0.20978912 45:0.18873032 52:0.16823245 55:0.27267732 78:0.25315558 96:0.20978912 105:0.16823245 107:0.18873032 126:0.25315558 136:0.26423919 147:0.24659535 184:0.095825716 185:0.094417041 189:0.20978912 200:0.16823245 201:0.34199023 207:0.18873032 225:0.20289655 227:0.21018667 247:0.22982474 
0.6622823466443786 0 0 11:0.090314774 13:0.063268754 69:0.047232324 95:0.063268754 168:0.090314774 183:0.10744779 186:0.096177742 187:0.047232324 190:0.063268754 198:0.090314774 199:0.092322574 201:0.094744957 202:0.096660826 214:0.10702427 218:0.10918695 224:0.1124209 231:0.24188617 232:0.48377235 236:0.73655765 237:0.12338354 244:0.12597896 338:0.096177742 
0.9471083953049196 0 0 29:0.17526673 96:0.17526673 186:0.072508608 189:0.17526673 191:0.20706214 192:0.23357094 194:0.24862603 196:0.26261961 231:0.72943261 236:0.37019416 338:0.072508608 
1 0 0 20:0.30622184 29:0.12156033 52:0.19496142 96:0.12156033 105:0.19496142 136:0.30622184 189:0.12156033 194:0.17244039 200:0.19496142 231:0.25295751 236:0.51351361 257:0.54468003 
0.6492973636097382 0 0 69:0.26214172 187:0.26214172 191:0.38108634 196:0.48333678 243:0.6955014 
1 0 0 4:0.19275259 7:0.23079102 18:0.21618735 69:0.34426883 89:0.23079102 90:0.19275259 101:0.21618735 167:0.26286896 181:0.22598514 182:0.21618735 186:0.13144211 187:0.34426883 192:0.14113771 194:0.15023491 197:0.16157345 208:0.19201171 209:0.19201171 210:0.19275259 245:0.23079102 249:0.23331544 338:0.13144211 
0.9489056132724798 0 0 23:0.49435611 104:0.49435611 186:0.098762231 194:0.33864754 197:0.36420597 230:0.49435611 338:0.098762231 
0 0 0.2731681731693855 194:0.50288095 197:0.54083441 221:0.6742469 
0 0.06079906872252992 0 177:0.69037 184:0.17952408 192:0.52377276 197:0.29980567 209:0.35628502 
1 0 0.3318294117517431 13:0.1291933 14:0.42963744 26:0.058694928 69:0.096447364 95:0.1291933 125:0.42963744 175:0.15180117 183:0.10970301 187:0.096447364 188:0.058694928 190:0.1291933 192:0.079079829 201:0.19346711 214:0.1092706 228:0.11890459 237:0.12597323 246:0.13001403 250:0.39435871 341:0.058694928 349:0.50860554 
1 0 0 13:0.13160383 18:0.24678067 26:0.23916032 95:0.13160383 101:0.24678067 182:0.24678067 183:0.22349959 188:0.23916032 190:0.13160383 191:0.14282552 192:0.32222106 195:0.1739309 213:0.22174687 250:0.26781092 341:0.23916032 350:0.51809487 
0.9599508993833977 0 0 25:0.5464593 103:0.5464593 183:0.43783483 184:0.21635518 185:0.21317468 186:0.097977931 192:0.3156149 338:0.097977931 
1 0 0 29:0.19731425 96:0.19731425 171:0.6532697 184:0.1802551 186:0.081629763 189:0.19731425 201:0.32165418 217:0.36770034 235:0.41467609 338:0.081629763 
1 0 0 18:0.40811306 52:0.32064965 101:0.40811306 105:0.32064965 182:0.40811306 200:0.32064965 246:0.43804404 
1 0 0.2807975620222543 18:0.3834251 54:0.48828126 101:0.3834251 138:0.48828126 182:0.3834251 197:0.28656309 
1 0 0 26:0.18087611 45:0.32901506 69:0.1486076 107:0.32901506 173:0.53974716 184:0.16705373 186:0.075651428 187:0.1486076 188:0.18087611 201:0.29809713 207:0.32901506 214:0.33673166 338:0.075651428 341:0.18087611 
1 0 0 10:0.41574814 12:0.28455899 26:0.15285145 52:0.24784046 98:0.41574814 105:0.24784046 111:0.28455899 188:0.15285145 196:0.23154908 200:0.24784046 216:0.28455899 232:0.32156672 341:0.15285145 
1 0 0 11:0.24313055 76:0.4934644 139:0.4934644 168:0.24313055 184:0.14293389 186:0.064728594 194:0.22194901 197:0.23869996 198:0.24313055 209:0.28366781 251:0.34660096 338:0.064728594 
1 0 0 26:0.14361086 53:0.36574415 76:0.45791286 135:0.36574415 139:0.45791286 188:0.14361086 191:0.17152772 197:0.22150287 209:0.26323102 251:0.32163017 341:0.14361086 
0 0 0.2858408847107709 45:0.40734992 107:0.40734992 194:0.32116338 202:0.37653388 207:0.40734992 259:0.50722229 
0.7803559437074594 0 0 9:0.28304123 13:0.15306432 45:0.25298732 52:0.22551054 69:0.22853567 94:0.28304123 95:0.15306432 105:0.22551054 107:0.25298732 186:0.058170141 187:0.22853567 190:0.15306432 192:0.18738264 200:0.22551054 207:0.25298732 229:0.28304123 257:0.31501371 259:0.31501371 338:0.058170141 
1 0 0 26:0.22648926 174:0.67586003 186:0.094729126 188:0.22648926 192:0.30514957 195:0.32943185 206:0.41198573 338:0.094729126 341:0.22648926 
1 0 0 64:0.39142238 109:0.39142238 169:0.67568607 194:0.2895063 223:0.39142238 
1 0 0.05690691995469278 26:0.22141568 46:0.65304108 119:0.65304108 188:0.22141568 341:0.22141568 
1 0 0 175:0.6999608 194:0.38814333 248:0.59949949 
0.4317906714060291 0 0 13:0.20012849 95:0.20012849 164:0.4072571 180:0.4072571 181:0.39228449 186:0.076056281 190:0.20012849 194:0.26079071 197:0.56094654 338:0.076056281 
1 0 0 4:0.17934375 7:0.21473603 17:0.17934375 65:0.33227342 69:0.16015988 77:0.31078461 89:0.21473603 90:0.17934375 132:0.20606413 134:0.33227342 137:0.17934375 181:0.21026448 184:0.18004011 185:0.088696647 187:0.16015988 194:0.13978381 197:0.15033359 210:0.17934375 211:0.17934375 233:0.20606413 239:0.21026448 240:0.21026448 245:0.21473603 
1 0 0.1908582710636043 26:0.57735027 188:0.57735027 341:0.57735027 
1 0 0 8:0.39119658 12:0.29439666 64:0.30662723 93:0.39119658 109:0.30662723 111:0.29439666 186:0.066140284 195:0.23001073 216:0.29439666 218:0.30034564 223:0.30662723 338:0.066140284 
0 0 0.1701076764445662 4:0.14776085 12:0.29899919 31:0.15252052 63:0.38668452 90:0.14776085 110:0.15252052 111:0.29899919 165:0.38668452 184:0.14833458 186:0.033587138 204:0.27857711 208:0.14719291 209:0.14719291 210:0.14776085 214:0.14949953 216:0.29899919 219:0.15252052 247:0.17787984 256:0.18085878 277:0.25605464 338:0.033587138 
0 0 0.3116216983924761 12:0.50845583 111:0.50845583 204:0.47372777 216:0.50845583 
0.9338567130247676 0 0 17:0.15758695 29:0.086585226 31:0.16266314 46:0.2525981 78:0.20896731 96:0.086585226 110:0.16266314 119:0.2525981 126:0.20896731 137:0.15758695 183:0.1600722 185:0.077936558 186:0.035820684 189:0.086585226 195:0.12457071 196:0.12973927 197:0.13209611 201:0.14114794 208:0.15698124 209:0.31396233 211:0.15758695 212:0.15758695 213:0.15881689 219:0.16266314 226:0.33786115 243:0.18668938 244:0.18767933 248:0.18970886 253:0.19180833 254:0.19180833 259:0.19398279 338:0.035820684 
1 0 0 5:0.22482767 29:0.12209359 53:0.30756515 55:0.31738683 64:0.23416803 92:0.22482767 96:0.12209359 109:0.23416803 135:0.30756515 184:0.22307574 186:0.050510647 189:0.12209359 194:0.17319684 197:0.18626836 202:0.20305701 215:0.22482767 218:0.22937084 223:0.23416803 236:0.25788313 243:0.26325018 338:0.050510647 
1 0 0 5:0.27433424 29:0.14897834 64:0.28573133 92:0.27433424 96:0.14897834 109:0.28573133 186:0.061632984 189:0.14897834 194:0.21133442 196:0.22322908 215:0.27433424 220:0.28102276 223:0.28573133 226:0.29066155 232:0.31001221 240:0.31789174 338:0.061632984 
1 0 0 4:0.18571815 29:0.20408349 69:0.082926213 90:0.18571815 96:0.20408349 184:0.093219548 185:0.091849184 186:0.12664517 187:0.082926213 189:0.20408349 191:0.12055329 193:0.14434789 196:0.15289931 199:0.16209157 201:0.16634457 204:0.35013892 210:0.18571815 220:0.19248472 226:0.19908675 242:0.22001572 243:0.22001572 253:0.22604845 262:0.23126872 263:0.23126872 338:0.12664517 340:0.37651201 
1 0 0 11:0.2679642 26:0.17056798 69:0.14013844 168:0.2679642 185:0.15521753 186:0.14267982 187:0.14013844 188:0.17056798 196:0.2583872 198:0.2679642 217:0.32135045 235:0.36240474 251:0.3820032 253:0.3820032 338:0.14267982 341:0.17056798 
1 0 0.2076701431280058 11:0.26348161 40:0.4178367 141:0.4178367 168:0.26348161 186:0.070146653 191:0.20031713 197:0.25868016 198:0.26348161 202:0.2819954 213:0.31100672 264:0.3865582 338:0.070146653 
1 0 0 26:0.13972211 38:0.38352227 45:0.2541556 53:0.35584039 69:0.11479551 107:0.2541556 135:0.35584039 166:0.38352227 183:0.26114582 184:0.12904467 187:0.11479551 188:0.13972211 207:0.2541556 236:0.2983603 341:0.13972211 
1 0 0 64:0.31748634 109:0.31748634 171:0.54805527 186:0.068482622 196:0.24803785 217:0.30847919 218:0.31098229 223:0.31748634 253:0.36670258 338:0.068482622 
1 0 0 45:0.55467673 107:0.55467673 185:0.27749084 207:0.55467673 
0 0 0.005663885952544579 195:0.5359322 263:0.84426102 
1 0 0.183461351826515 13:0.14367896 14:0.31853988 30:0.38957633 95:0.14367896 106:0.38957633 125:0.31853988 184:0.12057531 190:0.14367896 197:0.20136107 205:0.47495009 228:0.26447308 242:0.28458047 
1 0 0 181:0.86952903 184:0.18613475 186:0.042146162 194:0.28903143 201:0.16607287 235:0.2141009 244:0.22082112 338:0.042146162 
1 0 0 8:0.22238232 26:0.26968503 29:0.18176539 37:0.20970115 45:0.16351963 47:0.25399387 64:0.17430744 93:0.22238232 96:0.18176539 107:0.16351963 109:0.17430744 133:0.20970115 140:0.25399387 185:0.24541445 186:0.15039396 188:0.26968503 189:0.18176539 196:0.13617859 207:0.16351963 223:0.17430744 225:0.17579353 253:0.20132831 338:0.15039396 341:0.26968503 
1 0 0.2262991643511446 20:0.31616782 136:0.31616782 181:0.80343505 184:0.11465751 186:0.05192344 220:0.23675097 261:0.28280469 338:0.05192344 
0.6421219843926612 0 0 29:0.1239655 31:0.23288751 78:0.29918195 96:0.1239655 110:0.23288751 126:0.29918195 167:0.30769213 185:0.11158306 186:0.051285065 189:0.1239655 195:0.17834994 196:0.18574986 201:0.20208384 202:0.41234048 205:0.22304349 208:0.22475263 212:0.22561985 219:0.23288751 243:0.26728628 338:0.051285065 
1 0 0 45:0.37618918 52:0.16766576 69:0.25487239 105:0.16766576 107:0.37618918 186:0.043249158 187:0.25487239 192:0.27863578 200:0.16766576 207:0.37618918 209:0.18953592 235:0.43940833 242:0.22540493 338:0.043249158 
1 0 0 13:0.18396521 29:0.33798838 69:0.13733642 95:0.18396521 96:0.33798838 184:0.1543835 185:0.15211401 186:0.06991363 187:0.13733642 189:0.33798838 190:0.18396521 191:0.19965168 194:0.23972807 222:0.32412051 234:0.35515858 243:0.36437419 338:0.06991363 
1 0 0.434610317280926 69:0.10902607 76:0.42312252 139:0.42312252 187:0.10902607 202:0.22312157 209:0.24323181 251:0.29719402 259:0.30056322 351:0.5749381 
1 0 0 4:0.21272026 5:0.2152233 13:0.12723199 22:0.34919654 45:0.21029121 68:0.28801963 90:0.21272026 92:0.2152233 95:0.12723199 100:0.34919654 107:0.21029121 174:0.34498141 184:0.10677301 190:0.12723199 203:0.19842504 207:0.21029121 210:0.21272026 215:0.2152233 217:0.21780506 
1 0 0 10:0.31876766 26:0.11719619 45:0.21318079 53:0.29847201 98:0.31876766 107:0.21318079 135:0.29847201 184:0.10824017 186:0.098034415 188:0.11719619 191:0.13997824 197:0.3615229 207:0.21318079 225:0.22918228 238:0.25282235 260:0.26697621 263:0.26853343 338:0.098034415 341:0.11719619 
0.04098125514806551 0 0 186:0.18056129 254:0.96684809 338:0.18056129 
1 0 0 4:0.19585582 5:0.19816042 12:0.19816042 26:0.10644228 31:0.20216472 45:0.19361934 90:0.19585582 92:0.19816042 107:0.19361934 110:0.20216472 111:0.19816042 186:0.089038788 188:0.10644228 191:0.12713386 193:0.15222731 196:0.16124553 207:0.19361934 210:0.19585582 215:0.19816042 216:0.19816042 217:0.2005375 219:0.20216472 236:0.45459022 237:0.22845037 338:0.089038788 341:0.10644228 
1 0 0 4:0.19985367 90:0.19985367 186:0.045428222 191:0.12972894 196:0.1645369 204:0.18839448 209:0.19908549 210:0.19985367 221:0.20885099 228:0.22003303 232:0.22850271 242:0.23676172 260:0.24742802 262:0.49774244 263:0.49774244 338:0.045428222 
0 0 0.411485647033541 26:0.21339297 69:0.17532341 179:0.59698234 181:0.46034357 187:0.17532341 188:0.21339297 259:0.48333179 341:0.21339297 
0.4912197268937937 0 0 17:0.3094356 26:0.16816979 137:0.3094356 186:0.070337008 188:0.16816979 191:0.20086072 209:0.30824622 211:0.3094356 220:0.32070977 222:0.3260833 239:0.36278552 253:0.37663222 338:0.070337008 341:0.16816979 
1 0 0 7:0.31876117 29:0.14627505 89:0.31876117 96:0.14627505 167:0.36306619 181:0.31212344 186:0.060514623 189:0.14627505 194:0.20749965 205:0.52636739 217:0.27258743 245:0.31876117 338:0.060514623 
1 0 0 6:0.23874571 7:0.18426849 9:0.17021419 13:0.092049095 26:0.08363931 29:0.084558238 89:0.18426849 91:0.23874571 94:0.17021419 95:0.092049095 96:0.084558238 132:0.088413493 163:0.14539793 185:0.22833625 186:0.069964083 188:0.08363931 189:0.084558238 190:0.092049095 191:0.049949038 192:0.056343684 193:0.059807889 208:0.15330619 209:0.076653128 213:0.077549468 214:0.07785434 227:0.33887398 229:0.17021419 233:0.088413493 243:0.27347846 245:0.18426849 247:0.092633855 249:0.09314202 250:0.093659016 259:0.094720797 262:0.47910975 331:0.16058328 338:0.069964083 341:0.08363931 
1 0 0 183:0.2971442 191:0.37977523 209:0.2914064 218:0.3019538 220:0.30318905 250:0.3560564 333:0.61047731 
1 0 0 37:0.44471257 45:0.34677556 107:0.34677556 133:0.44471257 184:0.17607143 191:0.22769892 207:0.34677556 232:0.40106564 
1 0 0.3198358226275861 18:0.24553288 69:0.097750072 101:0.24553288 182:0.24553288 184:0.10988344 187:0.097750072 195:0.17305146 225:0.23266166 231:0.25029883 236:0.2540582 237:0.25534948 242:0.25934565 252:0.26645679 278:0.40559161 334:0.4568541 
1 0 0 5:0.57735027 92:0.57735027 215:0.57735027 
1 0 0 11:0.25707019 13:0.18008693 14:0.39925727 26:0.16363358 52:0.26532311 69:0.13444115 95:0.18008693 105:0.26532311 125:0.39925727 168:0.25707019 186:0.068439741 187:0.13444115 188:0.16363358 190:0.18008693 192:0.22046395 198:0.25707019 200:0.26532311 338:0.068439741 341:0.16363358 
1 0 0 13:0.23865493 69:0.1781642 95:0.23865493 186:0.18139517 187:0.1781642 190:0.23865493 192:0.2921634 222:0.42047603 239:0.4678026 240:0.4678026 338:0.18139517 
1 0 0 4:0.36566502 69:0.16327545 90:0.36566502 167:0.49868063 175:0.51396749 185:0.18084411 187:0.16327545 210:0.36566502 
1 0 0 4:0.17607675 25:0.22322621 29:0.096744336 31:0.18174853 69:0.15724234 90:0.17607675 96:0.096744336 103:0.22322621 110:0.18174853 132:0.40462076 184:0.088380135 186:0.040023551 187:0.15724234 189:0.096744336 194:0.13723746 195:0.2783732 210:0.17607675 212:0.17607675 213:0.177451 219:0.18174853 231:0.20131736 233:0.40462076 251:0.21431334 258:0.21674294 338:0.040023551 
0.4832685456289368 0 0 13:0.16534619 26:0.15023961 69:0.12343668 95:0.16534619 184:0.13875843 186:0.12567517 187:0.12343668 188:0.15023961 190:0.16534619 191:0.35889034 192:0.20241821 203:0.25786616 213:0.27860132 241:0.32578751 252:0.33647588 258:0.3402904 264:0.3462807 338:0.12567517 341:0.15023961 
0 0 0.3209157236544971 183:0.70140748 218:0.71276052 
1 0 0 184:0.19398176 186:0.087845973 191:0.50172215 196:0.31817015 221:0.40386169 243:0.45783354 252:0.47038714 338:0.087845973 
1 0 1 3:0.25077858 13:0.092489208 26:0.084039082 69:0.34523204 95:0.092489208 142:0.2538427 175:0.2173481 185:0.076475895 186:0.10544789 187:0.34523204 188:0.084039082 190:0.092489208 191:0.10037564 192:0.22645215 193:0.12018761 203:0.14424183 213:0.15584039 214:0.15645305 224:0.1643421 227:0.17024695 239:0.18129393 247:0.18615339 250:0.18821351 258:0.38069459 267:0.25077858 338:0.10544789 341:0.084039082 
1 0 0 29:0.24797023 96:0.24797023 132:0.51855182 185:0.22320143 186:0.10258636 189:0.24797023 213:0.45483349 233:0.51855182 338:0.10258636 
1 0 0 8:0.39167135 29:0.16006734 31:0.30071015 69:0.13008184 93:0.39167135 96:0.16006734 110:0.30071015 184:0.14622844 187:0.13008184 189:0.16006734 194:0.22706481 196:0.23984485 212:0.29132597 219:0.30071015 225:0.30961673 
1 0 0 4:0.23234611 13:0.13897058 40:0.3145927 69:0.10374637 77:0.40263235 90:0.23234611 95:0.13897058 141:0.3145927 167:0.31686516 187:0.10374637 190:0.13897058 193:0.18058908 203:0.21673199 210:0.23234611 225:0.24693385 242:0.27525472 257:0.28600812 
0.3571155954804835 0 0 29:0.27128326 31:0.50964569 96:0.27128326 110:0.50964569 189:0.27128326 219:0.50964569 
1 0 0 29:0.15229254 96:0.15229254 181:0.32496363 184:0.13912582 189:0.15229254 191:0.17992016 193:0.21543248 204:0.52256598 209:0.27611028 212:0.27717566 226:0.29712767 227:0.30516227 262:0.34515776 
1 0 0 17:0.17646874 18:0.39584744 26:0.095905934 28:0.29337301 69:0.078796199 101:0.39584744 137:0.17646874 182:0.39584744 186:0.08022515 187:0.078796199 188:0.095905934 195:0.13949654 211:0.17646874 242:0.20905817 249:0.21360482 259:0.43445108 338:0.08022515 341:0.095905934 
1 0 0.6371176229146744 4:0.45585115 90:0.45585115 202:0.4165544 205:0.45064578 210:0.45585115 
0.6599568970958391 0 0 29:0.4407969 96:0.4407969 186:0.091179796 189:0.4407969 214:0.40584989 249:0.48554363 338:0.091179796 
1 0 0 20:0.43348547 37:0.3970543 133:0.3970543 136:0.43348547 186:0.071190221 193:0.24342367 209:0.31198536 248:0.37702841 338:0.071190221 
1 0 0 18:0.37463418 26:0.18153277 69:0.29829421 101:0.37463418 182:0.37463418 187:0.29829421 188:0.18153277 235:0.38570157 240:0.39161292 341:0.18153277 
1 0 0 26:0.17912643 31:0.34021297 69:0.14717006 110:0.34021297 147:0.42573312 185:0.3260118 186:0.074919624 187:0.14717006 188:0.17912643 199:0.28766568 219:0.34021297 227:0.36287556 338:0.074919624 341:0.17912643 
1 0 0 18:0.26455269 23:0.26837666 26:0.12819167 69:0.10532212 101:0.26455269 104:0.26837666 182:0.26455269 186:0.053616163 187:0.10532212 188:0.12819167 193:0.36666394 196:0.19419289 202:0.21554145 204:0.22235053 230:0.26837666 279:0.47819674 338:0.053616163 341:0.12819167 
1 0 0 11:0.14428493 13:0.10107679 22:0.55482395 69:0.07545734 95:0.10107679 100:0.55482395 168:0.14428493 184:0.08482359 186:0.11523869 187:0.07545734 190:0.10107679 194:0.13171482 196:0.13912821 197:0.14165561 198:0.14428493 218:0.17443471 228:0.18605432 241:0.19915522 252:0.20568906 253:0.20568906 338:0.11523869 
0 0 1 1:0.43072603 17:0.2965507 26:0.32233465 137:0.2965507 188:0.32233465 194:0.23113707 211:0.2965507 265:0.43072603 341:0.32233465 
1 0 0 13:0.17711376 72:0.58505344 95:0.17711376 144:0.58505344 186:0.067309826 190:0.17711376 194:0.23079984 197:0.24821878 222:0.31204924 338:0.067309826 
1 0 0 20:0.33188102 29:0.13174621 37:0.30398894 96:0.13174621 133:0.30398894 136:0.33188102 142:0.39361867 186:0.05450398 189:0.13174621 201:0.42953532 202:0.21911055 217:0.24551256 263:0.29859131 338:0.05450398 
1 0 0 186:0.12673894 199:0.48663411 203:0.52009667 250:0.67864658 338:0.12673894 
1 0 0 9:0.23059111 13:0.24940002 26:0.22661435 29:0.11455206 94:0.23059111 95:0.24940002 96:0.11455206 176:0.35608906 186:0.047390683 188:0.22661435 189:0.11455206 190:0.24940002 191:0.13533312 203:0.38895286 206:0.20610647 228:0.22953827 229:0.23059111 251:0.25376198 338:0.047390683 341:0.22661435 
1 0 0 5:0.40753292 11:0.3439056 29:0.22131243 92:0.40753292 96:0.22131243 168:0.3439056 189:0.22131243 198:0.3439056 215:0.40753292 
1 0 0.5701772354148134 5:0.41247758 29:0.22399764 55:0.58229023 92:0.41247758 96:0.22399764 189:0.22399764 215:0.41247758 
1 0 0 29:0.12097837 64:0.23202911 67:0.32259509 96:0.12097837 109:0.23202911 167:0.30027785 183:0.22365564 184:0.11051898 186:0.10009836 189:0.12097837 213:0.2219017 223:0.23202911 224:0.23400732 225:0.23400732 226:0.47206544 234:0.25424843 253:0.26799791 338:0.10009836 
1 0 0 5:0.17459691 11:0.14733743 13:0.10321518 23:0.19634451 64:0.36370092 92:0.17459691 95:0.10321518 104:0.19634451 109:0.36370092 167:0.23533971 168:0.14733743 184:0.086618124 186:0.078451072 190:0.10321518 196:0.14207162 198:0.14733743 203:0.16096955 205:0.17059582 215:0.17459691 223:0.36370092 224:0.18340085 226:0.18498824 230:0.19634451 231:0.19730376 243:0.20443511 338:0.078451072 
1 0 0.3393262167590257 11:0.1845673 26:0.11748312 27:0.36921306 69:0.096523991 102:0.36921306 168:0.1845673 186:0.049137312 187:0.096523991 188:0.11748312 198:0.1845673 208:0.21534028 234:0.24961568 263:0.26919088 337:0.34650348 338:0.049137312 341:0.11748312 352:0.50900962 
1 0 0 13:0.092714728 29:0.34067856 64:0.32670031 95:0.092714728 96:0.34067856 109:0.32670031 184:0.15561244 186:0.035235049 189:0.34067856 190:0.092714728 192:0.11350216 203:0.14459354 223:0.32670031 226:0.33233744 243:0.36727452 338:0.035235049 
1 0 0 13:0.066688492 29:0.30630704 64:0.35248679 95:0.066688492 96:0.30630704 109:0.35248679 176:0.19043322 184:0.11192999 186:0.02534411 189:0.30630704 190:0.066688492 192:0.081640618 201:0.19973203 202:0.10188544 203:0.10400424 223:0.35248679 226:0.35856897 231:0.12748018 243:0.26417576 338:0.02534411 
0.05582225791405262 0 0.7040641050649003 11:0.23374671 168:0.23374671 186:0.062230337 198:0.23374671 203:0.25537369 209:0.2727194 213:0.27590843 214:0.27699311 226:0.29347867 249:0.3313842 261:0.33894193 277:0.47441871 338:0.062230337 
1 0 0 8:0.24278392 29:0.19844074 52:0.15913205 64:0.38059719 93:0.24278392 96:0.19844074 105:0.15913205 109:0.38059719 184:0.0906421 186:0.041047898 189:0.19844074 194:0.14074986 196:0.14867177 200:0.15913205 202:0.16501597 209:0.17988908 223:0.38059719 232:0.2064698 254:0.21979839 257:0.22229017 338:0.041047898 
0.7374357259453925 0 0 132:0.32275199 184:0.14099556 186:0.063850806 196:0.23126184 212:0.84270201 233:0.32275199 338:0.063850806 
1 0 0 32:0.40603915 64:0.26996862 69:0.11439117 108:0.40603915 109:0.26996862 132:0.29435483 186:0.058232927 187:0.11439117 199:0.22359449 203:0.23896958 206:0.25326039 223:0.26996862 225:0.27227028 233:0.29435483 338:0.058232927 
1 0 0 9:0.42985692 29:0.21354238 94:0.42985692 96:0.21354238 186:0.088343236 189:0.21354238 192:0.14228968 196:0.47995774 224:0.2065265 229:0.42985692 338:0.088343236 
1 0 0 5:0.22048375 13:0.13034177 18:0.24441407 45:0.2154311 55:0.31125457 69:0.19460932 92:0.22048375 95:0.13034177 101:0.24441407 107:0.2154311 175:0.30630098 182:0.24441407 185:0.10777477 186:0.099069257 187:0.19460932 190:0.13034177 207:0.2154311 208:0.21708191 215:0.22048375 249:0.26377851 254:0.26524264 338:0.099069257 
0.1430631633711527 0 0 17:0.31056293 137:0.31056293 186:0.070593259 191:0.20159249 206:0.30701661 211:0.31056293 227:0.34192068 324:0.66998261 338:0.070593259 
1 0 0 29:0.57735027 96:0.57735027 189:0.57735027 
1 0 0 184:0.17152166 186:0.077674762 199:0.29824447 204:0.64424694 224:0.36317132 228:0.37622016 262:0.42552871 338:0.077674762 
1 0 0 9:0.35400015 13:0.1914378 94:0.35400015 95:0.1914378 190:0.1914378 205:0.31641167 222:0.33728616 229:0.35400015 246:0.38530761 251:0.38957173 
1 0 0 254:1 
1 0 0 13:0.095767819 18:0.17958175 22:0.26284107 69:0.071494006 95:0.095767819 100:0.26284107 101:0.17958175 182:0.17958175 183:0.16264016 186:0.10918587 187:0.071494006 190:0.095767819 191:0.10393382 196:0.26364123 197:0.26843068 202:0.14631229 203:0.29870999 205:0.15828669 218:0.33054534 221:0.16732335 226:0.17164065 236:0.18581713 237:0.18676158 248:0.19275226 252:0.19488542 254:0.19488542 262:0.19938602 338:0.10918587 
1 0 0 11:0.19284651 69:0.10085381 73:0.44625746 145:0.44625746 168:0.19284651 183:0.22943013 184:0.22674506 185:0.11170581 186:0.15402425 187:0.10085381 191:0.14661538 198:0.19284651 227:0.2486741 236:0.26212498 250:0.27491726 260:0.27963502 338:0.15402425 
0.5094517094275524 0 0 32:0.49030971 68:0.41886187 108:0.49030971 186:0.070318759 213:0.31176978 214:0.31299545 247:0.37241309 338:0.070318759 
1 0 0.2067546232630234 26:0.19079919 69:0.15676039 184:0.17621849 187:0.15676039 188:0.19079919 195:0.55503996 196:0.28903473 212:0.35107414 221:0.36687934 232:0.40140064 341:0.19079919 
1 0 0 4:0.12792175 8:0.17198359 13:0.076512406 23:0.14554826 25:0.32435274 31:0.13204237 39:0.21549002 78:0.16962993 90:0.12792175 93:0.17198359 95:0.076512406 103:0.32435274 104:0.14554826 110:0.13204237 112:0.21549002 126:0.16962993 164:0.15570107 167:0.34891017 178:0.20274834 180:0.15570107 184:0.064209169 185:0.06326527 190:0.076512406 195:0.1011207 205:0.12646101 208:0.12743006 210:0.12792175 212:0.12792175 219:0.13204237 230:0.14554826 248:0.15399682 253:0.15570107 329:0.26695762 
1 0 0 7:0.15411275 11:0.32968431 31:0.26571666 37:0.32635709 89:0.15411275 110:0.26571666 132:0.14788906 133:0.32635709 147:0.16625524 168:0.32968431 185:0.063656221 191:0.083549649 198:0.32968431 219:0.26571666 231:0.14716316 233:0.14788906 244:0.1532908 245:0.15411275 249:0.15579846 264:0.16122836 
1 0 0 9:0.40167392 94:0.40167392 184:0.1822901 186:0.082551322 191:0.23574102 201:0.3252855 202:0.3318632 229:0.40167392 256:0.4445193 338:0.082551322 
1 0 0 9:0.23572228 12:0.21563431 27:0.36401284 29:0.1171011 94:0.23572228 96:0.1171011 102:0.36401284 111:0.21563431 184:0.21395403 189:0.1171011 192:0.15605593 193:0.16565079 195:0.16847408 201:0.3817875 216:0.21563431 226:0.22846803 229:0.23572228 243:0.25248571 
0.2374633359753985 0 0.02836566436806584 185:0.37096637 260:0.9286463 
1 0 0 45:0.29818341 53:0.41748323 107:0.29818341 135:0.41748323 186:0.068562214 191:0.19579246 196:0.24832613 205:0.29818341 207:0.29818341 212:0.3016277 217:0.30883772 338:0.068562214 
0.6617505258729224 0 0 185:0.2636432 202:0.48712934 204:0.50251804 262:0.66383197 
1 0 0 7:0.37896838 31:0.32670304 89:0.37896838 110:0.32670304 219:0.32670304 222:0.33353588 239:0.37107693 245:0.37896838 
1 0 0 7:0.28421257 29:0.13042118 45:0.2346588 52:0.20917267 69:0.10598931 89:0.28421257 96:0.13042118 105:0.20917267 107:0.2346588 186:0.053955809 187:0.10598931 189:0.13042118 191:0.15408109 193:0.18449333 199:0.20717182 200:0.20917267 206:0.2346588 207:0.2346588 212:0.23736932 245:0.28421257 256:0.29053924 257:0.29219148 338:0.053955809 
1 0 0 17:0.35203271 40:0.47664633 137:0.35203271 141:0.47664633 211:0.35203271 225:0.18706746 247:0.21189483 253:0.21423983 262:0.21918739 
0.9683131837107462 0 0 142:0.88296075 199:0.46944682 
0.7574895223585806 0 0 7:0.31551021 12:0.26660922 31:0.27199669 89:0.31551021 110:0.27199669 111:0.26660922 191:0.17104858 192:0.1929468 216:0.26660922 219:0.27199669 237:0.30736196 245:0.31551021 259:0.32436776 
1 0 0 7:0.3002704 12:0.25373143 31:0.25885868 89:0.3002704 110:0.25885868 111:0.25373143 186:0.057004278 192:0.36725412 216:0.25373143 219:0.25885868 245:0.3002704 259:0.30870011 264:0.31413432 338:0.057004278 
1 0 0 7:0.28421257 29:0.13042118 45:0.2346588 52:0.20917267 69:0.10598931 89:0.28421257 96:0.13042118 105:0.20917267 107:0.2346588 186:0.053955809 187:0.10598931 189:0.13042118 191:0.15408109 193:0.18449333 199:0.20717182 200:0.20917267 206:0.2346588 207:0.2346588 212:0.23736932 245:0.28421257 256:0.29053924 257:0.29219148 338:0.053955809 
1 0 0 4:0.28689034 13:0.17159451 21:0.44506056 90:0.28689034 95:0.17159451 99:0.44506056 167:0.3912506 190:0.17159451 210:0.28689034 242:0.33987193 
1 0 0 14:0.29844183 18:0.2524246 30:0.3649963 52:0.19832705 101:0.2524246 105:0.19832705 106:0.3649963 125:0.29844183 182:0.2524246 186:0.051158196 197:0.18865633 200:0.19832705 214:0.22770997 252:0.27393581 263:0.28026197 338:0.051158196 
1 0 0 11:0.41423937 18:0.27207865 52:0.21376901 101:0.27207865 105:0.21376901 168:0.41423937 182:0.27207865 186:0.055141428 191:0.15746685 195:0.1917609 198:0.41423937 200:0.21376901 208:0.24165283 338:0.055141428 
1 0 0 12:0.3771969 13:0.22298447 27:0.31837339 95:0.22298447 102:0.31837339 111:0.3771969 190:0.22298447 203:0.17387819 216:0.3771969 239:0.43708627 
0.3456596693858183 0 0 237:0.68573916 261:0.72784738 
1 0 0 26:0.31340608 186:0.13108208 188:0.31340608 192:0.42225283 254:0.70190271 338:0.13108208 341:0.31340608 
1 0 0 11:0.20723794 29:0.13336314 45:0.23995209 54:0.34668247 96:0.13336314 107:0.23995209 138:0.34668247 168:0.20723794 181:0.28457186 184:0.121833 186:0.055172911 189:0.13336314 194:0.18918336 195:0.19187039 198:0.20723794 207:0.23995209 221:0.25365108 235:0.28027629 252:0.29543333 338:0.055172911 
0 0 0.1773671052023215 29:0.16635658 69:0.27038583 96:0.16635658 186:0.068822438 187:0.27038583 189:0.16635658 195:0.47867623 197:0.25379685 208:0.30160875 338:0.068822438 340:0.61381985 
1 0 0 26:0.26132577 69:0.21470494 187:0.21470494 188:0.26132577 192:0.35208489 224:0.51103397 240:0.56374695 341:0.26132577 
1 0 0 8:0.32251393 26:0.26074375 64:0.25279247 93:0.32251393 109:0.25279247 184:0.24081797 186:0.054527988 188:0.26074375 197:0.20108313 208:0.23896448 217:0.2456207 223:0.25279247 254:0.29197997 263:0.29872283 338:0.054527988 341:0.26074375 
1 0 0.2623984822217428 29:0.18499783 55:0.48090876 96:0.18499783 176:0.57507219 189:0.18499783 195:0.26615754 202:0.3076747 255:0.41211963 
0.5197583001499246 0 0 5:0.27825988 12:0.27825988 29:0.15111017 69:0.12280263 92:0.27825988 96:0.15111017 111:0.27825988 184:0.13804568 187:0.12280263 189:0.15111017 199:0.4800721 205:0.27188323 215:0.27825988 216:0.27825988 256:0.3366281 
1 0 0 17:0.20243639 54:0.57827999 137:0.20243639 138:0.57827999 194:0.15778264 202:0.18498532 211:0.20243639 218:0.20895726 221:0.21154998 251:0.2463972 
0.8845386504424464 0 0 37:0.44027123 133:0.44027123 184:0.174313 191:0.2254249 206:0.34331232 250:0.4226923 285:0.48434383 
1 0 0.8472774751427289 26:0.2011807 28:0.61540496 69:0.16528982 187:0.16528982 188:0.2011807 197:0.31029758 206:0.36594926 264:0.4636926 341:0.2011807 
1 0 0 46:0.57001574 119:0.57001574 184:0.17849649 186:0.080833361 191:0.23083506 208:0.35424564 212:0.35561251 338:0.080833361 
0 0.03294821137375135 0 179:0.68909827 214:0.45856671 260:0.561124 
1 0 0 8:0.35916392 45:0.26409632 64:0.28151943 69:0.11928548 93:0.35916392 107:0.26409632 109:0.28151943 187:0.11928548 197:0.22393392 207:0.26409632 223:0.28151943 254:0.32516013 263:0.33266924 
1 0 0 5:0.21952374 29:0.11921327 31:0.22395974 74:0.42867854 92:0.21952374 96:0.11921327 110:0.22395974 146:0.42867854 186:0.049319047 189:0.11921327 195:0.17151287 213:0.2186641 215:0.21952374 219:0.22395974 224:0.46118618 338:0.049319047 
1 0 0 5:0.34338031 55:0.48474635 92:0.34338031 184:0.17035214 197:0.28448851 215:0.34338031 218:0.35031913 263:0.42262726 
1 0 0 5:0.40009935 8:0.26582746 29:0.10863775 40:0.26771362 64:0.20836055 92:0.40009935 93:0.26582746 96:0.10863775 109:0.20836055 141:0.26771362 186:0.044943908 189:0.10863775 194:0.15410895 215:0.40009935 218:0.20409207 223:0.20836055 338:0.044943908 
1 0 0 26:0.11959631 29:0.24182078 40:0.29795681 69:0.098260183 96:0.24182078 141:0.29795681 185:0.10883311 187:0.098260183 188:0.11959631 189:0.24182078 194:0.3430368 201:0.39420702 202:0.2010892 208:0.21921364 209:0.21921364 212:0.22005948 218:0.22714803 232:0.25160502 341:0.11959631 
1 0 0 32:0.31971525 52:0.17775867 69:0.18014323 105:0.17775867 108:0.31971525 184:0.10125188 185:0.2992905 186:0.09170504 187:0.18014323 191:0.13094086 196:0.166074 199:0.17605831 200:0.17775867 201:0.18067777 220:0.41814044 243:0.23897354 246:0.24283864 247:0.24283864 256:0.24690543 338:0.09170504 
1 0 0 132:0.20796346 186:0.082283666 214:0.18312655 220:0.18759134 224:0.19236059 233:0.20796346 258:0.89119737 338:0.082283666 
1 0 0 5:0.18977908 13:0.11219031 23:0.21341775 40:0.25396926 92:0.18977908 95:0.11219031 104:0.21341775 132:0.21551825 141:0.25396926 186:0.17054565 190:0.11219031 194:0.14619703 196:0.15442553 208:0.18685099 209:0.18685099 215:0.18977908 218:0.19361402 222:0.19766336 224:0.19934857 230:0.21341775 233:0.21551825 239:0.21991132 252:0.22830483 277:0.32504327 338:0.17054565 
1 0 0 4:0.14254249 10:0.42141771 26:0.15493602 29:0.078319135 53:0.19729322 69:0.19094271 90:0.14254249 96:0.078319135 98:0.42141771 135:0.19729322 164:0.17349683 167:0.19439426 180:0.17349683 183:0.14479048 185:0.070496135 186:0.064801805 187:0.19094271 188:0.15493602 189:0.078319135 193:0.11078997 199:0.24881734 210:0.14254249 212:0.14254249 221:0.29791938 235:0.16459567 338:0.064801805 341:0.15493602 
1 0 0 4:0.30188256 40:0.40874388 45:0.29843536 90:0.30188256 107:0.29843536 141:0.40874388 181:0.35393026 207:0.29843536 210:0.30188256 
1 0 0 226:1 
0 0 0.2125539108535602 236:0.52335455 327:0.85211502 
1 0 0 18:0.49075899 101:0.49075899 182:0.49075899 246:0.52675121 
0 0 0.1406331989276682 11:0.30602774 69:0.32008941 168:0.30602774 187:0.32008941 194:0.27936659 198:0.30602774 247:0.43149043 285:0.49989691 
0.8101950914307257 0 0 164:0.27793919 180:0.27793919 184:0.11461864 186:0.051905837 191:0.148227 192:0.16720353 244:0.27195608 255:0.83850187 338:0.051905837 
0.8853302624999547 0 0 11:0.14710262 12:0.17431865 29:0.18932892 63:0.22544 64:0.18156064 69:0.076930919 96:0.18932892 109:0.18156064 111:0.17431865 164:0.41941178 165:0.22544 168:0.14710262 180:0.41941178 184:0.17296031 185:0.085208789 187:0.076930919 189:0.18932892 197:0.14442195 198:0.14710262 205:0.17032394 216:0.17431865 223:0.18156064 242:0.2041093 249:0.20854832 
0.3465318290711136 0 0 55:0.58050342 186:0.092384434 218:0.41952137 236:0.4716706 255:0.49746827 338:0.092384434 
0.6079472061770807 0 0 17:0.28623036 29:0.15726759 62:0.48887177 96:0.15726759 137:0.28623036 184:0.14367075 189:0.15726759 203:0.26699511 211:0.28623036 228:0.31513123 255:0.35034497 263:0.35643328 
0.5368058665083694 0.02386291139240809 0 179:0.79421278 181:0.3062158 185:0.25834453 192:0.1912453 220:0.27070099 247:0.3144237 
1 0 0 8:0.4405245 11:0.27975923 29:0.18003253 69:0.14630695 93:0.4405245 96:0.18003253 167:0.44685492 168:0.27975923 185:0.16204977 186:0.07448024 187:0.14630695 189:0.18003253 198:0.27975923 338:0.07448024 
1 0 0 13:0.1678185 29:0.15416149 64:0.29567231 69:0.12528234 95:0.1678185 96:0.15416149 109:0.29567231 132:0.32238032 186:0.12755431 187:0.12528234 189:0.15416149 190:0.1678185 195:0.2217931 208:0.27949874 222:0.29567231 223:0.29567231 228:0.30890726 233:0.32238032 338:0.12755431 
1 0 0.2227162020108129 31:0.4515831 110:0.4515831 195:0.34583142 219:0.4515831 243:0.51828442 
1 0 0 7:0.25446181 31:0.43873553 89:0.25446181 110:0.43873553 186:0.096615471 195:0.33599231 208:0.21170514 219:0.43873553 226:0.22782004 245:0.25446181 338:0.096615471 
1 0 0 13:0.3177418 95:0.3177418 186:0.12075372 190:0.3177418 208:0.52919335 239:0.62282576 338:0.12075372 
0 0 0.239956505360289 12:0.40414452 31:0.41231122 110:0.41231122 111:0.40414452 216:0.40414452 219:0.41231122 
0.4281638887616947 0 0 183:0.39131895 186:0.087568687 196:0.31716585 218:0.39765287 222:0.40596959 238:0.45166339 239:0.45166339 338:0.087568687 
1 0 0 4:0.26286153 7:0.31473549 55:0.37544525 69:0.35211601 89:0.31473549 90:0.26286153 186:0.11950052 187:0.35211601 210:0.26286153 225:0.27936517 245:0.31473549 338:0.11950052 
1 0 0 4:0.35736978 90:0.35736978 185:0.1767416 186:0.081232803 191:0.23197574 202:0.32656264 203:0.33335382 210:0.35736978 217:0.36591224 231:0.40859877 338:0.081232803 
1 0 0 26:0.36146213 188:0.36146213 240:0.77976623 341:0.36146213 
0.1767272950173488 0 0 23:0.3169146 104:0.3169146 186:0.12662585 192:0.20394942 196:0.22931413 205:0.27535431 213:0.28070882 214:0.28181237 230:0.3169146 240:0.32655722 244:0.33172318 264:0.34890016 338:0.12662585 
1 0 0 13:0.10568954 25:0.22402048 26:0.19206693 29:0.097088567 31:0.18239522 50:0.34108011 69:0.23670275 95:0.10568954 96:0.097088567 103:0.22402048 110:0.18239522 123:0.34108011 147:0.22824434 186:0.080331766 187:0.23670275 188:0.19206693 189:0.097088567 190:0.10568954 208:0.17602406 217:0.18092712 219:0.18239522 221:0.18465836 224:0.18779749 235:0.20404156 240:0.20716874 338:0.080331766 341:0.19206693 
1 0 0 25:0.37157172 26:0.15928584 31:0.30252995 52:0.25827348 103:0.37157172 105:0.25827348 110:0.30252995 186:0.066621298 188:0.15928584 193:0.22780097 200:0.25827348 219:0.30252995 231:0.3351033 338:0.066621298 341:0.15928584 
0.7206224169185622 0 0 183:0.60499107 184:0.14947755 193:0.23146184 201:0.26673352 220:0.30864925 244:0.35466596 249:0.36046788 261:0.36868891 
1 0 0 26:0.14593322 162:0.50737877 186:0.12207289 188:0.14593322 191:0.17430153 197:0.22508484 204:0.50624706 234:0.31006343 244:0.31979573 264:0.3363551 338:0.12207289 341:0.14593322 
1 0 0 18:0.2936324 53:0.36236123 101:0.2936324 135:0.36236123 182:0.2936324 184:0.13140944 206:0.25881305 236:0.30382781 237:0.30537206 259:0.32226777 261:0.32412362 
1 0 0 18:0.55476121 101:0.55476121 182:0.55476121 186:0.028107975 254:0.15050923 278:0.22910011 338:0.028107975 
1 0 0 5:0.24131834 17:0.23851182 26:0.12962465 29:0.13104892 54:0.34066655 69:0.10649946 92:0.24131834 96:0.13104892 137:0.23851182 138:0.34066655 185:0.11795894 186:0.054215505 187:0.10649946 188:0.12962465 189:0.13104892 199:0.20816896 205:0.23578825 208:0.23759505 211:0.23851182 215:0.24131834 218:0.24619475 221:0.24924951 338:0.054215505 341:0.12962465 
1 0 0 4:0.19993868 23:0.22748849 25:0.25347783 31:0.2063791 90:0.19993868 103:0.25347783 104:0.22748849 110:0.2063791 132:0.22972749 167:0.27266908 184:0.10035741 185:0.098882121 195:0.15804926 203:0.1865024 210:0.19993868 219:0.2063791 230:0.22748849 231:0.4571998 233:0.22972749 
0.6460120818261224 0 0 13:0.15914975 95:0.15914975 184:0.13355838 190:0.15914975 214:0.53842985 220:0.27577851 258:0.65507589 264:0.33330364 
0.3221648617581557 0 0 13:0.074252218 29:0.47746721 64:0.13082184 95:0.074252218 96:0.47746721 109:0.13082184 185:0.061396405 189:0.47746721 190:0.074252218 202:0.22688232 203:0.11580027 223:0.13082184 226:0.39923742 231:0.14193882 
1 0 0 29:0.076576762 78:0.18481259 96:0.076576762 126:0.18481259 184:0.069956184 185:0.068927801 186:0.031680139 189:0.076576762 204:0.65690038 258:0.68624072 338:0.031680139 
1 0 0 9:0.38580178 94:0.38580178 132:0.40079028 185:0.34502644 186:0.23786762 229:0.38580178 233:0.40079028 338:0.23786762 
0.6076909550361704 0 0 186:0.18056129 254:0.96684809 338:0.18056129 
1 0 0 26:0.17942942 29:0.18140092 52:0.29093521 96:0.18140092 105:0.29093521 186:0.075046348 188:0.17942942 189:0.18140092 191:0.21430914 192:0.24174572 200:0.29093521 217:0.33804542 238:0.38707544 264:0.41355902 338:0.075046348 341:0.17942942 
1 0 0 4:0.23469581 5:0.23745744 26:0.12755076 40:0.31777416 69:0.2095911 90:0.23469581 92:0.23745744 141:0.31777416 147:0.30315226 184:0.11780345 186:0.10669599 187:0.2095911 188:0.12755076 191:0.15234566 192:0.17184947 193:0.18241537 208:0.23379371 210:0.23469581 215:0.23745744 217:0.24030591 338:0.10669599 341:0.12755076 
1 0 0 12:0.2126996 26:0.11425203 43:0.38242285 63:0.27507669 67:0.30800643 111:0.2126996 121:0.38242285 165:0.27507669 186:0.047785909 188:0.11425203 197:0.17622033 199:0.18348151 206:0.20782534 216:0.2126996 218:0.2169977 241:0.24775015 254:0.25587829 338:0.047785909 341:0.11425203 
1 0.5031894550211614 0 18:0.25303335 101:0.25303335 178:0.35756962 179:0.6860198 181:0.26450103 182:0.25303335 183:0.2291624 184:0.11324013 185:0.11157546 228:0.24838391 
1 0 0 29:0.21565976 69:0.1752601 78:0.52047954 96:0.21565976 126:0.52047954 186:0.089219377 187:0.1752601 189:0.21565976 196:0.3231445 204:0.36999992 338:0.089219377 
1 0 0 29:0.16828562 69:0.068380296 96:0.16828562 184:0.076868098 186:0.069620356 187:0.068380296 189:0.16828562 192:0.11213375 196:0.12607956 204:0.14436088 212:0.30628341 243:0.18142321 258:0.75404368 262:0.38140469 338:0.069620356 
1 0 0 186:0.098933665 203:0.40599258 241:0.51293009 244:0.51835427 256:0.53273433 338:0.098933665 
1 0 0 17:0.29036596 18:0.32566851 26:0.15780596 69:0.12965319 101:0.32566851 137:0.29036596 182:0.32566851 184:0.14574657 186:0.066002337 187:0.12965319 188:0.15780596 195:0.22953101 211:0.29036596 242:0.34398941 244:0.34581346 338:0.066002337 341:0.15780596 
1 0 0 26:0.16172302 67:0.43598114 186:0.067640648 188:0.16172302 191:0.19316075 194:0.2319342 195:0.23522843 196:0.4899766 206:0.29417544 234:0.34361192 253:0.36219408 338:0.067640648 341:0.16172302 
1 0 0 26:0.26159256 69:0.21492396 170:0.43779917 187:0.21492396 188:0.26159256 240:0.28216101 246:0.28972414 255:0.58915224 341:0.26159256 
1 0 0 10:0.44404181 18:0.33691122 98:0.44404181 101:0.33691122 182:0.33691122 185:0.14856154 227:0.33072054 251:0.36562225 
1 0 0 26:0.31675093 188:0.31675093 208:0.58058751 218:0.60160176 341:0.31675093 
1 0 0 18:0.17449302 26:0.16910484 29:0.17096277 69:0.069468111 96:0.17096277 101:0.17449302 182:0.17449302 187:0.069468111 188:0.16910484 189:0.17096277 192:0.45567042 197:0.13041207 209:0.15497994 224:0.33069165 227:0.51386037 240:0.18240119 244:0.18528668 251:0.18936303 341:0.16910484 
1 0 0 4:0.21612942 17:0.21612942 63:0.56560245 90:0.21612942 137:0.21612942 165:0.56560245 186:0.04912782 194:0.16845524 210:0.21612942 211:0.21612942 212:0.21612942 338:0.04912782 
1 0 0 7:0.21406223 11:0.15264351 29:0.098230171 31:0.18453989 52:0.31508788 89:0.21406223 96:0.098230171 105:0.31508788 110:0.18453989 168:0.15264351 184:0.08973751 186:0.040638248 189:0.098230171 198:0.15264351 200:0.31508788 203:0.33353312 219:0.18453989 245:0.21406223 252:0.21760485 257:0.44014368 338:0.040638248 
0.9633082166260143 0 0 69:0.24412589 187:0.24412589 249:0.66178911 251:0.66546245 
1 0 0 26:0.17759419 63:0.42758122 164:0.39773908 165:0.42758122 180:0.39773908 188:0.17759419 197:0.27391817 241:0.38510465 341:0.17759419 
1 0 0 5:0.213659 13:0.12630723 17:0.21117415 21:0.32760003 69:0.094292737 92:0.213659 95:0.12630723 99:0.32760003 137:0.21117415 164:0.25703245 180:0.25703245 187:0.094292737 190:0.12630723 194:0.16459301 211:0.21117415 212:0.4223483 215:0.213659 217:0.21622199 248:0.25421905 
1 0 0 55:0.66860936 220:0.48517093 246:0.56353411 
0.4216223856143303 0 0 183:0.34714078 184:0.1715389 246:0.8228247 250:0.41596537 
1 0 0 13:0.18158794 18:0.34050979 69:0.13556171 95:0.18158794 101:0.34050979 182:0.34050979 186:0.069010178 187:0.13556171 190:0.18158794 195:0.23999114 205:0.30013165 220:0.31465994 240:0.35594198 246:0.36548275 338:0.069010178 
1 0 0 17:0.20318417 26:0.11042504 54:0.58041609 137:0.20318417 138:0.58041609 184:0.10198646 185:0.10048722 186:0.046185269 188:0.11042504 191:0.13189083 192:0.14877594 206:0.200864 211:0.20318417 254:0.24730737 338:0.046185269 341:0.11042504 
0 0 0.2711837585376227 26:0.50944863 184:0.47051704 188:0.50944863 341:0.50944863 
1 0 0.2672900062153701 7:0.34933184 26:0.31712285 89:0.34933184 188:0.31712285 197:0.48912459 221:0.30489051 245:0.34933184 341:0.31712285 
1 0 0 29:0.12574026 38:0.3413925 64:0.24116212 69:0.10218527 96:0.12574026 109:0.24116212 166:0.3413925 187:0.10218527 189:0.12574026 194:0.35673971 195:0.36180639 196:0.18840916 197:0.1918318 213:0.23063608 223:0.24116212 232:0.2616556 240:0.26830606 
1 0 0 63:0.31307979 64:0.25214232 109:0.25214232 165:0.31307979 195:0.37827957 218:0.49395384 222:0.25214232 223:0.25214232 239:0.28052214 249:0.28962146 
1 0 0 7:0.18845588 11:0.13438413 29:0.17295955 31:0.16246503 45:0.15559773 89:0.18845588 96:0.17295955 107:0.15559773 110:0.16246503 132:0.18084527 167:0.42929935 168:0.13438413 184:0.15800617 189:0.17295955 191:0.1021682 195:0.12441899 196:0.12958126 198:0.13438413 201:0.14097603 205:0.31119546 207:0.15559773 212:0.15739503 219:0.16246503 221:0.16448088 233:0.18084527 245:0.18845588 253:0.19157472 256:0.19265097 260:0.19486227 
0.9754877842995973 0 0 186:0.16016969 192:0.51595233 240:0.82612622 338:0.16016969 
0.2350646088036731 0 0 185:0.22799317 186:0.10478871 193:0.35830837 201:0.41290976 244:0.54903124 261:0.5707391 338:0.10478871 
0.6070104375840687 0 0 132:0.26323587 184:0.11499569 186:0.052076588 213:0.23089011 233:0.26323587 243:0.27141152 258:0.84604453 338:0.052076588 
1 0 0 13:0.080406323 29:0.14772577 31:0.13876235 64:0.1416645 95:0.080406323 96:0.14772577 109:0.1416645 110:0.13876235 132:0.15446102 184:0.134954 186:0.030557397 189:0.14772577 190:0.080406323 219:0.13876235 220:0.13933001 223:0.1416645 233:0.15446102 243:0.15925831 258:0.82740059 338:0.030557397 
1 0 0 11:0.20706981 29:0.2665099 54:0.34640121 69:0.10829223 96:0.2665099 138:0.34640121 168:0.20706981 185:0.23988946 186:0.05512815 187:0.10829223 189:0.2665099 194:0.18902988 198:0.20706981 199:0.21167321 218:0.50067822 338:0.05512815 
1 0 0 5:0.19956218 9:0.21815291 17:0.19724128 25:0.25005813 26:0.10719524 64:0.2078529 92:0.19956218 94:0.21815291 103:0.25005813 109:0.2078529 137:0.19724128 171:0.35880245 184:0.09900348 188:0.10719524 196:0.16238616 199:0.17214876 211:0.19724128 212:0.19724128 215:0.19956218 218:0.20359481 223:0.2078529 229:0.21815291 249:0.23874873 341:0.10719524 
0.07851411297540475 0 0 191:0.63995414 194:0.7684131 
1 0 1 1:0.39358817 52:0.23879224 105:0.23879224 194:0.21120807 200:0.23879224 206:0.2678873 225:0.2879951 265:0.39358817 335:0.56550675 
1 0 0 13:0.23678325 29:0.21751392 45:0.39135941 95:0.23678325 96:0.21751392 107:0.39135941 184:0.19870838 185:0.19578729 186:0.089986453 189:0.21751392 190:0.23678325 203:0.36927604 207:0.39135941 338:0.089986453 
0 0 0.04064760113857161 26:0.1858143 185:0.33818379 188:0.1858143 197:0.57319374 199:0.29840597 205:0.33799765 217:0.35007455 221:0.35729411 341:0.1858143 
0.02733204349034153 0 0 69:0.24762046 184:0.27835671 186:0.12605575 187:0.24762046 217:0.56781668 248:0.66760008 338:0.12605575 
1 0 0 21:0.35789033 23:0.26248797 45:0.22806521 68:0.31236332 99:0.35789033 104:0.26248797 107:0.22806521 147:0.29799038 186:0.10487924 191:0.29950344 192:0.16892333 207:0.22806521 214:0.23341417 230:0.26248797 338:0.10487924 
0.3627177564026655 0 0 13:0.17910817 26:0.16274425 44:0.49157414 69:0.13371048 95:0.17910817 118:0.49157414 184:0.15030748 186:0.13613529 187:0.13371048 188:0.16274425 190:0.17910817 191:0.1943805 201:0.26821448 259:0.36861321 338:0.13613529 341:0.16274425 
1 0 0 26:0.47946059 69:0.39392424 187:0.39392424 188:0.47946059 341:0.47946059 
1 0 0 248:0.70320496 252:0.71098719 
1 0 0.6945872290572726 11:0.19141882 38:0.3344497 166:0.3344497 168:0.19141882 198:0.19141882 204:0.21134097 330:0.4678704 339:0.4545191 342:0.4429537 
0.02669405300631067 0 0 9:0.18019474 26:0.17708711 68:0.22059321 69:0.14549444 94:0.18019474 186:0.074066472 187:0.14549444 188:0.17708711 192:0.23858973 209:0.16229547 214:0.16483876 229:0.18019474 232:0.18627653 236:0.37814861 239:0.19101109 240:0.38202217 246:0.196131 254:0.39660309 257:0.20054963 338:0.074066472 341:0.17708711 
1 0 1 11:0.55075915 168:0.55075915 186:0.073314243 198:0.55075915 199:0.28150157 338:0.073314243 
1 0 0 13:0.17562721 69:0.32777979 95:0.17562721 147:0.18964009 175:0.20636067 185:0.072609868 186:0.10011727 187:0.32777979 190:0.17562721 191:0.095301431 192:0.10750224 193:0.11411185 199:0.2562778 201:0.26300194 206:0.29027988 214:0.29708813 238:0.34425824 256:0.35940563 338:0.10011727 
1 0 0 11:0.25906274 37:0.3846725 52:0.26737963 105:0.26737963 133:0.3846725 168:0.25906274 184:0.15230025 185:0.15006138 186:0.068970216 198:0.25906274 200:0.26737963 213:0.30579079 257:0.37350028 338:0.068970216 
0.5162046243248069 0 0 31:0.19034595 110:0.19034595 175:0.25919522 184:0.092560862 186:0.083833481 192:0.27005212 194:0.14372933 199:0.16094624 201:0.49550739 203:0.17201343 209:0.36739398 212:0.36881174 214:0.18657574 219:0.19034595 242:0.2184611 264:0.23099166 338:0.083833481 
1 0 0 4:0.27861664 40:0.37724221 45:0.27543511 69:0.24881384 90:0.27861664 107:0.27543511 141:0.37724221 184:0.13984911 186:0.063331629 187:0.24881384 207:0.27543511 210:0.27861664 235:0.32172226 338:0.063331629 
1 0 0 26:0.088045715 29:0.089013129 52:0.42828427 69:0.14467651 96:0.089013129 105:0.42828427 187:0.14467651 188:0.088045715 189:0.089013129 193:0.12591765 200:0.42828427 234:0.1870702 235:0.1870702 237:0.18896698 246:0.19502841 255:0.19829453 257:0.19942219 325:0.3494978 341:0.088045715 
1 0 0 4:0.26169182 13:0.078261399 14:0.17350749 26:0.071111173 30:0.21220079 54:0.37377456 55:0.37377456 78:0.17350749 90:0.26169182 95:0.078261399 106:0.21220079 125:0.17350749 126:0.17350749 138:0.37377456 184:0.065676923 185:0.12942301 188:0.071111173 190:0.078261399 204:0.12334348 205:0.12935178 209:0.13034298 210:0.26169182 222:0.13788545 224:0.13906101 236:0.15184964 341:0.071111173 
0.8423476896277117 0 0 26:0.41135295 184:0.37991774 188:0.41135295 194:0.58993962 341:0.41135295 
1 0 0 191:0.29453341 192:0.33224058 209:0.45199884 239:0.53197289 261:0.56175454 
1 0 0 11:0.20306113 31:0.24549277 52:0.20958016 69:0.10619579 105:0.20958016 110:0.24549277 168:0.20306113 183:0.2415825 186:0.05406092 187:0.10619579 195:0.3760064 198:0.20306113 200:0.20958016 201:0.21302182 208:0.23691759 212:0.23783174 213:0.23968798 217:0.2435168 219:0.24549277 220:0.24649705 338:0.05406092 
1 0 0 13:0.28368027 29:0.08686487 37:0.2004305 69:0.14118486 95:0.28368027 96:0.08686487 133:0.2004305 147:0.20420958 164:0.19242781 174:0.25639378 180:0.19242781 181:0.18535329 184:0.31741955 185:0.07818827 186:0.10780898 187:0.14118486 189:0.08686487 190:0.28368027 192:0.23152265 201:0.1416038 214:0.1599562 217:0.16187499 220:0.16385608 225:0.16802189 327:0.29872837 338:0.10780898 
1 0 0 6:0.2700375 7:0.20842009 8:0.23402567 22:0.28574719 45:0.17208109 51:0.33599494 89:0.20842009 91:0.2700375 93:0.23402567 100:0.28574719 107:0.17208109 124:0.33599494 186:0.11870122 207:0.17208109 208:0.17339971 225:0.18499761 245:0.20842009 248:0.20955027 338:0.11870122 
0.6586308696516566 0 0 11:0.1401793 29:0.27062736 96:0.27062736 168:0.1401793 184:0.082409931 186:0.074639661 189:0.27062736 191:0.10657409 192:0.12021807 198:0.1401793 204:0.77384317 241:0.19348825 260:0.20326549 338:0.074639661 
1 0 0 13:0.11957037 26:0.10864601 45:0.19762795 95:0.11957037 107:0.19762795 172:0.32420742 177:0.38587616 184:0.20068695 186:0.045441192 188:0.10864601 190:0.11957037 191:0.12976598 192:0.29275811 206:0.19762795 207:0.19762795 209:0.19914233 217:0.20468933 232:0.22856795 236:0.23200092 237:0.2331801 260:0.24749866 261:0.24749866 338:0.045441192 341:0.10864601 
1 0 0.6303682101765771 40:0.45727766 141:0.45727766 199:0.2947629 240:0.39595553 246:0.40656884 259:0.4157284 
0.2403394664208914 0 0 191:0.41091341 195:0.50040453 246:0.76206658 
1 0 0 45:0.41552299 52:0.37039332 69:0.18768099 105:0.37039332 107:0.41552299 187:0.18768099 200:0.37039332 207:0.41552299 
0.9603544272412615 0 0 186:0.1312689 191:0.37486335 209:0.57527531 250:0.70290308 338:0.1312689 
0.6933346502497207 0 0 13:0.13805103 26:0.12543822 47:0.35441963 95:0.13805103 140:0.35441963 184:0.11585235 186:0.10492886 188:0.12543822 190:0.13805103 197:0.19347371 221:0.24119961 228:0.25411361 238:0.27060253 246:0.27785584 255:0.28250906 261:0.28575178 337:0.36996616 338:0.10492886 341:0.12543822 
1 0 0 20:0.24120335 25:0.22093204 26:0.094709431 52:0.30713256 69:0.077813154 103:0.22093204 105:0.30713256 132:0.20023117 136:0.24120335 147:0.22509767 175:0.24494454 184:0.1749438 185:0.086185954 186:0.039612216 187:0.077813154 188:0.094709431 193:0.13544769 196:0.14347186 200:0.30713256 201:0.1560881 202:0.15924441 209:0.17359732 212:0.17426715 228:0.19186302 233:0.20023117 258:0.2145154 338:0.039612216 341:0.094709431 
1 0 0 9:0.13885607 13:0.075091211 29:0.13796063 69:0.280291 94:0.13885607 95:0.075091211 96:0.13796063 174:0.20360503 184:0.25206624 185:0.062090137 186:0.057074802 187:0.280291 189:0.13796063 190:0.075091211 192:0.45963649 195:0.099242413 199:0.10957405 204:0.23669424 205:0.24822408 213:0.12652551 220:0.13011985 221:0.13119766 229:0.13885607 256:0.15366744 258:0.15454132 260:0.15543128 261:0.15543128 264:0.31452346 338:0.057074802 
1 0 0 4:0.11617497 11:0.099190374 29:0.063831652 31:0.23983438 69:0.15562211 90:0.11617497 96:0.063831652 110:0.23983438 132:0.26696769 168:0.099190374 174:0.18840802 183:0.23601424 184:0.11662605 186:0.026407432 187:0.15562211 189:0.063831652 193:0.090296025 195:0.18366989 196:0.095645325 198:0.099190374 199:0.20279108 201:0.31216768 210:0.11617497 212:0.11617497 219:0.23983438 228:0.38371579 231:0.13282866 233:0.26696769 244:0.13835942 251:0.14140337 256:0.14219776 260:0.14382994 338:0.026407432 
1 0 0 11:0.17781657 12:0.21071511 13:0.12456691 23:0.23696154 26:0.11318606 54:0.29746429 77:0.36090135 95:0.12456691 104:0.23696154 111:0.21071511 138:0.29746429 168:0.17781657 183:0.21154896 188:0.11318606 190:0.12456691 198:0.17781657 213:0.20988996 216:0.21071511 230:0.23696154 238:0.24417147 246:0.25071631 341:0.11318606 
1 0 0 186:0.088352794 191:0.25230823 192:0.28460959 194:0.30295444 209:0.38719894 220:0.40285484 235:0.44882883 262:0.4840266 338:0.088352794 
0.400997795879293 0 0 12:0.23576715 13:0.13937675 63:0.30490912 66:0.43173 95:0.13937675 111:0.23576715 165:0.30490912 184:0.11696489 186:0.052968354 190:0.13937675 193:0.18111689 199:0.20338033 204:0.21966401 216:0.23576715 222:0.24556199 226:0.2497991 227:0.2565539 234:0.26907722 338:0.052968354 
1 0 0 47:0.57298257 140:0.57298257 194:0.29083486 202:0.34097654 214:0.37753416 
0.4765600806757982 0 0 11:0.31075091 13:0.21769221 69:0.1625148 95:0.21769221 168:0.31075091 185:0.18000161 186:0.082731147 187:0.1625148 190:0.21769221 195:0.28770744 198:0.31075091 202:0.33258611 203:0.33950255 227:0.40071093 338:0.082731147 
0 0 0.08275861691096234 26:0.40795785 188:0.40795785 204:0.70760948 341:0.40795785 
-1 0 0 4:0.35470848 29:0.19489249 64:0.37379187 90:0.35470848 96:0.19489249 109:0.37379187 186:0.08062787 189:0.19489249 194:0.27646631 210:0.35470848 223:0.37379187 338:0.08062787 
-1 0 0 29:0.32716549 96:0.32716549 189:0.32716549 194:0.46410324 232:0.6808057 
-1 0 0 185:0.34158837 186:0.15699858 192:0.50573726 227:0.76042758 338:0.15699858 
-1 0 0 52:0.3465881 69:0.17561872 105:0.3465881 186:0.089401936 187:0.17561872 191:0.25530425 193:0.30569574 200:0.3465881 221:0.41101506 257:0.4841459 338:0.089401936 
-1 0 0 5:0.27101811 7:0.32072777 13:0.1602158 25:0.33959481 26:0.14557794 69:0.11960666 89:0.32072777 92:0.27101811 95:0.1602158 103:0.33959481 187:0.11960666 188:0.14557794 190:0.1602158 208:0.26683658 215:0.27101811 245:0.32072777 341:0.14557794 
-1 0 0 11:0.1397906 13:0.097928354 15:0.30936902 29:0.089958982 51:0.3160333 52:0.14427841 69:0.07310692 95:0.097928354 96:0.089958982 105:0.14427841 124:0.3160333 168:0.1397906 175:0.23013 184:0.082181421 185:0.16194679 186:0.037216421 187:0.07310692 189:0.089958982 190:0.097928354 198:0.1397906 200:0.14427841 202:0.14961312 203:0.15272446 221:0.17109819 222:0.17253582 231:0.18719758 235:0.189058 249:0.19818202 252:0.19928206 256:0.2004016 257:0.20154125 276:0.30936902 338:0.037216421 
-1 0 0 26:0.23773462 69:0.39064495 175:0.61484688 185:0.21633944 186:0.099432497 187:0.39064495 188:0.23773462 191:0.28394843 338:0.099432497 341:0.23773462 
-1 0 0 13:0.12595612 29:0.11570586 37:0.26697771 57:0.43947053 69:0.094030625 95:0.12595612 96:0.11570586 128:0.43947053 133:0.26697771 142:0.34569486 184:0.10570231 185:0.10414845 187:0.094030625 189:0.11570586 190:0.12595612 192:0.30839312 237:0.24563329 263:0.26223725 
-1 0 0 52:0.48272274 69:0.24459913 105:0.48272274 187:0.24459913 193:0.42576848 200:0.48272274 
-1 0 0 9:0.16642644 13:0.090000844 52:0.26519752 67:0.22046146 94:0.16642644 95:0.090000844 105:0.26519752 184:0.075528659 186:0.068407211 190:0.090000844 192:0.2203596 195:0.23789458 196:0.1238826 199:0.13133038 200:0.26519752 205:0.14875493 206:0.29750987 222:0.15856868 229:0.16642644 240:0.17641633 244:0.17920714 250:0.36629949 254:0.18314975 257:0.18522606 263:0.18737933 285:0.20986294 338:0.068407211 
-1 0 0.1961211550134147 13:0.10284764 14:0.22801582 26:0.093451137 30:0.27886483 79:0.37095464 80:0.37095464 95:0.10284764 106:0.27886483 125:0.22801582 148:0.37095464 149:0.37095464 188:0.093451137 190:0.10284764 202:0.15712872 224:0.18274779 225:0.18274779 240:0.20159816 341:0.093451137 
-0.3308351370388777 0 0 14:0.24351765 30:0.29782366 79:0.39617427 80:0.39617427 106:0.29782366 125:0.24351765 148:0.39617427 149:0.39617427 224:0.19517203 225:0.19517203 
-0.9560711600249909 0 0 26:0.13475029 32:0.39297501 81:0.53489179 108:0.39297501 150:0.53489179 188:0.13475029 217:0.25386985 341:0.13475029 
-0.454986623179457 0 0 9:0.19440008 19:0.29608471 80:0.3791815 82:0.3791815 94:0.19440008 113:0.29608471 149:0.3791815 151:0.3791815 224:0.18680068 229:0.19440008 234:0.20295853 285:0.24513756 
-1 0 0 18:0.35998091 26:0.34886505 69:0.14331343 101:0.35998091 182:0.35998091 187:0.14331343 188:0.34886505 191:0.20834072 264:0.40204157 341:0.34886505 
-1 0.002340403635812879 0 18:0.26483557 77:0.40918483 101:0.26483557 178:0.37424772 182:0.26483557 186:0.053673494 191:0.15327488 204:0.22258828 232:0.2699762 250:0.57480885 338:0.053673494 
-1 0 0.4820064919872192 26:0.24777472 69:0.20357141 186:0.10363177 187:0.20357141 188:0.24777472 199:0.39791048 221:0.47643507 264:0.57108512 338:0.10363177 341:0.24777472 
-1 0 0.2910688753536919 21:0.42379101 23:0.3108216 99:0.42379101 104:0.3108216 185:0.13510441 186:0.062095792 230:0.3108216 330:0.57009402 338:0.062095792 
-1 0.03404988033042436 0 164:0.44595804 175:0.51499029 180:0.44595804 184:0.1839075 185:0.18120399 186:0.083283776 192:0.26828083 238:0.4295626 338:0.083283776 
-1 0 0 14:0.26318141 19:0.33433348 26:0.10786358 30:0.32187257 45:0.19620469 69:0.17724117 106:0.32187257 107:0.19620469 113:0.33433348 125:0.26318141 186:0.045113937 187:0.17724117 188:0.10786358 191:0.12883144 206:0.19620469 207:0.19620469 225:0.21093194 238:0.2326895 259:0.24430934 338:0.045113937 341:0.10786358 
-1 0 0 185:0.83844689 186:0.3853614 338:0.3853614 
-1 0.08354097335644943 0 21:0.24111605 52:0.136963 69:0.069400152 74:0.30708147 99:0.24111605 105:0.136963 146:0.30708147 179:0.47261976 185:0.23060324 186:0.10598813 187:0.069400152 193:0.12080336 200:0.136963 220:0.16108861 224:0.16518407 227:0.34223849 256:0.19024057 285:0.21677019 337:0.24913386 338:0.10598813 
-1 0 0.1341448144168368 71:0.39244684 83:0.42851306 143:0.39244684 152:0.42851306 185:0.0982361 186:0.045150624 204:0.18724326 213:0.20018272 224:0.21110347 228:0.43737713 338:0.045150624 
-1 0 0 185:0.64593478 186:0.19791967 227:0.47931602 247:0.52409925 338:0.19791967 
-1 0 0 13:0.17518121 23:0.33324427 26:0.15917606 69:0.26155772 95:0.17518121 104:0.33324427 185:0.14485084 186:0.066575382 187:0.26155772 188:0.15917606 190:0.17518121 192:0.21445832 206:0.2895425 230:0.33324427 328:0.44974428 338:0.066575382 341:0.15917606 
-1 0 0 14:0.3472471 32:0.41504334 108:0.41504334 125:0.3472471 186:0.059524281 192:0.19174471 205:0.2588766 238:0.30701544 250:0.31873352 264:0.32802134 338:0.059524281 
-1 0 0 19:0.52447029 113:0.52447029 175:0.43761317 194:0.24266592 209:0.31014561 218:0.32137126 
-1 0 0.3769445298308659 194:1 
-1 0 0 12:0.19433586 29:0.10553489 96:0.10553489 111:0.19433586 164:0.23378665 175:0.26997575 176:0.32805886 180:0.23378665 185:0.094993409 186:0.08732031 189:0.10553489 192:0.1406421 204:0.36212504 216:0.19433586 244:0.228754 247:0.4624554 336:0.3494058 338:0.08732031 
-0 0.009390718207998076 0 5:0.11283898 9:0.12335079 11:0.1904433 13:0.1334123 21:0.34602854 26:0.060611696 29:0.12255535 69:0.049798496 92:0.11283898 94:0.12335079 95:0.1334123 96:0.12255535 99:0.34602854 164:0.40723706 168:0.1904433 176:0.19048378 180:0.40723706 185:0.055156881 187:0.049798496 188:0.060611696 189:0.12255535 190:0.1334123 198:0.1904433 202:0.10191249 215:0.11283898 229:0.12335079 241:0.13143361 243:0.1321229 248:0.13425983 263:0.13888051 341:0.060611696 
-1 0 0.6873898785940149 26:0.3688738 186:0.077140665 188:0.3688738 197:0.28447201 238:0.39787755 241:0.39994241 264:0.4251002 338:0.077140665 341:0.3688738 
-1 0 0 26:0.19873335 183:0.37144003 186:0.083120216 188:0.19873335 191:0.23736561 192:0.26775396 246:0.4402105 250:0.44508222 264:0.45805181 338:0.083120216 341:0.19873335 
-1 0 0 5:0.16268448 29:0.088346474 31:0.16597191 52:0.14169223 92:0.16268448 96:0.088346474 105:0.14169223 110:0.16597191 132:0.18474889 184:0.080708325 189:0.088346474 200:0.14169223 213:0.16204742 214:0.16268448 215:0.16268448 219:0.16597191 233:0.18474889 258:0.7917147 
-1 0 0 18:0.33391833 26:0.32360725 69:0.13293755 101:0.33391833 182:0.33391833 186:0.067674305 187:0.13293755 188:0.32360725 191:0.19325686 192:0.21799826 225:0.3164138 240:0.34905178 338:0.067674305 341:0.32360725 
