svm_type c_svc
kernel_type linear
nr_class 3
total_sv 841
rho -0.999363 -0.875986 -0.833372
label 3 1 2
nr_sv 406 399 36
SV
0 1 79:0.16085858 95:0.98697747 
1 0.7426371637605178 9:0.58270164 95:0.81268617 
1 0 11:1 
1 0 6:0.59447139 15:0.78838801 79:0.15826599 
0 1 53:0.4382945 89:0.89883143 
1 0 20:1 
0.3882572336957339 0.8042629117781729 11:0.27645058 35:0.28403073 36:0.3417362 78:0.29405783 91:0.5235383 138:0.35833046 139:0.48698554 
1 0 19:0.52085005 33:0.84355626 79:0.13087422 
1 0 35:0.80082362 48:0.52140187 54:0.2946551 
0.8922652745420497 0 13:0.23094806 35:0.46676158 49:0.39583738 67:0.53484081 95:0.53484081 
1 0 71:0.70984945 95:0.70435344 
1 1 12:1 
1 0 9:0.54299342 13:0.32700996 16:0.54299342 53:0.53679297 79:0.12342643 
1 0 13:0.33663987 50:0.94163347 
1 0.8318264415034153 4:0.40221555 24:0.19968344 77:0.83030239 78:0.33007138 
1 0 9:0.51817012 27:0.65692462 49:0.53486141 79:0.11778391 
0.8452348567662791 0.06416948143064219 74:0.54112823 79:0.075845001 95:0.465361 140:0.69632386 
1 0 20:0.62237991 39:0.314454 80:0.71677188 
1 1 94:1 
1 0 50:0.72157975 54:0.38366826 69:0.56801483 79:0.097367765 
1 0 3:0.35150105 13:0.20922453 16:0.3474131 37:0.53347219 53:0.34344599 77:0.55062902 79:0.078969576 
0 0.1236415122812414 65:1 
0.8257651196427477 0 16:0.87002026 39:0.49301597 
0 0.3040698866393504 27:1 
1 0.5514395990872933 6:0.50349593 33:0.8639976 
1 1 13:0.16424369 19:0.49342877 28:0.47987094 37:0.41878186 79:0.061992033 95:0.38036356 138:0.41878186 
1 0 9:1 
1 0 24:0.63637173 54:0.74768106 79:0.18974735 
1 0 12:0.73670624 35:0.67621292 
1 0 31:0.75094226 35:0.66036787 
1 0 12:0.51158625 13:0.23234172 31:0.53398442 46:0.6256733 79:0.08769491 
1 0 70:0.98838282 79:0.15198487 
1 0 67:0.98697747 79:0.16085858 
1 0 13:0.50394091 49:0.86373813 
1 0 9:0.46754831 13:0.28157423 54:0.41877502 79:0.1062772 138:0.7179465 
0.8165275115098158 0 15:0.98043971 79:0.19681966 
1 0 6:0.68637979 19:0.72724328 
1 0 6:0.79849187 13:0.56322242 79:0.21258232 
1 0 16:0.60210448 69:0.79841731 
1 0 33:0.68661848 55:0.72701793 
1 0 13:0.24594796 35:0.49707739 48:0.64727632 78:0.51462564 79:0.092830443 
1 0 6:0.56767406 35:0.80926223 79:0.15113174 
0.8912511282841341 0 6:0.24376677 12:0.37859564 24:0.21765383 31:0.39517125 35:0.34750793 54:0.25572418 79:0.064897973 87:0.49475568 95:0.39819349 
1 0 3:0.41233141 13:0.24543269 39:0.23093917 49:0.8413271 79:0.092635958 
1 0 9:0.97512554 79:0.22165327 
0.9976351165198366 0 19:0.46965633 27:0.6581898 39:0.58839538 
1 0 13:0.25173005 39:0.23686466 75:0.67788417 79:0.095012831 138:0.64185102 
1 0.8652858338259908 11:0.32701756 13:0.16624099 39:0.31284771 75:0.44767058 79:0.062745895 92:0.61930135 138:0.42387451 
1 0.1243592269563179 66:1 
1 0 3:0.76283316 13:0.4540624 39:0.4272487 79:0.17138103 
1 0 6:0.73164259 24:0.6532671 79:0.19478505 
1 0 6:0.55252038 27:0.82041671 79:0.14709738 
1 0 11:0.4558834 24:0.29336156 36:0.28177163 48:0.6099122 79:0.087471793 80:0.49706122 
1 0 19:0.52085005 33:0.84355626 79:0.13087422 
0.4656886569222274 0 54:1 
0.912257037635255 0 13:0.54401552 15:0.51142376 24:0.34432112 78:0.5691536 
1 0 13:0.14327015 16:0.47579438 23:0.48139317 39:0.13480963 50:0.40074864 65:0.35823125 69:0.31546225 71:0.33438097 79:0.054075796 
1 1 2:0.34694472 4:0.35379502 6:0.39343509 15:0.26088683 31:0.63779935 36:0.33741079 79:0.10474393 
1 0 40:0.85231067 54:0.50696508 79:0.12865817 
1 0 3:0.34113187 10:0.40370167 39:0.38212296 40:0.50771035 53:0.33331443 69:0.44709513 79:0.076639995 
1 0 9:0.28089125 15:0.31805647 39:0.63669238 51:0.51097047 95:0.39175526 
0.6253201876719227 0 19:1 
0.6944535539328164 0 13:0.45281311 19:0.68018145 36:0.5505483 79:0.17090949 
1 0 54:1 
1 0 9:1 
1 0 11:0.90210815 39:0.43151 
0.00271019052613646 0 36:1 
1 0 11:0.68597481 20:0.64943975 39:0.32812584 
1 0.8081532056154746 22:0.95474829 39:0.29741503 
1 0 10:0.89086056 39:0.42162142 79:0.16912377 
1 0 54:0.96927403 79:0.24598346 
1 0 8:0.602218 15:0.46129773 39:0.23085905 70:0.602218 79:0.092603819 
1 0 7:0.58021623 13:0.22524394 68:0.59951012 69:0.49595786 79:0.085015929 
1 0.06843326622030869 39:0.4017476 80:0.91575044 
1 0 36:0.45609356 39:0.352974 79:0.14158743 80:0.80457505 
1 0 9:0.81785765 27:0.51843092 39:0.23172844 79:0.092952556 
1 0 39:0.26402731 53:0.46060588 78:0.5871267 79:0.1059085 80:0.60182841 
1 0 54:0.96927403 79:0.24598346 
1 0 11:0.38114605 19:0.58209552 24:0.24526797 25:0.54196945 36:0.23557809 53:0.31805653 79:0.0731317 
1 0 6:0.32016581 13:0.22583143 19:0.67845363 56:0.61557228 79:0.085237672 
0.8997462013511686 0 24:0.55998471 49:0.75822182 79:0.33394131 
1 0 9:0.37233664 23:0.37671785 39:0.84397039 79:0.08463488 
1 0 24:0.43027673 39:0.31983847 70:0.83432935 79:0.12829587 
1 0 20:0.52376274 24:0.35600272 56:0.76659437 79:0.10614955 
1 0.4095451985949397 11:1 
1 0 75:0.99031986 79:0.13880409 
1 1 19:0.27153046 28:0.52813935 67:0.41862289 79:0.13645489 93:0.67340551 
0.9561166389334109 0 6:0.5782451 19:0.61267081 24:0.51630195 79:0.15394607 
1 0 6:0.68637979 19:0.72724328 
1 0 23:0.36564379 27:0.45816398 39:0.2047903 49:0.3730325 76:0.66955635 79:0.16429356 
1 1 21:1 
1 0 3:0.7433243 13:0.22122496 19:0.33230733 27:0.46570498 39:0.20816098 79:0.16699769 
1 0 9:0.54603562 11:0.64687495 13:0.32884208 36:0.39981936 79:0.12411795 
1 0 6:0.2888123 9:0.33826628 11:0.40073573 13:0.20371599 31:0.46819472 36:0.4953721 53:0.33440361 79:0.15378057 
1 0 13:0.30447319 15:0.57246465 40:0.76130171 
1 0 13:0.28433727 21:0.65348434 23:0.47769182 53:0.46674495 79:0.21463974 
1 0 3:0.68233382 39:0.38216251 54:0.60404701 79:0.15329574 
1 0 24:0.3878324 36:0.37251019 56:0.83513444 79:0.11564022 
1 0 3:0.87247572 39:0.48865747 
1 0 36:1 
1 0 138:1 
1 0.1066476095786615 36:0.22855506 54:0.27957754 70:0.4614094 75:0.5062148 90:0.63280876 
1 0 9:0.28903005 10:0.34606819 25:0.48688427 36:0.2116342 37:0.44382175 39:0.16378519 54:0.25887927 75:0.46873765 79:0.065698674 
1 0 13:0.27969073 31:0.64280533 37:0.71314403 
1 0 11:0.24605327 13:0.1250824 19:0.18788927 36:0.60832073 53:0.2053251 54:0.37206092 79:0.047211021 95:0.57934367 
1 0 36:0.29201845 38:0.66300961 54:0.35720845 70:0.58952998 
0.9014270031867506 0 6:0.81341639 39:0.53986797 79:0.21655567 
1 0 6:0.71397127 23:0.28202187 39:0.15795522 53:0.27555901 65:0.41973629 79:0.063360116 80:0.36004586 
1 0 13:0.24024217 23:0.40361124 40:0.6006991 74:0.64694843 
1 0 23:0.58286002 39:0.32644909 80:0.74411369 
1 0.1241132608133931 51:1 
1 0.8151856267890687 3:0.43028473 13:0.51223814 79:0.096669419 87:0.73696823 
1 0 3:0.68233382 39:0.38216251 54:0.60404701 79:0.15329574 
1 0 11:0.43246197 27:0.46279827 39:0.41372316 54:0.65393237 
1 0 26:0.38856632 39:0.30832365 49:0.28081122 65:0.819313 79:0.061838532 
1 0 6:0.47935349 21:0.77708179 39:0.31814898 79:0.25523585 
1 0 11:0.40508601 24:0.78202041 32:0.44742005 79:0.15544997 
0.9692036975952076 0 24:0.60455905 54:0.71030394 79:0.36052277 
1 0 13:0.14203866 21:0.97933055 39:0.13365086 79:0.053610981 
1 0 13:0.55415683 19:0.83241228 
1 0 70:0.98838282 79:0.15198487 
0.7897359916793465 0 13:0.99217826 79:0.12482905 
1 0 13:0.49041348 69:0.53991336 79:0.27765167 138:0.62521815 
0.9638701544473245 0 13:0.81324289 36:0.49438662 79:0.30694928 
1 0 13:0.2309063 19:0.69369981 36:0.28074512 74:0.62180787 
1 0 19:0.77728666 36:0.6291466 
1 0 19:0.54120298 71:0.84089199 
1 0 6:0.7805615 15:0.51759036 36:0.33470562 79:0.10390436 
1 0.3691479819416618 8:0.34829372 21:0.65223658 39:0.26703518 79:0.10711492 80:0.60868509 
1 0 11:0.19371515 13:0.39390423 15:0.18515279 19:0.14792325 33:0.23957295 38:0.27184203 40:0.24622854 54:0.58583916 77:0.25916547 79:0.037168741 95:0.22805567 137:0.30897267 
1 0 37:1 
1 0 19:0.53319422 20:0.66106367 54:0.52791926 
0.8353692477655645 0 39:1 
1 0 39:0.79623654 80:0.60498543 
1 0 3:0.8014434 24:0.2012889 27:0.33474509 39:0.14962448 68:0.42323431 79:0.060018433 
0.519010420239538 0 6:0.96633997 79:0.25726848 
1 0.003019856714871373 9:0.47886872 52:0.87111213 79:0.10885041 
1 0.06401699177118997 24:0.35992544 33:0.69173111 69:0.62606849 
0.03593237698788989 0 13:1 
1 0.2943157733926928 3:0.51488468 25:0.85725945 
1 0 27:0.58026164 36:0.33513789 74:0.74227961 
1 0 13:0.38955535 71:0.90919072 79:0.14703352 
1 0 13:0.36290364 24:0.4593817 69:0.79906663 79:0.13697412 
1 0 13:1 
1 0 13:1 
1 0 13:0.40856533 69:0.89960773 79:0.15420864 
1 0 12:0.41554384 35:0.38142219 36:0.22945716 45:0.59212662 46:0.50821281 79:0.14246281 
1 0 13:1 
1 0 6:0.81716978 13:0.57639704 
1 0 56:0.76208896 67:0.64747233 
1 0 39:1 
1 0 39:1 
1 0.3309423775263466 47:0.99150643 79:0.13005764 
1 0 6:0.32511205 15:0.43116363 19:0.34446753 26:0.54387072 71:0.53521506 79:0.086554509 
0.9620869947708199 0 13:0.48661343 24:0.61597977 36:0.59164407 79:0.18366706 
1 0 3:0.29015766 13:0.17271101 23:0.29015766 24:0.21862629 32:0.75050054 40:0.43184487 79:0.065187934 
1 0 9:0.49415865 74:0.8014072 79:0.33697734 
1 0 21:0.53320957 39:0.43660771 53:0.38083984 54:0.34505188 69:0.51084389 
0.4292614983348891 0 13:0.46792663 16:0.7769827 39:0.2201471 54:0.34796506 79:0.088306966 
0.3712727941904013 0 15:0.45585431 16:0.40258727 36:0.29478331 39:0.22813486 49:0.41555541 69:0.53384862 79:0.18302179 
1 0 21:0.79395387 39:0.32505667 54:0.51378537 
1 0 54:1 
1 0 39:1 
1 0 39:0.24731072 54:0.78179987 79:0.099203029 80:0.56372434 
1 0 13:0.43738767 35:0.88398993 79:0.16508733 
1 0 9:0.46162239 10:0.55272048 20:0.51774621 36:0.33801013 79:0.31479017 
1 0 11:0.9820855 79:0.18843586 
1 0 13:0.35806884 15:0.67323416 53:0.5877767 79:0.27029802 
1 0 36:1 
1 0 36:1 
1 0 6:0.36480218 13:0.51463208 20:0.47921512 26:0.61026721 
1 0 12:0.69406587 13:0.10507221 19:0.15783149 35:0.63707419 36:0.127751 71:0.24523005 
1 0 13:0.15370381 20:0.28625183 24:0.38913226 35:0.31064575 36:0.37375848 67:0.71190935 
0.986389794703219 0 19:0.82887639 39:0.51921734 79:0.20827214 
0.4592783424876404 0 27:0.85569329 36:0.49421714 79:0.15342233 
1 0 20:0.78140573 54:0.6240233 
1 0 20:0.61759798 26:0.78649395 
1 0 24:0.37021496 53:0.48008423 75:0.78757519 79:0.11038722 
1 0 8:0.68980693 23:0.47213864 24:0.35574425 54:0.41796834 
1 0.8745525725467976 6:1 
1 0 6:0.96633997 79:0.25726848 
1 0 24:0.4824456 31:0.87592593 
0.9898656886838056 0 13:0.30066054 15:0.56529618 36:0.36555512 53:0.49353991 54:0.44716139 79:0.11348113 
1 0 13:0.28327299 16:0.47036906 36:0.34441463 68:0.75396046 79:0.10691838 
1 0.08660585906840061 24:0.42949653 68:0.90306851 
1 0 71:1 
1 0 9:0.31831746 10:0.38113528 16:0.31831746 47:0.55161203 76:0.58975254 
0.2051983124616386 0 24:1 
1 0 9:0.23801987 23:0.48164142 32:0.62288893 49:0.24568696 78:0.29993546 79:0.054103682 87:0.41246441 
0 0.1240199444615515 23:1 
1 0 16:0.38444567 39:0.21785453 49:0.39682943 68:0.61623279 69:0.50979205 79:0.087387354 
1 0 3:0.55593316 31:0.76051881 39:0.31136785 79:0.12489808 
1 0 3:0.85618288 39:0.47953215 79:0.19235333 
1 0 9:0.60307943 39:0.68349571 79:0.41125275 
0.9500713526863505 0 6:0.6932516 24:0.61898865 79:0.36912772 
1 0 6:0.96633997 79:0.25726848 
1 0 19:0.46957397 31:0.71845508 53:0.51314968 
0.8204744809036597 0 53:1 
1 0.06693494532521921 12:0.60835471 13:0.27629003 46:0.74402175 
1 0 37:0.72523619 39:0.2676366 53:0.46690243 79:0.42942431 
1 0 21:0.98678146 79:0.16205662 
0.9983137062607138 0 20:0.68924013 36:0.44996977 54:0.55042071 79:0.13968639 
1 0 39:0.31694557 49:0.57732712 69:0.74167074 79:0.12713545 
0.5446759316290892 0 36:0.55719427 53:0.752274 54:0.34079097 79:0.086486319 
0.7410373251720573 0 13:0.4620537 39:0.86953549 79:0.17439726 
1 0 77:1 
1 0 24:0.95830744 79:0.28573911 
0.4977841719574977 0 13:0.52642998 36:0.64005463 78:0.55075546 79:0.099347699 
1 0 3:0.36589243 9:0.36163711 13:0.21779074 29:0.59365492 53:0.35750757 78:0.45570899 
1 0 3:0.41731891 9:0.4124655 23:0.41731891 24:0.314439 49:0.42575183 53:0.40775555 79:0.18751257 
1 0 9:0.97512554 79:0.22165327 
1 0.4381215476754181 19:1 
1 0 10:0.89086056 39:0.42162142 79:0.16912377 
1 0 7:0.62322164 10:0.48101435 13:0.24193893 15:0.45488876 35:0.24448744 36:0.14707952 79:0.1826342 
1 0 35:1 
1 0 53:0.60776991 80:0.79411318 
1 1 20:0.5178694 88:0.85545969 
1 0 3:1 
1 0 6:0.37961797 12:0.58958696 13:0.26776648 19:0.40221845 36:0.32556119 54:0.39823925 79:0.10106561 
1 0 12:0.48031372 13:0.218139 19:0.32767184 23:0.73295537 36:0.26522213 79:0.082334247 
1 0 9:0.46811088 71:0.65796225 78:0.58987955 
1 0 9:0.49717979 27:0.63031355 39:0.28173778 49:0.51319494 79:0.11301266 
1 1 5:0.51600652 13:0.19161732 19:0.28783298 35:0.3872715 36:0.46595201 71:0.44721935 79:0.21697148 
1 0 39:0.92811554 79:0.37229228 
1 0.005428433182194293 14:0.79958244 39:0.28901018 49:0.52644187 
1 0 9:0.39806919 13:0.23973143 47:0.68981372 67:0.55518176 
1 0 39:0.48123741 49:0.8765903 
1 0 6:0.67519924 19:0.71539709 79:0.17975814 
1 0 16:0.31910333 19:0.28867126 20:0.7157995 38:0.53049795 79:0.14506882 
1 0 39:0.92811554 79:0.37229228 
1 0 9:1 
1 0 39:0.92811554 79:0.37229228 
1 0 39:1 
1 0 21:0.72588043 79:0.11920951 80:0.67741177 
1 0 19:0.62780835 20:0.77836795 
1 0 11:0.42855865 19:0.3272526 20:0.40573359 79:0.082228905 89:0.73339068 
1 0 6:0.24309369 13:0.17146802 29:0.93477676 79:0.19415609 
1 0 13:0.22620429 79:0.085378405 80:0.97033095 
1 0 21:0.69580386 39:0.28487257 79:0.11427011 80:0.64934348 
1 0 35:0.98300503 79:0.18357864 
1 0 3:0.70258768 6:0.59289402 39:0.39350633 
1 0 3:0.87247572 39:0.48865747 
1 0 33:0.89590659 39:0.34651401 79:0.27799177 
1 0 3:0.66396978 6:0.56030546 13:0.3952158 79:0.29833942 
1 0 6:0.4127509 24:0.36853593 34:0.82567724 79:0.10988658 
1 0 15:0.98043971 79:0.19681966 
0.9741458391948241 0 13:0.24407078 36:0.29675102 39:0.91863041 79:0.092121922 
1 0 13:0.20098631 36:0.24436719 39:0.94558681 79:0.075860144 
0 1 6:0.43894007 79:0.11685892 87:0.89088473 
1 0 39:0.54505838 54:0.43076065 70:0.71091912 79:0.10931893 
0.6868566993493404 0 39:0.92811554 79:0.37229228 
1 0.05786565985474895 48:0.98987176 79:0.14196446 
0.9624221096678305 0 15:0.84657728 36:0.27372446 39:0.42367421 79:0.169947 
1 0 3:0.41997244 13:0.24998087 20:0.46555439 53:0.41034828 71:0.58343516 79:0.18870487 
1 1 16:0.41864522 79:0.095161165 134:0.90315034 
1 0 39:1 
0.506926013113023 0 13:0.33495081 15:0.62976809 78:0.7008567 
1 0 13:0.23864552 20:0.44444389 29:0.65050099 78:0.4993459 79:0.27022229 
1 0 6:0.52198377 35:0.74412727 79:0.41690233 
1 0 48:0.77786416 78:0.61845124 79:0.11155896 
1 0 9:0.20474428 11:0.24255551 13:0.12330429 14:0.32099148 27:0.51914054 49:0.2113395 50:0.34490106 69:0.27150002 70:0.30265665 139:0.42727718 
0.002785428807683915 0 49:0.97660061 79:0.21506102 
1 0 6:0.56547219 10:0.26433311 49:0.45575533 78:0.27819382 80:0.57031964 
1 0 15:0.98043971 79:0.19681966 
1 0 15:0.39190611 23:0.35018412 34:0.59114671 36:0.25343048 39:0.19613163 65:0.52118291 
1 0 12:0.86571407 36:0.4780345 79:0.14839867 
1 0 13:0.6035895 24:0.76405397 79:0.22781844 
0.9762223721415269 0 13:0.52484805 24:0.66437908 39:0.49385425 79:0.19809832 
1 0 31:0.80658012 53:0.57609215 79:0.13246261 
1 0.07452574217771107 10:0.75740387 49:0.65294669 
1 0 10:0.63228978 39:0.29924651 53:0.52204715 54:0.47298977 79:0.12003588 
0.001996652184597991 0 16:1 
1 0 10:0.594311 23:0.50219862 36:0.36344435 49:0.51234674 
1 0 10:0.50067683 23:0.42307682 36:0.61236681 49:0.4316261 79:0.095050064 
1 0 10:0.63228978 39:0.29924651 53:0.52204715 54:0.47298977 79:0.12003588 
1 0 9:0.54982927 13:0.33112675 67:0.76683952 
1 0 12:0.44431708 20:0.37580711 46:0.54340267 54:0.30011604 55:0.51980219 79:0.076163789 
1 0 6:0.7615518 20:0.50019868 54:0.39945398 79:0.10137388 
0.9148408666311035 0 13:0.28319696 23:0.47577629 34:0.40157941 55:0.72950009 
1 0 6:0.42068395 26:0.70375023 39:0.27920975 53:0.48709225 79:0.11199859 
0.8145156723661127 0 39:0.40469252 78:0.89992884 79:0.16233313 
0.9475692856015504 0 19:0.77728666 36:0.6291466 
1 0 39:1 
1 0 3:0.65742664 23:0.65742664 39:0.36821247 
1 0.1622437597153009 16:0.2940314 26:0.83993039 55:0.45613867 
0 0.0495472940752818 55:1 
0.5436973169879761 0 35:0.53922775 80:0.57224302 95:0.61787649 
1 1 24:0.41682516 38:0.90898668 
1 0 68:0.99009426 79:0.14040427 
1 0 53:1 
0.6951986852815638 0 16:0.66549339 20:0.74640374 
1 0 13:0.70223578 39:0.66076671 79:0.26505143 
1 0 3:0.64482747 39:0.3611559 49:0.65785774 79:0.14486941 
1 0 54:1 
1 0 3:1 
1 0 3:0.95736915 39:0.26810223 79:0.10754307 
1 0 24:0.5581311 39:0.82975278 
1 0 48:0.84466115 54:0.47733567 79:0.2422771 
1 0 3:0.3348187 11:0.39203843 13:0.19929467 77:0.524496 79:0.30088603 87:0.57345922 
1 0 8:0.75196757 9:0.25434937 19:0.46018544 31:0.35204524 39:0.14413262 79:0.11563077 
1 0 9:0.71115547 53:0.70303478 
0 0.9031452664949169 137:1 
1 0 20:1 
0.002992799791592625 0 6:0.39725548 67:0.64891759 95:0.64891759 
1 0 6:0.68998153 54:0.72382698 
1 0 36:1 
1 0 6:0.45253566 14:0.83095509 39:0.30034987 79:0.12047847 
1 0.3704472873976271 49:1 
1 0 10:0.4928486 49:0.849755 79:0.18712749 
0.6866496507160411 0 54:0.96927403 79:0.24598346 
1 0 9:0.61542193 10:0.73687132 79:0.27977939 
0 1 23:1 
1 0 9:0.97512554 79:0.22165327 
1 0 24:0.95830744 79:0.28573911 
1 0 24:0.47962906 67:0.87747135 
1 0 36:0.35410273 67:0.67447066 78:0.60939802 79:0.21985138 
1 0 13:0.21582484 19:0.32419567 27:0.45433707 49:0.36991667 72:0.69174631 79:0.16292126 
0.9847721381754615 0 24:0.37613528 27:0.62551605 49:0.50928887 54:0.44192601 79:0.11215248 
1 0 20:0.62957684 31:0.77693823 
1 0 20:0.9232733 79:0.046779303 88:0.3812848 
1 0 3:0.4516788 16:0.44642579 24:0.34032829 26:0.63763018 39:0.25297692 79:0.10147589 
0.2057841550008345 0.1592791251298254 138:1 
1 0 9:0.44384525 11:0.52581254 27:0.56269719 49:0.45814238 
1 0 13:1 
1 0 13:0.15010269 39:0.98867041 
1 0 39:0.38816968 69:0.90833922 79:0.15570537 
1 0 79:1 
1 0 3:0.55298062 9:0.54654947 24:0.4166566 36:0.40019562 79:0.24846901 
1 0 23:0.23554442 24:0.17747663 32:0.30462107 33:0.3410876 52:0.42349665 55:0.72231321 79:0.052918313 
1 0 20:1 
1 0 39:0.38816968 69:0.90833922 79:0.15570537 
1 0 79:1 
0.878807944504889 0 16:0.56541687 19:0.5114945 20:0.63415997 79:0.12852345 
0.002340368302213513 0 16:1 
1 0 24:0.45726965 33:0.87881436 79:0.13634437 
1 0 19:0.76468446 24:0.64440491 
1 0.1616082382353318 8:0.79664642 20:0.6044456 
0.9343907958087041 0 13:0.42182361 19:0.63363137 36:0.51287002 39:0.3969137 
1 0 24:1 
1 0 20:0.35761321 36:0.93386979 
1 0 9:0.33519778 16:0.33519778 32:0.87719982 79:0.076192943 
1 0 6:0.32718117 10:0.45882811 39:0.21715156 49:0.39554894 54:0.68646058 79:0.087105372 
1 0 79:1 
1 0 3:0.65495652 13:0.38985082 16:0.64733939 
1 0 35:1 
1 0 35:1 
1 0 13:0.46570373 20:0.86730803 79:0.17577492 
1 0 16:0.3111485 24:0.23720099 26:0.88882712 36:0.22782982 79:0.070726363 
1 0 24:1 
1 0 79:1 
1 0 10:0.61762365 24:0.78647379 
1 0.04745649355887563 39:0.35220643 40:0.93592234 
1 0 79:1 
1 0 6:0.36439936 10:0.51102168 39:0.48370648 49:0.44054424 53:0.4219227 
1 0 79:1 
1 0 79:1 
0.9596611956009119 0 13:0.36222223 39:0.68166338 49:0.62083699 79:0.13671693 
1 0 6:0.42139778 26:0.70494439 39:0.55936662 79:0.11218864 
1 0 3:0.45646163 15:0.51084585 16:0.45115299 27:0.57196178 
1 0 79:1 
1 1 2:0.85945359 54:0.51121378 
0.8899412010801776 0 24:0.95830744 79:0.28573911 
1 0 13:0.46016908 39:0.43299476 53:0.75537616 79:0.17368593 
1 0 24:1 
1 0 79:1 
1 0 79:1 
1 0 11:0.67030685 36:0.4143021 53:0.55935374 79:0.2572273 
1 0 13:0.29805994 19:0.447723 56:0.81245306 79:0.22499867 
1 0.9897498731123514 19:1 
0.001753229306716008 0 78:1 
1 0.6064727623871302 6:0.31489606 40:0.55537256 140:0.76967642 
1 0 15:0.38906489 24:0.52388389 36:0.50318635 77:0.54458906 79:0.15620638 
1 0 6:0.99125624 79:0.13195097 
1 0 79:1 
1 0 6:0.47350669 54:0.49673347 79:0.12606158 80:0.71634891 
1 0 36:0.63064291 49:0.44450799 71:0.60528918 79:0.19577329 
1 0 9:0.46927174 53:0.46391312 77:0.74376769 79:0.10666895 
1 0.365736795533582 24:0.19868735 39:0.14769067 54:0.70032048 67:0.36349469 135:0.56225762 
1 0.02778463291352237 9:0.43197407 12:0.28640841 13:0.13007508 24:0.16465558 26:0.61698878 46:0.35027934 69:0.28640841 70:0.31927589 
1 0 24:1 
0.6404191457088515 0 6:0.63114778 19:0.33436152 24:0.28176878 36:0.27063685 39:0.41889518 53:0.36538973 79:0.16803001 
1 0 13:1 
0.1872142611316771 0 6:0.524649 49:0.63427964 54:0.55038445 79:0.13967719 
1 0 13:0.50067375 36:0.40582611 39:0.15703584 78:0.34920605 79:0.18897374 80:0.3579502 137:0.52362814 
0.1884029083811618 0 49:0.97660061 79:0.21506102 
1 0 7:0.41224494 10:0.31817851 14:0.41661401 29:0.4362277 53:0.26270262 73:0.51293696 79:0.18121179 
1 0 13:1 
1 0 79:1 
1 0 13:0.23184324 24:0.29347884 36:0.56376856 53:0.38057501 74:0.62433094 79:0.087506764 
1 0.07682675134006134 24:1 
0.7182369146414539 0 79:1 
0.2885279620332711 0 13:0.26684686 49:0.45736674 79:0.10071851 80:0.57233611 95:0.617977 
0.4924314558704172 0 36:1 
1 0 53:0.5122325 54:0.46409742 67:0.72265583 
1 0 3:0.38567205 23:0.77134444 32:0.4987757 79:0.086646564 
1 0 35:0.98300503 79:0.18357864 
1 0 19:0.29230949 21:0.44723782 27:0.40965087 54:0.57883527 71:0.45417471 79:0.073448735 
1 0 13:0.14007434 15:0.26336508 36:0.85153992 39:0.26360488 67:0.324391 79:0.10573893 
1 0 6:0.29201556 9:0.34201804 39:0.19381199 49:0.70607024 70:0.50557718 79:0.077743239 
1 0 6:0.74404272 36:0.63809265 79:0.19808633 
0.8022775446578015 0 15:0.74568433 23:0.6662994 
0.4669323836430101 0.1236794016741743 32:1 
1 0.08514891543536625 37:1 
1 0 6:0.79849187 13:0.56322242 79:0.21258232 
1 0.9837723304991519 24:1 
1 0 36:0.63292224 54:0.77421537 
-1 0 9:0.8534904 39:0.48364896 79:0.1940047 
-1 0 39:1 
-1 0 13:0.21306293 15:0.40059683 39:0.20048094 57:0.7383111 80:0.45697973 
-1 0 36:0.95503974 79:0.29647782 
-1 0 54:0.96927403 79:0.24598346 
-1 0 3:0.48085411 10:0.56905152 13:0.28621957 27:0.60252639 
-1 0 6:0.2513518 13:0.17729294 17:0.55626387 39:0.16682328 54:0.26368128 71:0.4137874 73:0.56824663 79:0.066917335 
-1 0 19:0.53626715 71:0.83322296 79:0.13474808 
-1 0 13:0.20241732 36:0.49221416 39:0.19046399 58:0.70142168 80:0.43414692 
-1 0 54:1 
-1 0 13:0.16370273 33:0.39825667 35:0.66170849 36:0.39807266 54:0.24346907 79:0.12357547 95:0.37911079 
-1 0 12:0.47345482 13:0.21502397 24:0.27218816 46:0.57903831 77:0.56589175 
-1 0.288580364432986 12:0.63299446 46:0.77415633 
-1 0 24:0.43345589 48:0.90117478 
-1 0.1543232368095441 48:1 
-1 0 15:0.32676171 25:0.48612492 59:0.60223094 78:0.36364678 95:0.40247765 
-1 0 19:0.55493049 20:0.68801268 24:0.46764378 
-1 0 20:0.32614018 35:0.70786662 47:0.50390365 78:0.36642817 79:0.066097929 
-1 0 24:0.95830744 79:0.28573911 
-1 0.7198406596968343 11:0.41065708 77:0.54940532 79:0.078794076 140:0.72339896 
-1 0 79:1 
-1 0 54:0.49973347 79:0.38046828 95:0.77814546 
-1 0 11:0.45108661 29:0.62505992 54:0.34104748 79:0.086551417 95:0.53105219 
-1 0 79:1 
-1 0 79:1 
-1 0 11:0.52114237 19:0.39795066 36:0.32210678 79:0.099993238 138:0.67549573 
-0.2501545321569161 0 1:0.34065944 12:0.38529985 35:0.35366164 36:0.21275688 48:0.46052548 67:0.40524474 70:0.42951586 79:0.066047194 
-1 0 1:0.26471508 36:0.16532626 67:0.62980411 70:0.33376243 77:0.35785897 78:0.28452053 79:0.10264594 88:0.41831975 
-1 0 25:0.76782182 71:0.64066344 
-1 0 23:0.27345358 36:0.1979001 39:0.15315627 55:0.83856426 71:0.37988786 79:0.12287002 
-1 0 3:0.23739315 6:0.40065883 13:0.28260781 15:0.26567689 24:0.1788696 39:0.26591879 55:0.72798247 
-1 0 24:0.46826157 35:0.74763036 36:0.44976181 79:0.13962184 
-1 0 3:0.56449353 39:0.31616235 49:0.57590047 54:0.499727 
-1 0 19:0.50216455 20:0.62259254 24:0.42317756 36:0.40645895 79:0.12617911 
-1 0 1:0.41148248 6:0.59931983 12:0.46540362 35:0.42718783 36:0.25698899 79:0.079778394 
-1 0 6:0.53384439 7:0.32332515 8:0.30808798 13:0.12551705 15:0.23599474 26:0.29768427 27:0.26422839 39:0.35431452 49:0.21513209 68:0.33407665 79:0.047375075 
-1 0 13:0.63819691 39:0.60050952 79:0.48176033 
-1 0 9:0.52719472 10:0.31561654 13:0.15874771 26:0.37649624 39:0.1493732 40:0.39693118 49:0.27208836 56:0.43271519 79:0.11983504 
-1 0 35:0.84612824 36:0.50901647 79:0.15801656 
-1 0 3:0.6939953 6:0.58564315 39:0.38869389 79:0.15591565 
-1 0 9:0.6596086 39:0.37378161 53:0.65207653 
-1 0 9:1 
-1 1 38:0.66509108 79:0.090937363 88:0.7412046 
-0.5040933632261425 0 24:0.29753784 33:0.57183005 39:0.2211694 52:0.70998802 79:0.17743373 
-1 0 6:0.36373969 13:0.25656661 24:0.32477493 39:0.2414156 52:0.77498146 79:0.1936763 
-1 0 13:0.27795633 33:0.67621328 70:0.68225793 
-1 0 1:0.30238143 13:0.31065036 35:0.31392264 36:0.18885057 67:0.71941905 79:0.058625837 138:0.39604181 
-1 0 19:0.53319422 20:0.66106367 54:0.52791926 
-1 0 19:0.40901548 20:0.50710467 38:0.75165737 79:0.1027735 
-1 0 40:0.70016079 138:0.71398521 
-1 1 2:0.46685821 12:0.4111203 40:0.46685821 41:0.62854349 
-0.0006117993302642683 0 3:0.46698644 8:0.68227944 10:0.55264027 79:0.10491497 
-1 0 13:0.33289665 19:0.50005205 26:0.78951901 79:0.1256483 
-0.3901015673839499 0 6:0.41177158 45:0.91128709 
-1 0 24:0.95830744 79:0.28573911 
-1 0 6:0.39321653 20:0.51654107 24:0.35109414 33:0.67475847 
-1 0 9:0.97512554 79:0.22165327 
-1 0 9:1 
-1 0 54:1 
-1 0 19:0.82887639 39:0.51921734 79:0.20827214 
-1 0.5596676229502953 24:0.46158012 33:0.88709853 
-1 0 13:0.63522263 36:0.77232908 
-1 1 4:0.5655341 35:0.44827076 78:0.46409599 95:0.51365301 
-1 1 2:0.59196963 6:0.33564659 24:0.29969124 31:0.54411798 53:0.38863107 
-1 0 9:0.55847521 13:0.16816682 16:0.2792376 53:0.55209797 69:0.37028147 78:0.35187508 79:0.12694531 
-1 0 19:0.4731731 74:0.84827113 79:0.23778836 
-1 0 13:0.61771632 36:0.75104421 79:0.23315046 
-1 1 5:0.65063342 27:0.50861913 71:0.56389957 
-1 0 13:0.29541192 21:0.67893689 23:0.49629743 54:0.4393553 79:0.11150009 
-1 0 13:0.49506506 49:0.84852521 79:0.18685704 
-1 0 9:0.50820526 10:0.60849617 39:0.2879856 49:0.52457556 79:0.11551883 
-1 0 15:0.17351272 42:0.9319895 49:0.31634733 79:0.034832038 
-1 0 79:1 
-1 0.3582437854197461 2:0.56200444 6:0.31865634 20:0.41859655 31:0.51657501 54:0.33428729 79:0.16967128 
-1 0 54:0.96927403 79:0.24598346 
-1 0 13:0.0953658 19:0.14325126 28:0.27863035 36:0.11594955 37:0.24315983 48:0.50196017 77:0.75294019 79:0.035994807 
-1 0 3:0.32480932 6:0.27409747 12:0.42570244 13:0.19333678 19:0.29041581 31:0.44434047 46:0.52063684 79:0.21891844 
-1 0 20:0.7501855 53:0.66122743 
-1 0 8:0.46134551 11:0.36973215 19:0.56466394 20:0.35004019 33:0.45725809 
-1 0.4955857294584087 21:0.9254418 39:0.3788898 
-1 0 13:0.45714865 16:0.75908608 39:0.4301527 79:0.1725459 
-1 0 39:0.98047424 79:0.19664754 
-1 0 3:0.65170242 39:0.36500643 49:0.66487162 
-1 0 3:0.82202101 69:0.53867942 79:0.18467795 
-1 0 20:0.52675228 27:0.59541467 80:0.60664109 
-1 0 37:0.74634403 79:0.22096131 80:0.62781102 
-1 0 10:0.38289568 13:0.19258754 15:0.3620994 39:0.36242909 49:0.33008871 75:0.51861924 79:0.072690121 80:0.4130639 
-1 0 7:0.4673352 10:0.36069822 13:0.18142274 15:0.34110756 36:0.22058103 49:0.31095261 73:0.58148318 79:0.1369519 
-1 0 11:0.57904554 27:0.61966437 39:0.27697781 54:0.43779181 79:0.1111033 
-1 0 3:0.43743956 27:0.54812649 48:0.68525234 79:0.19655332 
-1 0 11:0.64458329 36:0.39840293 39:0.30832682 49:0.56162777 79:0.12367824 
-1 0 3:0.25416272 13:0.30257137 25:0.42316931 39:0.14235182 40:0.3782732 49:0.25929868 79:0.11420212 80:0.64895842 
-1 0 9:0.75430188 53:0.37284425 78:0.4752584 79:0.25718728 
-1 0 13:0.20400948 39:0.57588608 40:0.51010326 54:0.30341582 70:0.50075164 79:0.15400212 
-1 0 12:0.45512623 39:0.19449364 46:0.55662233 48:0.54398471 54:0.30741713 79:0.2340497 
-0 0.1164582875225677 21:0.44563786 39:0.18245085 47:0.55794004 58:0.67191168 79:0.073185978 
-0.4951959118019474 0 6:0.33834729 9:0.39628326 11:0.4694672 13:0.11932794 15:0.22435811 27:0.25119958 37:0.30425752 39:0.11228128 48:0.31404266 53:0.19587905 54:0.17747207 77:0.31404266 79:0.09007795 
-0.9230342647633093 0 1:0.36732193 3:0.3169915 9:0.3133049 13:0.37736672 15:0.35475883 39:0.35508184 53:0.30972727 78:0.39480423 79:0.14243278 
-0.4456226645075007 0 13:0.16462751 15:0.30952947 25:0.46048844 39:0.15490577 42:0.55419228 49:0.56433225 79:0.12427356 
-1 0 15:0.23730577 36:0.30691287 39:0.23752183 49:0.86530904 54:0.18771395 79:0.09527633 
-1 0 39:0.522765 54:0.82628365 79:0.2096952 
-1 0 3:0.47457554 13:0.28248236 25:0.79014658 39:0.26580096 
-1 0 24:1 
-1 0 79:1 
-1 0 16:0.53830349 21:0.37253322 24:0.20518517 27:0.34122463 40:0.4052951 54:0.24107461 74:0.43649979 
-1 0 79:1 
-1 0 39:0.92811554 79:0.37229228 
-1 0 39:1 
-1 1 4:0.86676062 6:0.48193732 79:0.12830607 
-1 0 13:0.42398308 15:0.79716484 39:0.39894565 79:0.16002791 
-1 0 39:0.522765 54:0.82628365 79:0.2096952 
-1 0 20:0.51901609 36:0.67767834 54:0.41448139 79:0.31556226 
-1 0 6:0.77620096 13:0.27374968 19:0.41120597 36:0.33283581 79:0.20664741 
-1 0 15:0.49396623 67:0.60842614 71:0.61317364 79:0.099161901 
-1 0 3:0.56264162 13:0.33490207 19:0.50306445 53:0.54974802 79:0.12640523 
-1 1 19:1 
-1 0 3:0.24957028 6:0.21060535 13:0.14855212 22:0.44871441 24:0.75217921 32:0.3227602 
-1 0.04742425730555411 10:0.65192154 11:0.64502419 36:0.39867544 
-1 0 79:1 
-1 0 10:0.54721643 21:0.6325695 39:0.25898348 49:0.4717472 79:0.10388529 
-1 0 6:0.50513321 19:0.53520622 20:0.66355818 79:0.1344815 
-1 1 9:0.45249978 24:0.34495874 28:0.79619703 79:0.20571271 
-1 0 70:0.98838282 79:0.15198487 
-0 0.1667090963196615 57:1 
-1 0 6:0.73164259 24:0.6532671 79:0.19478505 
-1 0 19:0.82887639 39:0.51921734 79:0.20827214 
-1 0.02360821713880945 23:1 
-1 0 23:0.78611175 24:0.59231487 79:0.17661089 
-1 0 19:0.46668664 24:0.39328008 37:0.79217066 
-1 0 71:1 
-1 0 69:0.98562405 79:0.16895335 
-1 0 19:0.43641172 69:0.63970874 79:0.10965737 80:0.62313144 
-1 0 23:0.36073264 24:0.27180271 32:0.46652246 49:0.3680221 76:0.66056318 79:0.08104358 
-1 1 5:0.58707585 19:0.32747608 20:0.40601066 31:0.50104322 54:0.32423631 79:0.1645698 
-1 0 3:0.32797404 39:0.91846029 79:0.22105143 
-1 0 3:0.30156346 8:0.44059213 10:0.3568757 21:0.41254003 36:0.21824341 39:0.50670004 49:0.30765727 79:0.13550055 
-1 0 6:0.3306301 8:0.57243194 10:0.46366477 13:0.466425 19:0.3503141 79:0.088023579 
-1 0.3023924582096297 28:0.47023557 47:0.46311256 71:0.7512691 
-1 0 14:0.67457919 27:0.54549954 39:0.48765479 79:0.097805849 
-1 0 8:0.51530821 10:0.41739506 39:0.59262677 79:0.079239592 80:0.45028147 
-1 0 6:0.43772707 13:0.30875418 39:0.29052134 70:0.75785282 79:0.23307151 
-0.7800553076741308 0 3:0.27616308 6:0.23304627 9:0.27295131 14:0.42792426 26:0.77971299 79:0.062043859 
-0.007895937433551182 0 9:0.3633163 24:0.27697059 57:0.75819829 78:0.45782498 79:0.08258449 
-1 0 11:0.50298851 23:0.42957513 39:0.24059706 54:0.38028831 67:0.59215491 79:0.096509999 
-1 0 13:0.59157078 56:0.80625307 
-1 0 13:0.24639438 24:0.31189841 47:0.70898598 71:0.57506458 79:0.092998938 
-1 0 9:0.59807881 19:0.54104155 53:0.59124934 
-1 0 13:1 
-1 0 6:0.47426011 77:0.88038477 
-1 0 6:0.356797 22:0.7601894 35:0.50864106 79:0.1899796 
-1 0 9:1 
-1 0 15:0.51372718 36:0.33220745 39:0.25709767 77:0.71908366 79:0.20625728 
-1 0.000693775633759719 6:1 
-1 0 6:0.55394954 24:0.49460899 49:0.66970281 
-1 0.4987551884663044 13:1 
-1 0 39:0.51075814 76:0.8349556 79:0.20487868 
-1 0 13:0.41351163 69:0.91049884 
-1 0 3:1 
-1 0 3:0.4864619 13:0.2895575 21:0.66548185 23:0.4864619 
-1 0 24:0.36733427 66:0.93008899 
-1 0 6:0.44151888 9:0.25856058 10:0.30958578 11:0.30631035 13:0.15571438 16:0.25856058 27:0.32779738 36:0.18932377 49:0.26688933 69:0.34286282 79:0.11754525 80:0.33397793 
-1 0 3:0.40522422 24:0.6106523 37:0.6150077 39:0.22695857 79:0.1820781 
-1 0 6:0.28185879 13:0.59643384 15:0.37380115 27:0.4185215 39:0.3741415 54:0.29568472 79:0.15007811 
-1 0 39:0.26919792 44:0.96308488 
-0 0.4114338389423499 10:0.35270694 28:0.51831944 36:0.21569405 40:0.44357747 66:0.5686004 79:0.20087672 
-1 0 13:0.28004521 23:0.47048108 34:0.79422032 39:0.26350772 
-1 0 35:0.98300503 79:0.18357864 
-0.5092178922685501 0.08132608615025998 49:0.48392467 76:0.8685968 79:0.10656694 
-1 0 3:0.29304999 6:0.74189025 35:0.35254006 36:0.21208216 39:0.16413186 79:0.065837737 95:0.40395958 
-1 0 15:0.25654676 22:0.41215266 36:0.33179769 43:0.4593302 54:0.20293399 67:0.63198534 79:0.051500818 
-1 0 34:0.7291762 68:0.684326 
-1 0 6:0.99125624 79:0.13195097 
-1 0 10:0.45237135 13:0.45506435 39:0.42819114 75:0.61272167 79:0.17175886 
-1 0 3:0.38681034 10:0.4577584 11:0.45291531 13:0.23024174 15:0.43289609 39:0.43329025 79:0.086902296 
-1 0 13:0.70223578 39:0.66076671 79:0.26505143 
-1 0 37:0.71442919 39:0.52729648 53:0.45994495 
-1 0 13:0.54649269 21:0.62799438 39:0.51422031 79:0.20626745 
-1 0 9:0.30749232 13:0.18518282 36:0.45030536 53:0.60796213 56:0.50477212 79:0.20968558 
-1 0 12:0.34110614 19:0.46540779 20:0.28851043 24:0.19610119 35:0.62619362 36:0.18835376 53:0.25429844 54:0.23040173 
-1 0.07033463307127263 6:0.44423563 19:0.47068312 33:0.76230709 
-1 0 1:0.27682199 10:0.28270898 13:0.14219598 36:0.34577513 39:0.66899407 49:0.24371924 79:0.32202175 80:0.30498352 
-1 0 16:0.86579807 39:0.49062299 79:0.098401162 
-1 0 78:0.9841173 79:0.17751942 
-1 1 23:1 
-1 0 12:0.3935778 13:0.17874707 16:0.29680589 23:0.30029835 39:0.50457434 41:0.60172354 79:0.1349321 
-0 0.3151029310531688 1:0.28712297 6:0.20909577 13:0.14748732 24:0.18669687 37:0.37605716 39:0.13877776 60:0.51107683 61:0.51107683 70:0.36201512 79:0.055667521 
-1 0 24:0.36245257 26:0.67908165 35:0.57869483 39:0.2694226 
-0.9160814839420278 0 10:0.26724087 13:0.13441589 36:0.16342822 39:0.12647824 60:0.93156275 
-1 0 13:0.26828682 39:0.2524437 60:0.92967433 
-1 0 3:0.42548316 6:0.35905314 9:0.21026731 13:0.25326092 19:0.19021465 25:0.35420485 39:0.47661006 49:0.21704044 54:0.18833283 79:0.19118091 80:0.27159841 
-1 0 10:0.45553263 13:0.22912223 39:0.21559189 49:0.39270795 72:0.73436614 
-1 0 8:0.40207633 24:0.41471438 26:0.38849878 35:0.33106804 36:0.19916495 38:0.45219155 70:0.40207633 
-1 0 24:0.95830744 79:0.28573911 
-1 0 13:0.44243951 24:0.5600622 36:0.53793565 39:0.41631217 79:0.16699409 
-1 0 11:0.41537955 16:0.70125463 27:0.44451755 39:0.19869062 54:0.31405089 
-1 0 13:0.3522804 16:0.58495448 23:0.59183753 36:0.42831661 
-0.5787945123976512 0 8:0.31401623 14:0.33303922 15:0.24053578 19:0.19217012 39:0.12037749 44:0.43066358 75:0.68901788 79:0.14485982 
-0 0.3280905413271315 22:0.58292702 40:0.48253715 44:0.64965245 79:0.072840045 
-1 0 6:0.18650329 10:0.52309217 15:0.24734068 16:0.21843867 23:0.4420182 39:0.37134893 44:0.44284732 49:0.22547502 79:0.049652731 
-1 0 3:0.32738147 10:0.3874292 11:0.38333019 13:0.1948678 15:0.36638669 16:0.32357403 27:0.41022 39:0.18336029 49:0.33399699 79:0.073550778 
-0.199954229550604 0 8:0.40816468 9:0.27611944 11:0.3271119 15:0.31265329 20:0.3096899 47:0.47848711 54:0.24731545 71:0.38810498 79:0.12552775 
-1 0 8:0.41122808 9:0.2781918 11:0.32956697 39:0.15764345 50:0.46862674 54:0.49834326 69:0.36889469 79:0.12646987 
-1 1 19:1 
-1 0 11:0.49302995 27:0.52761497 39:0.23583354 54:0.37275907 78:0.52443123 79:0.094599219 
-1 0 9:0.52412147 39:0.29700487 40:0.78923459 79:0.1191367 
-1 0 6:0.43771866 11:0.60734778 13:0.30874825 20:0.5750004 79:0.11653374 
-1 0 3:0.7742889 13:0.46088122 39:0.43366485 
-1 0.07389130292002988 13:0.27629003 69:0.60835471 74:0.74402175 
-1 0.1031173121068473 72:0.77927212 79:0.091767924 138:0.61993033 
-1 0 6:0.81716978 13:0.57639704 
-1 0 19:0.43182066 45:0.90195949 
-1 0.6246594603822853 3:0.4676421 32:0.60478459 95:0.64462894 
-1 0 79:1 
-1 0 79:1 
-1 0 9:0.90628384 19:0.40992693 79:0.10300252 
-1 0 39:1 
-0.6368157117514333 0 3:0.34148257 25:0.56855287 39:0.19125805 50:0.56855287 69:0.44755477 
-1 0.9195279516868147 5:0.54946581 39:0.38398575 54:0.6069293 78:0.42694156 
-1 0 14:0.839585 53:0.52941373 79:0.1217297 
-1 0 6:0.27845826 10:0.3905007 15:0.36929137 36:0.23880641 49:0.33664489 58:0.68061428 
-1 0 7:0.33956397 9:0.43777245 10:0.26208195 13:0.26364215 15:0.24784745 21:0.30296066 39:0.24807312 49:0.45187396 75:0.35498113 79:0.09950873 
-1 0 3:0.71525474 53:0.69886383 
-1 0 36:0.35164928 39:0.27214384 69:0.63683213 79:0.10916426 80:0.62032937 
-1 0 39:1 
-1 0 3:0.66395969 39:0.3718715 53:0.64874427 
-1 0 33:0.98817789 79:0.15331166 
-1 0 3:0.23954232 9:0.23675645 24:0.18048895 27:0.60030919 39:0.13416321 53:0.23405293 56:0.38865379 69:0.31394958 79:0.053816499 87:0.41027504 
-1 0 3:0.69349733 6:0.29261134 13:0.20639567 24:0.26126604 29:0.56259421 79:0.077901853 
-0.3341418396940457 0 12:0.37657091 24:0.21648981 36:0.20793688 40:0.42762476 45:0.53659239 49:0.29312819 68:0.45519608 79:0.0645509 
-1 0 3:0.38052486 12:0.49872448 13:0.45300085 46:0.60994327 79:0.17098002 
-1 0 11:0.56013121 40:0.71197471 54:0.42349149 
-1 0 13:0.38480122 39:0.72415461 54:0.57230073 
-0.8543119425879424 0.07511678233153862 19:0.32423916 28:0.63066024 29:0.58837519 39:0.203107 54:0.32103142 79:0.081471719 
-1 0 7:0.32324576 10:0.24948725 13:0.12548623 15:0.2359368 36:0.30514236 50:0.35100428 56:0.3420509 69:0.55260854 75:0.33792203 79:0.094726702 
-1 0 3:0.5260449 11:0.61594473 49:0.53667489 79:0.23636607 
-1 0.1229157707315157 29:1 
-1 0 10:0.31627272 13:0.15907776 36:0.1934131 40:0.39775642 48:0.41865468 54:0.7097713 
-1 0 79:1 
-1 0 9:0.42036038 39:0.23820638 52:0.76467936 53:0.41556028 79:0.095551033 
-1 0 13:0.29708143 15:0.55856681 16:0.49329771 20:0.55327259 79:0.22426002 
-0.0008552999176839606 0 18:0.57566335 34:0.52034577 51:0.55420489 53:0.30117923 
-0.8832812410125728 0 18:0.57566335 34:0.52034577 51:0.55420489 53:0.30117923 
-1 0 18:0.50943211 34:0.46047892 51:0.49044249 53:0.53305588 79:0.061283577 
-1 0 6:0.14706432 18:0.65093282 49:0.17779488 51:0.6266686 53:0.17027959 54:0.30855644 79:0.078305651 
-0 0.5036281434847506 4:0.37587797 18:0.46252702 25:0.41234813 49:0.25266796 51:0.44528583 54:0.21924796 56:0.40183001 79:0.055640996 
-1 0 39:0.39296243 69:0.91955453 
-1 1 16:0.467762 17:0.88385446 
-0 0.101881518521937 4:0.2802811 24:0.13914801 36:0.13365065 37:0.2802811 38:0.30344542 62:0.7618266 78:0.23000794 79:0.12446938 95:0.25456861 
-0.3541282244157175 0 1:0.43602142 24:0.28351559 49:0.38388139 68:0.59612589 78:0.46864368 79:0.084536015 
-1 0 53:0.42604767 62:0.89938131 79:0.09796243 
-1 0.08941092898778807 62:1 
-0.9085796741107898 0 36:0.22178673 39:0.1716423 43:0.61406904 49:0.31265228 70:0.44774543 74:0.49122397 79:0.068850377 
-1 0 6:0.59837166 50:0.39352777 66:0.45092517 68:0.37445743 74:0.37886063 
-1 0 6:0.73835112 13:0.26040077 15:0.24480027 49:0.22315918 50:0.36419049 74:0.35061678 79:0.14742806 
-1 0 13:0.39347442 15:0.36990153 21:0.45215559 26:0.46659457 74:0.52979388 79:0.074256368 
-1 0 3:0.25508485 6:0.21525895 13:0.15183457 14:0.39526281 15:0.28547643 27:0.3196299 39:0.28573636 63:0.52614102 74:0.40887549 
-1 0 6:0.31952385 13:0.45075725 36:0.27402435 54:0.33519736 79:0.085066765 137:0.70713467 
-1 0 19:0.6639578 20:0.41159334 36:0.26870833 37:0.56351291 
-1 0 24:0.83909929 33:0.53754732 79:0.083398216 
-0.9449688297098253 0 6:0.41082463 13:0.19318549 29:0.78987889 33:0.23499122 53:0.1585588 79:0.036457904 88:0.29715802 
-1 0 13:0.24642404 19:0.37015947 24:0.15596798 36:0.14980611 52:0.37217248 53:0.40450968 56:0.67170389 79:0.046505067 
-1 0 6:0.7590843 36:0.65099234 
-1 0 13:0.26440225 36:0.96441249 
-0.6070632357550535 0 13:0.31396441 15:0.19676995 29:0.57053717 36:0.1272435 53:0.17179282 54:0.15564925 71:0.24425586 74:0.5636501 77:0.27542646 79:0.11850237 
-1 0 13:0.39257903 53:0.32221292 57:0.68018745 74:0.52858828 
-1 0 29:0.69392688 56:0.69392688 79:0.19217433 
-1 0 21:0.59177702 36:0.313064 39:0.24228242 53:0.42267109 79:0.097186042 80:0.55226275 
-1 0 21:0.68306368 36:0.090339184 39:0.13982814 75:0.20008759 76:0.22858234 79:0.084133241 80:0.637454 
-1 0 21:0.64873741 36:0.11439911 39:0.1770684 75:0.25337667 76:0.28946039 79:0.14205369 80:0.60541977 
-1 0 1:0.30229865 20:0.28919222 35:0.31383671 39:0.14611277 66:0.49770085 79:0.11721935 80:0.66610393 
-1 0.4822962251713794 21:0.73109377 80:0.682277 
-1 0 21:0.68187066 36:0.36072566 80:0.63634063 
-1 0 33:0.68271954 35:0.56717357 53:0.46066057 
-1 0.210365872668419 12:0.57167607 45:0.81460628 79:0.097995366 
-1 0 9:0.41948017 11:0.49694783 19:0.37947541 27:0.53180768 54:0.37572121 79:0.095350955 
-1 0 6:0.22874953 9:0.26791882 11:0.31739683 13:0.3227005 54:0.23997031 61:0.55911501 72:0.51714826 79:0.18269957 
-1 0 9:0.48550999 11:0.28758587 13:0.1461957 15:0.27487434 19:0.43920814 27:0.30775941 54:0.2174315 70:0.35884477 78:0.30590233 79:0.16553982 
-1 0 11:0.51901754 20:0.49137463 24:0.33398845 31:0.60638783 79:0.099585539 
-1 0 1:0.238098 6:0.3467872 13:0.12230452 19:0.18371655 20:0.4555501 24:0.30963862 28:0.35733723 70:0.30020266 71:0.28544887 79:0.04616254 90:0.41171868 
-0.3132117275497647 0 14:0.58586043 53:0.36942366 66:0.72131388 
-1 0 35:1 
-1 0 52:0.78746639 71:0.60845249 79:0.098398402 
-1 0 13:0.18622831 20:0.34682417 31:0.42800329 35:0.37637996 36:0.22642383 48:0.49010845 70:0.45710686 79:0.14057952 
-1 0 20:0.42733754 24:0.58092493 31:0.52736196 36:0.27898691 54:0.34126776 79:0.08660732 
-1 0 13:0.10737719 16:0.53489293 49:0.36808193 58:0.37208617 59:0.37208617 65:0.53696983 79:0.040528377 
-1 0 20:0.54100763 24:0.36772411 35:0.58711142 53:0.47685417 
-1 0 23:0.34882033 24:0.2628271 39:0.1953678 47:0.59744045 76:0.63874971 79:0.078367315 
-0.04548430500633404 0 3:0.386629 7:0.59281226 8:0.56487512 13:0.2301338 19:0.34568951 79:0.086861557 
-1 0.03765190414553898 68:0.99009426 79:0.14040427 
-1 0 34:0.99125991 79:0.13192342 
-1 0 14:0.84587554 53:0.53338033 
-0 0.1665212563630147 42:1 
-1 0 54:1 
-1 0.3937206954494746 19:0.5075888 37:0.86159945 
-1 0 19:0.46668664 24:0.39328008 37:0.79217066 
-1 0 20:0.44482481 33:0.58107539 53:0.39207684 71:0.55745675 
-1 0 20:1 
-1 0 6:0.53401635 19:0.56580891 54:0.56021129 79:0.28434156 
-1 0.06503303018882263 50:0.78575763 69:0.61853452 
-1 0.06456600856052931 43:0.99377303 79:0.11142338 
-1 0 7:0.36391662 10:0.28087779 13:0.14127494 15:0.26562242 19:0.42442495 36:0.17176772 49:0.24214059 63:0.48954952 75:0.38043945 79:0.21329047 
-1 0 13:0.24619405 19:0.369814 50:0.6886426 69:0.54208728 79:0.18584629 
-1 0 6:0.79849187 13:0.56322242 79:0.21258232 
-1 0 6:0.29723604 11:0.41242393 26:0.49723774 67:0.48553565 79:0.23739895 80:0.44967626 
-1 0 13:0.10131893 15:0.1904979 36:0.12318761 67:0.93855701 71:0.2364702 79:0.038241752 
-1 0 42:0.88672717 49:0.45147574 79:0.099421231 
-1 0 1:0.32859862 6:0.23930019 20:0.31435193 67:0.7817944 78:0.35318372 
-1 0 39:0.92811554 79:0.37229228 
-1 0 1:0.40162349 13:0.41260629 23:0.69318643 36:0.25083162 49:0.3535968 
-1 0 3:0.87247572 39:0.48865747 
-1 0 39:0.95760328 79:0.2880902 
-0.8506503263103787 0 7:0.49917478 10:0.38527262 13:0.19378309 21:0.44536621 49:0.33213784 65:0.48453328 79:0.14628245 
-1 0 16:0.50387459 39:0.28553131 49:0.52010539 68:0.40383345 76:0.4667688 79:0.11453421 
-1 0 36:0.95503974 79:0.29647782 
-1 1 9:0.47309195 79:0.32261151 87:0.8198206 
-1 0 16:1 
-1 0 13:0.48565473 39:0.4569754 54:0.72229645 79:0.18330521 
-1 1 12:0.23872157 15:0.20384478 24:0.13724052 27:0.22823211 36:0.65909258 67:0.25107889 79:0.040921089 80:0.23253538 94:0.35568394 135:0.38837162 
-1 1 6:1 
-1 0 13:0.23646577 36:0.28750454 39:0.66750497 53:0.38816298 79:0.089251489 80:0.50717439 
-0.7582206574876501 0 9:0.36934074 64:0.7707706 71:0.51913398 
-0.5786726031916518 0 9:0.3677286 26:0.52522694 64:0.76740624 
-1 0 6:0.19072949 9:0.22338853 13:0.13453253 15:0.25294547 19:0.20208454 22:0.40636704 26:0.31906596 36:0.32714005 64:0.46618555 67:0.311557 78:0.28149811 79:0.15233342 
-1 0 39:0.92811554 79:0.37229228 
-1 0.1275205125108077 4:0.56069951 11:0.43257752 13:0.21990292 15:0.41345725 54:0.32705354 79:0.41499945 
-1 0 3:0.26578446 6:0.22428805 12:0.34834312 13:0.15820331 46:0.42602589 67:0.73274969 79:0.11942408 
-1 0 13:0.31784919 15:0.59761393 67:0.73609068 
-1 0 3:0.26260519 10:0.31077177 13:0.15631091 20:0.29110719 21:0.35924496 27:0.32905314 40:0.39083822 49:0.26791175 67:0.36199244 69:0.34417629 79:0.11799555 
-0.3724473391369561 0.09163135887542705 14:0.59028876 50:0.63425739 69:0.49927621 
-0.5229678502311148 0 3:0.2974272 8:0.43454894 36:0.21524997 39:0.49975011 44:0.59597047 79:0.26728403 
-1 0 9:0.29448824 10:0.35260352 13:0.1773513 19:0.26640364 35:0.35843891 39:0.33375611 53:0.29112547 69:0.39050449 78:0.37109283 79:0.26775692 
-1 0 6:0.17463216 14:0.32066309 19:0.7401154 35:0.24895133 39:0.11590412 65:0.3079934 69:0.27122226 78:0.25774002 79:0.092984381 
-0.715308867363542 0 7:0.28869138 9:0.18609326 10:0.22281751 11:0.2204601 13:0.11207198 21:0.25757188 56:0.30548628 75:0.60359756 79:0.12690097 80:0.48074646 
-1 0 7:0.2980195 13:0.34707966 15:0.43504817 19:0.34757113 24:0.1464503 26:0.27438545 36:0.42199334 39:0.1088612 49:0.19829437 72:0.37081162 79:0.13100136 
-1 0 6:0.96633997 79:0.25726848 
-1 0 6:0.7590843 36:0.65099234 
-1 0 20:0.69606449 36:0.45442505 54:0.55587058 
-1 0 24:0.63637173 54:0.74768106 79:0.18974735 
-1 0.7048326479859332 8:0.66448227 38:0.74730403 
-1 0 7:0.39965084 10:0.30845814 13:0.15514721 39:0.72992611 75:0.41779611 79:0.1171171 
-1 0 24:0.75404968 32:0.64712545 79:0.11241766 
-1 0.1737999431398624 11:0.29351316 12:0.32853852 20:0.27788063 36:0.18141411 37:0.38044668 46:0.40180474 70:0.36624074 79:0.056317299 89:0.50228788 
-1 0 9:0.39712848 20:0.44541116 36:0.29078625 53:0.39259366 68:0.63656221 
-1 0 54:0.96927403 79:0.24598346 
-1 0 9:0.71115547 53:0.70303478 
-1 0 13:0.42256903 80:0.90633074 
-1 1 6:0.43204752 19:0.45776938 138:0.77703419 
-1 0 24:0.4516769 40:0.89218159 
-1 0 24:0.22249372 31:0.40395853 35:0.35523535 36:0.21370359 38:0.48520062 53:0.28852352 79:0.066341087 88:0.54072735 
-0.00235627944744804 0 2:0.43905837 30:0.57607467 35:0.35489125 41:0.59111583 
-1 0 35:1 
-1 0 24:0.72120978 36:0.69271672 
-1 0 24:0.58400037 30:0.75677151 36:0.28046388 79:0.087065822 
-0.2237278661203595 0.9208022745605149 2:0.43905837 30:0.57607467 35:0.35489125 41:0.59111583 
-1 0 6:0.34233049 30:0.79217165 78:0.50524639 
-1 0.4072305977302634 24:1 
-1 0 9:0.52958436 12:0.3511262 14:0.41513263 31:0.36649914 70:0.39142053 95:0.3693021 
-1 0 79:1 
-1 0 9:1 
-1 0 39:0.47251419 49:0.86070064 79:0.18953824 
-1 0 9:0.60137079 24:0.45844908 53:0.59450373 79:0.27339155 
-0.6341937025224484 0.2292880293219828 9:0.339756 21:0.94051361 
-1 0 3:0.22397165 8:0.32722845 10:0.26505213 12:0.2935423 13:0.133315 20:0.24828054 39:0.25088453 46:0.35900414 49:0.45699506 68:0.35483172 78:0.27895055 79:0.050318331 
-1 1 13:0.08515288 16:0.14139463 23:0.1430584 32:0.18501225 34:0.24149725 49:0.14594923 79:0.032140049 134:0.91509902 
-1 0 3:0.87247572 39:0.48865747 
-1 0 54:0.49482773 65:0.83190534 79:0.25115539 
-1 0 32:1 
-1 0 20:0.62957684 31:0.77693823 
-1 0 31:0.6834868 70:0.72996287 
-1 0.417051478044019 1:0.36576657 20:0.34990843 24:0.23783355 55:0.48398012 136:0.67303593 
-1 0 26:0.64324237 39:0.25520353 68:0.72187978 
-1 0 3:0.60698992 10:0.71832294 39:0.3399638 
-1 0 20:0.52244218 24:0.35510513 31:0.64472719 54:0.41721744 79:0.10588191 
-1 0 36:1 
-1 1 3:0.30468922 39:0.51195207 87:0.52185509 90:0.61052176 
-1 0.6190973729241598 11:0.39232052 36:0.24248479 39:0.18766068 54:0.29661693 79:0.15055127 94:0.6542931 95:0.46186844 
-1 0.6552727517720376 79:0.14643373 138:0.98922048 
-1 0.03653313368767346 3:0.21342458 12:0.27971908 13:0.25407411 15:0.23885263 25:0.35534217 27:0.26742818 46:0.34209825 48:0.3343312 79:0.14384617 87:0.36554199 94:0.41676831 
-1 0 13:0.93557672 79:0.35312349 
-1 0 24:0.77626387 35:0.61969436 79:0.11572947 
-1 0 9:0.28317688 16:0.28317688 32:0.74106312 45:0.53507372 79:0.064368207 
-1 0 24:0.78052426 39:0.58018868 79:0.23272939 
-1 0 19:0.69884946 36:0.56565844 39:0.43776703 
-1 0 9:0.61468678 24:0.4686004 49:0.63448706 
-1 0 36:1 
-1 0 12:0.25941868 19:0.1769764 24:0.14913924 26:0.83827015 27:0.24801979 39:0.11085998 46:0.31727072 79:0.044468939 
-1 0 9:0.47196449 53:0.46657513 77:0.74803554 
-1 0 20:0.55886547 31:0.68967586 54:0.44630473 79:0.11326372 
-1 0 79:1 
-1 0.4018479466290421 26:1 
-1 0 3:0.58392844 13:0.69514533 39:0.32704749 79:0.2623747 
-1 0 6:0.33452817 13:0.23596204 31:0.54230491 36:0.28689209 38:0.65137052 79:0.17812238 
-1 0 1:0.32711727 16:0.27901259 20:0.3129348 23:0.84688729 
-1 0 23:0.60386046 24:0.22749652 33:0.4372195 57:0.62276457 79:0.067832775 
-1 0 6:0.73164259 24:0.6532671 79:0.19478505 
-1 0 9:0.71115547 53:0.70303478 
-1 0 54:0.89171393 79:0.45259946 
-1 0 6:0.24383631 24:0.21771592 31:0.39528398 37:0.43853776 47:0.49489683 54:0.51159428 79:0.19474921 
-1 0 13:0.6035895 24:0.76405397 79:0.22781844 
-1 -1 24:0.17263143 96:0.56868222 97:0.56868222 98:0.56868222 
-1 -1 24:0.24126846 28:0.55687017 99:0.79478623 
-1 -1 28:0.62995181 79:0.0813802 135:0.77235872 
-1 -1 11:0.35924574 12:0.40211507 19:0.27432442 36:0.22204199 79:0.068929619 100:0.76153669 
-0 -0.3708748967338397 2:0.56982525 4:0.58107624 138:0.58107624 
-1 -1 2:0.51977235 24:0.26314056 81:0.81276918 
-1 -1 2:0.33000844 4:0.33652434 19:0.19825452 38:0.36433699 101:0.55036329 102:0.55036329 
-1 -1 13:0.13194171 19:0.19819281 28:0.38549422 79:0.049799995 82:0.5158743 103:0.55019197 135:0.47263904 
-1 -1 6:0.25912183 19:0.27454859 87:0.52592072 104:0.762159 
-1 -1 8:0.22602806 9:0.15290578 12:0.20275986 13:0.092085304 35:0.1861106 36:0.111961 38:0.25420043 47:0.26497029 53:0.15115975 79:0.069513102 83:0.36004113 87:0.26497029 88:0.28329132 94:0.30210269 105:0.38399226 106:0.38399226 
-1 -1 6:0.14079592 26:0.2355335 33:0.2416054 54:0.14770234 95:0.45998067 107:0.4141252 108:0.4141252 109:0.4141252 139:0.34413672 
-1 -1 4:0.37231514 6:0.20701513 36:0.17753662 38:0.40308578 79:0.11022697 89:0.49155214 110:0.60889677 
-1 -1 31:0.36311995 111:0.65884137 112:0.65884137 
-1 -1 11:0.43154005 21:0.75627674 36:0.13336272 79:0.041400463 80:0.23525943 92:0.40862215 
-0 -0.5471180039430867 5:0.88486352 6:0.46585035 
-1 -1 92:0.66622889 113:0.74574732 
-0.64549085582768 -1 5:0.8352953 19:0.46593507 39:0.29186688 
-1 -1 6:0.25085049 8:0.2171533 9:0.1469021 19:0.13289242 20:0.16476238 21:0.20332735 28:0.25848192 39:0.24973571 49:0.1516341 79:0.10017568 82:0.34590449 83:0.34590449 93:0.32957807 95:0.20488238 114:0.3689152 139:0.30656736 
-1 -1 5:0.79347167 6:0.41773567 19:0.44260548 
-1 -1 3:0.14354195 5:0.23008338 6:0.36339319 13:0.17088141 19:0.3850276 21:0.19636596 27:0.17986289 33:0.20786049 39:0.080395182 49:0.14644255 87:0.49170165 90:0.28762252 94:0.28030386 137:0.26807371 
-1 -1 3:0.19099778 24:0.14391189 61:0.39395427 79:0.042910295 84:0.44450443 85:0.44450443 115:0.47407434 136:0.40725066 
-1 -1 5:0.20061202 12:0.16403185 13:0.074496613 25:0.20837848 28:0.21765683 35:0.15056267 37:0.37989686 61:0.25814757 79:0.084353753 84:0.29127172 85:0.29127172 86:0.29127172 93:0.27752393 116:0.31064808 117:0.31064808 136:0.26686033 
-0.4744599747349329 -0 2:0.55262115 4:0.28176614 6:0.15666796 24:0.13988527 30:0.36253831 88:0.33996372 89:0.37200408 95:0.25591742 137:0.34672012 
-1 -0.4571734300939011 2:0.55262115 4:0.28176614 6:0.15666796 24:0.13988527 30:0.36253831 88:0.33996372 89:0.37200408 95:0.25591742 137:0.34672012 
-0.5862464279944559 -1 2:0.42682193 4:0.43524938 17:0.53558498 19:0.25641579 88:0.52514825 
-1 -1 2:0.5572962 91:0.83031377 
-0.2367623261181924 -0 2:0.51601577 4:0.52620431 22:0.62337073 24:0.26123875 
-1 -1 22:0.55361766 24:0.23200702 87:0.52738237 94:0.60128867 
-1 -1 23:1 
-1 -1 6:0.18173671 40:0.32052348 90:0.43152919 95:0.29686727 118:0.53454497 138:0.3268521 140:0.44420517 
-0 -0.5386469932310751 2:0.24212227 4:0.24690288 5:0.26076387 6:0.2745665 13:0.096833803 15:0.18206506 19:0.14545638 40:0.24212227 61:0.33555097 79:0.036548889 86:0.37860712 87:0.27863383 90:0.32597557 138:0.24690288 140:0.33555097 
-0.7032072533408305 -0.8439695967887897 5:0.59778583 119:0.46283622 120:0.46283622 121:0.46283622 
-0 -1 2:0.50154704 4:0.51144991 17:0.6293516 19:0.30130735 
-1 -1 2:0.35547937 4:0.36249818 122:0.59284179 134:0.50927711 138:0.36249818 
-1 -1 2:0.41142454 4:0.41954797 12:0.36230482 134:0.58942689 138:0.41954797 
-1 -1 5:0.71418812 24:0.33571795 95:0.61418953 
