svm_type c_svc
kernel_type linear
nr_class 2
total_sv 333
rho 0.863718
label 1 -1
nr_sv 159 174
SV
0.8853819416851639 7:0.39878637 30:0.82044852 74:0.40967505 
1 7:0.29331214 53:0.66770371 74:0.3013209 193:0.61428451 
1 8:0.38731545 49:0.4124206 53:0.5449389 59:0.37554132 74:0.49183972 
1 9:0.33649688 12:0.20555609 38:0.45516654 55:0.27755887 60:0.44853897 116:0.326628 231:0.50242212 
1 7:0.17981142 12:0.20367367 16:0.36612082 47:0.33664086 66:0.32690958 74:0.36944246 105:0.46065426 150:0.34616076 191:0.32159935 
0.7651212783996902 6:0.30863582 7:0.20150422 66:0.36634858 114:0.37909824 116:0.36268101 186:0.67429646 
0.780381511039339 7:0.18406048 12:0.20848661 55:0.28151591 60:0.45493359 199:0.5889729 238:0.53809871 
1 59:0.83658838 74:0.54783198 
0.3777277769337707 8:0.22020348 27:0.55741782 59:0.21350943 93:0.41058473 141:0.31883815 193:0.5700631 
1 7:0.25099464 18:0.40704196 102:0.39639036 118:0.45340397 261:0.63923239 
1 12:0.16043562 19:0.30179291 30:0.29140314 49:0.24402228 55:0.21663348 57:0.38829822 60:0.35008269 116:0.25493172 124:0.29311529 139:0.51725097 
0.1294270857821996 19:0.34007253 20:0.23509943 35:0.24446005 57:0.43755023 60:0.39448742 116:0.28726743 139:0.58285943 
0.6078263831360622 1:0.25486678 8:0.26693676 11:0.21835457 12:0.18687674 16:0.33592691 20:0.4860414 68:0.33864098 172:0.41380451 206:0.38234936 
1 8:0.43525715 11:0.71208208 27:0.55089956 
1 1:0.31696134 7:0.20517795 8:0.33197199 20:0.30222929 50:0.47263531 74:0.21078024 120:0.40245976 206:0.47550318 
0.9106137414974302 5:0.27970909 8:0.29295556 11:0.23963797 15:0.39483484 25:0.40573678 85:0.47645647 108:0.48060987 
0.1908577954236276 8:0.36631106 20:0.33349178 63:0.30939766 105:0.58001216 172:0.56785423 
1 20:0.43099026 61:0.60983394 180:0.66509395 
1 11:0.23939408 12:0.20488321 26:0.36787594 27:0.37041283 59:0.28376081 114:0.34029563 150:0.34821648 197:0.44950587 221:0.32945927 
0.4424682140510932 7:0.12892247 17:0.33094081 35:0.19746532 146:0.50261737 240:0.49350436 246:0.39289819 264:0.42933071 
0.03369943591994908 7:0.21629284 17:0.55521838 30:0.44499299 130:0.66852913 
0.2953808830337032 7:0.10642494 11:0.14085364 15:0.23207476 17:0.2731902 26:0.21644924 40:0.42997401 51:0.26594053 62:0.24816079 68:0.21844661 132:0.30079109 146:0.41490845 240:0.4073857 
0.8824671598538202 7:0.089831436 17:0.4611903 30:0.3696317 36:0.2552622 40:0.36293356 95:0.28628011 124:0.18590181 146:0.35021698 150:0.17293739 178:0.24167538 240:0.34386716 
0.4402718224630383 7:0.15479832 39:0.33981269 82:0.3772463 112:0.5539663 119:0.27811246 130:0.47845869 193:0.32419459 
1 7:0.29950649 33:0.6674116 53:0.68180468 
1 17:0.32115849 34:0.27246427 35:0.19162841 40:0.25273564 63:0.17097613 146:0.48776044 221:0.22788235 240:0.4789168 264:0.41664007 
1 1:0.32889035 5:0.32889035 12:0.24115326 20:0.31360386 74:0.21871307 119:0.38249849 130:0.65804217 
1 7:0.21027999 17:0.5397837 66:0.19115177 95:0.67013282 118:0.18992792 119:0.37779131 
1 7:0.11257436 17:0.2889756 32:0.28288593 36:0.31988778 40:0.45481865 66:0.20466796 74:0.23129648 119:0.2022524 146:0.43888258 240:0.43092515 
0.444232484871701 6:0.37687108 33:0.54829985 49:0.42391316 53:0.56012423 74:0.2527725 
1 6:0.27217113 47:0.33268209 55:0.27178297 63:0.24283854 66:0.32306524 71:0.47376507 186:0.5946297 
0.8861963161530497 6:0.17254432 7:0.11265189 8:0.1822675 16:0.22937476 74:0.1157278 104:0.31425941 116:0.20275853 150:0.21686978 191:0.20148205 197:0.27995298 276:0.74326286 
0.08407031226537898 7:0.16355168 12:0.18525615 36:0.46474335 62:0.38136844 94:0.49340598 205:0.57797342 
1 5:0.23050272 6:0.22854022 12:0.33802417 35:0.22854022 49:0.25706724 62:0.69585729 132:0.42171787 
1 7:0.23716896 20:0.34935239 61:0.49431963 100:0.57501074 193:0.49670367 
0.8434860314033369 7:0.24788426 18:0.4019978 280:0.88144833 
1 7:0.1754983 66:0.31906803 184:0.41049834 201:0.64551926 216:0.53121741 
1 7:0.26832481 19:0.57172432 153:0.77532774 
1 7:0.23388765 18:0.37929928 141:0.54792884 216:0.70795664 
1 8:0.3517259 24:0.45472487 106:0.81823846 
1 249:1 
0.6510096680961024 6:0.45270249 93:0.89166163 
1 7:0.19097644 27:0.19554516 55:0.14604685 68:0.19599802 85:0.25127081 164:0.51378789 165:0.36552085 206:0.22129548 249:0.50471329 264:0.31798975 
1 164:0.71337862 249:0.70077881 
1 8:0.23337014 10:0.24063824 11:0.19089703 118:0.26055259 206:0.6685398 271:0.57996277 
1 7:0.17468637 30:0.35939335 74:0.1794561 78:0.42794608 102:0.27587837 111:0.59041653 160:0.44752452 
1 7:0.21970318 18:0.35629611 29:0.56285195 114:0.41333671 249:0.58063245 
1 191:0.57470796 261:0.81835858 
1 7:0.11897958 16:0.48451764 31:0.28139448 32:0.59796315 66:0.21631309 206:0.27573708 263:0.43763164 
1 7:0.14654492 39:0.32169485 60:0.36220814 66:0.26642878 116:0.26376152 120:0.28745015 130:0.45294864 150:0.28211834 250:0.48570261 
1 116:1 
1 30:0.29104164 31:0.33457018 119:0.25415479 166:0.54150997 246:0.43111735 267:0.50957598 
1 5:0.28458866 6:0.28216567 15:0.40172279 32:0.46292842 35:0.28216567 49:0.31738636 86:0.53231227 
0.224208176164947 6:0.284868 20:0.27396012 30:0.38264188 74:0.1910648 124:0.38489011 164:0.50036341 191:0.33264375 193:0.38951214 
1 41:1 
1 102:0.40222293 119:0.4575751 179:0.79299543 
0.6388470418672946 6:0.19483863 35:0.19483863 49:0.21915892 82:0.31000708 105:0.32588975 109:0.37881331 120:0.24951959 191:0.22751539 227:0.39317969 273:0.51149154 
0.9199264684565791 41:0.44439201 62:0.39463126 102:0.26727626 119:0.30405766 120:0.33196594 179:0.52694374 221:0.30825827 
1 7:0.20715051 12:0.23464084 28:0.44305026 47:0.38782478 97:0.42372398 136:0.61301609 
1 20:1 
1 7:0.28960241 35:0.44357224 150:0.55752293 279:0.63917314 
1 7:0.17387651 20:0.25612195 30:0.71545412 267:0.6263337 
1 55:1 
1 7:0.26243913 82:0.6395689 83:0.54182924 221:0.47801506 
1 7:0.3602057 68:0.73935408 102:0.56886501 
1 7:0.16833027 41:0.88400928 55:0.25745694 74:0.17292645 221:0.30660215 
0.7565381788057609 7:0.1296643 28:0.27732398 40:0.2619324 55:0.19831831 74:0.39961439 83:0.26770364 136:0.38371282 221:0.23617472 224:0.37794959 225:0.47023721 
1 7:0.27916864 12:0.31621629 55:0.42698146 131:0.79984933 
1 11:0.37233231 35:0.21544579 40:0.28414801 63:0.38445308 74:0.57801001 191:0.25157862 227:0.43476445 
1 11:0.30409701 12:0.13012923 20:0.16922445 35:0.17596223 40:0.23207376 61:0.47889182 97:0.23499266 101:0.3646491 102:0.18143284 208:0.44788458 227:0.35508756 
1 8:0.33274271 11:0.27218391 14:0.45891139 57:0.56379341 59:0.32262755 74:0.2112696 118:0.37149987 
1 11:0.10465516 35:0.24223027 63:0.10806219 64:0.71805311 74:0.08123351 108:0.62967865 
1 7:0.27973606 38:0.7016266 141:0.65533797 
0.01184294599337787 6:0.31965662 63:0.28520641 82:0.50860456 112:0.74685899 
1 7:0.11193678 11:0.14814857 19:0.23850564 27:0.22922928 35:0.17144902 74:0.11499316 81:0.78175389 114:0.21059131 178:0.30114585 206:0.25941528 
0.7324174256055613 6:0.14425811 12:0.1066831 26:0.19155375 49:0.1622648 55:0.14405237 63:0.12871104 66:0.17123337 82:0.45905702 102:0.14874305 112:0.33705062 118:0.17013705 122:0.31516993 179:0.2932517 183:0.24837261 255:0.24783936 259:0.39280735 
0.4405502203112162 9:0.37741205 24:0.42575776 74:0.20909645 193:0.42627217 276:0.67146197 
1 9:0.31319651 32:0.42444407 86:0.48805988 233:0.69537956 
0.2162954659090792 9:0.33527218 11:0.23930615 25:0.40517497 74:0.18574983 79:0.5650881 130:0.55886565 
1 19:0.43120632 65:0.56601087 90:0.70263276 
1 9:0.41012207 32:0.55579763 55:0.33828849 86:0.63910075 
1 20:0.43215292 102:0.46332978 183:0.77367265 
1 6:0.19213223 7:0.12544057 18:0.20342895 20:0.1847753 28:0.26829034 35:0.19213223 55:0.19185822 61:0.26144964 102:0.19810557 116:0.22577649 180:0.28514085 187:0.31404016 198:0.31462674 212:0.27837263 238:0.36672409 279:0.27685628 
1 20:0.43402095 60:0.72826974 116:0.53032914 
1 7:0.13919423 8:0.22521225 12:0.15766629 13:0.55193728 38:0.3491233 46:0.37447715 59:0.21836594 116:0.25053126 193:0.29151491 254:0.37796857 
0.4460362738737634 7:0.31313698 30:0.64423659 33:0.69778539 
1 7:0.24145534 25:0.54106597 35:0.36982734 102:0.38132516 198:0.60561192 
0.6181551946706296 7:0.16540585 12:0.18735638 78:0.40521072 102:0.26122186 111:0.55904965 120:0.32444617 134:0.53600754 
1 6:0.17459895 18:0.18486478 20:0.16791338 26:0.23184198 47:0.213417 52:0.32480407 55:0.17434995 70:0.29088649 78:0.27926048 83:0.2353495 111:0.3852822 141:0.2670523 225:0.41340527 279:0.2515914 
1 10:0.2632733 11:0.62656057 20:0.11622319 40:0.6375521 50:0.18175333 63:0.21565246 151:0.19643894 
1 20:0.31250649 61:0.44218415 63:0.28992851 124:0.43904441 227:0.65573953 
1 6:0.21019534 11:0.18162915 34:0.29886341 59:0.21529034 74:0.14098084 97:0.28071004 114:0.51636725 136:0.40611289 145:0.44095577 221:0.24996194 
1 11:0.18664274 59:0.2212331 74:0.1448724 97:0.28845861 102:0.22271276 114:0.26531028 119:0.25336152 136:0.41732301 145:0.45312768 262:0.49835555 
1 20:0.37804482 179:0.79909778 221:0.46746641 
1 30:0.43218424 33:0.46810729 63:0.28707519 94:0.63373439 102:0.33175428 
0.6708865320657793 9:0.28934932 20:0.22985821 49:0.26884405 61:0.32524016 102:0.24644091 121:0.5221808 180:0.35471174 246:0.47556026 
1 12:0.24850469 30:0.22568272 33:0.24444142 55:0.16777593 105:0.28102509 116:0.19743673 124:0.22700873 158:0.35101206 207:0.58755384 212:0.24343094 224:0.31974276 
1 12:0.22416873 18:0.32094613 20:0.29151659 31:0.46805895 55:0.3026912 61:0.4124843 207:0.53001472 
1 7:0.15437956 12:0.17486682 63:0.21097333 119:0.55471997 187:0.38648883 198:0.38721073 244:0.54227188 
0.8941661235010586 8:0.43508226 74:0.27624843 95:0.85696571 
1 7:0.149653 19:0.31886825 35:0.22921743 122:0.500786 142:0.46948253 160:0.38339219 216:0.45298604 
1 7:0.31996616 49:0.5512522 66:0.58172058 102:0.50531559 
1 7:0.1260794 8:0.20399283 20:0.18571629 49:0.21721531 95:0.80359473 164:0.33919404 172:0.31622903 
1 7:0.19851228 20:0.29241069 63:0.2712846 74:0.40786545 100:0.48128851 157:0.63521703 
1 16:0.51018056 20:0.36908178 61:0.52223593 68:0.51430249 74:0.25740439 
1 8:0.27683258 12:0.096902295 57:0.4690604 79:0.26736429 129:0.57538408 168:0.3274755 172:0.42914485 
1 74:0.17477457 116:0.30621023 120:0.33371122 157:0.54439457 273:0.6840764 
0.6220886670555474 7:0.12259607 8:0.1983569 11:0.32451252 57:0.33609245 59:0.57698075 74:0.1259435 129:0.41227599 172:0.30749223 239:0.33773766 
1 8:0.27825858 9:0.31889382 11:0.22761582 13:0.68194018 40:0.34741341 151:0.42817221 
1 7:0.15059772 12:0.17058311 26:0.30628875 28:0.32209606 40:0.3042196 74:0.15470973 83:0.31092257 125:0.34954586 132:0.42563758 219:0.48389658 
1 31:0.41834781 33:0.39416847 74:0.18171617 119:0.3177961 120:0.34696538 221:0.64437274 
0.9380164220213286 18:0.18745231 28:0.2472197 74:0.11874499 82:0.28169219 109:0.34421391 119:0.41533648 179:0.35989729 221:0.2105373 224:0.33692211 262:0.40847823 279:0.2551129 
0.06814493566128929 6:0.36446452 55:0.36394475 200:0.85715216 
1 6:0.20051944 7:0.13091647 12:0.14829002 20:0.19284135 24:0.2738479 49:0.45109766 55:0.20023348 63:0.17890895 188:0.50564235 191:0.23414894 200:0.4715841 
1 12:0.13693753 16:0.24615692 26:0.24587678 36:0.34352872 67:0.3237691 74:0.12419499 94:0.36471554 107:0.38221127 135:0.39176434 191:0.21622344 193:0.25318875 206:0.28017387 
1 7:0.20735969 20:0.30544302 61:0.43218964 183:0.54682707 184:0.48502355 221:0.3776916 
1 7:0.26130245 11:0.34583436 27:0.53510716 59:0.40992758 74:0.2684372 97:0.53449117 
0.5265065230069771 7:0.16882084 20:0.24867489 39:0.37059488 61:0.351865 66:0.30692795 118:0.30496285 120:0.33114472 244:0.59299818 
0.3758992356633865 7:0.1079233 55:0.165066 66:0.19621202 119:0.19389626 157:0.34534247 187:0.27018572 227:0.66715007 230:0.32241363 244:0.37909017 
0.1051573758593409 7:0.20668376 16:0.42083662 93:0.62352769 216:0.62561296 
1 34:0.42175331 39:0.42512828 66:0.35209269 230:0.57855521 279:0.42742802 
1 7:0.22993459 12:0.26044853 63:0.31422596 83:0.47472068 135:0.74511675 
1 74:0.1826335 93:0.53632817 206:0.8240128 
1 19:0.48127974 65:0.63173835 178:0.60768122 
1 7:0.13256738 8:0.21449019 11:0.70181324 12:0.15016 63:0.18116505 74:0.40856141 178:0.35664878 206:0.30722702 
0.6805999737425721 6:0.13841328 7:0.090368186 8:0.14621311 15:0.19706071 18:0.14655151 34:0.19680105 39:0.59512771 51:0.22581702 53:0.41143331 59:0.14176833 66:0.1642956 74:0.092835649 83:0.18657326 193:0.18925837 231:0.25019094 276:0.29811891 
1 6:0.17838931 9:0.21596081 10:0.19431072 11:0.15414566 51:0.58207321 53:0.26513093 63:0.15916384 74:0.35894452 116:0.20962705 170:0.33095184 193:0.2439193 197:0.28943648 
0.7554762046813163 7:0.13757545 8:0.11129655 12:0.15583258 15:0.15000144 16:0.28012257 18:0.22310827 49:0.11851061 54:0.17874014 68:0.14119289 83:0.14201846 119:0.24716954 212:0.15265092 218:0.4283545 219:0.66308051 
1 6:0.20107617 8:0.21240717 11:0.3474988 12:0.14870173 14:0.29294727 59:0.61785019 74:0.26972919 118:0.2371479 189:0.41837068 
0.7850224720008853 7:0.19915763 15:0.43429162 16:0.40551238 18:0.32297707 49:0.34311779 55:0.30460663 254:0.54079343 
1 11:0.31162412 27:0.48217379 39:0.25843392 59:0.36937679 74:0.12094151 92:0.29695444 97:0.48161855 227:0.3638768 
1 9:0.28768047 25:0.3476606 125:0.3601039 255:0.8165153 
0.07593521368338087 6:0.26152706 16:0.3476655 62:0.39814766 83:0.35252367 92:0.43069327 191:0.30538826 238:0.49917845 
1 6:0.17379372 18:0.1840122 31:0.53671678 66:0.20629194 143:0.34579865 231:0.31414338 272:0.6221344 
0.6284827071418186 6:0.33889673 38:0.55496139 171:0.75971499 
1 9:0.43626135 39:0.51647794 66:0.4277488 116:0.42346654 118:0.42501015 
0.4507142043296201 9:0.36741062 18:0.32133507 25:0.44401413 59:0.31084727 147:0.68408964 
0.6543147624935015 7:0.19626091 12:0.22230612 16:0.39961425 18:0.3182794 49:0.33812718 55:0.30017615 102:0.30995057 237:0.59208382 
0.9935876179994949 7:0.28393385 28:0.30363663 40:0.28678468 62:0.33103728 85:0.37357639 120:0.27847034 131:0.40675109 206:0.32901062 207:0.38020488 
0.7771313326030421 5:0.30613478 8:0.32063271 11:0.26227807 12:0.11223406 20:0.29190579 26:0.20152072 28:0.21192104 40:0.40031868 63:0.13540816 121:0.33156892 151:0.24668785 191:0.17721683 197:0.24623722 277:0.33156892 
0.2099099113758088 5:0.22048246 6:0.21860528 16:0.29060669 28:0.30525687 49:0.24589219 56:0.3716287 224:0.41601778 259:0.59525084 
0.4697893326565931 1:0.1902342 8:0.19924331 11:0.16298124 13:0.24414695 24:0.25758947 74:0.12650631 94:0.74300607 131:0.35282109 220:0.28115035 
1 7:0.16153121 9:0.29951927 11:0.64136097 85:0.4250585 277:0.54053422 
1 6:0.22615687 66:0.26844663 92:0.37244422 121:0.4940994 180:0.33563635 186:0.4940994 198:0.37034388 
0.2523274495237395 6:0.46059236 63:0.41095313 66:0.54671993 114:0.56574687 
1 7:0.25234781 35:0.38651089 74:0.25923805 119:0.45337101 170:0.71706365 
1 7:0.19581186 12:0.44359465 63:0.26759423 66:0.35599948 141:0.45872865 143:0.5967472 
0.5269501169053599 7:0.18757924 8:0.3034978 11:0.24826153 28:0.40119155 109:0.55859511 172:0.47048131 221:0.34166286 
1 7:0.13951093 15:0.30422346 18:0.22624706 26:0.56748016 39:0.30625386 132:0.39430272 187:0.34926525 254:0.37882852 
1 9:0.37255369 20:0.29595551 79:0.62792461 97:0.41097708 220:0.45871845 
0.9741259647294487 7:0.34980556 207:0.93682232 
0.01944395010933991 8:0.3309255 74:0.21011579 78:0.50105976 102:0.3230116 116:0.3681291 224:0.59617385 
1 5:0.1725221 7:0.11167838 12:0.12649889 16:0.22739258 20:0.16450344 49:0.19240458 61:0.23276578 79:0.34902462 83:0.23057009 97:0.22843685 105:0.28610598 116:0.20100636 163:0.28959145 172:0.28010877 220:0.5099465 
0.0617556028375427 7:0.092892211 8:0.15029691 12:0.10521966 20:0.13683121 51:0.23212419 102:0.29340514 116:0.33438745 160:0.23797817 172:0.46597944 212:0.20614262 224:0.27076514 238:0.27156932 261:0.47315521 
0.4077373443792861 8:0.3309255 74:0.21011579 78:0.50105976 102:0.3230116 116:0.3681291 224:0.59617385 
1 34:0.56318597 92:0.65230938 120:0.50726132 
1 7:0.59053199 63:0.80701423 
1 34:1 
0.1841358287092401 7:0.21680655 12:0.24557832 18:0.3515986 19:0.46195348 20:0.31935835 49:0.37352415 55:0.33160021 61:0.45187927 
-0.9871897272098338 11:0.41367548 20:0.46040603 32:0.78542911 
-1 8:0.38126464 11:0.3118749 20:0.34710562 43:0.68890156 63:0.32202792 74:0.24207781 
-1 66:0.48494394 74:0.27401881 179:0.83050771 
-1 7:0.24060756 93:0.72586966 207:0.64437663 
-0.6453963691045561 1:0.47255752 7:0.15294986 20:0.22529676 50:0.35232589 74:0.15712608 97:0.31285718 192:0.61499935 221:0.27858778 
-1 1:0.44748314 7:0.28966837 20:0.42668457 50:0.66726225 74:0.29757763 
-1 1:0.52202331 7:0.3379203 206:0.78313571 
-1 7:0.25379523 20:0.37384306 206:0.5881745 249:0.67073103 
-0.2502117381273308 20:0.39211179 63:0.36378249 101:0.84493233 
-1 5:0.44560306 32:0.72484378 221:0.52539453 
-1 8:0.34322871 10:0.35391825 11:0.84228471 74:0.21792751 
-0.9199616305248034 8:0.4065409 11:0.3325509 43:0.73457286 63:0.34337703 74:0.25812656 
-1 20:0.35593429 52:0.68850324 61:0.50363276 102:0.38161251 
-1 7:0.24226558 35:0.37106834 102:0.38260475 122:0.81069679 
-0.2704316136669401 32:0.63441143 191:0.45154084 197:0.62740179 
-1 8:0.27462703 44:0.50229446 49:0.29242789 54:0.44104577 79:0.53046833 120:0.33293871 
-1 8:0.32479556 11:0.26568313 63:0.54866447 99:0.72310969 
-0.1363701804203061 2:1 
-0.6730371487638377 8:0.31383843 11:0.25672018 20:0.28572038 43:0.56707011 50:0.44681818 63:0.26507765 74:0.19926663 118:0.35039365 
-1 1:0.31948175 20:0.30463256 57:0.56696031 129:0.69547568 
-1 27:0.50495187 32:0.61961878 82:0.60091279 
-1 1:0.2676186 7:0.17323702 11:0.45855939 20:0.25517996 27:0.35476272 44:0.51265662 54:0.4501444 74:0.17796718 
-1 24:0.37788204 63:0.24687601 74:0.18558392 170:0.51333313 193:0.3783386 276:0.59595723 
-1 8:0.51736204 11:0.42320296 12:0.18109706 20:0.23550475 40:0.6459406 63:0.21849 
-0.9344774455920339 11:0.25276221 20:0.28131531 61:0.39804989 101:0.6061853 150:0.36766142 206:0.44259881 
-1 20:0.30581478 61:0.43271566 105:0.53187604 191:0.37132184 255:0.54631717 
-1 20:0.34883007 49:0.40799451 61:0.49358056 86:0.68427794 
-1 7:0.35340676 11:0.93546976 
-1 7:0.41289469 11:0.91077877 
-1 20:0.23783028 33:0.35978976 59:0.25329402 61:0.33652032 66:0.58708565 186:0.54029136 
-1 20:0.66993582 32:0.5714384 61:0.47396641 
-0.08679003741202673 11:0.32021558 14:0.53989444 20:0.3563885 32:0.60798052 63:0.33064013 
-1 7:1 
-0.1363527779767222 3:1 
-1 12:0.30102009 20:0.39145671 61:0.55389556 92:0.67033443 
-0.7207416902050838 34:0.7727863 191:0.63466632 
-1 7:0.25621029 30:0.5271177 39:0.56243187 53:0.58324404 
-0.9519809638854155 19:0.46841976 49:0.37875262 151:0.547331 249:0.58099756 
-1 7:0.23239156 116:0.41827414 141:0.54442395 184:0.54357419 221:0.42328544 
-0.6391347324401298 13:0.4656018 68:0.24101721 98:0.42297142 120:0.23032334 151:0.29233906 188:0.45351882 236:0.44947809 
-1 17:0.42137327 95:0.52312819 146:0.63996194 180:0.37313561 
-1 11:0.17706485 19:0.28505821 30:0.27524456 59:0.20988015 62:0.31195895 65:0.37417366 74:0.13743803 87:0.41811395 97:0.27365586 179:0.41655295 212:0.29689043 
-0.1950390283361151 46:0.37377279 55:0.21249367 88:0.40260479 107:0.43924033 134:0.4502188 243:0.50736643 
-0.6001042342222206 28:0.33280283 40:0.94299644 
-1 7:0.17010824 15:0.37094526 31:0.40231709 92:0.42908071 203:0.62569346 221:0.3098406 
-0.995108113114034 11:0.20212772 12:0.51896718 40:0.30851055 97:0.31239083 150:0.58801982 261:0.3889516 
-0.2934637624841835 67:0.69265472 75:0.45699269 119:0.23233285 133:0.45156852 191:0.23128864 
-1 11:0.43807264 26:0.67318452 116:0.5957474 
-0.3868043540476554 118:0.21034774 119:0.20920458 137:0.89948956 239:0.32078934 
-1 63:0.349234 64:0.77353172 124:0.52885186 
-0.003189833120617659 12:0.24875455 49:0.75671039 55:0.33588902 74:0.22560703 97:0.44921109 
-1 66:1 
-0.9956852949401611 55:1 
-1 74:1 
-0.7841389095863127 12:0.11803233 97:0.21314759 102:0.16456672 153:0.301098 180:0.47373409 219:0.33482472 277:0.69739707 
-0.4020980345502664 16:0.39234499 47:0.36075346 191:0.68926945 261:0.49074431 
-1 7:0.20009075 20:0.2947358 30:0.41165941 61:0.41703934 63:0.27344172 120:0.39248114 272:0.54854116 
-1 12:0.29485803 13:0.51610033 49:0.22423941 53:0.29629164 78:0.31885681 111:0.43991134 118:0.23511835 120:0.25530389 141:0.30491763 
-1 12:0.15684328 35:0.21208527 40:0.55943173 74:0.2844971 102:0.21867894 145:0.44492053 199:0.44308094 212:0.30728178 
-0.7017786491748499 55:0.27895917 79:0.57001358 172:0.45746287 252:0.62289166 
-1 117:0.53478621 198:0.41744922 279:0.7346699 
-1 33:0.22732118 62:0.23787134 63:0.13940878 83:0.21061351 102:0.16110574 123:0.33653198 125:0.23677625 146:0.79541035 
-0.2357168970618882 11:0.22634279 12:0.19371338 20:0.25191143 34:0.3724379 61:0.35644458 99:0.61603709 255:0.45002253 
-1 41:0.82530729 119:0.56468388 
-0.8230703018306524 91:0.49613086 96:0.48193207 102:0.72221579 
-0.7477850385080491 13:0.48662239 55:0.37540163 56:0.63909375 74:0.25214652 102:0.38762556 
-1 7:0.39941014 68:0.81982464 74:0.41031585 
-0.7215267512379162 7:0.15478495 12:0.175326 30:0.3184489 104:0.43179593 191:0.27683858 211:0.49129984 265:0.58260609 
-1 55:0.26980716 59:0.27674179 62:0.41133989 100:0.4276901 114:0.33187819 216:0.53396214 221:0.32130988 
-1 12:0.24756524 28:0.4674542 34:0.47597476 35:0.33476054 132:0.61772278 
-1 59:0.36930488 193:0.49301588 277:0.78774948 
-1 28:0.4145334 34:0.42208934 35:0.29686208 39:0.425467 120:0.38017565 198:0.48612742 
-0.1313337518375576 11:0.19370933 42:0.36641482 87:0.45741756 107:0.46272662 206:0.33919436 263:0.53834683 
-1 7:0.24202553 12:0.27414403 25:0.54234368 79:0.75639409 
-1 7:0.14568884 12:0.16502278 63:0.1990967 74:0.14966681 85:0.38337037 108:0.38671232 249:0.77005411 
-0.622415919191048 120:0.27518183 142:0.44011075 162:0.46069395 168:0.53701986 180:0.31889624 191:0.25091457 221:0.25552946 
-1 119:0.44941297 187:0.62623675 261:0.6370679 
-0.882315553481861 55:1 
-0.1105775297411082 23:0.47822704 40:0.34451857 46:0.4588259 209:0.66489446 
-1 7:0.18933871 28:0.20247734 40:0.76495907 62:0.22074921 102:0.14950925 119:0.17008406 132:0.26756603 148:0.32161956 150:0.18225103 221:0.1724338 
-1 7:0.095755193 63:0.13085795 85:0.50394667 116:0.68938686 141:0.22432579 164:0.25761219 183:0.25251548 249:0.2530622 
-0.08570928883266769 12:0.071571894 55:0.19328452 110:0.85424883 118:0.11414208 129:0.21248897 149:0.37281988 231:0.1749367 
-1 18:1 
-1 20:0.33158773 30:0.46313075 49:0.38782774 60:0.55639092 74:0.23125535 191:0.4026155 
-0.7455258746432918 12:0.29109077 35:0.19680826 51:0.64217307 116:0.23127133 119:0.23085289 124:0.26591106 170:0.36512308 246:0.39159084 
-1 16:0.47619223 70:0.59678686 116:0.42093575 193:0.48979536 
-0.07359353745496301 11:0.22766784 60:0.42517183 99:0.61964349 116:0.61922389 
-0.2999695094280447 28:1 
-0.6202526703542366 12:0.37767951 16:0.33945584 63:0.22783156 100:0.40419807 145:0.53568596 150:0.32094949 212:0.36996838 
-0.5301321378203489 10:0.38308359 29:0.58824909 63:0.31379152 68:0.47130856 114:0.43198738 
-0.01675642613050852 63:0.44271081 102:0.51161233 180:0.73638303 
-0.2990733073176269 80:0.72674599 83:0.51777509 116:0.45138589 
-0.5522785458763344 55:0.47364242 72:0.48574957 116:0.55737707 227:0.4785823 
-1 55:0.83012785 74:0.55757309 
-1 59:0.21500832 74:0.4223887 102:0.21644634 108:0.72758428 119:0.24623275 254:0.37215688 
-0.00905440333576827 67:0.60399161 75:0.79699067 
-0.005885991527598534 73:0.31425815 126:0.35799713 127:0.37539162 152:0.38446712 191:0.18118598 217:0.38446712 232:0.41706141 280:0.36022562 
-0.7011828543437201 10:0.51649694 11:0.20486723 14:0.34541317 27:0.31698968 59:0.24283513 100:0.3752891 118:0.27962031 170:0.43985143 
-0.2159196666354558 13:0.25788074 68:0.2669823 69:0.42334029 74:0.13362256 84:0.35921621 97:0.2660588 138:0.47500557 144:0.48958362 
-1 118:1 
-1 28:0.53631641 59:0.39338496 109:0.74673488 
-1 55:0.43140998 66:0.51281199 85:0.74223264 
-0.2451663104843331 10:0.30414271 13:0.36143118 14:0.40679757 24:0.38133127 50:0.41993569 59:0.28599007 63:0.24912945 193:0.381792 
-1 11:0.25827151 24:0.4081941 27:0.19981077 59:0.30613646 74:0.20047081 102:0.15409206 104:0.27218954 114:0.18356473 212:0.21652602 276:0.64376234 
-0.1534224167053548 24:0.36241569 74:0.35597656 118:0.62595472 252:0.59170621 
-1 12:0.21525011 18:0.3081772 35:0.58212759 55:0.29064855 150:0.36583592 153:0.54909852 
-1 7:1 
-1 7:0.35563945 35:0.5447185 47:0.66582407 74:0.36535003 
-1 18:0.41543322 164:0.68917666 206:0.59367564 
-0.6093657108854926 20:0.6084253 72:0.64789648 212:0.45831083 
-0.2073676369713545 16:0.1429441 42:0.17575441 91:0.22849047 96:0.22195129 120:0.13770536 127:0.78043774 182:0.25637589 191:0.12556164 217:0.26643518 263:0.25822325 
-1 12:0.41441401 51:0.3047452 74:0.12528382 102:0.38519814 124:0.25237774 131:0.34941159 183:0.32160399 207:0.32660759 255:0.32091352 279:0.26916098 
-1 10:0.19477639 38:0.29282205 46:0.31408722 47:0.21857262 83:0.24103496 100:0.28305074 116:0.21012942 172:0.29282205 193:0.24450386 254:0.63403138 
-0.481706305692757 86:0.67010067 108:0.61556974 191:0.41477584 
-0.08802800319385558 67:0.4060287 75:0.53577083 129:0.50984447 231:0.41974182 279:0.33461281 
-1 141:0.6584001 207:0.75266813 
-0.1268416269526909 81:1 
-1 38:0.37954615 47:0.28330651 49:0.26070735 55:0.23144584 74:0.15545554 83:0.31242145 114:0.28469158 189:0.48224734 227:0.4677192 
-1 12:0.17141953 49:0.26072878 221:0.82694536 227:0.46775765 
-0.03516673576928151 38:0.49926547 39:0.43696564 66:0.36189644 74:0.20449051 87:0.62210098 
-0.8295542328385335 74:0.29606011 250:0.95516931 
-0.9953102263883318 66:0.71065507 116:0.70354059 
-0.004601739727795534 35:0.31850842 107:0.65744182 162:0.6828782 
-1 53:0.71795922 279:0.69608517 
-1 11:0.29930531 12:0.25615768 30:0.46526545 33:0.50393821 40:0.45683414 116:0.40703377 
-1 7:0.12195539 16:0.24831798 20:0.17964158 47:0.22832347 55:0.18652772 61:0.25418564 63:0.33332548 116:0.43900723 150:0.23478025 178:0.32809913 180:0.27721863 187:0.30531501 255:0.32091739 
-0.1046928629399759 21:0.81382699 71:0.45724012 74:0.17618152 221:0.31237346 
-1 7:0.14862582 63:0.20311033 92:0.74978677 143:0.4529452 231:0.41148147 
-0.2056375149633811 10:0.44857037 11:0.35584848 14:0.59997274 74:0.27621018 118:0.48569243 
-0.1633617231182202 73:0.31425815 126:0.35799713 127:0.37539162 152:0.38446712 191:0.18118598 217:0.38446712 232:0.41706141 280:0.36022562 
-0.03392122612985568 67:0.60399161 75:0.79699067 
-1 39:0.90572731 74:0.42386087 
-0.003345463777939603 11:0.29166837 21:0.2614421 37:0.31226207 55:0.16852985 74:0.11319667 97:0.22538836 202:0.81058884 
-0.1649470698485047 10:0.20950774 29:0.64342477 63:0.17161202 68:0.25775781 70:0.32044542 84:0.34680496 114:0.47250646 
-1 53:0.53693185 116:0.42452776 130:0.72902701 
-1 7:0.18350467 88:0.5317683 93:0.55360053 186:0.6140643 
-1 135:0.68437613 147:0.72912914 
-0.9035437915615221 21:0.35327357 30:0.30632404 49:0.51303421 100:0.36098417 114:0.28011585 172:0.37344586 231:0.41221717 
-1 12:0.27641851 16:0.49688591 49:0.42043203 119:0.43843349 180:0.5547163 
-1 19:0.54093061 40:0.51284308 41:0.66662287 
-1 63:0.19678834 95:0.9178137 102:0.22741559 116:0.25918047 
-0.9525880515903216 31:0.6236333 184:0.61677199 221:0.48028514 
-1 13:0.37487863 33:0.42134698 53:0.43043355 78:0.46321478 97:0.386767 150:0.36400968 
-0.586540188661949 186:1 
-0.9512198308754015 11:0.18401325 12:0.15748604 35:0.21295441 54:0.36127307 63:0.38000731 82:0.33883104 83:0.28705049 125:0.32270834 183:0.36664867 187:0.34807401 221:0.25324299 
-1 12:0.28288585 49:0.43026883 102:0.39441393 246:0.76110576 
-0.1452963519251475 35:0.43029466 145:0.90268849 
-0.6029469345293402 28:0.38669023 156:0.63892378 201:0.66501659 
-0.8689170130501733 55:0.28881847 214:0.76803176 216:0.57158648 
-1 18:0.72700443 35:0.68663277 
-0.9535701398089933 63:0.15748653 120:0.22604632 163:0.29882868 249:0.91367526 
-0.5277115485574719 12:0.17995803 47:0.59488545 63:0.21711577 102:0.75271984 
-1 7:0.19554957 30:0.40231655 38:0.49047227 74:0.20088896 151:0.48685266 254:0.53099607 
-1 26:0.2150464 53:0.24069845 74:0.21724464 119:0.7598601 132:0.29884163 136:0.3128999 272:0.28986898 
-1 11:0.27651632 20:0.30775278 48:0.53418864 164:0.56208266 220:0.47700372 
-1 12:0.22968956 17:0.52052949 95:0.64622905 198:0.50860571 
-1 18:0.28110673 59:0.27193191 68:0.35579383 102:0.27375065 206:0.80343224 
-1 12:0.20266689 49:0.30825596 66:0.65058701 74:0.183808 178:0.4813592 184:0.41850792 
-1 49:0.52949875 74:0.31573147 105:0.78736568 
-0.6472744538785933 83:0.75582941 191:0.65476859 
-1 7:0.30578765 218:0.95209974 
-1 34:0.60711954 39:0.61197785 66:0.50684215 
-1 7:0.19211965 30:0.39525996 97:0.39297855 118:0.34705049 141:0.45007892 230:0.57394458 
-0.5529941366124604 12:0.29163038 35:0.39434592 51:0.64336328 220:0.5878152 
-1 59:1 
-1 7:0.39618705 206:0.91816982 
-0.08434261104112607 48:0.58676299 164:0.61740231 220:0.52394998 
-0.8541795515422843 38:0.48483491 66:0.35143634 184:0.45214192 191:0.34572771 224:0.56344267 
-0.2497978231556045 47:0.67870987 63:0.24770923 90:0.62932293 102:0.28626159 
-1 7:0.22656308 27:0.23198314 74:0.23274946 81:0.79114555 97:0.46343219 
-1 114:0.59242365 119:0.56574271 221:0.57355854 
-1 7:0.15554144 19:0.33141483 39:0.34144398 65:0.43502238 160:0.39847761 230:0.46466961 231:0.43062786 
-1 7:0.24934846 59:0.78234828 74:0.25615681 97:0.51003941 
-0.2908215797292353 63:0.25028181 80:0.53072171 96:0.57901541 227:0.56606946 
