svm_type c_svc
kernel_type linear
nr_class 2
total_sv 55
rho -0.93257
label 1 -1
nr_sv 53 2
SV
0.001941997394001262 1:0.19289679 4:0.26517386 35:0.83333529 57:0.44500106 
0.03618302409891799 1:0.40364787 53:0.91491442 
0.04043995851212205 1:0.20091306 3:0.26030117 68:0.94439253 
0.00966083210163534 1:0.31727784 26:0.66579982 33:0.67531132 
0.02844033722020133 12:1 
0.06730711575130199 31:1 
0.01393366132686009 1:0.43018811 25:0.90273927 
0.06746464167170727 63:0.70710678 64:0.70710678 
0.03532956782396596 1:0.41482442 44:0.90990148 
0.009907168067242714 1:0.20799128 16:0.76637819 21:0.40933863 34:0.44927272 
0.01900179908916014 1:0.45299226 21:0.89151445 
0.01363342676017333 1:0.15785514 8:0.25441064 17:0.29082155 19:0.29082155 21:0.31066786 56:0.71559351 61:0.36416212 
0.00706485437283698 11:0.68640288 18:0.72722149 
0.01521501555864555 9:0.61368598 36:0.7895502 
0.03598798047459476 1:0.39771679 59:0.91750823 
0.03731963299038916 1:0.31727784 28:0.66579982 33:0.67531132 
0.04901716819292201 11:1 
0.03706696401466014 2:0.23186504 11:0.35351128 49:0.90623859 
0.02666626852692653 1:0.26424462 17:0.48682628 26:0.5545109 71:0.62104155 
0.05729300091755185 3:0.48276312 67:0.87575098 
0.05071552412444159 34:0.80426698 36:0.40213361 72:0.43754221 
0.02754732767716668 4:0.50488798 69:0.86318487 
0.02818454859409684 8:0.61434494 24:0.78903758 
0.03090800901092738 9:0.25534608 10:0.78630149 19:0.28019841 51:0.33899035 62:0.35086 
0.01044731578163233 9:0.3999951 37:0.51462184 45:0.52258068 62:0.54961597 
0.05702743210046799 8:0.31126026 41:0.84724139 52:0.4304638 
0.02565419661212366 17:0.86895816 27:0.49488556 
0.03277308659833866 2:0.63852003 4:0.76960521 
0.04471945377336473 14:1 
0.004710893940513028 2:0.40912662 8:0.5781254 21:0.70596489 
0.0673956721982385 15:1 
0.02746625386548878 5:0.44294023 20:0.5716291 70:0.69068381 
0.04606906072443606 9:1 
0.04999007588818807 20:0.52817155 40:0.59560112 51:0.60522237 
0.04528152576404438 5:0.25442886 19:0.6219909 47:0.74053581 
0.006584015585567403 5:0.56633182 40:0.82417733 
0.04026683694263931 5:1 
0.04971014588532337 18:0.49721713 42:0.59198169 69:0.6342971 
0.04184340193100868 12:0.62218301 50:0.78287183 
0.06754980888561397 7:1 
0.0388512912145477 3:0.27502302 30:0.45181992 54:0.48114824 60:0.48970793 72:0.4989024 
0.04101323830648329 12:0.31144281 16:0.32391359 30:0.37421879 57:0.8111989 
0.05459431385015929 23:0.55259397 24:0.56716243 48:0.61070998 
0.06742501921398811 46:0.69541538 55:0.71860799 
0.06735047345640177 6:0.89597024 58:0.4441141 
0.03380114075383495 27:1 
0.05119168195266773 2:0.50141266 22:0.86520827 
0.06734219026707533 29:0.70207414 32:0.71210385 
0.04419091493192662 14:0.50596097 35:0.60522151 39:0.61458151 
0.06347884488185587 13:0.63558375 45:0.77203193 
0.03178256615737762 25:0.56864301 27:0.56864301 43:0.59438224 
0.0006916019539176766 8:0.73502789 22:0.44878142 48:0.508261 
0.00700709797909036 26:0.42602688 27:0.42602688 41:0.44531069 61:0.46834848 65:0.46834848 
-0.9324393756687641 38:1 
-1 38:1 
