svm_type c_svc
kernel_type linear
nr_class 2
total_sv 318
rho 0.646559
label 1 -1
nr_sv 162 156
SV
0.3144482419439912 1:0.16709818 19:0.45393615 27:0.48361839 85:0.60658591 128:0.4051999 
0.0920929466037336 4:0.35611786 19:0.71923205 63:0.59656125 
0.7705004162532654 1:0.2111854 4:0.14203051 8:0.16233006 10:0.5203217 11:0.16376403 51:0.32069893 81:0.31768373 90:0.25605395 126:0.19967144 131:0.4014412 139:0.37545383 
1 1:0.1607764 10:0.39612311 11:0.2493486 31:0.36998379 66:0.39935953 78:0.34359047 85:0.58363709 
1 1:0.24260744 11:0.3762606 34:0.81632099 81:0.36495155 
1 45:0.86661671 78:0.49897442 
1 3:0.35920698 24:0.41762922 129:0.59721035 141:0.58300598 
0.01963971959055745 2:0.25062977 18:0.42355397 138:0.55438104 144:0.67115454 
1 1:0.21732037 24:0.45578021 79:0.45861844 130:0.73123552 
1 11:0.2677003 18:0.4689076 20:0.4689076 34:0.58079261 63:0.38893164 
1 4:0.33934252 9:0.6869068 33:0.64265519 
1 1:0.20094844 4:0.27029151 7:0.4591546 62:0.55698818 81:0.60456881 
0.5004504018653572 4:0.39574114 8:0.452302 26:0.79925706 
1 9:0.31710954 11:0.3612573 33:0.5933617 61:0.64564432 
0.1263398081574207 1:0.13741471 35:0.46237047 39:0.49883145 42:0.47048106 107:0.47919285 126:0.25984556 
1 1:0.14148688 29:0.44745938 52:0.32328865 81:0.21283707 113:0.58698164 124:0.40949372 128:0.34309451 
0.9350963761895951 1:0.2153333 19:0.58497088 27:0.62322129 65:0.47226673 
1 8:0.19209378 35:0.42044102 39:0.45359558 42:0.42781611 82:0.38968854 107:0.43573788 126:0.23628181 
1 11:0.23329901 38:0.48269357 46:0.55833627 52:0.34371822 62:0.41695539 65:0.32991678 
1 1:0.15167949 31:0.17452485 35:0.51036819 52:0.34657814 65:0.49899265 102:0.56298193 
1 1:0.10982735 31:0.25273821 35:0.36954503 39:0.3986861 42:0.37602733 52:0.25094861 65:0.24087219 81:0.33042401 101:0.40764122 125:0.30133811 
1 2:0.32530513 19:0.54975225 63:0.45598759 65:0.44383354 78:0.43247676 
1 2:0.27927978 8:0.26709 31:0.39980935 66:0.43155317 81:0.26135069 132:0.66051185 
0.759347611674577 1:0.14917769 11:0.23136013 51:0.4530723 101:0.5536961 145:0.64215623 
1 2:0.18043084 11:0.34815966 38:0.36016962 51:0.68180072 63:0.252914 71:0.37767712 126:0.21224911 
1 1:0.10320067 4:0.13881305 11:0.16005423 29:0.65275463 32:0.29214243 44:0.30950952 78:0.22054709 90:0.50050715 126:0.19514821 
1 86:0.8315379 128:0.55546802 
1 1:0.22836683 24:0.47894767 103:0.84761886 
1 1:0.23558382 31:0.54213302 41:0.80659286 
0.4879280351898918 1:0.18480037 24:0.38757689 41:0.63272028 107:0.64443621 
1 47:1 
0.8076183361653329 2:0.14710266 57:0.34790578 83:0.28539279 147:0.78784431 148:0.39392216 
1 1:0.30663061 33:0.39054674 47:0.8680155 
1 47:1 
1 4:0.30085735 6:0.51843867 9:0.30450202 54:0.7402599 
1 1:0.16971103 18:0.46103417 50:0.59181662 79:0.35814687 83:0.52927268 
1 1:0.21327859 24:0.44730349 47:0.60375311 141:0.62443095 
1 1:0.11959644 10:0.58932697 13:0.36323016 31:0.27521916 125:0.65628399 
0.4376144529255071 1:0.18017581 31:0.41462633 34:0.60625222 65:0.39515969 124:0.52146788 
1 150:1 
0.4174064707322552 13:0.34229824 18:0.30617102 49:0.28227506 52:0.25752259 65:0.24718219 72:0.43983509 93:0.45270997 133:0.42847855 
0.2500635244071408 2:0.27154549 12:0.45445368 38:0.54204944 49:0.42308451 63:0.38063148 126:0.31943148 
1 30:1 
1 49:0.42654567 52:0.38914222 79:0.35940585 151:0.73311292 
1 1:0.15345202 2:0.24667183 12:0.41282557 24:0.32183083 31:0.35312869 81:0.23083609 108:0.53511818 125:0.42103302 
1 30:0.43155666 49:0.34176836 51:0.41444224 52:0.31179897 79:0.2879728 151:0.5874044 
0.9614621902108321 1:0.13295449 11:0.20619951 16:0.36852278 48:0.33299252 65:0.29159438 66:0.33025147 104:0.49348117 133:0.50546497 
1 1:0.15912016 27:0.46052827 84:0.45044041 126:0.30088967 145:0.68495499 
1 1:0.26323451 81:0.19799031 83:0.41047077 89:0.477786 90:0.31916145 124:0.38092889 126:0.49776587 
1 78:1 
0.3875815045523048 1:0.13890626 27:0.40202484 43:0.90503098 
1 1:0.20781629 29:0.65722948 49:0.52048842 90:0.50393809 
1 1:0.19544103 49:0.48949383 79:0.41244575 133:0.74302564 
0.6273886866781926 1:0.15616063 30:0.98773167 
0.5616171108279755 1:0.21804797 29:0.68958767 52:0.49822594 65:0.4782205 
0.996175997875958 1:0.10958936 16:0.30375939 56:0.41663565 57:0.41663565 65:0.24035022 78:0.46840031 81:0.16485399 90:0.26574553 133:0.41663565 
1 1:0.34888811 11:0.54109162 65:0.76517772 
1 1:0.15476698 4:0.2081738 38:0.49661696 48:0.38762321 79:0.32660993 83:0.4826671 99:0.44293241 
0.2333186570449378 8:0.29789895 9:0.26380389 81:0.1457488 104:0.35961805 126:0.18321286 133:0.36835109 146:0.41707169 150:0.41707169 152:0.41707169 
1 9:0.34809726 11:0.19827955 48:0.32020254 79:0.26980151 126:0.24175494 146:0.55033878 151:0.55033878 
1 4:0.38455288 9:0.38921145 14:0.83703855 
1 8:0.11022145 9:0.097606417 70:0.72373419 126:0.27115233 153:0.61725963 
1 1:0.20647322 107:0.72001381 127:0.6625322 
1 1:0.13730667 4:0.18468831 31:0.3159745 81:0.20654883 82:0.42821418 107:0.47881608 114:0.56963936 126:0.25964125 
1 4:0.21847507 9:0.22112173 61:0.45021032 79:0.34277189 126:0.30713986 152:0.69918312 
0.2571074279442674 1:0.16327914 9:0.2222839 20:0.44356141 33:0.41592806 114:0.67739044 126:0.30875413 
1 3:0.43987915 37:0.67590519 128:0.59131929 
1 3:0.34537353 9:0.26064982 44:0.57421113 87:0.69502545 
1 20:0.52629269 65:0.42489385 132:0.73653324 
1 79:1 
1 1:0.12779203 2:0.20542378 16:0.3542135 24:0.26801482 78:0.54620111 79:0.2696838 80:0.38326156 81:0.19223607 84:0.36175614 126:0.24164947 
1 1:0.13851185 4:0.18630937 11:0.21481845 23:0.76785305 127:0.44445745 128:0.33588031 
1 1:0.2292999 18:0.62291231 27:0.66364366 81:0.34493318 
1 1:0.19238427 44:0.57698037 79:0.40599496 80:0.57698037 126:0.36379072 
0.7209956932181499 1:0.22349852 11:0.34662451 50:0.77938444 79:0.47165639 
1 2:0.15054612 24:0.19641636 50:0.32658761 53:0.30995167 56:0.35604975 61:0.25958761 66:0.23262928 78:0.40028694 84:0.26511527 90:0.22710161 129:0.28087566 134:0.35604975 
1 3:0.41552602 31:0.53009009 127:0.73914994 
1 6:0.41684045 7:0.2054612 8:0.27647164 9:0.73448711 81:0.13526537 146:0.38707252 
1 8:1 
0.002994695735018029 2:0.27214305 9:0.23047701 48:0.42401555 82:0.52798273 132:0.64363309 
1 9:0.32267099 48:0.5936276 52:0.54157287 79:0.50018849 
0.3948463184398812 8:0.23352015 18:0.41265046 43:0.49484697 79:0.32056077 150:0.65387706 
0.08947264374598622 3:0.28385356 63:0.35456386 79:0.33207524 81:0.23670995 85:0.57122341 107:0.5487348 
0.7759213909981082 11:0.35109757 18:0.30749371 43:0.36874388 57:0.43032963 65:0.24825005 138:0.40247216 144:0.48724794 
0.2674750054429951 11:0.27654715 13:0.54156201 24:0.37397244 43:0.58089307 65:0.39107559 
1 1:0.13896714 8:0.21363736 11:0.21552456 52:0.63506242 80:0.41677687 91:0.5582017 
1 4:0.34071067 102:0.9401682 
1 1:0.17302155 20:0.47002747 41:0.59239189 83:0.5395971 126:0.32717662 
1 2:0.27229878 3:0.30556787 11:0.2627141 49:0.42425818 90:0.41076776 135:0.6440014 
1 1:0.25136815 31:0.57845642 63:0.56639486 79:0.53047062 
1 139:1 
0.002021991234226139 1:0.11920677 4:0.16034251 26:0.32383514 63:0.26860245 102:0.88490878 
1 4:0.37434981 52:0.63592243 128:0.67488138 
1 10:0.64387915 141:0.7651272 
1 89:0.69921049 100:0.71491586 
1 1:0.19690128 4:0.26484776 9:0.53611238 26:0.53489875 99:0.56351788 
1 3:0.29399375 4:0.21921837 9:0.22187403 23:0.90348375 
1 13:0.37872954 52:0.28493109 81:0.18758437 88:0.45267461 115:0.51733742 116:0.51733742 
1 42:0.63634976 49:0.46549868 53:0.61511785 
0.5167251112364565 16:0.23620365 24:0.17872294 29:0.26950245 49:0.21343063 52:0.38943014 57:0.32397637 81:0.12819066 84:0.24123338 88:0.30934697 94:0.34229795 115:0.35353599 116:0.35353599 
1 1:0.13163316 2:0.21159834 8:0.20236266 11:0.20415026 37:0.36486032 63:0.59320439 88:0.47784373 99:0.37672502 
1 10:0.35393627 11:0.22279314 61:0.39817915 101:0.5331934 128:0.34834917 140:0.510787 
1 1:0.25306225 9:0.34451225 33:0.64463646 48:0.63380963 
0.07242870206956061 1:0.16756077 31:0.38559619 65:0.36749251 91:0.67305626 124:0.48495721 
0.4070113966823825 1:0.1252132 12:0.33685585 24:0.26260631 52:0.28610431 56:0.47603422 61:0.3470655 71:0.42131505 79:0.26424161 84:0.35445593 
0.7187230391210868 1:0.12993981 31:0.29902165 52:0.29690433 81:0.19546695 89:0.47169668 91:0.52194082 95:0.52194082 
1 31:0.41059532 82:0.55644597 84:0.50508645 124:0.51639814 
1 1:0.12514157 8:0.19238299 11:0.19408243 67:0.40155482 68:0.42107402 90:0.30345842 95:0.50266728 131:0.47576189 
1 67:0.65400332 105:0.75649167 
1 20:0.53311158 65:0.43039897 105:0.72838779 
0.003349933136041613 1:0.079051263 4:0.10633019 8:0.12152731 9:0.43047335 11:0.12260084 32:0.22377983 45:0.58682201 78:0.16893811 105:0.58682201 
0.8685664526308226 2:0.14148747 3:0.15877421 6:0.20401192 8:0.13531193 9:0.11982525 19:0.23910798 69:0.59232184 105:0.65338416 128:0.21343647 
0.4992994176113061 2:0.10662895 4:0.089222825 9:0.18060739 11:0.10287571 14:0.19420722 32:0.37555208 45:0.24620439 67:0.6385469 68:0.44639048 78:0.14175781 95:0.26644479 
1 9:0.29699054 33:0.55571589 48:0.54638251 117:0.45252613 124:0.31569404 
0.3107860785800033 3:0.33234735 44:0.55255407 110:0.7643489 
1 2:0.3297879 10:0.50547031 51:0.62309089 90:0.49749116 
1 1:0.10598063 2:0.17036228 24:0.22227035 31:0.24388602 65:0.2324356 83:0.33051861 84:0.6000238 117:0.43967812 124:0.30673094 126:0.20040501 
0.8874493449070643 2:0.20581978 4:0.17222173 11:0.19857511 19:0.34782694 66:0.31804014 69:0.43082116 80:0.38400039 128:0.31048296 134:0.48677496 
0.8329326123775654 1:0.20670305 10:0.50927783 11:0.32057638 24:0.4335128 63:0.4657533 79:0.43621237 
0.8129323195104397 4:0.19348551 18:0.39077226 49:0.36027337 81:0.21638731 83:0.44861117 104:0.53391026 109:0.38331174 
0.193170607366896 1:0.43740514 16:0.606199 51:0.66422851 
1 4:0.34520097 49:0.64277019 109:0.68387336 
1 4:0.18827871 9:0.19055957 23:0.38798487 37:0.38798487 49:0.35057822 54:0.46326001 62:0.38798487 109:0.37299662 
1 1:0.2185613 3:0.39425953 9:0.89263116 
0.2173291917059054 2:0.25348757 31:0.36288592 65:0.34584848 80:0.47293473 143:0.67880736 
0.163672798014047 2:0.37253115 8:0.3562712 27:0.67072844 31:0.53330548 
1 1:0.22308822 52:0.5097426 67:0.71584648 126:0.42185063 
1 1:0.14435792 4:0.19417279 49:0.3615531 82:0.90040939 
1 1:0.23388866 8:0.35956238 11:0.72547725 31:0.53823206 
0.002996832268607641 1:0.18898884 3:0.3409142 52:0.43182766 90:0.45828302 139:0.67198383 
0.8239356893692162 1:0.20238927 4:0.13611477 12:0.2722397 47:0.28646371 72:0.39491746 108:0.35288612 126:0.19135488 131:0.38472069 139:0.35981572 148:0.43560645 
1 1:0.10981511 12:0.29543101 24:0.2303123 49:0.27503856 61:0.60877005 68:0.36950384 71:0.36950384 81:0.16519359 124:0.31782875 
0.2267331125180665 3:0.33041685 48:0.45875914 87:0.66492681 109:0.48809538 
0.3398832249141681 1:0.19309263 86:0.70094879 138:0.68657559 
0.6693537059918031 1:0.31631282 44:0.94865494 
1 78:0.30212312 82:0.44089438 112:0.58650741 142:0.60855799 
1 1:0.54527204 8:0.83825915 
1 78:0.38074296 82:0.5556259 112:0.73913102 
1 1:0.29271093 24:0.61389484 49:0.73311216 
0.2496357425892482 3:0.23875869 12:0.35607725 13:0.40198873 61:0.36686948 72:0.51653422 136:0.50319731 
1 1:0.1032466 11:0.16012545 24:0.21653633 71:0.34740223 81:0.15531265 111:0.85667085 126:0.19523506 
1 1:0.18707186 31:0.43049574 63:0.42151935 71:0.62945591 90:0.45363448 
0.7321990147169377 1:0.17600175 3:0.31748698 11:0.27296164 31:0.40502085 52:0.40215297 65:0.38600518 127:0.5647552 
0.174210917889591 1:0.17043072 71:0.5734621 126:0.32227746 153:0.73364285 
1 1:0.21868468 4:0.14707407 26:0.29703758 54:0.36187594 128:0.53029328 129:0.65585802 
1 13:0.7523294 65:0.54327603 81:0.37262801 
1 1:0.2203339 31:0.50703941 126:0.83328507 
1 3:0.17640849 10:0.24094529 12:0.26309012 38:0.31380063 45:0.36297619 63:0.44070665 67:0.31380063 78:0.20899186 126:0.36984763 137:0.37179078 
1 4:0.18798547 8:0.42970617 63:0.31490936 78:0.29867256 90:0.33890199 128:0.33890199 143:0.60160763 
1 1:0.31731358 11:0.24606129 48:0.39736549 54:0.5250855 109:0.42277579 129:0.47582817 
1 31:0.42472589 43:0.60125677 44:0.5535283 79:0.38949279 
1 10:0.39572347 27:0.46485232 63:0.36190366 65:0.70451472 
1 2:0.17261 9:0.14618282 20:0.29170378 43:0.34980874 61:0.2976325 63:0.24195136 81:0.48458657 140:0.38180505 149:0.46222756 
1 1:0.41635374 8:0.64007011 11:0.64572426 
1 2:0.22743968 11:0.219434 38:0.45400699 51:0.42971738 63:0.31880736 81:0.63851579 
1 7:0.30049934 8:0.20217819 12:0.35380438 30:0.415917 62:0.72905518 81:0.19783372 
1 4:0.18817255 10:0.34468024 16:0.3877661 27:0.40489236 48:0.35038055 52:0.63931191 
1 2:0.2398871 4:0.20072789 9:0.20315956 33:0.3801434 55:0.49389123 64:0.53061877 141:0.43691516 
0.1202940477498215 2:0.27214305 9:0.23047701 48:0.42401555 82:0.52798273 132:0.64363309 
0.7219513352942815 53:1 
0.08637135994668319 4:0.23719083 9:0.24006422 26:0.47904153 63:0.39733715 81:0.26526578 104:0.65451214 
1 16:0.71969284 43:0.42292917 65:0.28472929 88:0.47127738 
-1 18:0.70358084 125:0.71061523 
-1 4:0.39131327 5:0.69999328 8:0.44724128 9:0.39605374 
-1 31:1 
-1 1:0.41486706 65:0.90988204 
-1 1:0.16100973 7:0.36789715 48:0.40325858 62:0.44628621 81:0.24220507 96:0.64674214 
-0.1435071407067319 1:0.20154403 7:0.46051548 81:0.30318034 96:0.80955986 
-1 1:0.22765232 43:0.74162389 62:0.63100588 
-1 1:0.20309662 47:0.57492981 73:0.7925954 
-0.144741016574698 4:0.26874814 5:0.48074498 7:0.4565328 8:0.30715866 9:0.27200382 47:0.56560055 
-0.5419819360800043 8:1 
-1 38:0.76003553 125:0.64988152 
-1 4:0.26316192 6:0.45348174 9:0.79905018 81:0.29431092 
-1 4:0.39131327 5:0.69999328 8:0.44724128 9:0.39605374 
-1 65:0.45034415 79:0.43333071 133:0.78065014 
-1 1:0.33279331 79:0.70230485 126:0.62929842 
-1 4:0.1627549 17:0.40045863 27:0.350201 58:0.46001751 59:0.46001751 63:0.27264363 87:0.43924506 
-0.6462943738978572 4:0.20138284 8:0.46033051 9:0.20382244 25:0.5220977 32:0.42382524 36:0.50376913 
-1 62:0.79194427 78:0.61059338 
-1 29:0.64530001 33:0.51977063 125:0.55984497 
-1 8:0.38521701 37:0.69454713 128:0.60762829 
-0.03386300400505964 4:0.34519918 5:0.61750297 7:0.58640314 8:0.39453639 
-1 4:0.53073826 8:0.30329694 9:0.53716815 11:0.30597616 49:0.49412228 
-1 63:1 
-1 1:0.34475889 9:0.93869127 
-1 1:0.40329891 9:0.9150683 
-1 31:0.75835755 49:0.41268142 65:0.36137623 78:0.35212937 
-1 1:1 
-0.2408047065705807 4:0.3518327 9:0.35609489 17:0.8656848 
-0.9983501464745727 4:0.3518327 9:0.35609489 17:0.8656848 
-1 1:0.36312241 67:0.5825944 81:0.27312041 103:0.67389252 
-1 1:0.098561743 29:0.31170647 48:0.24685382 81:0.14826528 121:0.40889964 124:0.28525906 136:0.74942218 
-1 1:0.45496447 48:0.56974295 81:0.68439776 
-1 78:0.30420592 83:0.88786771 128:0.34518066 
-1 10:0.85389049 78:0.37032491 79:0.36569179 
-0.2421517572044362 20:0.3645917 24:0.28147432 48:0.33613614 65:0.29434718 66:0.33336921 78:0.28681545 81:0.20189001 90:0.3254478 103:0.49813989 
-1 2:0.32329229 43:0.65517911 65:0.4410873 79:0.42442357 81:0.3025377 
-1 10:0.38114293 11:0.23991898 65:0.67855666 99:0.44273019 128:0.37512635 
-0.5961292879580101 81:0.29337298 82:0.60821681 126:0.73756668 
-1 9:0.26226554 48:0.96499574 
-1 20:0.40667587 38:0.48036196 64:0.53228964 126:0.56615799 
-0.1731445263207999 23:0.69017755 64:0.2951216 66:0.20616745 79:0.35031572 90:0.20126856 124:0.48044045 
-1 14:0.45703538 33:0.39764924 37:0.43268714 55:0.51663522 63:0.35173996 81:0.23482469 
-1 3:0.13677828 10:0.37363389 12:0.20398686 14:0.22199611 18:0.20598294 24:0.15902421 61:0.21016942 63:0.17085089 65:0.16629697 78:0.16204178 79:0.32002911 90:0.36773585 98:0.30457007 127:0.24330524 134:0.28826788 137:0.28826788 
-0.952664708628991 15:0.77403591 109:0.6331417 
-1 1:0.10312362 10:0.2540774 37:0.28583769 52:0.70689304 61:0.28583769 66:0.25615328 78:0.22038243 126:0.19500252 127:0.33090354 
-1 8:0.20851752 9:0.36930465 33:0.34551347 49:0.33971049 101:0.50343692 108:0.47299284 128:0.32890848 
-1 11:0.25188622 78:0.34708718 81:0.48863083 82:0.50651135 107:0.56636559 
-0.9979289793550605 52:1 
-0.1632560211125559 129:0.71556527 141:0.69854588 
-1 1:0.20883753 24:0.43798938 49:0.52304616 81:0.31415186 129:0.6263254 
-1 10:0.82180483 78:0.23760646 81:0.33450339 139:0.39533211 
-1 1:0.5920023 9:0.80593627 
-1 61:0.79194427 78:0.61059338 
-0.550793658366218 24:0.47338198 74:0.88085725 
-1 11:0.25430535 90:0.39762022 131:0.6233887 135:0.6233887 
-1 1:0.26101853 51:0.79274767 79:0.55083614 
-1 31:0.52694065 105:0.84990208 
-1 83:1 
-1 1:0.21013609 48:0.52629849 63:0.47348878 127:0.67428562 
-1 1:0.27258555 12:0.73332553 52:0.62284089 
-0.04223099586739676 8:1 
-0.4775952312575655 1:0.18849035 21:0.63422881 78:0.40281712 80:0.5653021 81:0.28354384 
-1 11:1 
-1 49:0.71843683 90:0.69559221 
-0.8808555583717199 8:0.27664852 16:0.4987979 64:0.63986144 99:0.51501804 
-0.9242871503811929 2:0.13222425 4:0.11063994 5:0.19791614 7:0.18794832 8:0.25290605 9:0.33594093 15:0.26796359 20:0.22345352 25:0.28684101 36:0.27677127 52:0.18794832 60:0.31271752 80:0.24669233 81:0.24747153 84:0.23285002 109:0.21918741 124:0.23806482 126:0.15554148 
-1 67:0.98506922 130:0.17215871 
-0.7270433155118938 8:0.25753248 23:0.46433162 123:0.69498476 124:0.48483951 
-0.9309438726591279 78:0.38744412 79:0.38259682 109:0.4831052 126:0.68565012 
-1 11:0.36745109 19:0.64363249 79:0.49999539 126:0.44801956 
-1 11:0.42200105 52:0.62173196 90:0.65982155 
-0.3482102759377814 9:0.27174912 47:0.56507094 77:0.77900401 
-0.7892553430061072 21:0.75812895 27:0.65210466 
-1 63:0.76600109 126:0.64283927 
-1 31:1 
-1 49:1 
-1 31:0.63078932 47:0.77595415 
-0.7558247832588004 23:0.66431637 83:0.74745151 
-0.5734142632294459 65:0.34890314 66:0.39515773 69:0.53528563 118:0.65998959 
-0.2501260364158048 6:0.58267526 7:0.28720139 33:0.32018409 44:0.37696735 66:0.31221517 81:0.37815804 128:0.30479641 
-0.4994440284275937 51:0.89610587 81:0.44384036 
-1 70:1 
-1 107:1 
-1 52:0.73461745 79:0.67848154 
-1 1:0.25636339 52:0.58577428 129:0.7688604 
-1 1:0.15993904 11:0.24804993 52:0.73090135 63:0.36038236 83:0.49879706 
-1 47:1 
-0.08257528529073505 77:1 
-1 1:0.25438127 137:0.96710401 
-1 82:1 
-0.9854661245299289 11:0.58734657 78:0.80933554 
-1 1:0.24822286 75:0.96870295 
-0.3280206738745334 32:0.4560183 75:0.41910981 106:0.59791266 140:0.19092889 141:0.47163639 
-1 24:0.35425761 71:0.56835673 79:0.35646364 90:0.4096017 129:0.50658887 
-1 31:0.41864909 35:0.61213416 52:0.41568471 124:0.52652723 
-1 1:0.23375119 8:0.35935103 18:0.63500459 31:0.5379157 81:0.35162919 
-0.272016725522081 22:0.54016628 85:0.58276197 126:0.60713168 
-1 1:0.36827535 8:0.56615809 81:0.27699616 103:0.68345549 
-0.1146748200592877 1:0.16819042 5:0.40468613 6:0.38983944 9:0.22896999 26:0.45690331 48:0.42124304 62:0.46618961 
-0.2302574184650441 14:0.25322413 28:0.92259641 70:0.29102131 
-1 126:0.61493482 128:0.78857794 
-1 30:1 
-1 31:0.63078932 84:0.77595415 
-1 10:0.33985703 12:0.37109265 13:0.41894017 20:0.37472392 99:0.39477308 132:0.5244166 
-0.7890195093609553 52:1 
-1 6:0.2599264 14:0.32832431 24:0.47038223 27:0.32456146 32:0.31745195 37:0.31083306 63:0.25268236 81:0.16869297 99:0.32094088 124:0.32456146 
-1 11:0.37308749 44:0.72146878 90:0.58334255 
-1 82:0.91060475 84:0.41327833 
-0.09994564099708919 8:0.21022292 11:0.42415991 31:0.62936931 61:0.37903238 81:0.41141117 126:0.25858126 
-1 1:0.21069416 65:0.46209221 81:0.31694478 135:0.80101484 
-0.4424725431471903 63:0.67187532 66:0.74066426 
-0.7625342456372224 6:0.3431108 22:0.49808874 55:0.48991555 65:0.32465793 88:0.53736633 
-1 49:1 
-1 11:1 
-0.3530712145939267 122:1 
-1 11:0.20317371 24:0.54950026 40:0.47555796 49:0.65621227 
-1 31:1 
-1 65:0.89898047 78:0.43798872 
-0.0341776493924022 40:0.67049467 97:0.74191435 
-1 11:0.85384344 126:0.5205299 
-1 9:0.14681161 31:0.2481667 47:0.9158332 79:0.22758005 81:0.16222366 
-1 7:0.46118073 8:0.31028583 48:0.50550836 65:0.44266278 128:0.48943437 
-1 34:0.69436249 108:0.71962541 
-1 6:0.28532862 8:0.18924564 23:0.34121031 139:0.87541372 
-1 23:0.64207215 54:0.76664421 
-1 23:0.48859882 68:0.59312733 89:0.63989935 
-1 1:0.23295229 44:0.69864809 66:0.57864039 81:0.35042743 
-1 65:1 
-1 8:0.61800698 42:0.6881882 126:0.38008469 
-1 80:1 
-1 127:1 
-1 24:0.44749604 129:0.63991994 141:0.62469974 
-1 19:0.76969227 63:0.63841507 
-0.8839320904549496 49:0.44928003 108:0.62555101 140:0.63783492 
-1 51:1 
-1 1:0.175452 11:0.27210903 16:0.48631723 41:0.60071328 52:0.40089682 79:0.37026223 
-1 11:0.27583985 24:0.37301596 26:0.48316495 61:0.49298501 66:0.44178822 126:0.33632135 
-1 1:0.32657266 27:0.9451721 
-0.2105816399712907 18:0.50141415 81:0.27765445 98:0.74139998 126:0.34902425 
-0.1005169927559471 19:0.4275349 23:0.87244829 81:0.23674435 
-1 31:0.45802092 44:0.59692038 55:0.65871306 
-1 84:1 
-1 129:0.45586663 141:0.8900481 
-1 102:1 
-1 1:0.26150852 24:0.54845485 51:0.79423584 
-1 8:0.22836791 33:0.37840555 48:0.37205014 69:0.49983522 78:0.31745985 126:0.5618007 
-0.2234076381196291 84:0.70323182 99:0.71096062 
-1 90:1 
-1 1:0.21781929 79:0.91934308 81:0.32766302 
-1 20:0.32353898 50:0.41531791 65:0.26120393 66:0.29583212 76:0.46478533 78:0.25452027 126:0.45041812 128:0.28880265 
-1 9:0.44084892 61:0.89758132 
-1 1:0.090653218 7:0.20713692 8:0.27872652 16:0.75381661 21:0.30502826 30:0.28669536 33:0.23092488 81:0.27273716 
-1 24:0.89331186 79:0.44943734 
-0.3113553140932422 6:0.24388173 9:0.2864851 14:0.30805758 26:0.28583656 66:0.52271704 78:0.22486069 124:0.30452701 130:0.3540394 138:0.37412557 
-1 1:0.26625529 6:0.61713867 9:0.3624729 128:0.64564804 
-1 11:1 
