svm_type c_svc
kernel_type linear
nr_class 4
total_sv 1081
rho -0.237326 -0.749927 -0.0684849 -0.536773 0.112412 0.822882
label 4 1 3 2
nr_sv 341 279 147 314
SV
1 0 0 28:0.70710678 144:0.70710678 
0.3199865321325999 0 0 4:0.70710678 280:0.70710678 
0.5069850192274101 0 0 2:0.28837225 3:0.19477427 11:0.74416022 28:0.089520858 58:0.43359711 93:0.28837225 144:0.089520858 340:0.19477427 
1 0.8388863199015607 1 2:0.37594208 4:0.20008694 18:0.35531694 93:0.37594208 95:0.34041303 96:0.35531694 172:0.36666351 182:0.36666351 280:0.20008694 
1 0 0 3:0.077048945 49:0.9474684 114:0.30071672 340:0.077048945 
0 0 0.4019185398049101 28:0.074751168 59:0.66669755 75:0.73779327 144:0.074751168 
0 0.9887353822050793 1 3:0.3129888 28:0.14385383 34:0.63779962 144:0.14385383 186:0.59657339 340:0.3129888 
0 0 0.05016284246455741 3:0.38411327 11:0.48918447 28:0.11769543 52:0.45553213 58:0.28503132 144:0.11769543 340:0.38411327 347:0.38620687 
1 1 1 2:0.17962579 3:0.12132402 7:0.24251472 27:0.1467281 28:0.055762143 33:0.13332253 65:0.37669637 93:0.17962579 144:0.055762143 167:0.24251472 178:0.24251472 265:0.37669637 267:0.34480859 275:0.4189914 326:0.3252999 340:0.12132402 
1 1 1 7:0.54169212 28:0.12455291 33:0.29779538 144:0.12455291 167:0.54169212 178:0.54169212 
1 0.3252269446016283 1 4:0.2094009 10:0.36376519 16:0.32700553 76:0.60275138 280:0.2094009 291:0.36376519 305:0.42120122 
0.7700134676971692 1 1 1:0.18813709 4:0.22590213 35:0.24295143 45:0.43236731 72:0.28983424 104:0.18813709 110:0.28983424 170:0.24295143 176:0.36305401 177:0.18813709 219:0.43236731 280:0.22590213 
1 0 0 3:0.20315255 16:0.49997526 28:0.093371627 58:0.45224842 108:0.47197334 144:0.093371627 340:0.20315255 348:0.47197334 
0.164949431784616 0 1 2:0.1880851 3:0.12703767 28:0.11677619 50:0.79697505 93:0.1880851 144:0.11677619 186:0.48428118 340:0.12703767 
1 0.0809177565991524 1 29:0.84315009 186:0.53767828 
1 1 1 2:0.2649691 28:0.082255699 93:0.2649691 144:0.082255699 180:0.5800457 186:0.34112098 259:0.6270839 
0 0 0.0303105160958508 4:0.25237985 39:0.69855071 72:0.32380536 110:0.32380536 280:0.25237985 345:0.41825341 
0.5770465526689778 0 0 13:0.58460817 25:0.51594839 33:0.35472214 258:0.51594839 
1 0.03255214935579803 1 27:0.44146363 28:0.16777262 144:0.16777262 273:0.86534072 
0 0 1 33:0.19288368 35:0.2975004 56:0.51998561 170:0.2975004 266:0.51998561 281:0.49498771 
1 0 0 33:0.67581917 35:0.5211854 170:0.5211854 
1 0.5842570516307876 1 1:0.16818087 29:0.38299254 39:0.55894075 58:0.5705028 104:0.16818087 177:0.16818087 281:0.36135036 
1 0 0 29:0.1533764 34:0.10456745 37:0.10497854 38:0.2238381 89:0.51088496 91:0.39705436 94:0.10497854 108:0.11921647 117:0.16631443 290:0.51088496 308:0.39705436 348:0.11921647 
0.5170318927546221 0 0.4761996530199093 3:0.20474791 13:0.37081116 323:0.61197962 340:0.20474791 346:0.63571741 
0.2102649284440245 1 1 1:0.18627151 3:0.28383964 7:0.28368342 28:0.065228186 104:0.18627151 144:0.065228186 167:0.28368342 177:0.18627151 178:0.28368342 214:0.35526993 224:0.59885215 340:0.28383964 
0 0 1 3:0.078761735 4:0.12412663 5:0.15925545 12:0.25527256 16:0.19383915 19:0.18671275 27:0.09525368 28:0.036199946 53:0.51654855 77:0.3572931 144:0.036199946 145:0.26827306 146:0.26827306 174:0.18671275 215:0.2313111 233:0.18389435 280:0.12412663 305:0.24967556 306:0.18389435 307:0.15925545 340:0.078761735 
1 0.05432500530897234 1 3:0.081419238 6:0.22290474 53:0.80096616 137:0.22290474 330:0.49580437 340:0.081419238 
0 0 1 17:0.57586798 72:0.57808999 110:0.57808999 
0 0 1 3:0.16593111 28:0.076264156 144:0.076264156 330:0.50522056 331:0.70017206 340:0.16593111 345:0.43337346 
1 0 0 3:0.42598281 25:0.34043672 258:0.34043672 323:0.63661838 340:0.42598281 
1 0 0 13:0.26778147 28:0.20387339 53:0.48485634 72:0.29896905 108:0.34351238 110:0.29896905 144:0.20387339 323:0.4419414 348:0.34351238 
1 0.3746847436406817 1 3:0.10307547 53:0.67600703 168:0.7223333 340:0.10307547 
0.1898558016918038 0.9813891883752409 1 330:1 
0.0576120576450607 0 0 13:0.25559725 28:0.19459703 53:0.46279509 72:0.28536578 108:0.32788236 110:0.28536578 144:0.19459703 194:0.29821283 323:0.4218328 348:0.32788236 
1 0 0 4:0.70710678 280:0.70710678 
1 0 1 27:0.15085534 28:0.057330647 33:0.41121828 56:0.36952751 65:0.38729226 95:0.33445009 144:0.057330647 265:0.38729226 266:0.36952751 274:0.34149667 
1 0 1 3:0.17248346 14:0.34875986 26:0.43178072 92:0.43178072 233:0.40271755 306:0.40271755 339:0.34875986 340:0.17248346 
0.9963372179836293 1 0.3927211267796275 3:0.23062082 14:0.46631302 216:0.67729787 339:0.46631302 340:0.23062082 
0 0 0.09034299914891078 39:0.83631909 72:0.38766634 110:0.38766634 
0 1 0.2423352125574284 1:0.13931993 3:0.10614743 8:0.26123762 16:0.26123762 49:0.65264566 58:0.23630029 104:0.13931993 177:0.13931993 190:0.26123762 231:0.40554994 301:0.26123762 340:0.10614743 
0 0.02188067660145637 0.7076991147587012 1:0.22223335 3:0.16931891 28:0.15564216 33:0.18606393 47:0.62279066 104:0.22223335 144:0.15564216 177:0.22223335 194:0.35777412 340:0.16931891 345:0.44222161 
0 0 1 1:0.18841344 3:0.14355162 27:0.17360995 28:0.13195623 33:0.15774836 35:0.2433083 47:0.52801315 104:0.18841344 144:0.13195623 170:0.2433083 177:0.18841344 233:0.33516697 306:0.33516697 340:0.14355162 345:0.37492345 
0.0687680332978611 0 0 3:0.50311445 27:0.3042306 183:0.63339991 340:0.50311445 
1 0.2319563072374123 1 3:0.23745546 28:0.1091377 33:0.26093894 66:0.73727037 144:0.1091377 194:0.50174795 340:0.23745546 
0 0 1 3:0.33657771 33:0.36986402 273:0.79789191 340:0.33657771 
0 0.7654349730934364 1 4:0.28265253 194:0.37897159 222:0.58812423 233:0.41875143 280:0.28265253 306:0.41875143 
1 0 0 28:0.70710678 144:0.70710678 
1 1 1 1:0.32567185 3:0.24812838 27:0.30008407 28:0.11404312 95:0.66529394 104:0.32567185 144:0.11404312 177:0.32567185 340:0.24812838 
0.8223654307748783 0.3619202619149683 1 1:0.24118345 4:0.28959657 50:0.57640263 104:0.24118345 177:0.24118345 280:0.28959657 346:0.57054297 
1 1 1 1:0.23485741 2:0.26492466 28:0.082241902 91:0.46151748 93:0.26492466 104:0.23485741 144:0.082241902 177:0.23485741 281:0.50461036 308:0.46151748 
1 0.8672975849113082 1 3:0.062234054 4:0.098079394 13:0.11270973 23:0.15857026 28:0.028603603 34:0.12681878 48:0.22890998 89:0.61959821 99:0.19521371 113:0.18436593 144:0.028603603 280:0.098079394 290:0.61959821 340:0.062234054 351:0.15857026 
1 0 1 28:0.09226272 37:0.41067009 89:0.49963816 94:0.41067009 144:0.09226272 186:0.3826209 290:0.49963816 
0 1 0 1:0.14615879 3:0.11135793 13:0.20167611 72:0.22516464 104:0.14615879 110:0.22516464 172:0.32160277 175:0.36962494 177:0.14615879 182:0.32160277 184:0.30272117 186:0.21225417 218:0.36962494 259:0.39018759 340:0.11135793 
1 1 1 1:0.21237666 19:0.3835851 33:0.17781146 74:0.73402758 104:0.21237666 174:0.3835851 177:0.21237666 
1 0.146443616149706 1 2:0.29219484 3:0.19735615 49:0.60672064 93:0.29219484 99:0.61906019 340:0.19735615 
1 0 0 2:0.22272569 3:0.15043484 49:0.92494608 93:0.22272569 340:0.15043484 
0.5660356828798557 1 1 4:0.22515435 5:0.28887482 7:0.28557616 16:0.35160649 167:0.28557616 178:0.28557616 225:0.60284771 280:0.22515435 307:0.28887482 
0.2013918491964662 0 1 3:0.17654691 28:0.040571622 33:0.097003289 74:0.4004415 144:0.040571622 233:0.61830706 306:0.61830706 340:0.17654691 
1 1 1 19:0.67193134 33:0.31147481 174:0.67193134 
0.7525150288957979 1 1 7:0.31797311 33:0.1748058 35:0.2696174 167:0.31797311 170:0.2696174 178:0.31797311 236:0.72161982 
1 0 0.7524574523791469 29:0.78012686 35:0.4423811 170:0.4423811 
0.925901855212429 0.9870826871731825 1 25:0.3173212 230:0.71781937 258:0.3173212 299:0.53230618 
0 0 1 28:0.098682862 33:0.23594231 35:0.36391328 144:0.098682862 170:0.36391328 274:0.58781595 345:0.56076847 
1 1 1 28:0.16355771 33:0.39105254 144:0.16355771 214:0.89082864 
0.008479307715151022 0 1 35:0.70710678 170:0.70710678 
0 0 1 345:1 
1 0 0 4:0.70710678 280:0.70710678 
0 1 0.6288971914720652 3:0.19132152 28:0.17586751 144:0.17586751 183:0.48173191 184:0.52009835 186:0.36466905 214:0.47893836 340:0.19132152 
0 1 0 2:0.13072173 3:0.088292926 13:0.15990396 93:0.13072173 172:0.25499081 175:0.2930664 179:0.29679551 182:0.25499081 183:0.22231435 184:0.48004014 186:0.50487312 218:0.2930664 340:0.088292926 
0 1 1 3:0.19132152 28:0.17586751 144:0.17586751 183:0.48173191 184:0.52009835 186:0.36466905 214:0.47893836 340:0.19132152 
1 0 1 25:0.62347839 27:0.4717514 258:0.62347839 
1 0 0 9:0.45567824 28:0.062304516 29:0.4051766 48:0.4986129 144:0.062304516 323:0.4051766 350:0.45567824 
0.08209491713967727 1 1 1:0.14039712 3:0.21393646 6:0.29285099 14:0.43257703 27:0.12936623 28:0.098327776 29:0.31972155 72:0.21628852 104:0.14039712 110:0.21628852 137:0.29285099 144:0.098327776 177:0.14039712 214:0.26777512 339:0.43257703 340:0.21393646 
0.7462708675399496 0 0 3:0.4483653 22:0.66413197 28:0.10303709 108:0.2604156 144:0.10303709 340:0.4483653 348:0.2604156 
1 0 0.7128122422134767 3:0.42398761 13:0.19196688 22:0.31401151 27:0.25638296 28:0.097434953 109:0.3714029 139:0.38987879 144:0.097434953 147:0.36103954 340:0.42398761 
1 0.1214434301730183 1 28:0.31016946 144:0.31016946 157:0.89866001 
1 0.5841484357016066 1 3:0.14856445 22:0.44011632 26:0.37190386 27:0.17967241 67:0.44405051 92:0.37190386 147:0.50603048 340:0.14856445 
1 0.1560043059830407 0.1966247685990073 4:0.17991055 13:0.2067475 25:0.18246587 33:0.12544798 72:0.46165334 110:0.46165334 118:0.40615161 191:0.46796188 258:0.18246587 280:0.17991055 
0 1 1 1:0.17549803 13:0.24215966 17:0.26932397 27:0.16170929 28:0.061455553 35:0.22662995 80:0.60656568 104:0.17549803 144:0.061455553 170:0.22662995 177:0.17549803 194:0.28253479 222:0.43846442 
0.09314958615223218 1 0 13:0.55039011 33:0.33395968 183:0.76520694 
1 1 1 2:0.58596859 3:0.39577874 93:0.58596859 340:0.39577874 
1 0 0 3:0.10082084 5:0.40771748 13:0.18259279 20:0.34818383 25:0.16114803 28:0.046338604 108:0.2342316 144:0.046338604 145:0.34340933 146:0.34340933 258:0.16114803 307:0.40771748 323:0.30134763 340:0.10082084 348:0.2342316 
0.3911217214295363 1 0 3:0.10295239 13:0.18645317 14:0.20816873 28:0.094636406 144:0.094636406 186:0.19623277 234:0.36628376 235:0.73256752 259:0.36073539 339:0.20816873 340:0.10295239 
0 0.3343920085760294 1 81:0.6524998 138:0.45118354 221:0.45118354 267:0.40879192 
0 0.4541836443166192 0 1:0.16939715 4:0.20340049 14:0.26096445 17:0.25996138 25:0.41257866 28:0.059319156 61:0.52906111 104:0.16939715 144:0.059319156 177:0.16939715 258:0.41257866 280:0.20340049 339:0.26096445 
0 0 1 3:0.24861806 16:0.30593455 28:0.05713404 49:0.38215575 52:0.44226595 58:0.27673053 144:0.05713404 278:0.45723442 340:0.24861806 346:0.3859641 
0 0 0.4539620742780281 3:0.18662645 17:0.37590641 27:0.45140812 61:0.76502694 340:0.18662645 
1 0.4450429225261139 1 4:0.22401902 27:0.17191022 35:0.2409262 37:0.29080019 94:0.29080019 170:0.2409262 234:0.50572734 280:0.22401902 299:0.38112929 347:0.4287631 
1 1 1 1:0.14599026 3:0.11122953 27:0.13451992 33:0.36668938 45:0.33550755 68:0.33245861 104:0.14599026 177:0.14599026 183:0.28006684 214:0.27844274 219:0.33550755 235:0.39573214 272:0.33245861 340:0.11122953 
1 1 1 3:0.17420981 10:0.47694125 158:0.69595688 291:0.47694125 340:0.17420981 
1 0 0 2:0.14006544 3:0.189208 4:0.29818706 14:0.19128818 18:0.26476219 25:0.30242212 27:0.11441306 28:0.086962277 72:0.19128818 93:0.14006544 95:0.25365664 96:0.26476219 110:0.19128818 144:0.086962277 172:0.27321701 182:0.27321701 258:0.30242212 280:0.29818706 339:0.19128818 340:0.189208 
1 0 0 3:0.11729956 4:0.092430583 5:0.35576753 11:0.22407885 20:0.2025463 27:0.21279114 28:0.053912293 58:0.1305632 73:0.16056774 89:0.2919565 91:0.1512703 98:0.16056774 113:0.17374751 144:0.053912293 145:0.19976886 146:0.19976886 159:0.23430186 184:0.15943647 194:0.12392801 233:0.13693647 280:0.092430583 290:0.2919565 306:0.13693647 307:0.35576753 308:0.1512703 330:0.1785744 340:0.11729956 
0.8311308908667547 0 0 3:0.12644635 5:0.25567328 9:0.42504774 12:0.4098219 13:0.22900218 17:0.25469055 116:0.43668131 307:0.25567328 340:0.12644635 350:0.42504774 
1 1 1 1:0.34439402 28:0.12059921 104:0.34439402 144:0.12059921 177:0.34439402 323:0.7842767 
1 0 0.7555819009291502 17:0.09681677 27:0.11626265 28:0.044184084 34:0.097948893 89:0.35891153 90:0.15077394 91:0.49589726 102:0.18364492 108:0.22334141 115:0.18760091 144:0.044184084 290:0.35891153 308:0.49589726 348:0.22334141 352:0.15077394 
1 1 1 27:0.47993326 28:0.18239251 144:0.18239251 194:0.83852848 
1 0 1 24:0.62450628 33:0.18319143 233:0.38922571 306:0.38922571 309:0.52291443 
1 0 0 2:0.11832731 3:0.11988218 5:0.16160029 22:0.11838201 23:0.10181852 25:0.063871603 27:0.048328087 28:0.11019869 52:0.14217209 53:0.13103853 68:0.11944022 83:0.36255381 89:0.29838464 91:0.30920181 93:0.11832731 114:0.15596387 117:0.38854663 144:0.11019869 237:0.1812769 258:0.063871603 272:0.11944022 273:0.094730935 290:0.29838464 292:0.16380858 307:0.16160029 308:0.30920181 340:0.11988218 345:0.10436806 351:0.10181852 
0.05961170488048364 1 1 2:0.16855264 3:0.28461252 8:0.1400909 17:0.11465426 27:0.20652432 28:0.078486871 33:0.062551886 40:0.24829995 58:0.63359043 93:0.16855264 144:0.078486871 190:0.1400909 273:0.40482156 301:0.1400909 326:0.15262329 340:0.28461252 
0 0 0.737689102316261 1:0.09229137 17:0.1416328 22:0.62492956 25:0.44956425 27:0.085040109 28:0.064636691 34:0.14328898 72:0.14217929 104:0.09229137 110:0.14217929 144:0.064636691 177:0.09229137 258:0.44956425 294:0.28824438 
0.9961932727189584 0.9632456352265953 0 17:0.2995404 27:0.17985204 28:0.068350473 33:0.16342015 91:0.38356284 144:0.068350473 184:0.40426908 193:0.40146989 194:0.31423339 273:0.35253933 308:0.38356284 
0 0 1 72:0.70710678 110:0.70710678 
1 0 0.08668035006944612 3:0.37916475 58:0.84407831 340:0.37916475 
0.03782181136458018 0 0.8134848272595577 3:0.25037801 28:0.11507708 48:0.92094312 144:0.11507708 340:0.25037801 
1 0 0 3:0.22937263 13:0.41540806 28:0.10542273 91:0.59160148 144:0.10542273 308:0.59160148 340:0.22937263 
1 0 0 3:0.16030867 28:0.073680009 89:0.39900562 91:0.41347064 108:0.37243648 144:0.073680009 290:0.39900562 308:0.41347064 340:0.16030867 348:0.37243648 
1 0 0.7043085134669601 3:0.27114561 147:0.9235584 340:0.27114561 
1 1 1 1:0.35190904 25:0.42854986 104:0.35190904 177:0.35190904 186:0.51104805 258:0.42854986 
1 0.1095696586232447 1 2:0.12625645 17:0.1717664 37:0.17445811 84:0.38684862 85:0.77369725 93:0.12625645 94:0.17445811 148:0.35983936 
0.9914730526159556 1 1 56:0.49282617 229:0.53917536 266:0.49282617 267:0.47279454 
1 0 0.7683163591228708 3:0.37916475 58:0.84407831 340:0.37916475 
0.7317402197443708 1 0.3247245200348439 2:0.2967613 13:0.36301009 28:0.092125111 93:0.2967613 144:0.092125111 253:0.82165386 
1 0 1 3:0.24282269 17:0.48909789 233:0.56694688 306:0.56694688 340:0.24282269 
1 0 0.9268631722398052 25:0.27888923 28:0.080195444 33:0.19174047 35:0.29573714 111:0.63088156 144:0.080195444 170:0.29573714 193:0.47104365 258:0.27888923 
0.8401319343822408 0.1896541593148418 0.5373909799248211 1:0.11786926 3:0.089804226 16:0.22101564 27:0.21721657 28:0.082550284 58:0.19991784 86:0.81477206 104:0.11786926 144:0.082550284 160:0.35876205 177:0.11786926 340:0.089804226 
0 1 1 1:0.13277213 3:0.20231754 24:0.37895841 28:0.092987581 33:0.11116291 35:0.34291162 45:0.30513031 60:0.41467388 66:0.31408543 104:0.13277213 144:0.092987581 170:0.34291162 177:0.13277213 219:0.30513031 340:0.20231754 
1 0 0.03140991127134164 4:0.70710678 280:0.70710678 
1 0.06605397352772026 1 28:0.11180019 33:0.53460989 34:0.49568454 144:0.11180019 274:0.66595086 
0.1795526310677763 1 0.6068429073231211 27:0.21058994 28:0.080032021 47:0.64048323 144:0.080032021 185:0.58533238 214:0.43590006 
1 1 1 1:0.15563141 7:0.23701987 28:0.054498697 33:0.13030174 104:0.15563141 144:0.054498697 167:0.23701987 177:0.15563141 178:0.23701987 183:0.29856236 194:0.25055145 302:0.46279041 309:0.3719424 345:0.30969056 346:0.36816127 
1 0 0 2:0.16933717 3:0.11437482 14:0.23126476 19:0.27113721 27:0.1383238 28:0.052568196 35:0.193856 53:0.75011232 93:0.16933717 144:0.052568196 170:0.193856 174:0.27113721 339:0.23126476 340:0.11437482 
1 0 1 3:0.65016598 27:0.39315187 340:0.65016598 
1 0 0.4433628016557534 2:0.27180949 3:0.18358734 28:0.16875806 49:0.56439198 58:0.40869329 93:0.27180949 144:0.16875806 326:0.49224334 340:0.18358734 
1 0 0 17:0.84461671 28:0.19272844 33:0.46079725 144:0.19272844 
1 0 0.9057593894688918 20:0.18324664 28:0.024387673 33:0.058308846 34:0.10812676 37:0.10855184 89:0.39620601 90:0.3328817 91:0.41056944 94:0.10855184 117:0.1719755 144:0.024387673 215:0.15583281 290:0.39620601 308:0.41056944 352:0.3328817 
1 0 0 2:0.28277384 3:0.38198608 5:0.19309294 17:0.19235074 20:0.3297962 27:0.11549252 28:0.087782742 52:0.33975712 58:0.21258966 93:0.28277384 113:0.28290455 144:0.087782742 176:0.2418733 307:0.19309294 340:0.38198608 
0.6574324113549638 1 0 29:0.45871036 58:0.34164561 186:0.29252039 234:0.54601212 259:0.53774127 
0 1 1 1:0.087846054 3:0.066929639 28:0.030761756 58:0.14899554 104:0.087846054 144:0.030761756 172:0.19329344 177:0.087846054 179:0.2249831 182:0.19329344 183:0.16852334 184:0.72778013 186:0.51028589 340:0.066929639 
1 0 1 28:0.055729067 33:0.13324345 34:0.24708398 35:0.20551236 37:0.24805535 62:0.49704149 65:0.37647293 94:0.24805535 144:0.055729067 170:0.20551236 176:0.30710699 265:0.37647293 273:0.28744041 
0.5202309137831144 0 1 72:0.51902561 110:0.51902561 171:0.67913536 
0 0 1 72:0.64176037 110:0.64176037 171:0.41986575 
0.01539097334824135 0 1 35:0.26538349 72:0.15829744 110:0.15829744 170:0.26538349 171:0.82851676 233:0.18278812 306:0.18278812 347:0.23614408 
1 0.7378170010026643 1 2:0.28111667 91:0.4897251 93:0.28111667 305:0.60190156 308:0.4897251 
0.2892145183125227 0 0 2:0.085072841 3:0.22984192 5:0.46473789 14:0.11618447 17:0.11573789 23:0.14640729 28:0.026409593 52:0.20443266 58:0.38374719 87:0.26066241 88:0.26066241 93:0.085072841 144:0.026409593 147:0.19571803 307:0.46473789 339:0.11618447 340:0.22984192 351:0.14640729 
0.6258308555681734 0 1 3:0.24621575 27:0.29777094 58:0.54811364 267:0.69975676 340:0.24621575 
0.7447280724089218 0 0.7920100975691641 3:0.13966904 28:0.12838727 87:0.63359175 88:0.63359175 144:0.12838727 176:0.3537535 340:0.13966904 
0 0 1 3:0.1192843 24:0.89372064 58:0.26554497 299:0.31983089 340:0.1192843 
1 0.9551035102743501 1 1:0.19108103 28:0.066912374 83:0.66042446 104:0.19108103 144:0.066912374 176:0.36873501 177:0.19108103 327:0.55622263 
1 1 0.7576438245290663 3:0.45600304 28:0.10479229 141:0.43555441 144:0.10479229 184:0.30990544 194:0.24088569 254:0.46731646 340:0.45600304 
1 0.4134791840975038 0 3:0.27418435 27:0.33159591 309:0.86005235 340:0.27418435 
1 0 1 3:0.70710678 340:0.70710678 
1 0.5460522758915249 1 4:0.14797056 37:0.19208131 64:0.30430879 73:0.25705018 94:0.19208131 98:0.25705018 140:0.34535224 161:0.3750899 280:0.14797056 295:0.38488339 310:0.30430879 332:0.39618917 
0 0 0.08792323175554717 17:0.54899851 20:0.47064467 25:0.21782591 79:0.61822163 258:0.21782591 
0.5405698220489219 0 0 3:0.22162147 9:0.3724885 22:0.32827215 25:0.17711533 28:0.05093005 59:0.45423958 108:0.25744036 144:0.05093005 258:0.17711533 323:0.33120656 340:0.22162147 348:0.25744036 350:0.3724885 
1 0 0 3:0.26594524 16:0.32725634 17:0.26783564 27:0.16081566 28:0.12223164 37:0.27203282 80:0.6032137 94:0.27203282 144:0.12223164 183:0.33481386 340:0.26594524 
0.9712079767612778 0 0 3:0.14406259 13:0.52181257 28:0.13242593 81:0.65352256 108:0.33469284 144:0.13242593 340:0.14406259 348:0.33469284 
0.3836655186415783 0 0.2593586322279463 7:0.17444191 25:0.13948717 28:0.080219758 33:0.28769862 34:0.17783409 35:0.44374122 37:0.17853321 86:0.39588487 94:0.17853321 144:0.080219758 167:0.17444191 170:0.44374122 171:0.23089054 178:0.17444191 258:0.13948717 309:0.27374221 
1 0 0 4:0.11487222 25:0.23300744 28:0.067001902 33:0.080098074 34:0.14853227 35:0.49416772 144:0.067001902 160:0.58237813 170:0.49416772 258:0.23300744 280:0.11487222 
1 1 1 3:0.11998026 7:0.23982866 17:0.48333263 28:0.11028884 33:0.39553782 144:0.11028884 167:0.23982866 176:0.30388578 178:0.23982866 194:0.2535206 216:0.35236356 326:0.32169693 340:0.11998026 
1 0 0 13:0.34092796 15:0.34620707 25:0.1504437 28:0.043260542 33:0.10343227 40:0.41057477 72:0.19031733 110:0.19031733 144:0.043260542 169:0.61729845 258:0.1504437 330:0.28658437 
1 1 1 216:1 
1 0 1 5:0.26909573 15:0.48951318 25:0.10635856 28:0.061167335 34:0.13559798 103:0.50846683 140:0.48951318 144:0.061167335 186:0.12683317 258:0.10635856 275:0.2298032 307:0.26909573 
1 1 1 3:0.1581887 22:0.46862778 64:0.51270117 72:0.31985599 110:0.31985599 310:0.51270117 340:0.1581887 
0.6025986452533905 0 0.197139148015778 3:0.1147071 5:0.23193663 17:0.46209007 27:0.13872566 91:0.29585435 108:0.26649281 117:0.37177413 183:0.28882308 307:0.23193663 308:0.29585435 326:0.30755828 340:0.1147071 348:0.26649281 
0.3794336845380293 0 0 4:0.2192488 5:0.28129796 25:0.22236274 27:0.16824948 37:0.14230397 60:0.28514193 94:0.14230397 99:0.21819248 183:0.52543682 258:0.22236274 280:0.2192488 307:0.28129796 323:0.41581968 
1 0 0.1986756380638109 2:0.30826627 27:0.25180863 33:0.45760547 89:0.51823425 93:0.30826627 290:0.51823425 
1 0 1 4:0.29925725 11:0.36274369 12:0.30771869 16:0.2336637 26:0.23767352 92:0.23767352 109:0.33267281 184:0.2580992 233:0.22167571 255:0.38919615 280:0.29925725 306:0.22167571 
1 0 0 5:0.25204127 27:0.30150102 28:0.17187233 108:0.28959284 144:0.17187233 307:0.25204127 323:0.74514382 348:0.28959284 
1 1 1 5:0.19277374 27:0.23060303 28:0.043818902 144:0.043818902 169:0.31263293 215:0.83998472 299:0.25562655 307:0.19277374 
1 1 1 1:0.1170825 7:0.17831157 8:0.21954041 28:0.081999277 68:0.26662797 104:0.1170825 144:0.081999277 167:0.17831157 176:0.22593776 177:0.1170825 178:0.17831157 190:0.21954041 217:0.62513027 272:0.26662797 273:0.21146911 301:0.21954041 346:0.27697008 
1 1 1 2:0.23185471 5:0.31664533 7:0.31302955 28:0.071975833 34:0.31911669 93:0.23185471 95:0.41988578 144:0.071975833 167:0.31302955 178:0.31302955 194:0.33090056 307:0.31664533 
1 1 0.0206190719939729 1:0.16998632 3:0.12951206 14:0.26187211 28:0.059525473 33:0.14232033 35:0.21951238 36:0.40624911 47:0.47637267 104:0.16998632 144:0.059525473 170:0.21951238 177:0.16998632 220:0.47637267 339:0.26187211 340:0.12951206 
1 0 0 3:0.13422861 14:0.27140894 27:0.32466934 28:0.18507955 54:0.45120772 111:0.48532861 144:0.18507955 339:0.27140894 340:0.13422861 349:0.45120772 
1 1 1 1:0.57735027 104:0.57735027 177:0.57735027 
1 0 0 3:0.11975098 14:0.48427059 25:0.19140521 26:0.29977461 27:0.14482567 28:0.16511723 33:0.26318804 92:0.29977461 144:0.16511723 193:0.32328322 258:0.19140521 339:0.48427059 340:0.11975098 
1 0 0 28:0.70710678 144:0.70710678 
0 1 1 28:0.043301019 72:0.57148622 110:0.57148622 144:0.043301019 171:0.24925969 172:0.27208468 180:0.30534747 182:0.27208468 194:0.19907142 
1 0 0 17:0.24479625 28:0.055858708 33:0.13355341 35:0.41198109 61:0.49819776 89:0.30249641 144:0.055858708 170:0.41198109 290:0.30249641 309:0.3812242 
1 0 0 17:0.36215856 28:0.082638966 33:0.59274848 35:0.30474813 144:0.082638966 170:0.30474813 309:0.56399395 
1 0.5809113374786008 1 1:0.32321985 16:0.60606679 17:0.49602182 33:0.27061445 104:0.32321985 177:0.32321985 
0 0.5277596309545186 1 3:0.16608599 28:0.076335342 47:0.61089932 144:0.076335342 214:0.41576584 269:0.62218768 340:0.16608599 
1 0.6189260063123488 1 2:0.23170925 25:0.50029474 28:0.071930675 31:0.51320085 33:0.3439605 93:0.23170925 144:0.071930675 258:0.50029474 
1 1 1 8:0.48798661 16:0.48798661 33:0.21789055 190:0.48798661 301:0.48798661 
0.8419629799064708 0.3504703538490155 1 4:0.18656267 28:0.10881703 144:0.10881703 280:0.18656267 326:0.95221135 
0.2565845578423575 1 0.4941647111498994 13:0.42833559 181:0.90361973 
0 1 1 3:0.090970961 5:0.18394239 12:0.29484356 13:0.16475405 17:0.18323537 18:0.25459486 25:0.14540438 28:0.041811469 33:0.099967657 68:0.27190692 96:0.25459486 144:0.041811469 175:0.30195547 193:0.24558785 215:0.26716772 218:0.30195547 232:0.34756629 258:0.14540438 272:0.27190692 307:0.18394239 340:0.090970961 
1 0 1 3:0.1762204 4:0.27771918 19:0.41774849 27:0.21311925 28:0.080993252 33:0.19364796 144:0.080993252 174:0.41774849 233:0.41144264 280:0.27771918 306:0.41144264 340:0.1762204 
0.2885035990133768 0 0 3:0.094901361 5:0.38377924 9:0.31900968 12:0.30758227 17:0.19115205 25:0.15168657 28:0.043617934 35:0.16085007 108:0.2204792 144:0.043617934 169:0.31119909 170:0.16085007 183:0.23895385 258:0.15168657 307:0.38377924 340:0.094901361 348:0.2204792 350:0.31900968 
1 0 0.5404609358383156 28:0.70710678 144:0.70710678 
1 1 1 274:1 
0 1 0.5814666516549948 33:0.12112608 35:0.37364568 170:0.37364568 234:0.39215896 238:0.50002335 256:0.45183977 267:0.31326524 
1 0 0 4:0.70710678 280:0.70710678 
0.05013051085130664 0 0 2:0.2307818 5:0.31518004 13:0.28230137 51:0.55457576 52:0.55457576 93:0.2307818 307:0.31518004 
0.72902016786988 0 0 16:0.7364934 25:0.47831866 258:0.47831866 
1 0.9270907377928539 1 27:1 
1 1 1 27:1 
1 1 1 1:0.18980863 2:0.21410858 8:0.35590855 28:0.13293336 35:0.24510998 52:0.51450951 93:0.21410858 104:0.18980863 144:0.13293336 170:0.24510998 177:0.18980863 190:0.35590855 301:0.35590855 
1 0.0889311819919268 0 3:0.19991335 28:0.091882848 54:0.6720061 144:0.091882848 340:0.19991335 349:0.6720061 
1 0.7474208265193453 1 10:0.28507668 17:0.20973743 27:0.12593195 28:0.047858829 33:0.11442638 144:0.047858829 150:0.43938617 171:0.55099272 291:0.28507668 304:0.34145643 324:0.38300642 
1 0 1 3:0.70710678 340:0.70710678 
0.1275104730764899 0.3327893727523885 1 186:0.35083918 267:0.52312356 333:0.77669403 
1 1 1 4:0.233228 35:0.2508302 36:0.46420865 170:0.2508302 176:0.37482763 192:0.5350838 273:0.35082434 280:0.233228 
0.6539204217869364 1 1 4:0.39748169 222:0.82705297 280:0.39748169 
0.9351611109117595 0.9050996862779857 1 345:1 
1 0 0 2:0.22147733 3:0.22438763 5:0.30247287 14:0.15123644 19:0.17731117 21:0.31561262 25:0.11955069 27:0.18091458 28:0.034377164 33:0.082192867 37:0.15301601 93:0.22147733 94:0.15301601 138:0.23461708 144:0.034377164 174:0.17731117 220:0.27511485 221:0.23461708 223:0.25830672 258:0.11955069 307:0.30247287 326:0.20054624 339:0.15123644 340:0.22438763 
0.799254617657993 0 0.8894897345721163 3:0.14745301 14:0.29814854 21:0.62220087 37:0.3016568 94:0.3016568 339:0.29814854 340:0.14745301 346:0.45782371 
1 0.05370150288852922 1 2:0.24913776 3:0.16827441 5:0.17012444 14:0.17012444 19:0.19945567 21:0.35502967 25:0.13448145 26:0.21062188 27:0.10175463 28:0.11601149 33:0.092457983 37:0.17212627 92:0.21062188 93:0.24913776 94:0.17212627 144:0.11601149 174:0.19945567 194:0.17778337 220:0.3094741 258:0.13448145 276:0.29934286 307:0.17012444 326:0.22559258 339:0.17012444 340:0.16827441 
1 0 1 25:0.67956905 28:0.19541214 144:0.19541214 258:0.67956905 
1 0.1451367176437708 0.5194500968892358 2:0.21547623 3:0.14553836 9:0.48922529 28:0.066891377 93:0.21547623 144:0.066891377 151:0.61412171 340:0.14553836 350:0.48922529 
0.498909319982035 0 1 13:0.47389239 28:0.12026495 144:0.12026495 233:0.61094136 306:0.61094136 
1 0.1660722170339329 0.9073915664710459 13:0.26291185 25:0.23203396 28:0.066722067 116:0.50134322 144:0.066722067 159:0.57994467 169:0.47603921 258:0.23203396 
0 0 1 35:0.70710678 170:0.70710678 
1 0.6216057816300072 1 1:0.30784339 16:0.57723452 33:0.25774058 35:0.39753455 104:0.30784339 170:0.39753455 177:0.30784339 
1 0 0.7640699326663952 4:0.70710678 280:0.70710678 
1 0 1 4:0.70710678 280:0.70710678 
0 0 1 4:0.34932819 35:0.37569271 170:0.37569271 280:0.34932819 346:0.68822205 
1 0 1 25:0.67956905 28:0.19541214 144:0.19541214 258:0.67956905 
0 1 0.5500213070736718 4:0.29635841 138:0.58986114 186:0.3584286 221:0.58986114 280:0.29635841 
0 1 1 138:0.4960107 172:0.45667523 182:0.45667523 186:0.30140046 221:0.4960107 
0.889665567287407 0 0 5:0.12973391 25:0.10255319 28:0.029489479 38:0.83963137 62:0.26301346 72:0.12973391 73:0.17565751 95:0.17203293 98:0.17565751 108:0.14906293 110:0.12973391 144:0.029489479 258:0.10255319 307:0.12973391 348:0.14906293 
1 0 0 3:0.55835667 33:0.61357611 340:0.55835667 
0.2317423950385881 0 1 3:0.18457717 16:0.45425971 28:0.16966794 33:0.20283118 144:0.16966794 233:0.43095418 274:0.50532439 306:0.43095418 340:0.18457717 
0 1 1 1:0.15416988 7:0.23479402 13:0.21273016 14:0.23750611 28:0.16196049 33:0.38723443 34:0.2393598 77:0.53285016 104:0.15416988 144:0.16196049 167:0.23479402 177:0.15416988 178:0.23479402 194:0.24819853 339:0.23750611 
1 0 0.9872959065370671 33:1 
1 0 1 27:0.59155538 33:0.80626437 
0 1 0 1:0.19767956 28:0.069223036 33:0.16550637 35:0.51054854 104:0.19767956 144:0.069223036 170:0.51054854 177:0.19767956 194:0.3182449 309:0.47243298 
0.6533197554066984 0 0.259522790893758 25:0.32533539 41:0.88787036 258:0.32533539 
0 0 0.5220147948181695 24:0.81281365 27:0.26240318 35:0.36774892 170:0.36774892 
0.9676562376522648 0 0.602697238537018 14:0.70710678 339:0.70710678 
0 0 1 4:0.34613234 13:0.19888216 28:0.050472539 41:0.47902199 54:0.36914239 144:0.050472539 233:0.25639858 280:0.34613234 306:0.25639858 345:0.28681179 349:0.36914239 
0.876252860885847 0 0 3:0.35827545 28:0.21955702 33:0.39370756 144:0.21955702 152:0.50393265 172:0.34490077 182:0.34490077 340:0.35827545 
0 0 1 25:0.29992489 52:0.66760414 171:0.49646015 186:0.35766207 258:0.29992489 
1 0 1 28:0.70710678 144:0.70710678 
0.9186828710381576 0.7766996658962867 1 33:0.26522138 341:0.96418754 
0 0.1290733770581644 1 5:0.19883139 9:0.33055012 28:0.04519585 33:0.10805942 35:0.16666896 38:0.42894228 72:0.39766278 110:0.39766278 144:0.04519585 170:0.16666896 307:0.19883139 325:0.36169503 350:0.33055012 
1 1 1 183:0.53379395 186:0.40407981 217:0.74282133 
0 0 1 33:0.19069217 49:0.53347519 231:0.66299611 281:0.48936374 
1 1 0 1:0.059385986 2:0.066988782 3:0.27147617 8:0.11135416 11:0.34573636 17:0.18227056 23:0.11528528 27:0.10944007 28:0.083182503 33:0.099441411 34:0.092201006 37:0.092563478 54:0.15209383 58:0.40289795 93:0.066988782 94:0.092563478 104:0.059385986 108:0.10511759 144:0.083182503 177:0.059385986 183:0.56962869 190:0.11135416 301:0.11135416 340:0.27147617 348:0.10511759 349:0.15209383 351:0.11528528 
1 0 1 25:0.70710678 258:0.70710678 
1 0 0 3:0.13146785 4:0.20719022 14:0.53165342 25:0.21013301 173:0.47534657 258:0.21013301 280:0.20719022 339:0.53165342 340:0.13146785 
0 0 1 3:0.20409861 13:0.36963524 25:0.32622313 28:0.18761253 144:0.18761253 223:0.70485268 258:0.32622313 340:0.20409861 
1 0 0 4:0.12768322 5:0.16381859 14:0.16381859 16:0.19939321 23:0.20643236 25:0.25899334 28:0.03723718 34:0.16509716 62:0.33211437 89:0.20165367 108:0.37645175 142:0.30954158 144:0.03723718 258:0.25899334 280:0.12768322 290:0.20165367 307:0.16381859 339:0.16381859 348:0.37645175 351:0.20643236 
1 0.6091295486674663 1 3:0.23993896 28:0.11027915 34:0.48894076 108:0.55743723 144:0.11027915 340:0.23993896 348:0.55743723 
0 0.3007152283099797 1 3:0.3330266 5:0.2244587 13:0.40208764 25:0.17743207 28:0.051021129 58:0.24712245 67:0.33179887 144:0.051021129 223:0.38336787 229:0.35978767 258:0.17743207 307:0.2244587 340:0.3330266 
1 0 1 14:0.65125562 27:0.38952823 339:0.65125562 
0 0 1 14:0.50153045 267:0.70493576 339:0.50153045 
1 0 1 4:0.19575186 28:0.05708853 60:0.5091664 67:0.37125618 113:0.36796693 144:0.05708853 233:0.29000756 280:0.19575186 299:0.33303765 306:0.29000756 345:0.32440737 
1 0 1 4:0.19639297 60:0.51083398 67:0.37247209 113:0.36917207 233:0.29095737 280:0.19639297 299:0.33412839 306:0.29095737 345:0.32546984 
0.212305463130312 0 0 4:0.37172363 33:0.51839114 72:0.47692438 110:0.47692438 280:0.37172363 
1 0 1 13:0.28378418 28:0.07201907 73:0.42898997 98:0.42898997 144:0.07201907 175:0.52010973 218:0.52010973 
1 0.1501936110875983 0.847503798140102 13:0.51742863 27:0.17276415 28:0.065656812 108:0.33188096 144:0.065656812 145:0.48657403 146:0.48657403 348:0.33188096 
1 0 0.6176423018991445 5:0.55016711 20:0.31322227 28:0.041685689 73:0.24830565 98:0.24830565 108:0.21071212 144:0.041685689 307:0.55016711 309:0.28449625 348:0.21071212 
0 1 1 1:0.19737633 27:0.18186863 28:0.20735028 35:0.50976538 104:0.19737633 144:0.20735028 170:0.50976538 177:0.19737633 183:0.37864557 194:0.31775672 
1 0.3987753510340935 1 3:0.22118429 28:0.10165925 33:0.24305861 34:0.45072302 51:0.7869289 144:0.10165925 340:0.22118429 
0.4665015905650288 1 1 1:0.25893305 5:0.39889882 20:0.68130568 28:0.09067266 104:0.25893305 144:0.09067266 177:0.25893305 307:0.39889882 
1 0 1 28:0.70710678 144:0.70710678 
1 0.05619169166787469 1 72:0.42370002 110:0.42370002 143:0.80059764 
0 0.3048554715698446 0.04858909323802885 72:0.64716141 110:0.64716141 183:0.40294444 
0 1 0 72:0.53069329 110:0.53069329 183:0.66085495 
1 0 1 27:0.20689161 72:0.69180773 110:0.69180773 
1 0 0.8887482253364121 14:0.41071648 27:0.24565725 143:0.77606473 339:0.41071648 
1 0 0.7328083534144996 16:1 
0.591128314163073 0 0.4666359809702468 33:0.2691738 50:0.76834854 273:0.58067718 
0 0.3253040448217119 0.05111682092180517 4:0.35295704 12:0.72587365 194:0.47323366 280:0.35295704 
0 0.7549961013450423 0 1:0.092880019 4:0.44609573 7:0.14145223 17:0.14253616 25:0.22621582 28:0.03252454 32:0.56540317 50:0.2219733 104:0.092880019 144:0.03252454 167:0.14145223 177:0.092880019 178:0.14145223 194:0.14952781 258:0.22621582 280:0.44609573 
0.3761701747021027 0 1 50:0.76014298 299:0.64975584 
0.6167099153981263 0 0.341927229089954 17:0.3496976 28:0.079795569 33:0.38156911 35:0.29426251 144:0.079795569 170:0.29426251 185:0.58360303 345:0.45344083 
0.3265494963189928 0 0 25:0.29331869 32:0.73311948 216:0.53894723 258:0.29331869 
0 1 1 138:0.52651683 216:0.49295951 221:0.52651683 299:0.45005663 
0 1 1 1:0.16674789 7:0.12697481 27:0.076823267 35:0.21533039 50:0.59776388 63:0.5207866 104:0.16674789 167:0.12697481 170:0.21533039 171:0.16806329 177:0.16674789 178:0.12697481 233:0.14831306 281:0.17913562 306:0.14831306 347:0.19160572 
1 0 0.9316475041355676 32:1 
0 0 0.3532902645748638 75:0.86381907 171:0.50380216 
0 0 1 28:0.091470774 35:0.33731723 72:0.40240998 110:0.40240998 144:0.091470774 170:0.33731723 233:0.46466805 306:0.46466805 
1 1 1 1:0.2547963 28:0.089224061 104:0.2547963 144:0.089224061 177:0.2547963 184:0.52772903 193:0.524075 214:0.48596516 
1 1 1 1:0.1995118 7:0.30384781 8:0.37410288 104:0.1995118 167:0.30384781 177:0.1995118 178:0.30384781 190:0.37410288 281:0.42866743 301:0.37410288 
1 1 1 7:0.39697201 33:0.21823546 35:0.33660256 167:0.39697201 170:0.33660256 176:0.50300138 178:0.39697201 
0.2828859217118712 1 1 1:0.24659684 5:0.3798943 12:0.60893733 17:0.3784341 28:0.086352792 104:0.24659684 144:0.086352792 177:0.24659684 307:0.3798943 
0.1707327183490264 0 1 35:0.70710678 170:0.70710678 
0.5085240030804979 0.167149152708693 1 82:0.86662967 345:0.49895192 
1 1 1 1:0.27502866 7:0.4188567 104:0.27502866 167:0.4188567 177:0.27502866 178:0.4188567 273:0.49674429 
1 0.1031373816273727 0.1298465532816681 15:0.62623989 176:0.43122575 273:0.40361083 323:0.50888727 
1 0 1 35:0.70710678 170:0.70710678 
0 1 0 1:0.18426405 3:0.4211709 13:0.25425538 28:0.12905019 54:0.47191986 104:0.18426405 144:0.12905019 177:0.18426405 340:0.4211709 349:0.47191986 
1 0 0.1458662018482984 4:0.18884609 17:0.24135974 27:0.14491882 28:0.22029777 55:0.38401682 77:0.54358525 108:0.27838991 144:0.22029777 222:0.39293814 280:0.18884609 348:0.27838991 
1 0 1 3:0.095707569 5:0.19351976 14:0.19351976 28:0.087976783 33:0.21034557 78:0.43416583 118:0.34050815 144:0.087976783 194:0.40446387 233:0.22345979 235:0.34050815 306:0.22345979 307:0.19351976 339:0.19351976 340:0.095707569 346:0.29716039 
0.1523546591855968 0 0 14:0.70710678 339:0.70710678 
1 0 0.5110776332138995 63:0.74995505 173:0.6614888 
1 0 1 4:0.70710678 280:0.70710678 
1 0 1 4:0.70710678 280:0.70710678 
1 1 1 1:0.23745126 2:0.26785058 28:0.08315021 75:0.82069173 93:0.26785058 104:0.23745126 144:0.08315021 177:0.23745126 
1 0 1 25:0.67956905 28:0.19541214 144:0.19541214 258:0.67956905 
1 0 1 28:0.70710678 144:0.70710678 
1 1 1 37:0.40180795 56:0.58185081 94:0.40180795 266:0.58185081 
0 0 1 72:0.50346374 110:0.50346374 281:0.70217414 
0.09262322212660339 0 0 2:0.17599796 3:0.2377476 49:0.73089288 80:0.53925615 93:0.17599796 340:0.2377476 
0 1 1 28:0.18697929 144:0.18697929 273:0.96440525 
1 1 1 1:0.28000797 104:0.28000797 177:0.28000797 256:0.87452079 
0 1 1 1:0.33053923 3:0.25183683 14:0.50921158 28:0.11574757 104:0.33053923 144:0.11574757 177:0.33053923 339:0.50921158 340:0.25183683 
0 0 1 28:0.072689719 33:0.17379492 35:0.53611676 144:0.072689719 170:0.53611676 194:0.33418257 233:0.36926101 306:0.36926101 
1 1 1 19:0.67193128 33:0.31147504 174:0.67193128 
0 0 0.7705788869930605 81:0.86662967 345:0.49895192 
0 0 1 11:1 
1 0 1 33:1 
1 0 1 28:0.70710678 144:0.70710678 
1 0 1 33:1 
0 0 1 35:0.3688837 72:0.4400679 110:0.4400679 170:0.3688837 299:0.58354959 
0 0.3787916459079609 1 25:0.22601614 28:0.129983 72:0.57183902 110:0.57183902 144:0.129983 229:0.45830396 258:0.22601614 
1 0 0 3:0.14744837 16:0.36288266 58:0.32824246 90:0.46251114 91:0.38030114 308:0.38030114 340:0.14744837 352:0.46251114 
1 0 1 2:0.44171318 16:0.18356282 19:0.17681422 33:0.16392514 35:0.12641753 58:0.49812075 83:0.33835129 93:0.44171318 170:0.12641753 174:0.17681422 193:0.20135508 330:0.22709715 
0 0.2546291254906986 0 49:0.80994509 58:0.58650572 
1 0.4452487766946122 1 19:0.35516957 25:0.23947035 27:0.18119388 28:0.068860424 42:0.65353671 144:0.068860424 174:0.35516957 193:0.40446519 258:0.23947035 
1 1 1 274:1 
1 0.7351297073512068 0.8731107093006481 33:1 
0.6355588793327534 1 1 33:0.1945663 186:0.3374784 220:0.65124968 279:0.65124968 
0 0 0.06282441612812442 25:0.32533539 42:0.88787036 258:0.32533539 
0.4592490727714217 0 0 33:0.33865781 35:0.52233973 170:0.52233973 194:0.32559481 309:0.48334389 
0 0.9821191978537605 0 5:0.40562204 33:0.22044449 72:0.40562204 110:0.40562204 193:0.54156004 307:0.40562204 
0.4884345813297091 0 0.2868852242989364 49:1 
1 0 1 28:0.70710678 144:0.70710678 
1 1 1 1:0.23360427 14:0.35987862 55:0.57038612 104:0.23360427 177:0.23360427 281:0.50191789 339:0.35987862 
1 0 0.6419629892912523 28:0.70710678 144:0.70710678 
1 0 0.4401619428232605 25:0.37476521 28:0.10776487 118:0.83419155 144:0.10776487 258:0.37476521 
1 0 1 27:0.1199565 28:0.045587938 34:0.20212162 108:0.46087429 144:0.045587938 145:0.33784623 146:0.33784623 175:0.32922849 218:0.32922849 326:0.26594658 348:0.46087429 
1 0.5945319593806666 1 3:0.17617485 66:0.54700153 239:0.79919595 340:0.17617485 
1 0 0.2613854463950055 2:0.2521583 4:0.13420574 5:0.34437406 13:0.46267477 28:0.078278625 37:0.17421312 48:0.31322616 52:0.30297209 93:0.2521583 94:0.17421312 144:0.078278625 176:0.21568601 229:0.27600075 280:0.13420574 307:0.34437406 
1 0.7051446523714047 1 33:0.16958903 173:0.55799694 233:0.36032479 253:0.63262238 306:0.36032479 
0 0.8849966459438304 1 3:0.15230483 14:0.30795859 22:0.22559832 27:0.092097911 33:0.083683535 43:0.66436421 57:0.25938513 186:0.14515045 193:0.20558309 268:0.25938513 305:0.24140377 339:0.30795859 340:0.15230483 
0.2628958759678998 0 0 4:0.27036188 22:0.50821604 33:0.18851787 43:0.74832237 280:0.27036188 
0 0 0.9612023089321312 2:0.059073941 3:0.31920107 4:0.062881624 22:0.70921491 23:0.10166412 25:0.06377475 28:0.036677173 33:0.087692237 43:0.17404719 93:0.059073941 144:0.036677173 186:0.15210348 258:0.06377475 280:0.062881624 304:0.39251947 305:0.12648378 309:0.12515733 340:0.31920107 351:0.10166412 
1 0 0 4:0.31381297 14:0.40262455 28:0.091519547 95:0.53389805 144:0.091519547 194:0.42075053 280:0.31381297 339:0.40262455 
1 0.03584511584445244 1 2:0.27175139 3:0.091774051 13:0.1662085 27:0.33297179 28:0.12654158 37:0.18774975 44:0.40032513 61:0.37620402 93:0.27175139 94:0.18774975 144:0.12654158 169:0.30094407 296:0.37620402 299:0.24606907 340:0.091774051 
1 0.2801680359913846 0.5242373819817299 5:0.21976798 13:0.19684242 15:0.39978087 25:0.1737241 28:0.049954892 44:0.47410914 113:0.64397345 144:0.049954892 258:0.1737241 307:0.21976798 
0.5430557688930099 1 1 17:0.32939644 28:0.22548918 144:0.22548918 195:0.71335436 229:0.53003095 
0 1 1 1:0.092555483 2:0.10440475 28:0.064821664 53:0.23124069 93:0.10440475 104:0.092555483 144:0.064821664 172:0.2036559 177:0.092555483 179:0.23704445 180:0.22855316 182:0.2036559 185:0.23704445 186:0.67205291 193:0.19037174 214:0.17652823 234:0.25088783 259:0.24708745 
1 1 1 33:0.19773569 240:0.81627724 347:0.54276336 
0.9752354149348433 1 0.667908383565372 1:0.10655035 4:0.063969138 5:0.082072915 13:0.073511305 25:0.064877711 27:0.049089353 28:0.018655782 54:0.13644331 99:0.12732188 104:0.10655035 144:0.018655782 162:0.16215507 177:0.10655035 241:0.55239715 242:0.73652954 258:0.064877711 280:0.063969138 307:0.082072915 349:0.13644331 
0 0 1 5:0.18979051 17:0.18906101 28:0.043140791 35:0.15909051 82:0.42579917 144:0.043140791 170:0.15909051 171:0.24833735 193:0.50679177 194:0.19833479 216:0.27566184 233:0.21915358 299:0.25167065 306:0.21915358 307:0.18979051 326:0.25167065 
1 0.08492240882219752 1 5:0.11317999 13:0.30412005 14:0.11317999 16:0.13775801 25:0.17893491 28:0.025726652 73:0.1532438 90:0.17557911 95:0.1500817 98:0.1532438 108:0.26008531 144:0.025726652 169:0.1835509 181:0.213858 214:0.14012203 258:0.17893491 274:0.1532438 307:0.11317999 328:0.42771599 339:0.11317999 342:0.4472294 348:0.26008531 352:0.17557911 
0 1 1 28:0.088287622 138:0.60254487 144:0.088287622 171:0.50822235 221:0.60254487 
0 1 0.8249161530487078 27:0.16133828 28:0.061314556 58:0.29697899 144:0.061314556 171:0.35295353 172:0.38527388 175:0.44280351 182:0.38527388 186:0.25427638 218:0.44280351 
0.9831887486307689 0.3337225180532976 1 2:0.1349858 35:0.15453079 93:0.1349858 117:0.29549836 170:0.15453079 171:0.24121971 184:0.24784939 186:0.1737806 334:0.38471859 343:0.72846036 
0.6663353874109413 1 1 7:0.332384 28:0.076426058 33:0.18272819 35:0.28183675 144:0.076426058 167:0.332384 170:0.28183675 178:0.332384 257:0.68163572 
1 0 1 3:0.30341835 18:0.16983155 23:0.15461982 26:0.15191034 27:0.073390191 29:0.18137984 34:0.37097808 35:0.1028538 37:0.24829112 50:0.19035038 72:0.24540339 73:0.16613602 79:0.27528395 92:0.15191034 94:0.24829112 96:0.16983155 98:0.16613602 108:0.14098299 110:0.24540339 170:0.1028538 194:0.12822567 340:0.30341835 348:0.14098299 351:0.15461982 
1 0.9923903906230062 1 26:0.32148287 28:0.059024823 92:0.32148287 138:0.40283228 144:0.059024823 171:0.67954541 221:0.40283228 
1 0.9899742302878352 1 4:0.2202869 37:0.2859555 94:0.2859555 163:0.55840423 193:0.3773489 231:0.53404007 280:0.2202869 
0 0.1826211890892127 1 1:0.26409133 4:0.31710278 28:0.092478975 33:0.22110934 35:0.34103518 104:0.26409133 144:0.092478975 170:0.34103518 177:0.26409133 280:0.31710278 299:0.53949507 
0 1 0.2442404919053676 1:0.28663148 4:0.51625063 28:0.10037178 62:0.44760337 104:0.28663148 144:0.10037178 177:0.28663148 280:0.51625063 
1 0 1 1:0.10448012 4:0.50181016 7:0.15911869 16:0.19590979 19:0.18870726 28:0.10975978 33:0.087475541 35:0.13492074 37:0.1628506 62:0.32631229 94:0.1628506 104:0.10448012 144:0.10975978 167:0.15911869 170:0.13492074 174:0.18870726 177:0.10448012 178:0.15911869 280:0.50181016 281:0.22448409 
1 0.6408376776903535 1 3:0.11976921 10:0.327897 17:0.24124132 23:0.30516788 25:0.19143435 27:0.14484772 28:0.055047528 33:0.2632281 35:0.20299904 144:0.055047528 170:0.20299904 186:0.22828651 193:0.32333244 258:0.19143435 291:0.327897 299:0.32113104 340:0.11976921 351:0.30516788 
1 1 1 33:0.49946671 186:0.86633308 
0 1 1 186:1 
-1 1 1 4:0.32006745 30:0.71161343 171:0.5373267 280:0.32006745 
-1 0 0 27:0.19631214 89:0.4040198 91:0.4186666 108:0.37711677 290:0.4040198 308:0.4186666 348:0.37711677 
-1 0.5683519502606693 0.4629133950251166 119:0.79140984 259:0.61128592 
-0.3728623133343255 1 1 2:0.17414011 7:0.23510844 8:0.28946973 19:0.13941376 25:0.1879972 27:0.071123549 28:0.054059089 68:0.17577796 93:0.17414011 101:0.23493983 119:0.5335637 144:0.054059089 167:0.23510844 174:0.13941376 178:0.23510844 190:0.28946973 258:0.1879972 272:0.17577796 301:0.28946973 
-1 0 0.5997909093437412 33:0.27641558 143:0.9610382 
-0 0.5548508639245673 1 46:1 
-0 0.3953653438764966 0.3696993306956021 143:0.9133665 147:0.40713835 
-1 0 0 25:0.34950479 33:0.24028971 143:0.83543621 258:0.34950479 
-1 0 1 33:0.27641558 143:0.9610382 
-1 1 1 1:0.10242088 8:0.38409704 28:0.035865541 104:0.10242088 121:0.70798505 144:0.035865541 177:0.10242088 186:0.14873727 190:0.38409704 301:0.38409704 
-0.6030734143726336 0.8590295683908107 1 28:0.055724105 33:0.13323158 36:0.38030556 121:0.54999636 144:0.055724105 176:0.30707965 194:0.25618513 229:0.39295183 329:0.46321788 
-1 0.5509025299505095 1 3:0.19142477 28:0.087981383 55:0.6134654 144:0.087981383 328:0.73136302 340:0.19142477 
-1 0.4682712293463056 1 2:0.31517712 3:0.21287899 28:0.097842029 93:0.31517712 144:0.097842029 273:0.50465143 340:0.21287899 346:0.66096342 
-1 1 1 1:0.22266964 7:0.33911618 28:0.07797401 33:0.18642921 101:0.67774597 104:0.22266964 144:0.07797401 167:0.33911618 177:0.22266964 178:0.33911618 
-1 0.6536510099124253 0.5921478301366686 1:0.079525499 7:0.12111388 33:0.066582387 45:0.36552309 101:0.72616214 104:0.079525499 122:0.27486028 167:0.12111388 177:0.079525499 178:0.12111388 219:0.36552309 309:0.19005743 326:0.16245749 
-1 1 1 1:0.13800556 7:0.21017647 28:0.048326513 33:0.11554457 46:0.38017504 55:0.33696497 104:0.13800556 144:0.048326513 147:0.35814146 158:0.42005149 167:0.21017647 177:0.13800556 178:0.21017647 273:0.24925938 281:0.29651624 326:0.28192263 
-0.8482076677373477 1 0.8579474817085762 2:0.13268108 8:0.22055319 28:0.04118886 93:0.13268108 122:0.81306726 144:0.04118886 176:0.22698006 190:0.22055319 273:0.21244466 301:0.22055319 326:0.24028366 
-1 0.1815863817183898 0.4159074633241947 4:0.27280509 112:0.70958808 147:0.58960963 280:0.27280509 
-1 1 1 4:0.38274612 7:0.48545883 167:0.48545883 178:0.48545883 280:0.38274612 
-1 0.4556170118707835 1 4:0.70710678 280:0.70710678 
-1 0 0 28:0.065918868 50:0.44988271 89:0.35697605 91:0.36991739 118:0.51026797 144:0.065918868 290:0.35697605 308:0.36991739 
-1 0.6848383708061814 1 3:0.17584858 26:0.44020468 92:0.44020468 226:0.74202037 340:0.17584858 
-1 0 0 14:0.28422963 28:0.064607504 89:0.34987451 144:0.064607504 145:0.47879775 146:0.47879775 176:0.35603353 290:0.34987451 339:0.28422963 
-1 0.02534657574691196 1 28:0.080163533 33:0.38332865 35:0.29561946 36:0.54709963 144:0.080163533 170:0.29561946 176:0.44175837 273:0.41346895 
-1 1 1 1:0.19435086 2:0.21923231 8:0.36442564 28:0.068057397 33:0.16271943 36:0.46447774 93:0.21923231 104:0.19435086 144:0.068057397 176:0.37504491 177:0.19435086 190:0.36442564 301:0.36442564 
-1 0 0 3:0.3043898 28:0.13990162 37:0.62271534 94:0.62271534 144:0.13990162 340:0.3043898 
-0 1 1 1:0.16654341 2:0.18786486 19:0.30080315 28:0.05831984 33:0.27887576 45:0.38274178 68:0.3792636 93:0.18786486 104:0.16654341 144:0.05831984 174:0.30080315 177:0.16654341 219:0.38274178 272:0.3792636 
-0.9786661933452124 1 1 2:0.31246781 19:0.50031336 33:0.23192103 93:0.31246781 174:0.50031336 273:0.50031336 
-1 0.9515848206446602 1 1:0.083875759 27:0.077285706 28:0.029371446 55:0.20479749 72:0.12921464 104:0.083875759 110:0.12921464 144:0.029371446 160:0.51059012 168:0.67174767 177:0.083875759 281:0.18021393 330:0.38914908 
-0.5336524916975649 0 0 3:0.13982914 26:0.35003661 28:0.06426734 92:0.35003661 144:0.06426734 160:0.55860831 168:0.48994799 281:0.39432412 340:0.13982914 
-1 0 0 3:0.093414135 13:0.16917879 25:0.14930945 27:0.11297415 28:0.085868602 29:0.27920943 53:0.61264441 144:0.085868602 168:0.65462848 258:0.14930945 340:0.093414135 
-0 0 0.1455735806723072 3:0.18918525 23:0.48203759 26:0.47359058 28:0.086952067 92:0.47359058 144:0.086952067 340:0.18918525 351:0.48203759 
-0 1 1 1:0.1468658 2:0.16566806 3:0.1118966 8:0.27538681 23:0.28510875 26:0.28011264 28:0.051429175 92:0.28011264 93:0.16566806 104:0.1468658 144:0.051429175 168:0.39207505 177:0.1468658 190:0.27538681 275:0.38643389 301:0.27538681 340:0.1118966 351:0.28510875 
-0.07254277587926281 0 1 3:0.27495796 6:0.37638144 37:0.28125185 94:0.28125185 137:0.37638144 168:0.48171284 330:0.41859026 340:0.27495796 
-1 0 1 6:0.38536371 28:0.064695069 137:0.38536371 144:0.064695069 160:0.56232612 168:0.49320882 345:0.36763177 
-1 0.1283214744927619 1 33:0.37923047 326:0.92530225 
-1 1 1 1:0.2471446 10:0.515513 28:0.086544604 33:0.20692077 104:0.2471446 144:0.086544604 176:0.47692263 177:0.2471446 291:0.515513 
-1 1 1 1:0.28273491 28:0.099007549 104:0.28273491 144:0.099007549 158:0.86056837 177:0.28273491 
-1 0.213223047718699 1 14:0.21782736 27:0.13028664 28:0.049513776 65:0.33448606 66:0.33448606 91:0.27785682 113:0.31914349 117:0.34915821 141:0.41159327 144:0.049513776 265:0.33448606 308:0.27785682 339:0.21782736 
-1 0 1 16:0.91311044 33:0.4077123 
-0.4995944199237067 0 1 28:0.083565151 33:0.19979715 68:0.54343804 144:0.083565151 169:0.59620887 272:0.54343804 
-1 0.1824659173102977 1 17:0.5442373 346:0.83893132 
-0 0.574219439653971 1 6:0.5137532 23:0.47814091 28:0.086249167 137:0.5137532 144:0.086249167 351:0.47814091 
-1 1 1 1:0.34687044 16:0.6504138 27:0.3196171 28:0.1214664 33:0.2904158 104:0.34687044 144:0.1214664 177:0.34687044 
-1 0.7910154460734763 1 69:1 
-1 1 1 33:0.3725009 274:0.92803183 
-1 0.319929159184475 0.6523650503818539 28:0.055441001 33:0.1325547 54:0.40548036 91:0.31111867 115:0.47079224 144:0.055441001 162:0.48189025 308:0.31111867 349:0.40548036 
-1 1 1 1:0.16844187 2:0.19000637 10:0.35134886 28:0.11796904 91:0.33100452 93:0.19000637 104:0.16844187 144:0.11796904 177:0.16844187 186:0.24461402 273:0.30423206 275:0.44320492 291:0.35134886 308:0.33100452 
-1 0 0 3:0.18024331 25:0.28809376 27:0.21798452 28:0.082842235 95:0.48327717 142:0.68864281 144:0.082842235 258:0.28809376 340:0.18024331 
-1 0.5969459742133196 0 2:0.2090078 3:0.14116941 28:0.064883349 33:0.15513055 54:0.47453912 93:0.2090078 109:0.49464419 144:0.064883349 193:0.38110506 340:0.14116941 349:0.47453912 
-0 0.5185106770099748 1 3:0.14172443 6:0.38800471 10:0.38800471 137:0.38800471 153:0.59802822 291:0.38800471 340:0.14172443 
-0 0 1 3:0.18407309 6:0.50394435 34:0.37509888 37:0.37657351 94:0.37657351 137:0.50394435 340:0.18407309 
-1 1 1 1:0.15263819 6:0.31838435 8:0.28621057 104:0.15263819 137:0.31838435 154:0.49072298 155:0.49072298 177:0.15263819 190:0.28621057 301:0.28621057 
-1 1 1 1:0.51980638 33:0.43520569 104:0.51980638 177:0.51980638 
-0 0 1 10:0.23112618 23:0.43021001 28:0.077603027 33:0.092771291 34:0.17203323 37:0.17270954 94:0.17270954 123:0.38297129 124:0.38297129 144:0.077603027 291:0.23112618 297:0.34606716 351:0.43021001 
-1 0 1 2:0.23797705 4:0.5066323 27:0.19439258 28:0.07387642 35:0.27243444 93:0.23797705 144:0.07387642 170:0.27243444 280:0.5066323 345:0.41980508 
-0.7411881275480448 1 1 22:0.41744392 31:0.46207389 37:0.2882737 67:0.42117544 94:0.2882737 324:0.51830116 
-1 0.3477166086439042 1 27:0.29230765 28:0.11108779 144:0.11108779 302:0.94333199 
-0.2143685917055607 0 0.3737787698633818 3:0.11134948 27:0.13466499 28:0.051177711 125:0.50512349 126:0.50512349 144:0.051177711 154:0.46985643 155:0.46985643 340:0.11134948 
-1 0 0 14:0.29559094 28:0.067190014 37:0.2990691 94:0.2990691 105:0.63768328 108:0.33963096 144:0.067190014 339:0.29559094 348:0.33963096 
-1 0.3752262628730034 0.7782428423908941 25:0.12106206 28:0.034811762 34:0.15434367 125:0.68718348 126:0.68718348 144:0.034811762 258:0.12106206 
-1 0 1 3:0.089781548 4:0.14149359 16:0.44191966 17:0.3616791 25:0.14350327 28:0.082529437 58:0.19986736 112:0.36803626 144:0.082529437 194:0.18971014 233:0.41924738 258:0.14350327 280:0.14149359 306:0.41924738 340:0.089781548 
-1 1 1 3:0.17142406 28:0.07878879 35:0.58109993 144:0.07878879 170:0.58109993 216:0.5034461 340:0.17142406 
-1 1 1 17:0.22741466 27:0.13654583 28:0.15567729 33:0.12407054 56:0.33447566 111:0.40822794 144:0.15567729 172:0.32606979 182:0.32606979 235:0.40169198 266:0.33447566 281:0.318396 
-1 0.4846533296576457 1 114:0.87939276 194:0.47609702 
-1 0 1 33:1 
-1 1 1 1:0.24785538 7:0.37747298 16:0.46475151 33:0.41503207 104:0.24785538 167:0.37747298 177:0.24785538 178:0.37747298 
-1 1 1 17:0.48826849 33:0.26638447 193:0.65441956 194:0.51221893 
-1 1 1 194:1 
-1 1 1 1:0.2670058 27:0.24602737 28:0.093499561 29:0.60804316 72:0.41133528 104:0.2670058 110:0.41133528 144:0.093499561 177:0.2670058 
-0.135716335780314 0 0 28:0.021748411 73:0.12954694 89:0.58888028 90:0.14842843 91:0.24409143 98:0.12954694 102:0.18078806 108:0.10993351 144:0.021748411 186:0.18038481 215:0.13896841 290:0.58888028 308:0.24409143 348:0.10993351 352:0.14842843 
-1 1 1 3:0.39892575 108:0.4634009 183:0.50223072 340:0.39892575 348:0.4634009 
-1 1 1 7:0.39571686 139:0.72816516 167:0.39571686 178:0.39571686 
-1 1 1 1:0.13930784 7:0.21215979 28:0.097564893 104:0.13930784 139:0.39039874 144:0.097564893 167:0.21215979 176:0.26882668 177:0.13930784 178:0.21215979 194:0.22427209 234:0.37761827 243:0.4814832 259:0.37189821 
-0 0 0.1744428110959236 27:0.061569737 28:0.023398793 37:0.10415024 89:0.38014051 90:0.3193839 91:0.39392153 94:0.10415024 106:0.22207197 108:0.11827583 115:0.19869717 117:0.16500217 144:0.023398793 290:0.38014051 305:0.1613844 308:0.39392153 348:0.11827583 352:0.3193839 
-1 0 1 28:0.70710678 144:0.70710678 
-1 0 1 3:0.52058281 28:0.4785327 144:0.4785327 340:0.52058281 
-1 0 0 2:0.11776489 9:0.2673778 17:0.160214 25:0.12713603 28:0.036558349 89:0.19797754 90:0.24950322 91:0.20515475 93:0.11776489 106:0.69393194 144:0.036558349 258:0.12713603 290:0.19797754 308:0.20515475 350:0.2673778 352:0.24950322 
-0.4092574163245567 0.1277612994563038 0.7112755107090949 13:0.16394979 27:0.10948233 28:0.083214565 37:0.18519831 91:0.23348835 94:0.18519831 106:0.78976975 144:0.083214565 156:0.38199222 308:0.23348835 
-1 1 1 1:0.12776338 13:0.35258669 25:0.15558843 28:0.044739925 30:0.34107895 54:0.32721562 104:0.12776338 144:0.044739925 148:0.41075189 162:0.38887706 177:0.12776338 230:0.35196007 258:0.15558843 349:0.32721562 
-1 0 0.7926710984400206 4:0.17353923 14:0.44530443 27:0.13317248 28:0.1012208 55:0.35289046 108:0.25582511 144:0.1012208 244:0.49952512 280:0.17353923 339:0.44530443 348:0.25582511 
-1 0 1 14:0.30073554 27:0.3597509 28:0.13671857 46:0.53776992 108:0.34554205 144:0.13671857 273:0.35258548 339:0.30073554 348:0.34554205 
-1 0 0.6229228717959078 5:0.4063 13:0.18195798 20:0.34697333 25:0.32117538 27:0.12150783 28:0.092354824 144:0.092354824 147:0.34221542 157:0.4013724 258:0.32117538 307:0.4063 
-0.1414722855832429 0 0 26:0.69548173 28:0.12769167 92:0.69548173 144:0.12769167 
-1 0 1 33:1 
-1 1 1 3:0.36814896 28:0.16920618 58:0.8195555 144:0.16920618 340:0.36814896 
-1 1 1 4:0.23438686 28:0.068355934 144:0.068355934 180:0.48202818 186:0.56695508 193:0.40150197 274:0.40717007 280:0.23438686 
-1 1 1 7:0.40925048 17:0.41238649 28:0.094100201 144:0.094100201 167:0.40925048 178:0.40925048 184:0.55656969 
-1 0 1 3:0.2896039 4:0.45640889 58:0.64470227 280:0.45640889 340:0.2896039 
-1 1 1 1:0.16232603 3:0.1236757 7:0.24721549 13:0.22398436 28:0.056843005 37:0.25301359 58:0.27532089 94:0.25301359 104:0.16232603 144:0.056843005 167:0.24721549 177:0.16232603 178:0.24721549 277:0.47251896 327:0.47251896 340:0.1236757 
-0.2779533088006085 0 1 10:0.4843054 28:0.081305455 34:0.3604811 89:0.44030034 144:0.081305455 290:0.44030034 291:0.4843054 
-1 0 0.1602481687876691 2:0.26950855 3:0.18203339 25:0.14547735 28:0.12549719 33:0.10001782 49:0.83942123 93:0.26950855 144:0.12549719 258:0.14547735 340:0.18203339 
-1 0 0 2:0.35213232 27:0.28764081 28:0.21862801 33:0.26136097 93:0.35213232 144:0.21862801 323:0.7108885 
-1 0 0 3:0.06327378 14:0.063969423 28:0.058162784 29:0.094560744 34:0.12893738 57:0.1077594 58:0.070428458 89:0.55120552 90:0.099237454 91:0.32639316 99:0.099237454 100:0.13349665 102:0.12087271 108:0.073500211 115:0.12347649 144:0.058162784 186:0.1206031 268:0.1077594 290:0.55120552 308:0.32639316 339:0.063969423 340:0.06327378 348:0.073500211 352:0.099237454 
-1 0 1 19:0.66081005 28:0.12811813 33:0.30631952 144:0.12811813 174:0.66081005 
-1 1 1 1:0.088903927 7:0.27079364 23:0.17258809 27:0.081918815 28:0.21792504 33:0.14886899 34:0.13802973 35:0.11480637 36:0.21247086 104:0.088903927 113:0.20066413 144:0.21792504 165:0.27059944 167:0.27079364 170:0.11480637 176:0.17156068 177:0.088903927 178:0.27079364 184:0.36827209 193:0.36572215 273:0.16057424 346:0.21031091 351:0.17258809 
-0 0 1 3:0.071456913 28:0.032842552 33:0.078523741 73:0.58689145 89:0.17785507 98:0.58689145 105:0.31170028 144:0.032842552 152:0.30152353 267:0.20308391 290:0.17785507 340:0.071456913 
-1 0 0 3:0.12704753 28:0.058392741 33:0.13961206 37:0.25991161 94:0.25991161 127:0.57633577 144:0.058392741 159:0.50754662 171:0.33613428 176:0.32178574 340:0.12704753 
-1 0 1 17:0.27912968 25:0.22150024 28:0.19107894 31:0.4544283 89:0.34492246 144:0.19107894 157:0.55361674 258:0.22150024 290:0.34492246 
-0.71922580052006 0.5677496722557079 1 23:0.53049916 27:0.25180087 28:0.047846889 33:0.11439783 128:0.47224831 144:0.047846889 217:0.36476517 351:0.53049916 
-1 0.377164773732963 1 1:0.098416796 3:0.074983455 9:0.25205589 13:0.13579968 34:0.15279914 35:0.12709084 51:0.26677594 70:0.56180285 73:0.20528524 98:0.20528524 104:0.098416796 108:0.17420501 111:0.27111668 170:0.12709084 177:0.098416796 185:0.25205589 340:0.074983455 343:0.29955403 348:0.17420501 350:0.25205589 
-1 0 0 22:0.55080521 28:0.085455123 108:0.43195713 144:0.085455123 323:0.55572884 348:0.43195713 
-1 0 0 28:0.027694627 34:0.12278868 89:0.29995425 90:0.18901014 91:0.31082828 99:0.18901014 108:0.27998068 144:0.027694627 150:0.5085221 151:0.25426105 183:0.15172057 290:0.29995425 308:0.31082828 348:0.27998068 352:0.18901014 
-0.203622011009455 0 0.6943734790420602 19:0.23311724 27:0.11892747 28:0.045196867 33:0.10806185 35:0.16667271 95:0.26366519 107:0.42895193 129:0.44609262 130:0.44609262 144:0.045196867 159:0.39284877 170:0.16667271 174:0.23311724 
-1 0.8610645456529377 1 14:0.4921493 33:0.26746969 274:0.66636183 339:0.4921493 
-1 1 1 25:0.39693094 33:0.27289589 34:0.50605267 35:0.42090983 170:0.42090983 258:0.39693094 
-1 1 1 3:0.18375642 14:0.37155368 67:0.54923728 229:0.59556804 339:0.37155368 340:0.18375642 
-1 1 1 4:0.43469145 5:0.5577126 280:0.43469145 307:0.5577126 
-1 0 1 3:0.55835667 33:0.61357611 340:0.55835667 
-1 1 1 1:0.256898 3:0.1957298 5:0.39576373 27:0.23671373 33:0.43017388 104:0.256898 177:0.256898 194:0.41358084 307:0.39576373 340:0.1957298 
-0.8821490741041417 0 0 5:0.28901021 28:0.13138807 33:0.15706915 34:0.29126588 37:0.29241094 94:0.29241094 141:0.54609602 144:0.13138807 169:0.46870548 307:0.28901021 
-0 0 0.2808684508355276 2:0.10469648 3:0.14142969 22:0.20948975 28:0.097504245 93:0.10469648 97:0.28250095 99:0.44363153 112:0.28987697 131:0.64157812 132:0.32078906 144:0.097504245 340:0.14142969 
-1 0 0.8509113004696937 4:0.49646187 25:0.50351327 258:0.50351327 280:0.49646187 
-1 0 0.4533986183066763 4:0.21063184 16:0.3289278 19:0.63366985 174:0.63366985 280:0.21063184 
-1 0 1 23:0.57616809 25:0.36143504 27:0.27347778 258:0.36143504 351:0.57616809 
-1 0 0 3:0.064056873 4:0.10095211 5:0.12952237 13:0.23202194 14:0.12952237 25:0.10238597 27:0.15493941 28:0.11776535 30:0.22444919 33:0.14078384 37:0.13104643 89:0.31887309 94:0.13104643 100:0.27029791 108:0.14881987 113:0.18976596 144:0.11776535 147:0.21818632 157:0.25590305 183:0.16128996 258:0.10238597 274:0.17537109 280:0.10095211 290:0.31887309 307:0.12952237 323:0.38292455 339:0.12952237 340:0.064056873 348:0.14881987 
-1 0 0 2:0.27459031 3:0.27819854 25:0.14822042 28:0.085242292 49:0.57016598 58:0.20643727 93:0.27459031 114:0.36192969 144:0.085242292 157:0.37046147 258:0.14822042 340:0.27819854 
-1 0 1 28:0.057993937 33:0.13865856 36:0.39579669 53:0.41376698 144:0.057993937 156:0.53243538 166:0.50408023 345:0.32955237 
-1 0 0 2:0.3136396 4:0.33385562 27:0.25619786 28:0.097364728 33:0.23279076 93:0.3136396 144:0.097364728 280:0.33385562 309:0.66449424 
-1 0.05402018018484639 1 2:0.18959566 4:0.20181627 18:0.35838791 27:0.15487203 35:0.21704776 72:0.25893189 93:0.18959566 96:0.35838791 110:0.25893189 133:0.58091937 170:0.21704776 280:0.20181627 
-1 0 0 1:0.066939215 3:0.15300244 4:0.080376024 17:0.20545332 28:0.070321832 33:0.11208924 34:0.10392794 37:0.10433651 89:0.38082038 90:0.15997755 91:0.39462605 94:0.10433651 99:0.15997755 104:0.066939215 117:0.16529728 133:0.23135889 144:0.070321832 177:0.066939215 183:0.12841579 233:0.11907757 280:0.080376024 290:0.38082038 306:0.11907757 308:0.39462605 309:0.15997755 340:0.15300244 352:0.15997755 
-1 1 1 4:0.26685169 28:0.077823887 144:0.077823887 166:0.67644111 220:0.6228119 280:0.26685169 
-1 0 0 2:0.1034159 7:0.13962292 16:0.34381249 22:0.2069274 28:0.16051935 48:0.25692245 52:0.24851159 93:0.1034159 95:0.18728481 108:0.32455672 109:0.2447472 133:0.31686537 144:0.16051935 148:0.29474224 167:0.13962292 178:0.13962292 225:0.29474224 348:0.32455672 
-1 1 1 13:0.62358101 14:0.34810368 28:0.15825279 53:0.56454096 144:0.15825279 339:0.34810368 
-1 0 0 3:0.52485939 28:0.24123239 33:0.57676607 144:0.24123239 340:0.52485939 
-1 0 0.807973890894941 4:0.67882788 28:0.19797148 144:0.19797148 280:0.67882788 
-1 0 0 26:0.69548173 28:0.12769167 92:0.69548173 144:0.12769167 
-1 0 0.2006053205652143 4:0.54393754 14:0.3489381 25:0.27583163 28:0.07931622 144:0.07931622 258:0.27583163 280:0.54393754 339:0.3489381 
-1 0.6603490411713008 1 16:0.56919673 27:0.27970656 28:0.10629891 31:0.75840649 144:0.10629891 
-1 1 1 3:0.30355192 27:0.36711276 184:0.8251913 340:0.30355192 
-1 1 1 3:0.50311445 27:0.3042306 183:0.63339991 340:0.50311445 
-1 1 1 1:0.28332287 4:0.34019469 28:0.099213438 104:0.28332287 144:0.099213438 177:0.28332287 233:0.50400049 280:0.34019469 306:0.50400049 
-1 0 1 3:0.14217566 28:0.065345834 65:0.44143817 95:0.38120832 122:0.64496272 144:0.065345834 265:0.44143817 340:0.14217566 
-0 0 0.9765839900945085 33:0.13007028 69:0.44341433 70:0.88682888 
-0.02256815706382644 0.5504955498460564 0 33:0.2814777 70:0.95956777 
-1 0 0.9910538124792331 3:0.20029396 5:0.40499242 25:0.32014193 66:0.62188844 258:0.32014193 307:0.40499242 340:0.20029396 
-1 0.4930316551069437 1 3:0.16983839 13:0.30758786 14:0.34341156 217:0.59509757 323:0.5076371 339:0.34341156 340:0.16983839 
-1 0 1 3:0.55835667 33:0.61357611 340:0.55835667 
-1 0 1 25:0.67956905 28:0.19541214 144:0.19541214 258:0.67956905 
-1 0 1 3:0.29674423 28:0.13638761 29:0.88695128 144:0.13638761 340:0.29674423 
-0.8929397941147733 0 0.7870184426523228 28:0.16659238 95:0.97185079 144:0.16659238 
-1 0.1688764357011548 1 3:0.70710678 340:0.70710678 
-0 0 1 23:0.50694765 109:0.69714285 351:0.50694765 
-0 0 0.2347038556569168 2:0.24168807 13:0.29564235 28:0.075028451 30:0.57198631 93:0.24168807 139:0.60044048 144:0.075028451 186:0.31114901 
-1 0 1 2:0.095042396 10:0.17574694 28:0.059008869 34:0.13081302 37:0.13132728 93:0.095042396 94:0.13132728 127:0.29120904 144:0.059008869 153:0.81263149 233:0.1498817 267:0.18244282 291:0.17574694 306:0.1498817 330:0.19545586 
-1 0.3608260541963059 0 27:0.35400497 28:0.13453507 33:0.64332429 58:0.65162487 144:0.13453507 
-0.6869789433440117 0 0 28:0.031218995 33:0.03732105 89:0.42265814 90:0.21306364 91:0.43798051 97:0.13567719 99:0.10653182 102:0.12975735 108:0.078902781 134:0.15406588 144:0.031218995 150:0.28661841 290:0.42265814 308:0.43798051 348:0.078902781 352:0.21306364 
-1 0 0 2:0.28796196 3:0.19449732 4:0.15326145 27:0.23522279 28:0.13409006 58:0.43298036 93:0.28796196 114:0.37955448 144:0.13409006 147:0.33124171 214:0.24344398 235:0.34599073 280:0.15326145 340:0.19449732 
-0 0 1 17:0.35842276 26:0.44545604 73:0.48717089 92:0.44545604 98:0.48717089 
-1 0 1 3:0.1593984 28:0.073261633 58:0.35484503 113:0.47221147 144:0.073261633 145:0.54293236 146:0.54293236 340:0.1593984 
-0.8142845534898022 0.5697209020115824 1 1:0.10892075 27:0.10036293 28:0.038141652 64:0.53792992 104:0.10892075 139:0.61048286 144:0.038141652 177:0.10892075 310:0.53792992 
-1 0 1 3:0.076030047 4:0.11982155 14:0.15373201 28:0.034944426 37:0.15554094 64:0.49283792 94:0.15554094 139:0.5593091 144:0.034944426 233:0.17751635 280:0.11982155 306:0.17751635 310:0.49283792 339:0.15373201 340:0.076030047 
-1 1 1 1:0.35148454 104:0.35148454 113:0.79333212 177:0.35148454 
-1 1 1 1:0.28115365 3:0.42842059 104:0.28115365 177:0.28115365 216:0.62910212 340:0.42842059 
-1 1 1 4:0.14836724 28:0.043269411 33:0.10345347 35:0.63825962 144:0.043269411 170:0.63825962 194:0.19892611 280:0.14836724 309:0.29530483 
-1 0.4355953444412404 1 3:0.27661764 58:0.41052849 97:0.36835627 163:0.73671255 340:0.27661764 
-0.1228249011935741 0.2763103941514248 0 3:0.19971145 30:0.69976993 108:0.46397883 340:0.19971145 348:0.46397883 
-1 0 1 4:0.24149752 28:0.14085906 35:0.25972384 46:0.55405616 72:0.30984325 110:0.30984325 144:0.14085906 170:0.25972384 280:0.24149752 323:0.45801582 
-1 0.1535215305762485 1 27:0.37795667 113:0.92582329 
-0.1270254211064535 0.8423000036863366 1 3:0.12913751 6:0.35354499 10:0.35354499 33:0.14190874 89:0.32142111 137:0.35354499 186:0.246143 290:0.32142111 291:0.35354499 304:0.42346575 340:0.12913751 
-1 0 0 15:0.53604826 25:0.23293887 28:0.13396429 108:0.3385809 144:0.13396429 163:0.58220641 258:0.23293887 348:0.3385809 
-1 0.2756806222643299 1 3:0.70710678 340:0.70710678 
-1 0 0 5:0.2198075 13:0.19687782 14:0.2198075 15:0.39985277 25:0.17375535 28:0.049963877 108:0.25255657 116:0.37542378 144:0.049963877 145:0.37027574 146:0.37027574 258:0.17375535 307:0.2198075 339:0.2198075 348:0.25255657 
-1 0 0 2:0.35029651 3:0.35489955 13:0.21424823 14:0.23920099 26:0.29614181 27:0.14307061 28:0.1087441 92:0.29614181 93:0.35029651 113:0.35045843 144:0.1087441 339:0.23920099 340:0.35489955 
-1 1 1 28:0.057089387 33:0.13649586 35:0.42105786 72:0.50230993 110:0.50230993 144:0.057089387 170:0.42105786 274:0.34005958 
-1 1 1 1:0.22173074 7:0.33768629 28:0.07764523 33:0.18564312 36:0.52991273 104:0.22173074 144:0.07764523 167:0.33768629 176:0.42788072 177:0.22173074 178:0.33768629 
-0 0.01492144843695325 1 2:0.70710678 93:0.70710678 
-1 0 0.7600742313291027 2:0.49874787 3:0.16843392 16:0.20726473 27:0.10185109 28:0.038707206 33:0.092545629 58:0.56243888 93:0.49874787 144:0.038707206 340:0.16843392 347:0.25402787 
-0 0 1 2:0.26694742 27:0.21805715 69:0.6754485 93:0.26694742 176:0.45667205 194:0.3809845 
-0 0 0.02871867817166199 103:0.49066459 116:0.44351484 120:0.58258488 140:0.47237454 
-0.6600737260541141 0 0.1837646258125784 1:0.17961445 5:0.2767047 103:0.52284427 104:0.17961445 116:0.47260226 140:0.50335469 177:0.17961445 307:0.2767047 
-1 0.9936492372705064 1 1:0.14459632 5:0.44551518 103:0.42090912 104:0.14459632 116:0.38046243 140:0.40521928 177:0.14459632 194:0.23278604 307:0.44551518 
-0 0 1 1:0.19427361 28:0.068030347 103:0.565516 104:0.19427361 116:0.51117351 140:0.54443579 144:0.068030347 177:0.19427361 
-1 0 0.190963169482458 13:0.22636619 28:0.057447468 103:0.47754368 140:0.45974273 144:0.057447468 147:0.42573566 245:0.56700593 
-0.9634454956414368 0.876609790650987 1 12:0.32398613 28:0.091888118 73:0.27367167 98:0.27367167 103:0.38192002 116:0.34521993 135:0.45346829 140:0.36768354 144:0.091888118 186:0.19053407 215:0.29357479 
-1 0 0 3:0.25345485 4:0.39943884 5:0.51248321 28:0.11649124 144:0.11649124 280:0.39943884 307:0.51248321 340:0.25345485 
-1 1 0.9214192122848398 27:0.18134656 169:0.98341925 
-1 0 1 2:0.22137367 27:0.3616598 28:0.068722148 66:0.46424657 93:0.22137367 144:0.068722148 233:0.3491059 279:0.54997216 306:0.3491059 
-1 0.1391096575923952 1 4:0.27089593 28:0.079003339 56:0.50921992 144:0.079003339 233:0.40133396 266:0.50921992 280:0.27089593 306:0.40133396 
-1 0 0 4:0.32749561 25:0.33214712 28:0.095509912 118:0.73932777 144:0.095509912 258:0.33214712 280:0.32749561 
-0 0.02287011342885487 0 2:0.38054039 93:0.38054039 169:0.84283926 
-1 0 1 23:0.46815417 28:0.1688951 34:0.37441282 108:0.4268649 144:0.1688951 348:0.4268649 351:0.46815417 
-0.0350248786348612 0 0.07019024700686953 4:0.13405389 19:0.20164547 25:0.1359579 27:0.41148681 28:0.039095107 33:0.18694628 34:0.34666916 55:0.27259739 68:0.25424196 99:0.26681606 123:0.38586831 144:0.039095107 173:0.3075534 174:0.20164547 258:0.1359579 272:0.25424196 280:0.13405389 
-1 0 0 4:0.071451268 5:0.45836273 27:0.054831074 28:0.02083785 37:0.092751241 72:0.27501764 94:0.092751241 110:0.27501764 134:0.20566937 136:0.20566937 144:0.02083785 148:0.1913098 169:0.29734192 176:0.11483145 194:0.095799605 280:0.071451268 307:0.45836273 323:0.40653599 
-0.4050111079759787 0 0 17:0.20417236 25:0.16201869 28:0.046588966 73:0.2775126 98:0.2775126 116:0.35006503 144:0.046588966 149:0.42772771 169:0.6647928 258:0.16201869 
-1 0.008047056022656055 1 19:0.69418015 28:0.13458794 144:0.13458794 174:0.69418015 
-1 0 0 27:0.40147832 28:0.15257671 95:0.89008755 144:0.15257671 
-0.2490612584282434 0.04336134946711338 1 23:0.66076536 27:0.31363182 28:0.11919177 144:0.11919177 351:0.66076536 
-1 0.4025257177324785 1 33:0.15023759 173:0.98864992 
-1 0 0 169:0.67179707 173:0.74073524 
-0.7899993699813626 0 0 19:0.28671446 33:0.26581407 173:0.87460421 174:0.28671446 
-1 0.8009025441468429 0 28:0.083027611 34:0.36811656 108:0.41968658 144:0.083027611 183:0.45485344 323:0.53994233 348:0.41968658 
-1 0.5006040975302473 1 27:0.88084136 28:0.33475252 144:0.33475252 
-1 0 0.6777352644013431 27:0.31713118 28:0.12052166 118:0.93293991 144:0.12052166 
-1 0 1 3:0.21583049 6:0.1969625 16:0.3541176 28:0.099198388 89:0.17906606 95:0.1928983 136:0.32636279 137:0.1969625 144:0.099198388 163:0.28740942 186:0.27425614 233:0.1679749 235:0.51192047 290:0.17906606 306:0.1679749 340:0.21583049 
-1 0 1 2:0.093262532 4:0.099273881 13:0.1140824 27:0.076181902 28:0.02895196 62:0.25821939 66:0.78232991 73:0.17245572 93:0.093262532 98:0.17245572 99:0.19759117 108:0.14634588 144:0.02895196 185:0.21174674 216:0.18499778 233:0.14707485 280:0.099273881 306:0.14707485 348:0.14634588 
-1 0 0.3341302532718244 3:0.3043898 28:0.13990162 37:0.62271534 94:0.62271534 144:0.13990162 340:0.3043898 
-1 0.2495386980564235 1 5:0.33169804 17:0.33042294 20:0.28326451 25:0.13110177 28:0.075397277 73:0.44911353 89:0.20415304 98:0.44911353 144:0.075397277 215:0.24088795 258:0.13110177 290:0.20415304 307:0.33169804 
-0.5920788138128433 0 0 4:0.056276842 5:0.21661091 14:0.072203637 28:0.049237203 37:0.073053245 73:0.097762504 89:0.35551841 90:0.11201141 91:0.46050855 94:0.073053245 95:0.095745233 97:0.14265591 98:0.097762504 99:0.11201141 102:0.13643158 115:0.13937052 144:0.049237203 145:0.12163031 146:0.12163031 149:0.15068048 161:0.14265591 280:0.056276842 290:0.35551841 307:0.21661091 308:0.46050855 339:0.072203637 352:0.11201141 
-1 1 1 1:0.27853748 3:0.21221685 4:0.33444873 28:0.29261272 104:0.27853748 144:0.29261272 177:0.27853748 214:0.53124599 280:0.33444873 340:0.21221685 
-1 1 1 2:0.14408714 18:0.2723643 28:0.0447297 33:0.1069449 35:0.32990005 71:0.36457907 93:0.14408714 96:0.2723643 144:0.0447297 170:0.32990005 171:0.25748381 184:0.26456049 216:0.28581468 300:0.36457907 309:0.305271 
-1 0.6195368047287961 1 2:0.11174584 3:0.075476106 5:0.15261194 25:0.12063802 28:0.069379518 35:0.25585183 72:0.15261194 93:0.11174584 99:0.23675094 100:0.31848314 108:0.17534956 110:0.15261194 131:0.34238824 132:0.34238824 141:0.2883662 144:0.069379518 170:0.25585183 192:0.27289795 258:0.12063802 307:0.15261194 323:0.2255937 340:0.075476106 345:0.19712603 348:0.17534956 
-1 0.06836973505824415 0 2:0.1380427 4:0.14694041 14:0.18852572 17:0.18780108 28:0.12855972 35:0.15803031 93:0.1380427 118:0.33172086 129:0.42296159 130:0.42296159 144:0.12855972 151:0.39343096 170:0.15803031 259:0.32669604 280:0.14694041 339:0.18852572 
-0 0.2097615858582827 0 2:0.28856968 4:0.051194964 17:0.06543108 18:0.36365074 19:0.077008075 27:0.039286565 28:0.029860657 35:0.11011757 93:0.28856968 96:0.36365074 128:0.14736248 129:0.58944992 130:0.14736248 144:0.029860657 152:0.13707382 170:0.11011757 174:0.077008075 176:0.082276943 186:0.061917391 215:0.19080462 233:0.075845649 259:0.22764592 280:0.051194964 306:0.075845649 
-0.2366781418379768 1 1 6:0.20151311 26:0.1842582 27:0.17803574 37:0.15058111 45:0.44404116 92:0.1842582 94:0.15058111 111:0.26613489 124:0.33390306 137:0.20151311 219:0.44404116 347:0.44404116 
-0 0 0.5823578233192159 2:0.252582 13:0.061793647 18:0.38195959 25:0.16360867 28:0.015682062 33:0.037494472 45:0.10291832 64:0.2211716 66:0.21187764 89:0.084924402 90:0.21405369 91:0.26400942 93:0.252582 95:0.091484523 96:0.38195959 113:0.1010795 117:0.1105858 144:0.015682062 150:0.14397513 165:0.13630765 219:0.10291832 223:0.11783351 258:0.16360867 267:0.09697098 290:0.084924402 308:0.26400942 310:0.2211716 342:0.13630765 352:0.21405369 
-1 1 1 299:1 
-0 0.1381855924037317 0.008241384099489438 1:0.11014698 2:0.24849674 8:0.20653567 25:0.13413544 27:0.10149282 33:0.18444034 34:0.1710111 66:0.26056342 73:0.45950591 93:0.24849674 98:0.45950591 101:0.33525753 104:0.11014698 177:0.11014698 190:0.20653567 258:0.13413544 301:0.20653567 
-1 0 0 2:0.59131334 27:0.48301686 28:0.18356439 93:0.59131334 144:0.18356439 
-0.3186261018901662 1 1 66:1 
-1 0 1 17:0.39426505 25:0.15643238 28:0.089965033 48:0.35998846 53:0.64187111 73:0.26794412 98:0.26794412 99:0.30699703 144:0.089965033 258:0.15643238 
-1 0 1 26:0.55355347 28:0.10163339 92:0.55355347 144:0.10163339 274:0.60539113 
-1 0.4192289523034095 1 29:1 
-0 0.504484846829715 1 2:0.70710678 93:0.70710678 
-1 0 1 10:0.43825474 13:0.28991298 28:0.073574444 33:0.17591022 37:0.32748681 94:0.32748681 144:0.073574444 291:0.43825474 304:0.52492858 
-1 0 1 33:1 
-1 1 1 1:0.22981213 28:0.080475154 33:0.19240923 68:0.52334328 104:0.22981213 144:0.080475154 177:0.22981213 272:0.52334328 281:0.49377016 
-1 0.0449038617921689 1 299:0.57444092 327:0.81854604 
-1 0 1 2:0.2690841 17:0.3660772 18:0.50864292 28:0.08353314 35:0.30804558 93:0.2690841 96:0.50864292 144:0.08353314 170:0.30804558 
-1 1 1 10:0.27700788 14:0.2045874 17:0.20380103 28:0.046504233 37:0.20699474 94:0.20699474 144:0.046504233 171:0.53539743 180:0.3279357 186:0.38571357 216:0.29715363 291:0.27700788 339:0.2045874 
-1 0 1 4:0.67882788 28:0.19797148 144:0.19797148 280:0.67882788 
-0 0.06836009277343151 1 4:0.26151663 19:0.39337643 28:0.076267986 31:0.54414609 67:0.49598337 144:0.076267986 174:0.39337643 280:0.26151663 
-1 0.8849919229051284 1 4:0.19274865 17:0.12317376 25:0.097743156 28:0.056212572 35:0.51823968 72:0.12364903 110:0.12364903 144:0.056212572 170:0.51823968 194:0.12921565 258:0.097743156 280:0.19274865 323:0.54834059 
-1 0 0.2515501774213607 3:0.22606388 13:0.20470766 27:0.13669961 28:0.10390168 144:0.10390168 162:0.90310969 340:0.22606388 
-1 0.9650878276695457 1 33:1 
-1 0 1 1:0.11307045 4:0.13576726 5:0.52257142 17:0.17352094 27:0.1041866 67:0.25749147 104:0.11307045 176:0.436391 177:0.11307045 233:0.20114001 280:0.13576726 306:0.20114001 307:0.52257142 
-0.8234289201724225 0.4465404497383907 1 26:0.34937214 28:0.064145341 92:0.34937214 144:0.064145341 246:0.63311387 336:0.58891068 
-0 0 0.4967741284792314 1:0.25773189 2:0.29072761 28:0.090252042 93:0.29072761 104:0.25773189 144:0.090252042 158:0.78446598 177:0.25773189 
-1 0 1 2:0.33447787 28:0.05191683 93:0.33447787 112:0.46304057 144:0.05191683 233:0.52747124 306:0.52747124 
-1 0 0.8622286797063129 16:0.45388867 55:0.59103752 111:0.66682811 
-1 0 0 28:0.35999011 33:0.86070566 144:0.35999011 
-0.005649673352704616 0 1 2:0.23805013 19:0.38115818 28:0.073899106 33:0.35337321 93:0.23805013 144:0.073899106 174:0.38115818 337:0.67845883 
-1 0 1 25:0.42652092 67:0.79759627 258:0.42652092 
-1 1 0.7034314731451035 2:0.28807224 27:0.23531306 28:0.089427724 33:0.21381406 93:0.28807224 144:0.089427724 309:0.61032583 347:0.58689678 
-1 0 0 2:0.3083031 27:0.25183872 28:0.095708093 33:0.22882989 35:0.35294321 93:0.3083031 144:0.095708093 170:0.35294321 309:0.65318805 
-1 1 1 2:0.25817847 19:0.41338704 27:0.2108942 28:0.16029499 93:0.25817847 144:0.16029499 174:0.41338704 193:0.47076292 345:0.45544155 
-0 0 1 1:0.17684177 2:0.099740758 23:0.17165025 27:0.081473669 28:0.061925936 33:0.07402996 34:0.13727968 36:0.2113163 89:0.16767672 93:0.099740758 95:0.54188741 104:0.17684177 142:0.51477286 144:0.061925936 176:0.17062842 177:0.17684177 290:0.16767672 303:0.26293092 345:0.17594838 351:0.17165025 
-1 0.619360553303107 1 1:0.25191669 14:0.38808977 28:0.17643102 33:0.21091618 104:0.25191669 144:0.17643102 177:0.25191669 233:0.44813232 306:0.44813232 339:0.38808977 
-1 1 1 14:0.70710678 339:0.70710678 
-1 1 1 28:0.088371822 33:0.21128949 95:0.51553515 142:0.73460862 144:0.088371822 186:0.36648503 
-1 0.8130029943551153 1 2:0.13761667 4:0.14648692 28:0.042721038 33:0.10214236 35:0.63017068 37:0.19015538 93:0.13761667 94:0.19015538 144:0.042721038 170:0.63017068 194:0.19640503 280:0.14648692 
-1 1 1 13:0.58505755 28:0.074238285 70:0.60509516 144:0.074238285 222:0.52966486 
-0 0 1 26:0.21606485 28:0.039669889 34:0.17588297 37:0.17657443 92:0.21606485 94:0.17657443 105:0.37649679 144:0.039669889 151:0.36420449 156:0.36420449 279:0.63494332 
-1 0 1 16:0.8974912 27:0.44103236 
-1 0 1 2:0.080724355 9:0.18327959 13:0.19749041 25:0.087147995 52:0.19398311 73:0.59708336 93:0.080724355 98:0.59708336 116:0.18829596 151:0.23006983 258:0.087147995 323:0.16296719 350:0.18327959 
-1 0.8489984578240961 1 2:0.14235572 3:0.096150829 13:0.17413511 27:0.11628388 28:0.088384239 33:0.21131976 34:0.19593341 35:0.32593581 37:0.19670369 93:0.14235572 94:0.19670369 118:0.34208517 144:0.088384239 170:0.32593581 176:0.24353064 186:0.18326862 267:0.54653038 340:0.096150829 
-0 0 1 23:0.52853918 27:0.25087075 28:0.095340228 37:0.42436837 94:0.42436837 144:0.095340228 351:0.52853918 
-1 0 1 28:0.081804482 35:0.30167079 37:0.36411949 50:0.55829877 94:0.36411949 144:0.081804482 170:0.30167079 299:0.47722322 
-1 0 1 17:0.27457957 25:0.43577885 28:0.0626548 32:0.5445922 35:0.23105242 144:0.0626548 170:0.23105242 258:0.43577885 326:0.36550963 
-1 0.05551270613994933 1 37:0.30132327 49:0.4528051 67:0.4402412 94:0.30132327 111:0.53255441 214:0.36871346 
-1 0.01986277666891383 1 25:0.51361277 28:0.14769091 34:0.65481192 144:0.14769091 258:0.51361277 
-1 0 0 17:0.33376719 25:0.26485722 27:0.20040272 28:0.15232069 91:0.42739041 108:0.38497481 144:0.15232069 258:0.26485722 308:0.42739041 348:0.38497481 
-1 0 1 25:0.70710678 258:0.70710678 
-1 1 1 17:0.29811171 25:0.47312616 28:0.13604867 144:0.13604867 217:0.51859081 258:0.47312616 326:0.39683469 
-1 0.2161501908200874 1 3:0.15633779 19:0.37061474 28:0.071854939 33:0.17179903 68:0.46728459 72:0.31611348 110:0.31611348 144:0.071854939 174:0.37061474 272:0.46728459 340:0.15633779 
-1 0 0.5359006045868444 3:0.12745091 14:0.25770449 25:0.20371249 108:0.29609982 109:0.44657587 145:0.43411494 146:0.43411494 258:0.20371249 339:0.25770449 340:0.12745091 348:0.29609982 
-1 0.6438452136105537 1 3:0.53739952 27:0.64992578 340:0.53739952 
-1 1 1 3:0.045347279 28:0.020842216 89:0.45147457 135:0.41142491 144:0.020842216 152:0.38269976 159:0.18115943 172:0.13096338 182:0.13096338 186:0.4321717 215:0.13317798 290:0.45147457 340:0.045347279 
-1 0 0 3:0.2126092 22:0.31492291 28:0.14657672 97:0.4246796 108:0.24697152 131:0.48223756 132:0.48223756 144:0.14657672 340:0.2126092 348:0.24697152 
-1 0 0 2:0.58118041 3:0.39254502 28:0.090209388 93:0.58118041 144:0.090209388 340:0.39254502 
-1 0.9477850236993586 1 3:0.158503 49:0.97455302 340:0.158503 
-1 1 1 25:0.41384888 28:0.1190035 33:0.28452722 72:0.52353548 110:0.52353548 144:0.1190035 258:0.41384888 
-1 1 1 3:0.37916475 58:0.84407831 340:0.37916475 
-1 0 0 4:0.37771061 28:0.11015448 33:0.52674035 95:0.64260873 144:0.11015448 280:0.37771061 
-1 0 0 3:0.15648933 9:0.52603682 13:0.28341187 26:0.39174235 28:0.071924587 92:0.39174235 144:0.071924587 340:0.15648933 350:0.52603682 
-0.7458179448505508 0 0 28:0.026275591 34:0.11649715 89:0.42687743 90:0.1793255 91:0.44235277 99:0.1793255 102:0.21842116 108:0.13281742 115:0.22312628 144:0.026275591 290:0.42687743 308:0.44235277 348:0.13281742 352:0.1793255 
-1 0 0 3:0.36917364 4:0.29090419 28:0.084838493 144:0.084838493 158:0.73741169 280:0.29090419 340:0.36917364 
-0 0 0.8585856721929727 2:0.25076223 26:0.42399041 31:0.55540031 92:0.42399041 93:0.25076223 95:0.45412704 
-0 0 0.6808895684149176 19:0.45106074 28:0.087451845 144:0.087451845 166:0.7601268 174:0.45106074 
-1 0 1 28:0.70710678 144:0.70710678 
-0.1374333919368128 1 1 19:0.70710678 174:0.70710678 
-1 0.1035489886994851 1 19:0.69418015 28:0.13458794 144:0.13458794 174:0.69418015 
-0 0.100632953568184 1 26:0.45855323 27:0.22153379 28:0.084190988 35:0.15523607 67:0.27375452 92:0.45855323 109:0.3209195 118:0.32585548 144:0.084190988 170:0.15523607 184:0.24898057 186:0.34914746 
-1 0.3925807051965122 1 13:0.20154797 23:0.28355595 27:0.13458963 34:0.22677783 109:0.38993967 124:0.50484084 164:0.44458504 305:0.35278156 351:0.28355595 
-0.6323499235861966 0 0.8520233157947806 18:0.64152382 27:0.13861247 37:0.23447431 94:0.23447431 96:0.64152382 186:0.21845948 
-0 1 1 1:0.13515817 2:0.30492315 7:0.20584002 18:0.28819428 26:0.25778302 27:0.12453889 28:0.047329418 33:0.1131606 92:0.25778302 93:0.30492315 96:0.28819428 104:0.13515817 114:0.40191054 144:0.047329418 167:0.20584002 177:0.13515817 178:0.20584002 214:0.25778302 345:0.26895091 
-0 0 0.4335951762168044 18:0.22918087 19:0.19412891 27:0.099037121 96:0.22918087 101:0.32714572 127:0.7429693 174:0.19412891 273:0.38825783 
-1 0 0.5654348909865617 3:0.084422252 5:0.17070096 13:0.15289393 20:0.29155147 28:0.038801595 33:0.092771305 56:0.2500976 73:0.23112622 89:0.21012558 90:0.26481291 91:0.21774319 98:0.23112622 108:0.19613366 144:0.038801595 159:0.33726141 216:0.24793517 266:0.2500976 290:0.21012558 307:0.17070096 308:0.21774319 340:0.084422252 348:0.19613366 352:0.26481291 
-0 0.5176303560345834 0 2:0.3925656 3:0.053029844 23:0.13511825 25:0.084760801 26:0.13275049 27:0.064133781 28:0.048746355 34:0.1080627 89:0.1319904 90:0.16634225 91:0.1367754 92:0.13275049 93:0.3925656 95:0.14218621 117:0.17187362 118:0.18866945 134:0.24056349 144:0.048746355 145:0.18062678 146:0.18062678 169:0.17389465 176:0.26862769 186:0.20215544 194:0.11205308 214:0.13275049 256:0.21738215 258:0.084760801 267:0.15071332 290:0.1319904 308:0.1367754 340:0.053029844 351:0.13511825 352:0.16634225 
-1 -1 1 3:0.1473888 58:0.32810984 70:0.55214465 194:0.31143537 247:0.66861148 340:0.1473888 
-0.759060565757532 -1 0.8249010678322314 1:0.156371 28:0.054757686 70:0.44631433 104:0.156371 144:0.054757686 177:0.156371 194:0.25174213 247:0.54045781 260:0.60496471 
-1 -0.3787586862561803 1 1:0.10584295 13:0.14604661 50:0.25295332 104:0.10584295 177:0.10584295 181:0.30810094 196:0.38394181 246:0.36582006 255:0.33056867 261:0.40948289 262:0.40948289 330:0.24553384 
-1 -1 1 17:0.2413446 27:0.14490973 33:0.13167029 138:0.37584889 196:0.57047722 221:0.37584889 246:0.54355115 
-1 -1 1 1:0.11476928 3:0.087442359 7:0.17478862 25:0.1397644 27:0.10575194 28:0.040189677 69:0.32757463 104:0.11476928 144:0.040189677 167:0.17478862 168:0.30638971 177:0.11476928 178:0.17478862 186:0.16666981 230:0.31616417 258:0.1397644 263:0.44401687 264:0.44401687 305:0.27719324 340:0.087442359 
-0.2448988307993189 -0 1 3:0.10156643 8:0.2499634 190:0.2499634 226:0.42857532 227:0.42857532 248:0.46074386 249:0.46074386 301:0.2499634 340:0.10156643 
-0.2104453459661562 -1 1 6:0.24821025 13:0.16419531 27:0.10964629 31:0.59459782 137:0.24821025 184:0.2464615 193:0.24475498 215:0.26626166 226:0.38256426 227:0.38256426 
-1 -1 1 1:0.15802134 27:0.14560572 28:0.055335598 35:0.20406136 104:0.15802134 144:0.055335598 170:0.20406136 177:0.15802134 226:0.50802948 227:0.50802948 249:0.54616179 
-1 -1 1 3:0.24546101 181:0.93781543 340:0.24546101 
-1 -1 1 1:0.24764994 3:0.18868373 7:0.3771601 29:0.56396472 104:0.24764994 167:0.3771601 177:0.24764994 178:0.3771601 340:0.18868373 
-1 -1 1 3:0.13448378 7:0.26881976 16:0.33097572 27:0.16264338 28:0.061810542 35:0.22793904 45:0.40565058 58:0.29938131 144:0.061810542 167:0.26881976 170:0.22793904 178:0.26881976 194:0.28416682 219:0.40565058 340:0.13448378 
-1 -1 1 1:0.19515002 3:0.1486842 13:0.26927631 14:0.300638 28:0.068337247 47:0.54689187 104:0.19515002 144:0.068337247 177:0.19515002 235:0.52898828 339:0.300638 340:0.1486842 
-1 -1 1 17:0.1567077 19:0.18443465 33:0.085494966 34:0.15854015 35:0.26373202 170:0.26373202 174:0.18443465 188:0.35293373 197:0.37041713 198:0.37041713 273:0.18443465 305:0.49325849 309:0.24404282 
-1 -1 1 2:0.12350298 27:0.10088395 28:0.038339656 33:0.091666848 55:0.8019898 93:0.12350298 144:0.038339656 216:0.24498346 231:0.31870614 245:0.37841202 
-1 -1 0.9213135992673823 3:0.11706829 66:0.36348282 183:0.29476835 184:0.3182445 186:0.22313842 195:0.51066043 234:0.41650525 259:0.41019614 340:0.11706829 
-1 -1 1 3:0.073394575 13:0.13292213 14:0.29680622 28:0.10119925 51:0.26112303 144:0.10119925 175:0.24361503 180:0.2378772 185:0.2467149 186:0.13989399 189:0.3096998 199:0.34943887 200:0.34943887 218:0.24361503 244:0.33294563 339:0.29680622 340:0.073394575 
-1 -0.7185659366608714 1 1:0.17159111 7:0.2613258 14:0.26434435 31:0.42870336 61:0.53591329 104:0.17159111 167:0.2613258 177:0.17159111 178:0.2613258 273:0.30992007 339:0.26434435 
-1 -0.1199906962181542 1 7:0.26259586 13:0.23791942 28:0.06037946 45:0.39625867 91:0.33883185 144:0.06037946 167:0.26259586 178:0.26259586 219:0.39625867 222:0.43078687 308:0.33883185 
-1 -0.3728401364506068 1 1:0.22400044 3:0.17066525 27:0.2064009 28:0.078440029 33:0.18754342 104:0.22400044 144:0.078440029 177:0.22400044 214:0.42722916 225:0.72014849 340:0.17066525 
-1 -1 1 4:0.13434432 17:0.34340449 27:0.10309465 33:0.37470261 34:0.17371011 36:0.26739412 57:0.29035641 171:0.22553618 216:0.25035187 220:0.31354961 268:0.29035641 280:0.13434432 323:0.25479278 325:0.31354961 345:0.22264048 
-1 -0.9388604087523615 1 1:0.19380101 3:0.1476564 7:0.29515052 17:0.2974122 28:0.067864853 33:0.16225907 104:0.19380101 144:0.067864853 167:0.29515052 177:0.19380101 178:0.29515052 274:0.40424489 278:0.54311137 340:0.1476564 
-1 -0.7620077360646589 1 3:0.10345966 183:0.26050295 184:0.28125011 186:0.7887986 193:0.27930272 217:0.36251281 340:0.10345966 
-0.4336702648969827 -0.001092045852204094 0.3778448360710474 4:0.17738179 28:0.051731134 144:0.051731134 180:0.36479444 181:0.4300255 193:0.30385295 237:0.51058577 250:0.51058577 280:0.17738179 
-0.6352925552319055 -1 0.6759762620937092 1:0.12730042 4:0.15285363 7:0.19387301 27:0.11729853 104:0.12730042 167:0.19387301 177:0.12730042 178:0.19387301 201:0.46177808 202:0.46177808 250:0.43998252 257:0.39758464 280:0.15285363 
-1 -0 0.5397401704392799 138:0.34107521 201:0.51769645 216:0.31933692 221:0.34107521 256:0.44572958 257:0.44572958 
-1 -1 1 1:0.50339491 28:0.17627783 33:0.42146525 104:0.50339491 144:0.17627783 177:0.50339491 
-1 -1 1 3:0.25371337 13:0.45949063 28:0.11661005 33:0.27880469 144:0.11661005 215:0.74511714 340:0.25371337 
-1 -1 1 33:0.30712758 36:0.43834288 251:0.63392969 341:0.55826636 
-1 -1 0.4718397333654272 1:0.31060007 3:0.23664529 7:0.23651504 25:0.18912205 28:0.10876503 33:0.13002421 58:0.26340394 104:0.31060007 144:0.10876503 167:0.23651504 177:0.31060007 178:0.23651504 225:0.49928031 258:0.18912205 340:0.23664529 
-1 -1 0.9928184655835624 1:0.32756425 2:0.18474994 4:0.19665822 7:0.24943289 28:0.11470549 66:0.38744232 93:0.18474994 104:0.32756425 144:0.11470549 167:0.24943289 176:0.31605525 177:0.32756425 178:0.24943289 194:0.26367314 280:0.19665822 
-0.373942111936716 -0 1 6:0.27359656 7:0.19976052 17:0.20129124 27:0.12086063 28:0.091862901 56:0.29605401 137:0.27359656 144:0.091862901 167:0.19976052 178:0.19976052 194:0.21116494 203:0.47580128 222:0.32770589 229:0.32389722 266:0.29605401 
-1 -1 1 1:0.30470823 4:0.24391507 10:0.21186111 14:0.15647249 28:0.035567358 33:0.085038519 35:0.26232398 104:0.30470823 144:0.035567358 170:0.26232398 177:0.30470823 194:0.16351681 243:0.35104946 280:0.24391507 291:0.21186111 299:0.20748948 304:0.25376098 309:0.2427399 339:0.15647249 
-1 -1 1 1:0.077012291 18:0.16421133 19:0.55638443 27:0.070961496 28:0.026968011 33:0.064478214 68:0.3507549 96:0.16421133 104:0.077012291 144:0.026968011 174:0.55638443 177:0.077012291 272:0.3507549 303:0.22900615 
-0 -0 1 1:0.16750202 7:0.2550983 8:0.31408161 25:0.20398159 28:0.11731082 35:0.21630427 104:0.16750202 144:0.11731082 167:0.2550983 170:0.21630427 177:0.16750202 178:0.2550983 190:0.31408161 220:0.46941061 258:0.20398159 301:0.31408161 
-0 -0 1 1:0.33539151 8:0.31444467 19:0.30288426 28:0.058723327 31:0.41897092 104:0.33539151 144:0.058723327 174:0.30288426 177:0.33539151 190:0.31444467 301:0.31444467 
-0 -0 1 2:0.16366715 7:0.44193756 8:0.27206073 14:0.22352117 27:0.13369221 28:0.10161584 93:0.16366715 144:0.10161584 167:0.44193756 178:0.44193756 190:0.27206073 301:0.27206073 339:0.22352117 
-0 -0 0.9717324520294616 1:0.15363698 2:0.17330611 7:0.23398244 8:0.28808339 28:0.053800292 73:0.3204677 93:0.17330611 98:0.3204677 104:0.15363698 144:0.053800292 167:0.23398244 177:0.15363698 178:0.23398244 190:0.28808339 194:0.49468123 301:0.28808339 
-0.6065697423256191 -0.2363328308523538 0 1:0.088802832 2:0.20034334 5:0.13680503 7:0.27048571 28:0.031096799 91:0.17450613 93:0.20034334 104:0.088802832 144:0.031096799 167:0.27048571 177:0.088802832 178:0.27048571 191:0.27734898 194:0.42889181 197:0.32212934 214:0.16937092 220:0.24886262 255:0.27734898 307:0.13680503 308:0.17450613 346:0.21007176 
-1 -0.3326226934217843 1 214:1 
-1 -1 1 1:0.11473764 2:0.25885349 3:0.087418257 14:0.17675885 23:0.22273875 27:0.10572279 28:0.12053564 45:0.26368434 49:0.26874491 58:0.38921278 93:0.25885349 95:0.2343901 104:0.11473764 144:0.12053564 177:0.11473764 214:0.43767132 219:0.26368434 339:0.17675885 340:0.087418257 351:0.22273875 
-1 -1 1 2:0.15788473 8:0.52489748 33:0.35155759 93:0.15788473 190:0.52489748 301:0.52489748 
-1 -1 1 1:0.22289673 28:0.078053533 104:0.22289673 144:0.078053533 176:0.43013076 177:0.22289673 203:0.80855053 
-0.6259890762429075 -1 1 1:0.1850816 8:0.34704493 10:0.38605728 33:0.15495879 53:0.46240801 104:0.1850816 177:0.1850816 190:0.34704493 291:0.38605728 301:0.34704493 
-1 -0 1 1:0.24668295 3:0.18794698 27:0.22730126 104:0.24668295 138:0.58954583 177:0.24668295 221:0.58954583 340:0.18794698 
-1 -1 1 2:0.10052359 4:0.32100875 6:0.18588245 7:0.27143597 8:0.16709842 19:0.16095513 25:0.10852275 26:0.16996594 33:0.14922211 37:0.13890106 92:0.16996594 93:0.10052359 94:0.13890106 113:0.20114011 137:0.18588245 141:0.25940657 167:0.27143597 174:0.16095513 178:0.27143597 190:0.16709842 194:0.14346619 255:0.27832334 258:0.10852275 280:0.32100875 301:0.16709842 
-0 -0 1 1:0.30680541 2:0.17304172 3:0.11687697 7:0.2336255 27:0.14134988 28:0.053718218 33:0.12843568 58:0.26018589 93:0.17304172 104:0.30680541 144:0.053718218 167:0.2336255 177:0.30680541 178:0.2336255 214:0.29258007 276:0.41582459 326:0.31337624 340:0.11687697 
-1 -0 1 1:0.38814319 104:0.38814319 177:0.38814319 214:0.74029359 
-1 -1 1 3:0.17390255 25:0.27795895 28:0.079927937 58:0.38713349 144:0.079927937 251:0.78888793 258:0.27795895 340:0.17390255 
-1 -0.7394700413159374 0 3:0.30219288 27:0.18273441 28:0.13889149 33:0.16603918 144:0.13889149 180:0.48971421 181:0.57728292 183:0.38044812 340:0.30219288 
-1 -1 1 4:0.2144041 28:0.062528219 30:0.47668964 33:0.14949964 144:0.062528219 186:0.25930954 256:0.55768239 273:0.3225092 280:0.2144041 347:0.41036055 
-1 -1 1 1:0.10192736 3:0.388291 7:0.15523094 27:0.093919008 28:0.071385301 58:0.5186366 64:0.25169574 104:0.10192736 144:0.071385301 167:0.15523094 177:0.10192736 178:0.15523094 186:0.29604115 193:0.20964819 267:0.2207081 310:0.25169574 340:0.388291 
-1 -1 1 7:0.38608373 28:0.0887734 113:0.57219333 144:0.0887734 167:0.38608373 178:0.38608373 273:0.45787709 
-1 -1 1 3:0.13891284 27:0.16799984 28:0.063846197 91:0.35828616 144:0.063846197 183:0.34977114 184:0.37762786 215:0.40796564 217:0.48673736 308:0.35828616 340:0.13891284 
-0 -0.9635222770787846 0.8773323718968653 1:0.20012812 6:0.41744246 28:0.070080469 104:0.20012812 137:0.41744246 144:0.070080469 177:0.20012812 180:0.49418915 223:0.52657793 
-1 -0.4358644957951073 0.1795131628991681 28:0.052124552 64:0.36756872 72:0.22931303 110:0.22931303 144:0.052124552 180:0.36756872 183:0.57111198 259:0.39737633 310:0.36756872 
-1 -1 1 1:0.12546243 2:0.14152455 19:0.22660455 28:0.13180238 33:0.10504289 93:0.14152455 104:0.12546243 144:0.13180238 174:0.22660455 177:0.12546243 194:0.20198233 228:0.80670894 281:0.26956629 
-0.6088889716548614 -0.1767274894758854 1 7:0.16951287 28:0.038976606 144:0.038976606 167:0.16951287 178:0.16951287 194:0.17919044 202:0.40375566 205:0.40375566 228:0.71567909 273:0.20103426 
-1 -0 1 1:0.20458105 5:0.15758337 10:0.21336522 28:0.035819869 34:0.15881328 56:0.46175746 104:0.20458105 138:0.24446324 144:0.035819869 177:0.20458105 220:0.28666058 221:0.24446324 266:0.46175746 273:0.18475238 291:0.21336522 307:0.15758337 326:0.20896255 
-0 -0 0.2473270910902066 1:0.14462601 7:0.22025913 34:0.22454226 104:0.14462601 167:0.22025913 177:0.14462601 178:0.22025913 205:0.52462608 228:0.46496428 238:0.49986414 
-0 -0 1 7:0.28141399 28:0.06470637 45:0.42465534 58:0.31340735 144:0.06470637 167:0.28141399 178:0.28141399 214:0.35242782 216:0.41346199 219:0.42465534 
-0 -0.2265143630094515 1 1:0.11991748 2:0.13526972 7:0.18262911 28:0.041992464 45:0.55117676 56:0.27066449 93:0.13526972 104:0.11991748 144:0.041992464 167:0.18262911 177:0.11991748 178:0.18262911 219:0.55117676 266:0.27066449 274:0.25013299 
-1 -0.7667779414513307 1 8:0.42070519 186:0.32582674 190:0.42070519 194:0.36120612 281:0.48206689 301:0.42070519 
-1 -1 1 28:0.18936046 33:0.1509151 35:0.2327688 57:0.46777579 144:0.18936046 170:0.2327688 194:0.29018798 231:0.52469971 268:0.46777579 
-1 -1 1 28:0.043301019 72:0.57148622 110:0.57148622 144:0.043301019 171:0.24925969 172:0.27208468 180:0.30534747 182:0.27208468 194:0.19907142 
-0 -0 1 1:0.35459565 8:0.33244941 104:0.35459565 177:0.35459565 190:0.33244941 301:0.33244941 344:0.53964612 
-1 -1 1 2:0.14812597 8:0.24622693 19:0.23717451 27:0.12099733 28:0.091966807 93:0.14812597 144:0.091966807 174:0.23717451 190:0.24622693 269:0.74959695 301:0.24622693 345:0.26130265 
-1 -1 1 3:0.326338 184:0.88713416 340:0.326338 
-0.1558416222613413 -0.0008568454688789308 0.3554306464978346 1:0.21035094 104:0.21035094 177:0.21035094 187:0.64025119 224:0.67626612 
-0.962896228197387 -0.5540468716977451 0.9994324488998203 1:0.21035094 104:0.21035094 177:0.21035094 187:0.64025119 224:0.67626612 
-1 -1 1 5:0.47547351 17:0.47364594 27:0.56877887 307:0.47547351 
-1 -0.7772925415942104 1 28:0.10221629 144:0.10221629 214:0.55672827 325:0.81802035 
-1 -1 1 2:0.19320611 23:0.33250074 27:0.31564225 34:0.2659221 46:0.47183456 93:0.19320611 273:0.30935538 276:0.46428022 351:0.33250074 
-1 -0 0.6698477544724605 3:0.088823062 28:0.040824266 144:0.040824266 172:0.25652185 179:0.29857755 182:0.25652185 183:0.22364919 185:0.29857755 186:0.67720603 188:0.4029351 340:0.088823062 
-0 -0 1 1:0.21683258 2:0.24459222 4:0.26035771 28:0.075930001 93:0.24459222 104:0.21683258 144:0.075930001 177:0.21683258 192:0.59732617 215:0.48517896 280:0.26035771 
-1 -0 1 1:0.12024667 4:0.14438396 7:0.18313045 27:0.2215978 28:0.042107739 35:0.15528092 72:0.37049155 104:0.12024667 110:0.37049155 144:0.042107739 167:0.18313045 170:0.15528092 177:0.12024667 178:0.18313045 192:0.6625062 280:0.14438396 
-0.5656986940962165 -0.205865019463248 1 1:0.14504221 4:0.17415676 27:0.13364636 28:0.050790594 104:0.14504221 144:0.050790594 177:0.14504221 192:0.79911875 222:0.36237358 280:0.17415676 345:0.28861915 
-1 -1 1 192:1 
-1 -1 1 13:0.48345726 222:0.87536797 
-0 -0 0.02673161771299781 5:0.13199595 13:0.11822651 28:0.030003658 35:0.22128939 58:0.14532366 138:0.20476879 144:0.030003658 170:0.22128939 180:0.21157795 181:0.24941147 192:0.70809825 221:0.20476879 225:0.27545998 232:0.24941147 307:0.13199595 
-1 -1 1 13:0.32091534 186:0.33774758 234:0.63043219 259:0.62088257 
-1 -0.1144276042377836 0 3:0.12521293 28:0.057549535 33:0.13759603 144:0.057549535 172:0.36161613 179:0.4209016 182:0.36161613 183:0.31527589 185:0.4209016 186:0.47732507 340:0.12521293 
-1 -1 1 1:0.10585122 3:0.080647719 8:0.19848072 25:0.12890412 26:0.20188678 28:0.074133394 33:0.35449423 92:0.20188678 104:0.10585122 144:0.074133394 177:0.10585122 183:0.20306435 184:0.43847389 186:0.15371887 187:0.3221824 190:0.19848072 224:0.34030556 258:0.12890412 301:0.19848072 326:0.2162366 330:0.24555302 340:0.080647719 
-1 -0 0 5:0.1468813 28:0.03338721 144:0.03338721 172:0.20979064 179:0.24418495 182:0.20979064 183:0.18290647 184:0.39494728 185:0.24418495 186:0.55383776 193:0.19610632 195:0.31686949 215:0.21333823 235:0.25844534 307:0.1468813 
-1 -0.4844049067713711 1 28:0.090136565 34:0.39963528 144:0.090136565 180:0.63561951 186:0.37380357 193:0.52943477 
-1 -1 1 2:0.20799753 7:0.28081972 25:0.22454894 28:0.064569727 33:0.15438071 93:0.20799753 144:0.064569727 167:0.28081972 169:0.460683 178:0.28081972 254:0.57589039 258:0.22454894 
-1 -1 1 1:0.077505644 2:0.08742818 4:0.093063469 12:0.19138964 27:0.071416087 28:0.027140772 35:0.50043602 72:0.11940117 93:0.08742818 104:0.077505644 110:0.11940117 144:0.027140772 170:0.50043602 176:0.14956506 177:0.077505644 193:0.15941664 194:0.12477656 198:0.28114917 253:0.48413121 280:0.093063469 
-1 -1 1 12:0.74549354 33:0.25276198 326:0.61672584 
-1 -1 1 4:0.42746496 216:0.79658485 280:0.42746496 
-1 -1 1 33:0.16114433 206:0.69817699 278:0.5393801 347:0.44232398 
-1 -0.7865716635512789 1 1:0.22155395 17:0.17000119 28:0.077583116 37:0.17266523 65:0.26205355 94:0.17266523 104:0.22155395 138:0.26474492 144:0.077583116 171:0.66990493 177:0.22155395 186:0.16087202 221:0.26474492 265:0.26205355 
-0.8209217273026442 -1 1 10:0.53776904 28:0.09028096 144:0.09028096 180:0.63663774 291:0.53776904 
-0.8612637958536802 -0.1788195935425553 1 1:0.066028091 3:0.0503066 13:0.091108371 14:0.10171945 28:0.069364666 64:0.32609476 104:0.066028091 144:0.069364666 172:0.29057188 175:0.16698024 177:0.066028091 179:0.33820985 182:0.29057188 183:0.1266679 184:0.13675607 185:0.16910497 186:0.19177414 187:0.2009716 207:0.23951472 218:0.16698024 223:0.17373338 229:0.16304738 235:0.17898069 236:0.22820982 275:0.17373338 310:0.32609476 323:0.15036351 339:0.10171945 340:0.0503066 
-1 -0 0 1:0.10245644 3:0.11709186 4:0.1230226 16:0.096057536 27:0.047203228 28:0.053816884 33:0.085781234 37:0.079848117 64:0.25300206 66:0.12118527 72:0.078919485 94:0.079848117 99:0.12242988 104:0.10245644 110:0.078919485 144:0.053816884 177:0.10245644 180:0.12650103 183:0.29482761 184:0.53051408 186:0.29757763 193:0.21073628 207:0.18582856 214:0.097705948 216:0.11462686 223:0.13479181 235:0.13886296 236:0.1770576 280:0.1230226 309:0.24485976 310:0.25300206 340:0.11709186 
-1 -1 1 1:0.1151027 4:0.13820744 8:0.21582809 27:0.10605917 28:0.12091915 31:0.28757267 35:0.29727663 104:0.1151027 144:0.12091915 147:0.2987057 170:0.29727663 176:0.22211726 177:0.1151027 190:0.21582809 194:0.37060834 214:0.21953184 243:0.3978241 280:0.13820744 301:0.21582809 
-1 -1 1 28:0.048533949 33:0.23208125 35:0.17897888 63:0.43286902 71:0.39558642 108:0.24532859 144:0.048533949 170:0.17897888 171:0.27938274 184:0.28706129 216:0.31012315 300:0.39558642 348:0.24532859 
-1 -0.8542799061923913 0.6874067674211919 1:0.15533808 2:0.17522498 3:0.1183516 7:0.23657314 22:0.35061197 28:0.054395979 49:0.36384152 93:0.17522498 104:0.15533808 144:0.054395979 167:0.23657314 177:0.15533808 178:0.23657314 215:0.34758046 238:0.53688776 340:0.1183516 
-0 -0 1 1:0.25245122 2:0.094923585 3:0.12822793 7:0.12815736 27:0.07753874 28:0.088402711 33:0.07045454 34:0.13064949 69:0.2401821 93:0.094923585 104:0.25245122 144:0.088402711 167:0.12815736 177:0.25245122 178:0.12815736 186:0.24440908 191:0.52563681 223:0.44283358 273:0.15198858 276:0.2281043 340:0.12822793 
