svm_type c_svc
kernel_type linear
nr_class 2
total_sv 592
rho -0.10499
label 0 1
nr_sv 289 303
SV
1 2:0.22804402 135:0.36699765 249:0.90183627 
0.3747850495382566 2:0.16937568 34:0.218101 78:0.31476922 159:0.19875335 250:0.6698236 251:0.33491174 252:0.33491174 253:0.33491174 
1 2:0.20981747 143:0.71698106 159:0.49241895 162:0.27799654 180:0.34950865 
0.7510155591471406 2:0.075834354 79:0.28186223 181:0.12413119 254:0.29989899 255:0.59979808 256:0.59979808 257:0.29989899 
0.8692998078633303 2:0.23407668 66:0.53666932 74:0.12046612 258:0.46284701 259:0.46284701 260:0.46284701 
1 2:0.15359373 4:0.063091302 65:0.33310677 74:0.15809203 79:0.57087943 140:0.24801317 180:0.25585256 208:0.12104949 261:0.6074108 
1 2:0.21843089 8:0.05421769 11:0.065792889 37:0.10498675 74:0.074942725 140:0.23513867 143:0.24880496 159:0.34175586 161:0.10528237 162:0.096469658 166:0.11526017 193:0.3999559 208:0.057382895 262:0.28794001 263:0.28794001 264:0.28794001 265:0.28794001 266:0.28794001 267:0.28794001 
0.3817139616032859 2:0.28086097 25:0.95974846 
0.7827984284634719 6:0.22829322 11:0.07922149 18:0.077411967 34:0.45156819 64:0.1022438 268:0.34670976 269:0.34670976 270:0.34670976 271:0.34670976 272:0.34670976 273:0.34670976 
1 2:0.16932674 8:0.12608794 61:0.2421219 274:0.66962948 275:0.66962948 
1 2:0.084743522 34:0.21824425 38:0.17038271 209:0.13285939 276:0.33513171 277:0.33513171 278:0.33513171 279:0.33513171 280:0.33513171 281:0.33513171 282:0.33513171 283:0.33513171 
0.3112712932212328 2:0.12625403 6:0.32876169 34:0.32514834 80:0.46926281 140:0.20386679 208:0.099502662 284:0.49929159 285:0.49929159 
1 4:0.17691579 7:0.35842496 223:0.91664189 
1 2:0.74960447 18:0.66188604 
1 2:0.16955339 166:0.26840631 286:0.6705258 287:0.6705258 
1 2:0.46194906 4:0.18975363 74:0.47547816 209:0.72423556 
1 2:0.28918727 200:0.95727254 
1 2:0.20386715 172:0.39176529 229:0.39364876 288:0.80622502 
1 2:0.16364592 4:0.067220412 213:0.36202148 289:0.64716377 290:0.64716377 
1 2:0.19304695 70:0.39232887 177:0.37275595 190:0.54307859 208:0.15214315 230:0.59311217 
0.5732593898655487 1:0.39158947 3:0.37744637 4:0.074168078 225:0.43453455 291:0.71405234 
1 1:0.34172504 3:0.32938291 4:0.064723624 13:0.77935295 18:0.13912907 225:0.37920156 
0.2710281693924344 1:0.34458085 3:0.33213558 5:0.35639434 52:0.49912938 293:0.62833346 
0.8874091356276188 2:0.19222628 22:0.57871024 64:0.22417783 294:0.76018933 
0.4520725690529083 28:0.51846137 71:0.32724715 136:0.46755012 295:0.63679196 
1 2:0.28806853 140:0.93030824 208:0.22703106 
0.1226279451614391 1:0.31984717 3:0.3082952 5:0.33081269 13:0.36472857 75:0.29495941 165:0.36472857 299:0.58323229 
0.03270952312605533 1:0.4251691 3:0.40981321 5:0.43974544 66:0.44946918 74:0.20178469 169:0.46386282 
1 2:0.23460918 4:0.096369806 64:0.27360555 300:0.92779922 
0.1740451712112556 1:0.2735256 3:0.26364664 5:0.28290306 52:0.39620502 69:0.38749126 82:0.46876904 301:0.49876622 
1 1:0.51115125 3:0.49268993 4:0.096813397 5:0.52867538 177:0.45509399 
1 1:0.3309094 3:0.31895789 4:0.062675113 5:0.34225417 11:0.13787486 18:0.13472562 159:0.35809004 170:0.30202007 192:0.23769584 225:0.36719978 230:0.46878426 
1 2:0.25963678 8:0.19333667 33:0.55600291 61:0.37125706 152:0.53351747 192:0.40447217 
1 4:0.099673608 8:0.1806892 208:0.19123776 302:0.95960654 
1 2:0.15752377 7:0.13109126 11:0.14234167 161:0.22777641 182:0.33123687 303:0.62295274 304:0.62295274 
0.674924783179513 4:0.078266235 7:0.15856455 8:0.14188173 174:0.59856375 208:0.15016472 305:0.7535073 
1 7:0.24725914 66:0.68119725 67:0.61750253 74:0.30581669 
1 74:0.12439302 182:0.25412777 192:0.37654091 246:0.3047912 306:0.4779347 307:0.4779347 308:0.4779347 
0.6627595666033675 2:0.12953738 144:0.44265067 309:0.51227611 310:0.51227611 311:0.51227611 
0.9689996998412627 2:0.15108397 69:0.46418626 161:0.21846459 312:0.59748555 313:0.59748555 
0.2759874595269097 12:0.48973432 314:0.61650641 315:0.61650641 
1 11:0.22275411 316:0.97487466 
0.6497575829684842 32:0.67287271 160:0.35848744 185:0.64709278 
0.200831179193156 2:0.28918727 202:0.95727254 
0.7106644154812255 2:0.25980853 83:0.96566015 
1 2:0.67796722 8:0.50484343 208:0.53431597 
0.5048500534730062 2:0.10001399 40:0.2813588 56:0.331068 84:0.37173347 177:0.19311784 317:0.39552122 318:0.39552122 319:0.39552122 320:0.39552122 
1 4:0.054338077 8:0.09850455 33:0.2832821 193:0.18166343 208:0.1042552 235:0.20542826 321:0.52313923 322:0.52313923 323:0.52313923 
1 2:0.26029957 180:0.43360046 189:0.49321534 193:0.3574643 215:0.61089498 
0.6229617240841386 57:0.43511996 324:0.5198303 325:0.5198303 326:0.5198303 
1 2:0.19883883 4:0.081676514 135:0.31999693 187:0.48276689 327:0.78633972 
1 2:0.43596151 162:0.57762488 166:0.69013554 
1 2:0.20591271 11:0.18606689 159:0.48325488 208:0.16228284 328:0.81431448 
1 2:0.16182654 4:0.06647307 22:0.48718977 64:0.1887251 85:0.60147924 131:0.52104783 235:0.25130531 
1 1:0.41426249 3:0.39930051 4:0.07846241 5:0.42846492 10:0.52962959 64:0.22276428 68:0.38610326 
0.08575400449321967 2:0.13366219 42:0.47424159 43:0.47424159 86:0.49679758 132:0.43036448 193:0.18355567 229:0.25808942 
1 2:0.1075042 42:0.38143144 43:0.38143144 86:0.39957317 132:0.34614118 177:0.20758074 193:0.14763341 229:0.41516148 330:0.42514242 
0.670793463171539 2:0.081208508 42:0.28813273 43:0.28813273 132:0.26147452 193:0.11152205 229:0.15680618 331:0.32115194 332:0.32115194 333:0.32115194 334:0.32115194 335:0.32115194 336:0.32115194 337:0.32115194 
1 11:0.15591715 18:0.15235579 28:0.55556614 71:0.35066728 136:0.50101132 157:0.51946505 
1 2:0.20710965 74:0.21317527 193:0.28441962 229:0.39990972 338:0.81904798 
1 2:0.1745592 87:0.64880419 157:0.52552231 197:0.32338473 226:0.4096716 
1 2:0.4325868 193:0.59406297 209:0.67820192 
0.006190258100330399 2:0.15661414 34:0.40333625 88:0.58210571 89:0.58210571 159:0.36755647 
0.5047695445196523 2:0.097373214 34:0.25077013 88:0.72383636 89:0.36191818 90:0.36191818 159:0.22852442 232:0.29916679 
1 1:0.44285742 3:0.42686267 5:0.45804018 68:0.41275446 225:0.49142499 
1 2:0.25940244 182:0.54546469 232:0.79698096 
0.3731827015478469 2:0.16995293 29:0.54721311 91:0.63168353 232:0.52215872 
1 2:0.29442574 11:0.26604906 189:0.55787757 208:0.23204127 215:0.69098542 
1 2:0.37449173 61:0.53548924 155:0.75697241 
0.4809801824867984 2:0.15052364 91:0.55946844 92:0.55946844 161:0.21765435 200:0.49826586 209:0.23598829 
1 2:0.42025719 4:0.17262796 140:0.67860396 193:0.57713096 
1 7:0.50300764 61:0.86428196 
1 2:0.2657136 4:0.10914649 33:0.56901622 74:0.27349555 152:0.5460045 166:0.42062979 208:0.20941281 
0.02685154188265684 57:1 
1 2:0.37043246 18:0.32708459 159:0.86936498 
1 2:0.37043246 18:0.32708459 159:0.86936498 
1 2:0.34174244 4:0.14037666 159:0.80203261 193:0.4693082 
0.3241432626462827 2:0.31688197 12:0.49773684 93:0.58889617 161:0.22910285 208:0.12486976 230:0.48679008 
0.6012269996501016 2:0.1852393 18:0.16356267 157:0.55767547 175:0.58192241 245:0.53786433 
1 2:0.17702183 18:0.1563068 94:0.65795731 157:0.53293621 208:0.13951351 219:0.4558932 
1 2:0.31930272 33:0.6837754 152:0.65612268 
1 2:0.31930272 33:0.6837754 152:0.65612268 
0.5881132755916232 2:0.25980853 78:0.96566015 
1 2:1 
1 2:0.31930272 33:0.6837754 152:0.65612268 
0.0289619496987612 2:0.25980853 94:0.96566015 
1 7:0.25883415 8:0.23160181 20:0.80099577 209:0.48761795 
1 2:0.27524908 6:0.71674032 14:0.42085136 77:0.48312047 
0.03347799068056041 1:0.34508121 3:0.33261786 4:0.065359292 13:0.78700719 225:0.3829258 
1 2:0.12679941 8:0.094420272 14:0.19387424 71:0.25769415 90:0.4712899 95:0.4712899 138:0.23594621 158:0.38173822 172:0.24366656 190:0.35671139 235:0.19691062 
1 4:0.13198014 224:0.85651711 235:0.49895859 
1 64:1 
1 2:0.36114719 4:0.0741738 55:0.29659959 160:0.29557619 162:0.23925018 208:0.14231281 214:0.39946956 216:0.42042389 245:0.52431726 
1 7:0.14031092 39:0.44410879 74:0.52062063 156:0.34080162 189:0.3194677 198:0.37048228 227:0.39569169 
1 4:0.14087745 6:0.44653012 18:0.15141393 28:0.55213164 157:0.51625373 162:0.2272022 236:0.36721943 
1 7:0.3725562 8:0.66671856 37:0.64551394 
1 224:0.86407574 235:0.50336182 
1 7:0.26622082 8:0.23821131 61:0.45742815 192:0.4983527 197:0.59264023 208:0.25211799 
1 29:0.55511473 51:0.41136519 57:0.57070456 64:0.20106423 179:0.37152842 208:0.13587651 
1 7:0.16227823 37:0.28117332 58:0.64548931 74:0.20071004 208:0.15368167 209:0.30571615 245:0.5662031 
1 4:0.083289192 8:0.15098739 34:0.52219048 37:0.2923709 61:0.28993535 193:0.27845299 203:0.67119558 
0.9316916216810688 2:0.3129487 18:0.27632756 136:0.90868377 
1 2:0.13231902 4:0.054352343 9:0.74447842 140:0.21366015 217:0.61614829 
0.803987658551239 4:0.035801442 33:0.18664458 75:0.17431479 143:0.89349447 145:0.29783145 165:0.21554689 
1 4:0.14548355 5:0.79445174 7:0.29474439 37:0.51069239 
1 4:0.079750656 7:0.16157193 37:0.27994954 96:0.72162101 140:0.31350142 166:0.30734384 180:0.32341082 193:0.26662293 
1 2:0.096402118 7:0.080225831 11:0.26133259 27:0.18182473 51:0.23001661 64:0.11242593 96:0.7166176 97:0.3583088 135:0.15514264 165:0.23840964 199:0.1959178 208:0.075975931 217:0.2244499 
1 18:0.33589959 61:0.54395996 155:0.7689467 
1 11:0.2218906 20:0.6323962 180:0.40904325 247:0.61929252 
0.7780115071699918 2:0.11288772 4:0.046370596 9:0.31757508 18:0.099677638 30:0.72695013 138:0.21005956 146:0.38575602 213:0.24973295 224:0.30093323 
0.1463450035234267 2:0.2780292 4:0.11420534 18:0.24549433 31:0.89519626 208:0.21911892 
1 11:0.18344381 74:0.20895539 161:0.29354843 174:0.63774793 192:0.31625656 208:0.47998517 235:0.31526011 
1 2:1 
1 8:0.2953984 11:0.17923206 18:0.70055211 55:0.325796 135:0.31920842 208:0.15632167 248:0.39669748 
1 8:0.13187391 11:0.32005663 33:0.37924664 45:0.62835047 55:0.29088873 168:0.34877221 192:0.27588832 193:0.24320366 
1 4:0.058606602 7:0.059367326 8:0.21248498 18:0.1259797 23:0.11717524 31:0.22969296 33:0.1527674 35:0.13643896 39:0.18790805 98:0.53029891 99:0.53029891 133:0.22969296 135:0.11480596 139:0.15372941 156:0.14419748 176:0.22410513 198:0.15675574 208:0.11244478 215:0.16742216 
0.01395087496320594 4:0.073205907 8:0.26541644 18:0.07868111 31:0.57382221 33:0.19082281 39:0.23471722 75:0.178217 98:0.33119999 99:0.33119999 133:0.28691104 156:0.18011805 176:0.27993125 189:0.1688428 208:0.07022777 209:0.13970282 
1 4:0.10257632 7:0.2078159 64:0.2912266 100:0.92815824 
0.8359764923406706 4:0.079539178 8:0.14418922 39:0.25502334 75:0.19363511 101:0.35985314 102:0.35985314 133:0.31173261 176:0.60829807 196:0.20358556 204:0.3204873 
0.6263441958570339 64:0.27241712 103:0.86821071 160:0.19117855 182:0.24559348 215:0.27410525 
1 11:0.19357052 18:0.18914911 64:0.49964715 74:0.22049042 179:0.46162613 208:0.16882731 245:0.62200356 
1 4:0.055745242 11:0.24526059 23:0.66872752 135:0.2184019 152:0.5577303 160:0.22213998 196:0.28536742 
0.3801388867382322 20:0.49913249 61:0.27713288 72:0.39388266 104:0.72036142 
1 64:0.16915999 77:0.50918719 104:0.53912396 173:0.31061941 208:0.45726438 215:0.34041669 
1 23:0.46488474 160:0.46328068 224:0.75448869 
1 4:0.44261096 7:0.89671374 
0.5814958741767229 2:1 
1 7:0.72607688 208:0.68761353 
1 7:1 
1 2:0.34194194 61:0.48894599 226:0.8025008 
1 2:0.36533474 8:0.2720439 18:0.32258341 37:0.52678386 208:0.2879257 209:0.57276534 
1 8:0.29449382 18:0.34920401 74:0.40706583 75:0.7909661 
1 2:0.34898109 77:0.61253579 199:0.70923346 
0.1313546010747449 2:0.16634513 105:0.618274 133:0.53559675 200:0.55063843 
0.5796047175651777 7:0.14641273 11:0.4769339 46:0.62422659 147:0.60119759 
1 7:0.18811159 69:0.69448327 233:0.69448327 
1 7:0.19562075 16:0.19440361 33:0.25169146 61:0.16806069 152:0.24151275 177:0.22694429 181:0.19238559 192:0.18309651 233:0.72220668 234:0.36110334 
1 4:0.083008831 40:0.56849682 106:0.7511025 135:0.32521675 
1 4:0.073213845 7:0.14832859 68:0.36027576 75:0.35647324 181:0.29175085 204:0.59000223 213:0.39429964 248:0.35647324 
1 4:0.15919789 18:0.17110459 41:0.68754585 74:0.19945599 162:0.25674875 181:0.3171944 193:0.26611529 208:0.15272146 236:0.41497454 
1 4:0.15408113 5:0.21034993 41:0.66544766 51:0.22375121 75:0.18755233 130:0.63557127 
1 32:0.43430415 70:0.28728134 134:0.45514307 136:0.41044948 185:0.41766455 197:0.26187669 208:0.11140625 214:0.31271539 
1 4:0.14479261 7:0.29334457 8:0.26248133 34:0.90779272 
1 2:0.80205772 8:0.59724653 
0.6986879494350492 2:0.17238213 8:0.12836312 9:0.48494444 18:0.15221004 30:0.55503465 64:0.20103523 146:0.5890583 
1 2:0.21992961 64:0.25648597 107:0.81743758 168:0.43312643 208:0.17332977 
1 2:0.2476774 4:0.10173781 36:0.49535446 55:0.40682008 75:0.49535446 162:0.32815884 181:0.40541638 
0.2160363621365599 11:0.12408854 47:0.48723309 66:0.3148429 108:0.51040698 109:0.51040698 165:0.33961193 208:0.10822689 
1 7:0.19983761 186:0.70950767 215:0.56356326 235:0.37290781 
1 4:0.063981168 7:0.25924684 103:0.57893136 165:0.77041286 
1 7:0.27197681 170:0.32345306 186:0.48281651 215:0.76700388 
1 4:0.070291712 64:0.19956668 181:0.2801064 189:0.32424348 215:0.80321369 218:0.35564948 
1 51:0.88405255 135:0.19875988 136:0.35861111 181:0.20216177 208:0.097336018 
1 110:0.59806371 181:0.26338526 208:0.12681365 215:0.37763276 248:0.64363018 
1 8:0.12926507 9:0.48835193 11:0.1568625 152:0.71342053 161:0.25101278 193:0.23839239 208:0.13681151 235:0.2695784 
0.4742077880109896 61:0.18031486 64:0.14706283 110:0.93739773 152:0.25912269 
1 4:1 
1 15:0.47431053 74:0.16523107 175:0.50429794 192:0.50015874 233:0.49320688 
1 18:1 
1 4:0.15641602 7:0.15844632 8:0.14177594 11:0.17204437 37:0.27453391 54:0.36942144 55:0.31273071 75:0.38078885 138:0.35428298 182:0.4003567 196:0.4003567 
1 4:0.088982316 7:0.18027494 8:0.16130793 18:0.19127524 54:0.42031539 74:0.22296885 174:0.68051808 182:0.45551249 
1 2:0.23990532 4:0.098545291 21:0.75365371 35:0.458837 160:0.39269448 
1 39:0.67856363 75:0.51522241 164:0.523543 
0.9200331096079827 2:0.31522821 22:0.9490159 
0.7485802116329577 2:0.25277359 4:0.10383115 6:0.65821482 33:0.54130563 64:0.29478922 162:0.33491101 
0.4974607998119169 2:0.14549067 4:0.089644398 6:0.18942679 22:0.87601982 28:0.23422502 74:0.074875876 75:0.14549067 111:0.2703811 235:0.1129685 
1 57:0.94317738 64:0.33228968 
1 2:0.25573484 176:0.80338154 196:0.53775254 
1 109:0.8664732 173:0.49922359 
0.8983281583910294 4:0.062400854 48:0.53899608 74:0.15636193 112:0.56463193 113:0.56463193 193:0.20861895 
0.772038750890519 4:0.027720684 11:0.060980911 15:0.19939556 18:0.059588026 19:0.22339034 26:0.23060779 59:0.22339034 60:0.5783473 74:0.13892309 114:0.25082964 115:0.25082964 116:0.25082964 135:0.10860568 148:0.23060779 149:0.23060779 186:0.19939556 192:0.1051309 208:0.053186009 218:0.14025618 219:0.17379779 237:0.18711756 
0.2558303168252927 15:0.34433073 40:0.32784457 49:0.82696933 219:0.30012665 
0.5264254248663179 4:0.045395428 18:0.097581429 48:0.78421883 74:0.11375031 112:0.41075894 113:0.41075894 193:0.1517663 
1 4:0.033262808 11:0.073172666 15:0.23926019 19:0.26805219 26:0.27671261 59:0.26805219 60:0.46264985 74:0.16669762 115:0.30097735 116:0.30097735 135:0.13031894 149:0.27671261 186:0.23926019 192:0.12614945 208:0.06381935 218:0.16829723 219:0.20854473 237:0.22452748 
1 18:0.15047709 60:0.48683168 114:0.63341774 148:0.58235171 
0.07160963539297986 25:0.28900409 63:0.69389731 74:0.087051135 102:0.31434666 117:0.31434666 118:0.31434666 144:0.28900409 219:0.21780821 
1 119:0.89842135 160:0.39566176 208:0.1905016 
0.3339025236085706 74:0.26688276 119:0.963729 
0.736297200893031 11:0.2090535 19:0.76582214 135:0.37231976 218:0.48082333 
1 8:0.098221923 11:0.2383836 19:0.4366333 60:0.37680784 73:0.2958762 74:0.13576784 162:0.17476649 166:0.20880777 182:0.27736586 208:0.20791215 218:0.54828278 
1 11:0.31535575 148:0.5962808 208:0.13752266 218:0.72531888 
1 4:0.068309503 8:0.18574792 15:0.491351 32:0.25546318 49:0.29501594 56:0.27523956 62:0.4548 152:0.17085861 162:0.33050149 201:0.27523956 208:0.13106112 237:0.23054782 
0.6577869469432873 15:0.40402312 26:0.46726659 63:0.37396815 74:0.14074571 117:0.50824088 208:0.10776759 235:0.21234919 237:0.37914496 
0.2273199924666261 11:0.18348214 19:0.67214701 60:0.58005255 218:0.42200917 
1 4:0.036816886 62:0.73537408 63:0.49024943 152:0.1841762 204:0.29669314 209:0.14051957 230:0.27537528 
1 8:0.19194081 18:0.68279666 63:0.70494499 
1 74:0.23814831 134:0.74497013 208:0.18234778 219:0.59586423 
1 63:0.72801936 219:0.68555657 
1 29:0.53942712 63:0.45818499 74:0.17244135 138:0.31174586 197:0.31037139 218:0.34819215 227:0.39318599 
1 62:0.89994978 162:0.43599357 
1 15:0.65112224 33:0.23595869 63:0.30134295 67:0.22900194 141:0.20594841 162:0.29197983 170:0.21810307 197:0.20412766 228:0.25859386 237:0.30551441 
0.7599068981174979 4:0.063384023 11:0.13943435 33:0.33044156 120:0.5735281 121:0.5735281 152:0.3170781 161:0.22312409 208:0.24322223 
1 7:0.32161748 194:0.94686968 
1 37:0.44496978 182:0.64890574 248:0.61718979 
1 138:0.6939106 177:0.72006116 
0.5303941114800519 40:0.63558042 145:0.77203467 
1 3:0.29603543 11:0.38389854 47:0.50245889 66:0.32468158 151:0.30912993 161:0.20477273 166:0.2241794 182:0.29778447 188:0.34383156 208:0.11160892 
0.9952671991317875 4:0.063384023 11:0.13943435 33:0.33044156 120:0.5735281 121:0.5735281 152:0.3170781 161:0.22312409 208:0.24322223 
1 2:0.31704422 4:0.13023144 8:0.2360847 11:0.28648758 161:0.45843999 193:0.43539061 197:0.58734948 
1 8:0.25580211 228:0.80621191 235:0.53346756 
1 2:0.14935335 202:0.98878389 
1 8:0.14496389 74:0.2003772 92:0.72357361 202:0.64441887 
1 10:0.80372461 162:0.38405942 209:0.45445034 
1 64:0.45363771 141:0.72704698 162:0.51537901 
1 2:0.22754133 84:0.84572894 168:0.44811686 208:0.17932868 
1 61:0.60020233 77:0.36837398 162:0.5561438 182:0.44131831 
1 4:0.43054244 8:0.39024494 235:0.81384402 
1 150:0.63504662 218:0.77247381 
1 4:0.12823418 8:0.34869573 11:0.14104674 40:0.43911354 74:0.16066215 100:0.58016028 163:0.34530769 182:0.3282235 209:0.24471627 
1 209:0.61693426 248:0.78701469 
1 55:0.40888308 234:0.76481609 248:0.49786642 
1 4:0.10913034 12:0.83460591 164:0.53992921 
0.3953591686676348 12:0.67556815 175:0.67556815 193:0.29532243 
1 39:0.71730588 64:0.31758411 180:0.45362307 235:0.42289326 
1 4:0.096310496 8:0.17459252 53:0.73656246 77:0.4115354 161:0.33903168 192:0.36525828 
1 2:0.16248855 44:0.57651925 61:0.2323439 155:0.32844342 170:0.32163213 185:0.48009842 215:0.38134307 
0.9279381350756947 18:0.13914524 31:0.5073938 122:0.58571751 205:0.52164343 208:0.12419576 229:0.30428388 
0.68240853214561 4:0.045952264 5:0.2509346 7:0.18619509 8:0.1666055 11:0.10108737 20:0.28810263 46:0.39691909 64:0.13046404 75:0.22373845 108:0.41579745 131:0.3601959 147:0.38227593 195:0.27408744 209:0.17538671 
1 4:0.034085506 7:0.20716788 8:0.12358113 11:0.074982465 14:0.25375045 18:0.073269767 20:0.21370272 23:0.13629809 25:0.28355662 58:0.54936399 64:0.096772881 95:0.30842151 123:0.30842151 141:0.31019675 152:0.17051249 208:0.19619343 218:0.17245977 229:0.16022688 
0.9280189724161915 158:1 
1 7:0.18449842 181:0.3628941 193:0.30445578 199:0.45055967 205:0.73387388 
1 72:0.47975141 101:0.87740446 
1 2:0.14955646 4:0.06143292 11:0.13514224 62:0.8180337 66:0.34288885 166:0.23675078 182:0.31448342 208:0.11786765 
0.4858396222818386 8:0.13646846 51:0.43727726 62:0.50121054 64:0.21372936 134:0.59008165 218:0.3808889 
1 8:0.14964892 166:0.31813526 182:0.42258896 218:0.83535245 
1 2:0.10733149 4:0.088176707 13:0.2654388 18:0.094771603 24:0.20724726 62:0.58707448 161:0.15519933 162:0.14220829 166:0.50972337 172:0.20625566 173:0.22984657 208:0.2537686 218:0.22307003 
0.2954217814106582 18:0.12367805 39:0.36894965 107:0.52060995 158:0.42168677 160:0.22927488 203:0.46365826 208:0.11039033 211:0.34640073 
1 18:0.32531267 40:0.34548454 51:0.5860459 139:0.26464642 145:0.41965743 175:0.38579877 235:0.19071322 
0.3754790129686067 18:0.14432592 20:0.42094909 64:0.19062208 75:0.32690607 124:0.60752504 136:0.47460565 235:0.25383131 
1 11:0.16617281 20:0.47359848 37:0.26516457 147:0.62840559 180:0.30633053 208:0.43479518 
1 11:0.18144317 46:0.71243582 51:0.47910125 64:0.2341718 193:0.27574897 209:0.31480414 
1 8:0.17240245 20:0.59625457 37:0.33383888 180:0.38566631 199:0.47052505 208:0.36493446 
1 11:0.36936467 61:0.58449084 180:0.34045184 199:0.41536196 208:0.4832258 
1 8:0.057065989 11:0.069249285 14:0.23434862 51:0.18285295 59:0.25367973 124:0.28483951 125:0.85451854 164:0.15574591 208:0.060397476 
1 2:0.22862201 4:0.18782125 64:0.53324672 74:0.23531766 201:0.7567884 
1 2:0.18323474 4:0.075266861 7:0.15248793 18:0.16179268 34:0.47189362 163:0.40535634 172:0.35211661 208:0.28882 234:0.56296539 
1 105:0.74855182 160:0.32965972 167:0.57532133 
1 126:0.60625368 167:0.46595395 181:0.53398419 214:0.36083831 
1 75:0.47384945 127:0.88060587 
0.3472172669130806 66:0.40837329 74:0.1833351 127:0.6620336 140:0.28761424 167:0.50882523 208:0.14037785 
0.3043637921066663 66:0.31136596 126:0.50477035 166:0.21498551 167:0.77591195 
1 8:0.12548286 11:0.3045456 66:0.38635325 74:0.17344942 138:0.3135683 158:0.50732328 166:0.26676117 167:0.48138869 193:0.23141718 
1 4:0.081245202 128:0.73514436 206:0.65472385 208:0.15588028 
0.03165775944471494 128:0.74677231 206:0.66507978 
1 166:0.62457189 170:0.78096732 
1 55:0.49846134 167:0.86691193 
1 8:0.5168982 66:0.53049792 245:0.67185431 
1 39:0.8607334 192:0.509056 
0.2904724785745604 39:1 
1 31:0.49137917 74:0.15708162 197:0.84817781 208:0.12027583 
1 2:0.24551379 8:0.18282008 16:0.81218057 74:0.25270415 208:0.19349304 235:0.38126576 
1 4:0.0842351 70:0.41675846 132:0.66027514 172:0.39407221 216:0.47745226 
1 7:0.32638529 162:0.51963772 197:0.72657372 208:0.30909529 
1 2:0.14836467 4:0.060943372 7:0.12346906 18:0.13100309 74:0.30541964 81:0.55144396 151:0.32386355 161:0.42906505 162:0.39314995 236:0.31771765 
1 4:0.12586369 7:0.25499527 8:0.22816682 11:0.27687927 189:0.5805874 198:0.67329918 
1 4:0.10401429 18:0.22358779 34:0.6521287 193:0.34774128 208:0.19956597 215:0.59427865 
0.01019820501178555 2:0.13240853 18:0.11691413 129:0.98427591 
1 2:0.2450436 18:0.21636869 74:0.25222019 129:0.91078164 
1 4:0.16367172 8:0.29670554 14:0.60922893 18:0.35182662 209:0.62468834 
1 74:0.27031426 75:0.52524531 231:0.80687519 
1 7:0.24049919 61:0.41323251 155:0.5841492 208:0.22775894 223:0.61505659 
1 2:0.23559428 8:0.17543359 37:0.33970836 140:0.38042232 158:0.70927256 161:0.34066491 208:0.18567533 
1 160:1 
0.1975979646118541 4:0.075650015 32:0.56583123 150:0.6293309 168:0.36269704 218:0.38276046 
1 166:0.60592976 218:0.79551815 
1 8:0.34461041 141:0.86499521 208:0.36472861 
0.2092074879760174 2:0.2552864 50:0.90577167 162:0.33824035 
0.6527232518435374 2:0.24441975 4:0.10039967 87:0.9084629 162:0.32384264 
1 2:0.24895912 4:0.1022643 50:0.88332212 162:0.32985706 208:0.19620836 
0.1050376882393099 2:0.27127544 44:0.96250176 
1 40:0.41218472 51:0.69918949 56:0.48500764 74:0.15080948 168:0.28855137 
1 2:0.23580866 8:0.17559323 18:0.20821442 74:0.24271478 208:0.18584428 223:0.50186725 234:0.72449207 
1 190:1 
1 4:0.13976787 8:0.25337245 190:0.95721855 
1 8:0.32843629 236:0.94452613 
1 14:0.30565952 64:0.23313902 134:0.64366945 206:0.66174625 
1 161:0.56661508 182:0.82398262 
1 7:0.29388338 11:0.42547314 20:0.60630709 159:0.27626093 180:0.19608422 181:0.19268206 182:0.24752493 203:0.38965728 
0.5053563409971297 4:0.087324729 32:0.65315332 208:0.16754471 209:0.33329363 231:0.65315332 
1 4:0.10096056 8:0.1830222 23:0.40371211 32:0.75514377 172:0.47231796 
1 4:0.097344793 8:0.17646751 27:0.44697488 54:0.45981625 61:0.33886386 141:0.44294527 152:0.4869666 
1 8:0.18490671 18:0.21925813 33:0.53175981 152:0.51025479 160:0.40646164 180:0.41363848 208:0.19570148 
1 7:0.3838364 18:0.40725794 140:0.74476585 208:0.36350297 
1 4:0.094295353 8:0.17093945 18:0.20269608 131:0.73913223 224:0.61195256 
1 8:0.18096758 18:0.1072935 53:0.38172827 55:0.19958982 97:0.4516409 123:0.4516409 141:0.22712017 161:0.17570537 164:0.49390058 192:0.18929747 
1 2:0.2348434 21:0.73775187 77:0.41219995 162:0.31115451 192:0.3658481 
1 18:0.32458787 161:0.53154972 223:0.78236667 
1 2:0.21248675 11:0.19200733 16:0.35146215 23:0.34901803 60:0.60700373 165:0.52549561 208:0.16746394 
1 8:0.11642197 29:0.25170067 63:0.21379249 64:0.18233359 77:0.1372101 106:0.29055438 118:0.58110875 144:0.26712993 181:0.12795918 212:0.19332755 218:0.48740718 219:0.20132273 
-0.2489800521915266 4:0.21183529 11:0.46600254 180:0.85905032 
-0.4597045677577182 11:1 
-0.2172314105633427 7:0.35209351 213:0.93596483 
-0.1650365195281473 2:0.33495469 4:0.13758847 8:0.24942161 61:0.47895485 74:0.3447645 155:0.67705489 
-1 2:0.17513621 8:0.13041393 11:0.47476965 37:0.2525326 74:0.18026543 173:0.37504797 193:0.48102226 245:0.50852882 
-1 7:0.26259511 33:0.67572478 151:0.68879593 
-1 7:0.15060164 8:0.13475661 11:0.16352645 64:0.42209696 138:0.33674242 208:0.14262364 228:0.42471262 234:0.55600147 248:0.36193598 
-1 2:0.5271097 8:0.39250846 61:0.7537191 
-1 18:0.3500127 141:0.74091105 161:0.57318577 
-1 18:0.27359205 39:0.81616498 55:0.50894216 
-1 208:1 
-1 68:0.57615581 75:0.57007478 152:0.58571259 
-1 18:0.19218001 55:0.35749763 131:0.70078532 173:0.4660881 181:0.3562641 
-0.5504255717618797 8:0.18981846 18:0.4501644 74:0.2623777 153:0.63652085 182:0.53602249 
-0.3034216960659995 4:0.13545285 8:0.24555013 18:0.29116771 74:0.33941313 152:0.67760186 235:0.51208737 
-1 8:0.24783422 18:0.29387613 74:0.34257033 152:0.68390487 235:0.51685078 
-1 4:0.15712415 61:0.54695986 75:0.76502678 208:0.30146465 
-0.2402850802943774 4:0.113127 7:0.22919119 77:0.96678523 
-0.7806730582694831 75:0.68026367 179:0.73296748 
-1 160:0.72546379 235:0.68826033 
-1 4:0.13753446 36:0.66964596 199:0.68046042 208:0.26387911 
-0.8265427904004873 7:0.3446664 181:0.67793212 209:0.64931742 
-0.3378784288643695 2:0.20943812 4:0.086030357 52:0.65794212 64:0.24425061 161:0.30284359 208:0.16506127 238:0.58071404 
-1 7:0.3872332 60:0.66462213 193:0.63900538 
-1 2:0.45558173 64:0.53130782 209:0.71425296 
-0.516456092186484 18:0.40030403 156:0.91638239 
-1 7:0.19490719 14:0.35809898 33:0.50154635 37:0.33770828 190:0.65887033 208:0.18458214 
-0.08107096174266489 8:1 
-0.5500134007085898 2:0.21205768 4:0.087106386 18:0.18724277 73:0.47566766 135:0.34127039 140:0.34241694 208:0.16712578 232:0.6515202 
-0.1693071733927534 130:0.74524722 156:0.66678826 
-0.9084878248618351 4:0.080306798 7:0.16269866 14:0.2989229 74:0.20123003 130:0.44167881 148:0.66807058 161:0.28269555 208:0.15407982 235:0.30360452 
-1 2:0.49922467 8:0.37174407 209:0.78267559 
-1 2:0.4268605 4:0.17534039 67:0.88715605 
-1 2:0.32441685 35:0.62047165 152:0.6666315 208:0.2556777 
-1 2:0.33153614 135:0.53355043 226:0.77807951 
-1 213:1 
-1 7:0.22331989 33:0.57465953 54:0.52067572 152:0.55141959 208:0.21148969 
-1 2:0.34038917 55:0.55910291 166:0.53884267 192:0.53027137 
-1 2:0.34038917 55:0.55910291 166:0.53884267 192:0.53027137 
-0.719546144090607 7:0.33420715 228:0.94249964 
-1 37:1 
-0.9897226600370048 193:0.50503949 227:0.86309623 
-1 4:0.095056157 7:0.19258032 8:0.17231865 55:0.3801021 208:0.18237853 227:0.54309695 245:0.67192976 
-1 8:0.26479178 18:0.31398401 61:0.50846961 223:0.75680778 
-1 2:0.41270181 4:0.16952446 8:0.61463145 208:0.65051277 
-0.008724458853471707 194:0.66216054 239:0.74936201 
-1 18:0.087390564 74:0.10187086 130:0.22359585 146:0.67640935 157:0.2979627 158:0.2979627 169:0.23418082 181:0.16200499 228:0.46455428 
-1 2:0.36620134 4:0.15042358 23:0.60150043 189:0.69387791 
-1 11:0.48328975 181:0.87546046 
-1 4:0.12185307 162:0.39304132 234:0.91141119 
-1 4:0.11711183 8:0.21230137 18:0.2517421 64:0.33249468 233:0.87594871 
-1 74:0.43964589 182:0.89817119 
-0.2733980529192726 4:0.28656905 193:0.95805959 
-1 77:0.9122578 208:0.40961653 
-0.002502791630067475 7:0.244014 64:0.34195346 138:0.54561068 210:0.72514412 
-0.9064040142490926 7:0.3044157 64:0.42659849 217:0.85167177 
-1 139:0.81129035 235:0.58464345 
-1 18:0.35213574 159:0.93594894 
-0.2692977977436601 7:0.21261201 14:0.39062767 18:0.2255855 159:0.59958842 194:0.62594813 
-0.1779389367639774 18:0.23061474 162:0.34604593 180:0.43506313 184:0.68795739 235:0.40559063 
-1 2:0.34787332 162:0.4609129 226:0.81642112 
-1 208:0.29262676 219:0.95622674 
-1 2:0.33364686 4:0.13705126 140:0.53875124 173:0.71449287 208:0.26295201 
-1 7:0.20723605 135:0.40075804 193:0.34197698 204:0.82431666 
-0.891218773284538 2:0.21447566 4:0.088099614 16:0.3547519 175:0.67376736 209:0.33625114 226:0.50335121 
-0.3085866790987933 2:0.16542522 4:0.1359028 8:0.1231827 18:0.14606722 72:0.33619328 77:0.29035632 135:0.26622345 140:0.26711787 178:0.43076229 185:0.48877528 193:0.22717521 229:0.31942091 
-0.5425085963279924 4:0.12381039 7:0.25083535 209:0.472549 240:0.83573325 
-1 2:0.43441472 4:0.17844341 164:0.88286001 
-1 8:0.21815516 18:0.25868339 136:0.85066213 193:0.40232471 
-1 11:0.3563299 193:0.54153376 229:0.76142642 
-0.4005142458094607 4:0.14766383 20:0.4628963 37:0.25917249 38:0.36138193 64:0.2096174 168:0.35397974 181:0.29421332 189:0.34057326 193:0.24683494 199:0.36528744 
-1 1:0.26751684 3:0.51570979 4:0.15200535 7:0.10265233 13:0.30505517 37:0.17786179 68:0.24933255 77:0.2165064 192:0.19216027 208:0.097214404 225:0.29685505 231:0.37897891 244:0.34201704 
-1 2:0.37002127 8:0.55106788 155:0.74793613 
-1 2:0.50014818 8:0.74486419 18:0.44162103 
-1 2:0.35508239 4:0.072928188 28:0.57164613 160:0.58122507 193:0.24381401 236:0.3801984 
-0.02742840087990897 4:0.12455312 11:0.27399623 220:0.82926733 235:0.47088033 
-0.5778086231808859 2:0.48003179 4:0.098590777 11:0.21688337 37:0.34608421 74:0.24704541 162:0.31800799 222:0.65641157 
-1 4:0.11764301 8:0.10663198 18:0.12644175 64:0.16700111 152:0.58850732 161:0.20706281 182:0.60222929 185:0.42310384 
-0.2318025788962368 2:0.18502064 8:0.13777429 18:0.1633696 37:0.26678516 71:0.37601702 77:0.32475045 161:0.26753638 170:0.36623248 203:0.61245843 208:0.1458175 
-0.2932427800720352 7:0.35032977 64:0.49094101 189:0.79765028 
-1 4:0.11948377 7:0.24206977 201:0.96287375 
-0.8382135052252203 4:0.079215168 23:0.31675857 62:0.52740991 63:0.52740991 65:0.41823688 74:0.19849467 181:0.31566561 208:0.15198538 
-1 3:0.63341668 8:0.22563335 18:0.26755084 162:0.40146992 197:0.5613478 
-1 2:0.42269485 8:0.31475669 38:0.84985722 
-1 4:0.11566516 11:0.12722188 13:0.34818744 56:0.46604977 64:0.16419343 66:0.32279296 151:0.61466334 180:0.23452662 197:0.26082704 
-1 7:0.13254424 18:0.28126385 70:0.32368347 74:0.16393424 159:0.74757742 177:0.3075352 180:0.26530747 193:0.21872198 
-1 7:0.23826967 23:0.47028067 33:0.61312917 152:0.58833347 
-1 4:0.11803738 8:0.10698943 24:0.27743069 64:0.16756094 190:0.40419655 192:0.22382846 208:0.33970628 224:0.38301547 230:0.44143499 235:0.44624645 
-1 4:0.063930442 11:0.14063638 23:0.25563936 32:0.47817361 40:0.43783598 64:0.18150627 74:0.16019472 75:0.31127298 172:0.2990821 179:0.33538903 208:0.1226595 209:0.2440043 235:0.24169275 
-1 11:0.32130209 33:0.76144484 193:0.4883001 208:0.28023156 
-0.3747155216327773 2:0.1096994 8:0.081686875 16:0.1814475 33:0.23491737 64:0.12793347 66:0.25150838 139:0.23639669 152:0.22541702 161:0.31724656 162:0.14534564 166:0.17365629 173:0.23491737 176:0.34461662 177:0.21181948 181:0.17956396 182:0.23067304 197:0.20322682 208:0.17291144 229:0.42363896 
-0.5859512078167818 2:0.23254038 4:0.095520013 55:0.38195693 61:0.33251167 161:0.33624903 164:0.47259128 247:0.58646386 
-1 8:0.17232796 18:0.20434254 40:0.6510397 213:0.51196101 223:0.49253471 
-1 7:0.31893118 165:0.94777788 
-1 2:0.4063203 8:0.3025635 61:0.58100121 209:0.63702177 
-1 23:0.49485374 75:0.60254648 218:0.62614497 
-0.4176524435093003 11:0.75363091 208:0.65729784 
-1 2:1 
-1 2:0.2593821 4:0.10654572 7:0.21585776 61:0.3708929 200:0.85861098 
-1 4:0.11697583 160:0.46613858 162:0.37730962 208:0.22443449 224:0.759143 
-0.1352913136890982 11:0.20470285 208:0.17853665 243:0.62812274 247:0.57132181 248:0.45307242 
-1 2:0.15807349 11:0.28567682 14:0.24169181 61:0.45206133 68:0.31951914 74:0.16270299 180:0.26331484 202:0.52325753 247:0.39865933 
-0.8911653103777275 2:0.46727796 4:0.095971345 11:0.21112105 37:0.33688919 64:0.27247427 137:0.56725961 248:0.46727796 
-1 8:0.14353429 55:0.3166093 70:0.39173734 137:0.46799792 181:0.31551686 202:0.63806377 
-1 4:0.07301193 8:0.52942718 18:0.31389077 140:0.57402247 158:0.53511392 
-1 162:1 
-1 77:1 
-0.1681601199094387 7:0.24952603 17:0.56552862 61:0.42874269 198:0.65885799 
-1 7:0.21221237 206:0.84411083 229:0.49238484 
-0.6090967099033068 7:1 
-1 160:0.51439727 166:0.49747353 208:0.24766988 218:0.65312722 
-1 160:0.41729278 162:0.33777204 166:0.2017819 192:0.19857218 218:0.7947515 
-0.3707218405691645 64:0.4502647 138:0.71842883 193:0.53020914 
-1 4:0.095537559 11:0.2101668 20:0.59898293 74:0.23939476 172:0.44694785 212:0.57519537 
-1 5:0.57328393 135:0.41130572 239:0.70864175 
-0.320527343482228 4:0.065829368 14:0.49006846 23:0.26323262 181:0.26232435 208:0.12630285 218:0.66614363 229:0.30944632 235:0.24887175 
-0.03677046463397788 4:0.082124929 7:0.33276398 11:0.36132247 17:0.37709033 53:0.62807422 151:0.43642598 208:0.15756816 
-1 2:0.2804115 4:0.057591992 11:0.25338568 18:0.12379901 37:0.4043317 130:0.3167498 140:0.22639527 161:0.20273502 166:0.22194857 215:0.65809575 
-1 214:1 
-1 4:0.077139497 74:0.19329352 157:0.56536539 191:0.50061546 203:0.62163755 
-1 8:0.15229629 61:0.87734606 64:0.23851803 189:0.38752919 
-1 2:0.29726472 4:0.12210666 140:0.48000373 161:0.42983921 198:0.6532012 208:0.23427871 
-1 51:0.6041368 65:0.54912679 180:0.42177317 192:0.39444377 
-0.9811294708058845 51:0.45849141 65:0.41674322 74:0.19778578 142:0.47080036 180:0.32009203 182:0.40406493 192:0.29935121 
-1 51:0.45849141 65:0.41674322 74:0.19778578 142:0.47080036 180:0.32009203 182:0.40406493 192:0.29935121 
-0.1367642664007327 4:0.20365317 51:0.59147596 65:0.53761879 180:0.41293411 192:0.38617745 
-0.2553661224496031 7:0.46532243 166:0.88514125 
-1 8:0.37124596 18:0.44021421 39:0.65661209 64:0.2907122 209:0.39081308 
-0.8072571106552727 4:0.10254306 168:0.49163329 172:0.47972129 188:0.60610319 235:0.38767001 
-0.007718825665119201 4:0.096513088 73:0.52703546 140:0.75878944 208:0.37034772 
-1 4:0.24653497 140:0.9691339 
-1 64:0.33109465 77:0.49831254 209:0.44510042 215:0.66629315 
-0.06213396100319845 8:0.3389051 18:0.40186589 141:0.85067452 
-1 70:0.7127479 248:0.7014203 
-0.4135352826848353 4:0.22191164 64:0.63003337 189:0.51181913 248:0.54023547 
-0.9867656798862887 4:0.13747869 7:0.13926319 74:0.34448885 134:0.53881109 161:0.24197547 170:0.33124197 197:0.6200339 
-1 60:0.71798386 74:0.51739432 197:0.46562033 
-0.3730290439663638 2:0.50659704 4:0.10404685 18:0.44731521 61:0.36219418 64:0.29540161 163:0.56035352 
-1 2:0.48757201 18:0.43051652 192:0.75955846 
-1 4:0.17999009 5:0.49144114 24:0.42304203 66:0.50230798 138:0.40767836 181:0.3586219 
-0.3761372676507191 2:0.17083062 8:0.1272078 11:0.46309779 37:0.24632427 193:0.23459834 208:0.26926826 229:0.65971649 248:0.34166101 
-1 4:0.064618484 51:0.37534739 77:0.27611522 195:0.38542421 197:0.2914322 215:0.7383865 
-0.07509449211908875 4:0.14163367 8:0.25675478 241:0.9560423 
-1 7:1 
-1 208:1 
-0.6852103762621962 236:1 
-0.1365046955617378 55:0.70618809 161:0.6216802 208:0.33883935 
-1 2:0.28205362 4:0.11585844 14:0.4312554 22:0.84914154 
-1 4:0.11116486 22:0.81474171 196:0.56906794 
-0.7025930007568872 216:0.64305921 241:0.76581646 
-1 2:0.39199407 215:0.91996774 
-1 2:0.41436481 54:0.80398961 74:0.4265003 
-1 2:0.3939543 27:0.74304004 193:0.54100971 
-1 2:0.6993464 27:0.65952159 208:0.27558279 
-1 7:1 
-1 2:0.41436481 54:0.80398961 74:0.4265003 
-1 2:0.80205772 8:0.59724653 
-1 4:0.11221991 37:0.39392668 138:0.50835802 237:0.75749627 
-1 223:1 
-1 29:0.6758446 35:0.40145563 68:0.42428417 173:0.44950017 
-1 224:1 
-1 2:0.47338033 138:0.88085814 
-0.9130160092642299 16:0.35949333 64:0.25346853 165:0.53750358 204:0.7194499 
-1 4:0.097186597 18:0.20891106 64:0.27592452 69:0.72691606 165:0.5851236 
-1 16:0.76020981 20:0.59182466 64:0.26800116 
-0.6068328195660017 4:0.069465144 7:0.14073386 11:0.1528118 170:0.33474 187:0.8211776 225:0.40698109 
-0.642132437481444 4:0.12581429 71:0.6224741 246:0.7724615 
-0.4827563823322271 27:0.22484953 61:0.17046457 153:0.29767874 155:0.48194034 162:0.15795135 186:0.70447085 227:0.27978132 
-1 11:0.10929596 27:0.45626239 61:0.17295243 155:0.48897405 186:0.71475231 
-1 2:0.29191726 67:0.60669976 193:0.40088426 223:0.62128216 
-1 162:1 
-1 62:0.66634944 63:0.66634944 193:0.33459954 
-1 10:0.5527498 62:0.54520262 64:0.23248874 162:0.26413122 196:0.41919355 209:0.31254155 
-1 62:0.93143756 64:0.2647931 162:0.15041607 208:0.089471754 209:0.17798453 
-0.1832516971977797 4:0.032278546 8:0.058514836 18:0.069385549 33:0.33655705 36:0.15716205 37:0.11330771 64:0.45821373 73:0.17626561 154:0.39243721 156:0.15883851 158:0.47314743 161:0.11362676 190:0.22106384 196:0.16523824 208:0.18579272 239:0.21788361 248:0.15716205 
-0.6286491405308814 18:0.33313677 64:0.43999933 74:0.1941683 131:0.60739288 140:0.30460926 228:0.44272593 
-1 4:0.089480961 11:0.19684329 151:0.47551721 175:0.68433162 180:0.36286989 181:0.35657391 
-1 4:0.096957342 11:0.21329008 34:0.60788441 170:0.46721995 208:0.18602622 225:0.56805186 
-1 2:0.17940358 4:0.073693147 11:0.16211271 37:0.25868581 51:0.4280591 130:0.40530444 156:0.36263434 199:0.36460149 208:0.28278122 215:0.42104084 
-0.0620034668363481 54:0.80501245 61:0.59325791 
-0.4070280760281213 64:0.31828482 221:0.74640053 236:0.58444934 
-0.273606655980611 226:1 
-1 162:1 
-0.1842515145172382 161:0.44342276 192:0.47772478 212:0.75838994 
-0.971705342457845 4:0.46219195 208:0.8867799 
-1 4:0.12844045 18:0.27609395 64:0.364658 215:0.73383588 235:0.4855766 
-1 73:0.80283496 180:0.59620133 
-1 18:0.30724412 63:0.95163073 
-1 4:0.11884607 14:0.44237616 232:0.8889201 
-0.5484954506092112 16:0.41545285 160:0.4111402 211:0.62117256 218:0.52202233 
-1 4:0.079690122 8:0.14446296 11:0.17530506 20:0.49962573 71:0.39427189 139:0.41806675 177:0.37460203 188:0.47102588 
-1 4:0.079854025 15:0.57439195 18:0.17165319 23:0.31931317 74:0.20009549 162:0.51514389 195:0.4762983 
-1 4:0.23969666 15:0.57471402 74:0.20020769 152:0.39969314 162:0.51543274 168:0.38306745 
-1 7:0.23482915 192:0.43958898 230:0.86695836 
-0.4062310822990057 24:0.56486442 37:0.421817 66:0.67070382 208:0.23055367 
-0.4015997056033625 2:0.11977539 55:0.1967359 71:0.24341926 74:0.12328326 138:0.44575207 160:0.19605708 161:0.17319297 197:0.44378678 208:0.28319027 230:0.36799464 234:0.36799464 248:0.23955063 
-1 33:0.38766018 36:0.72410271 196:0.3806562 215:0.42484786 
-1 208:1 
-0.06394918195444124 14:0.29166284 23:0.31332441 55:0.31332441 68:0.38558137 192:0.29716706 208:0.15033762 215:0.44768375 224:0.50851255 
-1 4:0.13333335 6:0.42261808 18:0.1433056 74:0.16705081 159:0.38089494 162:0.43007068 163:0.35903869 168:0.31962673 192:0.25283346 208:0.12790913 218:0.33730762 
-0.5716978876438644 170:0.59615404 191:0.80287008 
-0.8179294940230117 18:0.40388065 75:0.91481168 
-1 18:0.40388065 75:0.91481168 
-1 18:0.34033502 141:0.72042523 209:0.60428434 
-1 74:0.36148923 192:0.54711839 208:0.27678869 248:0.70240659 
-1 23:0.36917273 143:0.76803256 216:0.52329484 
-1 4:0.10078999 8:0.18271298 18:0.21665686 61:0.35085681 63:0.67105377 64:0.28615498 152:0.50420115 
-0.2752926297985954 4:0.044860395 24:0.21087677 74:0.2248193 187:0.26515717 208:0.086070943 242:0.90843728 
-1 7:1 
-1 4:0.078034421 7:0.1580949 11:0.17166279 17:0.35830808 33:0.81363746 164:0.38608021 
-0.1540795187034804 8:0.14792266 11:0.17950339 65:0.43082081 205:0.65757174 208:0.15655832 242:0.55079919 
-1 2:0.28398403 8:0.21146667 14:0.43420696 155:0.57402622 182:0.5971542 
-1 11:1 
-1 57:0.91638476 161:0.40029861 
-1 2:0.2209745 4:0.090769126 136:0.64162574 182:0.46465942 209:0.34643991 248:0.44194871 
-0.8393824974538804 2:0.57697997 4:0.11850237 8:0.21482214 18:0.25473117 161:0.41715139 196:0.60662962 
-1 4:0.2139036 8:0.19388285 62:0.71207758 208:0.20520165 217:0.60621159 
-1 4:0.085858836 8:0.15564566 14:0.31958904 32:0.64218904 37:0.30139115 208:0.16473219 237:0.57955625 
-0.9296615826039014 16:0.39290978 67:0.49369665 166:0.37603855 167:0.67858716 
-0.173612034593918 4:0.17867334 11:0.19652555 140:0.35118366 180:0.36228416 207:0.58706297 208:0.17140462 247:0.54849913 
-0.8299920435826704 4:0.13178726 14:0.24527292 20:0.41312647 23:0.26348915 24:0.30974789 180:0.53443267 184:0.42254432 199:0.32601235 208:0.12642594 
-1 4:0.12051414 8:0.2184691 18:0.25905564 51:0.70002674 182:0.61692815 
-1 4:0.094484097 8:0.17128161 74:0.47351005 196:0.48367685 224:0.61317745 235:0.35720262 
-1 7:1 
-1 11:1 
-1 1:0.32369176 4:0.061308074 5:0.33478909 77:0.26196982 149:0.5100206 170:0.29543256 193:0.20496557 208:0.11762812 210:0.36911264 238:0.413836 
-1 177:0.50386099 205:0.86378476 
-1 2:0.80205772 8:0.59724653 
-1 8:0.20880443 18:0.24759551 34:0.72215097 72:0.56987424 208:0.22099435 
-1 2:0.35597166 4:0.14622156 37:0.51328303 179:0.76710101 
-0.3337201068390098 7:0.38924238 168:0.92113537 
-1 7:0.23544567 161:0.40909645 170:0.56001509 225:0.68087336 
-1 167:0.83334665 189:0.55275072 
-1 8:0.24907278 66:0.76687829 166:0.5294982 208:0.26361354 
-1 11:0.27445102 166:0.96160108 
-1 163:1 
-1 183:1 
-0.02299638101265754 177:1 
-1 11:1 
-0.3601806979044416 177:1 
-1 135:0.6327694 168:0.77434029 
-1 132:0.8183461 140:0.4104029 166:0.40234204 
-0.2545742918753992 4:0.06440584 11:0.14168218 132:0.50484389 138:0.29175951 139:0.67576608 207:0.42323433 
-0.08287039342498589 74:0.27702578 152:0.55305222 160:0.44055346 197:0.4986094 235:0.41796086 
-0.6608582097743083 192:0.64359702 197:0.76536454 
-0.9660218089973894 8:1 
-1 8:0.4565782 75:0.61314963 182:0.64465796 
-1 61:0.48421831 135:0.5449759 155:0.68449536 
-0.9849220455755854 24:0.50723758 34:0.67652848 72:0.53387195 
-1 4:0.2223463 66:0.62051374 72:0.55003526 189:0.51282163 
-0.5289033217929157 160:1 
-1 16:0.48152318 157:0.87643336 
-1 18:0.20353748 40:0.64847541 141:0.43085105 219:0.59364931 
-1 2:0.80205772 8:0.59724653 
-1 2:0.17909557 34:0.46123382 37:0.25824168 38:0.36008403 140:0.57838352 172:0.3441625 181:0.29315666 208:0.14114786 
-0.1998468277120593 2:0.37679609 4:0.15477592 8:0.14028935 11:0.1702404 24:0.36377958 61:0.26939232 64:0.21971343 75:0.37679609 77:0.33067873 190:0.53000067 
-1 4:0.11409918 158:0.8362477 177:0.53634984 
-1 8:0.17836149 161:0.34635044 167:0.68424652 194:0.58685566 208:0.18877416 
-1 14:0.3293327 18:0.19018797 159:0.50550458 198:0.47329901 208:0.16975456 220:0.58907136 
-0.03820563002291774 20:0.38457543 36:0.59731728 72:0.30348173 135:0.48063992 181:0.24443318 196:0.31400591 208:0.11768868 
-0.02681584531200572 2:0.1774585 4:0.14578858 8:0.26428664 18:0.15669237 23:0.29148272 55:0.29148272 58:0.58742609 64:0.20695538 74:0.18265572 208:0.13985766 241:0.49204337 
-1 4:0.05197511 18:0.22344989 74:0.13023746 157:0.76186483 160:0.41423265 186:0.37385823 235:0.19649492 
-0.4495490997228158 35:0.61880441 187:0.7855451 
-1 4:0.13895326 18:0.29869215 74:0.34818434 218:0.70305095 235:0.52532088 
-1 7:0.24922281 152:0.61537887 154:0.74779465 
-1 1:0.53024091 4:0.10042903 5:0.5484195 166:0.38703435 218:0.5081329 
-1 4:0.11127637 166:0.42883794 218:0.56301634 219:0.69765908 
-1 4:0.21647002 197:0.97628927 
-1 236:1 
-0.4197481843957162 18:0.74604704 208:0.66589325 
-1 2:0.41860022 68:0.84613034 208:0.329905 
-1 2:0.92500254 4:0.37996091 
-1 39:0.53629927 160:0.66654056 172:0.39125542 180:0.33915479 
-1 18:0.24934537 161:0.40833152 162:0.37415193 190:0.79441966 
-0.4351314388952132 4:0.17104502 169:0.98526321 
-1 4:0.1832917 64:0.52038735 141:0.83402707 
-1 2:1 
-1 18:0.10067149 23:0.18727141 39:0.6006355 156:0.23045879 159:0.53515358 160:0.18662524 166:0.18048524 172:0.21909585 180:0.18992045 193:0.15657221 208:0.089855552 216:0.26545341 
-1 61:0.42940684 171:0.77338676 235:0.4663504 
-1 4:0.13252921 18:0.28488308 74:0.33208716 159:0.75719669 161:0.46652859 
-1 164:1 
-1 35:0.52052875 182:0.57229343 216:0.63366399 
-0.8464232703166958 236:1 
-1 197:0.64203533 214:0.76667505 
-1 4:0.081813873 34:0.51294081 70:0.8095583 193:0.27352069 
-0.1686205490431931 54:0.72019558 141:0.6937711 
-1 177:1 
-1 7:1 
-0.4267571491288704 4:0.12053881 7:0.24420725 61:0.41960381 155:0.59315573 208:0.23127057 248:0.58689527 
-1 1:0.34092604 3:0.32861276 5:0.35261422 10:0.43586981 52:0.49383533 161:0.22730703 193:0.21587852 198:0.34542504 
-1 7:0.099753981 18:0.052920507 27:0.11304187 33:0.51338565 73:0.13443816 76:0.28847378 152:0.73893575 173:0.12834643 208:0.047234835 209:0.093963395 223:0.12755634 227:0.14065852 
-1 2:0.30475439 37:0.43943177 243:0.8449997 
-1 2:0.69682914 74:0.71723716 
-0.259087183981671 8:0.30751126 18:0.3646398 223:0.87890537 
-1 194:1 
-1 4:0.095190444 64:0.13512838 67:0.24081343 134:0.74614732 141:0.21657084 145:0.39594301 160:0.18966254 163:0.25632786 170:0.22935242 
-0.3229386972659497 33:0.5527654 54:0.50083834 74:0.26568466 169:0.61075612 
-1 55:0.3647542 74:0.22857081 199:0.90261274 
-1 2:0.20562898 8:0.15312014 17:0.3878383 33:0.44034713 60:0.58741336 76:0.49486598 
-0.974536592963782 2:0.2619619 4:0.10760542 16:0.43329617 60:0.74833773 193:0.35974715 208:0.20645604 
-1 8:0.12751166 9:0.4817277 64:0.19970171 76:0.41210242 133:0.55135297 162:0.22688178 246:0.43186177 
-1 71:0.45715334 135:0.36200884 161:0.32526493 218:0.46750755 219:0.5793098 
-1 4:0.10258481 8:0.092983179 61:0.17855207 74:0.2570531 152:0.25658946 172:0.23995791 209:0.39153622 218:0.77855943 
