svm_type c_svc
kernel_type linear
nr_class 2
total_sv 274
rho 0.47595
label 1 -1
nr_sv 134 140
SV
1 1:1 
1 1:0.26207112 19:0.69547275 42:0.66905633 
0.02323292602422946 1:0.26328417 4:0.18633849 5:0.19316836 35:0.39349006 53:0.61207671 71:0.19950406 89:0.53793234 
1 1:0.2334316 31:0.54267694 53:0.54267694 61:0.48100128 71:0.35376679 
1 1:0.24071182 16:0.82435132 35:0.35975502 71:0.3648 
1 61:1 
1 4:0.19405292 42:0.69997968 50:0.68729317 
1 3:0.34827627 24:0.51563888 30:0.38636025 32:0.45099938 34:0.51004461 
0.1793441437764054 2:0.3011571 36:0.67427902 103:0.67427902 
0.6681397969731471 11:0.4639646 16:0.58653377 60:0.61101906 71:0.25955866 
1 4:0.30427419 9:0.29375912 35:0.32126715 53:0.49973365 71:0.3257724 87:0.60170494 
1 4:0.35658909 9:0.68853225 50:0.63148046 
1 1:0.17790137 4:0.25181844 8:0.43437455 32:0.43070559 35:0.53176375 87:0.49797323 
0.3009163621935495 4:0.69426878 5:0.71971582 
1 9:0.31802496 44:0.65892455 50:0.58334681 71:0.35268268 
0.4323229504111065 1:0.13218078 28:0.48235019 35:0.19755033 42:0.33745187 52:0.38813215 92:0.54013418 109:0.39316045 
1 1:0.23985962 19:0.63652884 54:0.73300641 
0.9210834141850979 5:0.20041057 20:0.45100265 22:0.48725423 25:0.45906687 45:0.36615394 98:0.41737805 
1 28:0.7535932 71:0.31296823 87:0.57805551 
1 1:0.19912278 20:0.65753786 77:0.72663201 
1 1:0.10684546 20:0.35282244 22:0.3811823 25:0.35913114 35:0.31937103 45:0.57288944 105:0.39953108 
0.2571805632052858 1:0.11868703 4:0.084000348 8:0.14489651 35:0.17738312 44:0.16802806 50:0.29751094 92:0.72749079 109:0.52953614 
1 2:0.4708628 5:0.41370246 31:0.65543279 35:0.42136251 
0.8182691385634801 1:0.24056686 71:0.36458032 105:0.89956032 
1 2:0.34618737 71:0.62827631 120:0.69672317 
1 1:0.13605702 4:0.19258799 40:0.41010651 61:0.28035451 71:0.20619511 109:0.80937997 
1 1:0.36472093 42:0.93111688 
1 1:0.43430451 30:0.90076612 
1 1:1 
1 1:0.34630066 11:0.93812358 
0.7882830377479593 1:0.43430451 30:0.90076612 
1 4:0.3505567 14:0.62079776 108:0.7012276 
1 86:1 
1 1:0.30999577 50:0.3885308 86:0.86772487 
1 86:1 
1 4:0.47098561 6:0.75591797 9:0.45470934 
1 1:0.29433857 18:0.95570121 
1 1:0.18006481 26:0.57531841 30:0.37346211 34:0.49301743 86:0.50402903 
1 1:0.20159592 51:0.52967747 53:0.46866602 121:0.67760831 
1 73:1 
1 1:0.1622483 53:0.75438265 74:0.48905293 85:0.40670571 
1 1:0.14141842 3:0.26439617 19:0.75057963 35:0.21135642 43:0.33953135 54:0.432172 
0.6467188554592791 3:0.35163066 30:0.39008144 32:0.45534313 43:0.45155584 109:0.55942141 
0.3928967741103311 43:0.30435372 74:0.38210299 91:0.5180099 93:0.5180099 106:0.47402278 
0.2726701732503222 1:0.20544372 2:0.34311588 53:0.47761131 71:0.31135102 78:0.71764361 
0.7165626003043512 2:0.42480131 43:0.61067731 51:0.66829415 
1 33:1 
1 43:0.5402862 107:0.84148132 
1 2:0.26600929 32:0.38561159 67:0.62984043 85:0.39925372 109:0.47375125 
0.4434495266583335 32:0.40796354 33:0.52235351 43:0.40457032 107:0.63010746 
1 1:0.16039625 31:0.37288588 56:0.43451117 71:0.24308134 73:0.47708495 106:0.59977547 
1 66:1 
1 1:0.3364266 99:0.94170969 
0.1565361895208199 1:0.25006285 3:0.23375877 4:0.17698115 6:0.2840495 35:0.1868651 51:0.32850994 68:0.494425 94:0.51091904 99:0.3499818 
1 61:1 
0.3908513827839931 1:1 
1 1:0.25309191 43:0.60764811 109:0.75280028 
0.3601756360024822 1:0.21954466 43:0.52710454 106:0.82095124 
1 1:0.15923862 33:0.98724012 
1 1:0.31867273 109:0.94786481 
1 1:0.11564734 23:0.41258392 35:0.17284033 45:0.31004189 56:0.313287 61:0.47659779 75:0.42201684 106:0.43244426 
0.7276947460305248 1:0.24056686 38:0.89956032 71:0.36458032 
0.0380484468881308 2:0.21422776 19:0.34039938 42:0.6549397 53:0.2982013 71:0.19439506 87:0.35904966 98:0.39199312 
1 5:0.43379111 9:0.40399293 35:0.22091171 45:0.39627258 85:0.37051807 106:0.5527182 
1 9:0.66378136 45:0.65109642 71:0.36805946 
1 4:0.29850177 41:0.62724927 71:0.31959213 98:0.64445009 
1 4:0.28304986 9:0.27326825 17:0.57988948 60:0.71339711 
1 5:0.73179454 9:0.68152531 
1 2:0.28338227 5:0.2489811 61:0.34963212 92:0.69335885 109:0.50469178 
1 1:0.24626046 9:0.33653417 11:0.66711608 50:0.61729788 
1 3:0.3934482 14:0.5275195 42:0.5372568 85:0.5275195 
1 3:0.32488835 69:0.6871739 103:0.64979965 
1 11:0.43934384 37:0.60644623 95:0.66272163 
0.388677432361666 3:0.78110007 35:0.62440586 
1 1:0.15342511 2:0.25623851 30:0.31821025 35:0.22930098 56:0.41562646 61:0.63228494 99:0.42946044 
1 1:0.13220819 4:0.18714 42:0.33752185 71:0.2003622 88:0.43657463 119:0.77642527 
1 1:0.28202391 35:0.42149786 54:0.86185966 
1 1:0.31488366 40:0.94913028 
1 1:0.3304423 32:0.80001266 71:0.50078701 
1 2:0.18785826 24:0.31135316 30:0.23329211 31:0.26149541 44:0.31848672 61:0.46355229 75:0.41046533 99:0.31485389 101:0.40129061 
1 5:0.19523168 6:0.30226232 8:0.16242917 9:0.54546234 35:0.099423347 45:0.71338448 85:0.16675507 
1 5:1 
1 9:1 
1 107:1 
1 5:0.2411133 54:0.50214616 73:0.48874353 94:0.67144871 
0.9017720858217391 3:0.29889633 35:0.23893561 89:0.65328813 91:0.65328813 
1 30:0.52370871 71:0.38267448 74:0.76111065 
1 1:0.42835488 5:0.62855803 71:0.64917402 
1 1:0.31867273 41:0.94786481 
0.07269543513826639 1:0.13331038 4:0.18870013 77:0.9729443 
1 1:0.20426768 5:0.29973767 29:0.74540756 34:0.55928491 
0.3040603790969547 4:0.48490591 42:0.87456632 
1 34:0.76228552 53:0.6472409 
0.00638207875900057 4:0.19294836 60:0.48630619 69:0.80854837 71:0.10329054 76:0.24871231 
0.6697075454581812 29:0.61845712 32:0.41031432 67:0.67018874 
0.3256100551773681 1:0.20760669 4:0.29386616 9:0.56742154 60:0.74065845 
1 3:0.26696864 4:0.20212467 9:0.19513967 45:0.38282106 119:0.8385952 
1 1:0.196723 44:0.55701145 45:0.52739971 56:0.53291983 71:0.29813472 
1 32:0.31277385 35:0.19308061 54:0.39480246 74:0.38940805 96:0.52791324 97:0.52791324 
1 42:0.37035766 44:0.41075872 53:0.33725589 71:0.21985443 105:0.54246573 121:0.48761246 
0.01036788648221205 1:1 
1 1:0.33057146 9:0.45175174 50:0.82863917 
1 1:0.25413388 32:0.61526724 52:0.746232 
0.4508963827809809 1:0.15546664 30:0.32244447 44:0.44019611 51:0.40847641 75:0.56732426 99:0.435175 
1 52:0.50496941 98:0.52553835 99:0.48137163 108:0.48692576 
1 1:0.21776568 5:0.31954432 70:0.86113473 71:0.33002501 
0.7506826259593731 39:1 
1 1:0.096965091 4:0.13725357 5:0.14228433 9:0.53004151 39:0.7251701 41:0.28841438 61:0.199803 71:0.14695109 
1 1:0.14158235 30:0.29364785 51:0.37199652 53:0.32914771 62:0.41573866 70:0.55987463 108:0.40088342 
1 2:0.43599449 35:0.39015979 53:0.60689671 61:0.53792243 
1 9:0.42567391 50:0.78080512 52:0.45732384 
1 2:0.22378707 30:0.27791037 61:0.2761046 74:0.80777963 108:0.37939886 
0.8539433139690821 4:0.36418803 11:0.69698616 43:0.61771949 
0.01102177010513344 1:0.20595545 32:0.24931252 38:0.38506794 45:0.27607534 56:0.27896493 104:0.77013588 
0.1914480375606283 2:0.26927374 23:0.57520507 27:0.51514025 53:0.37482433 56:0.43676999 
1 4:0.18222133 9:0.17592415 14:0.32269414 38:0.48137713 43:0.30907569 87:0.36034432 104:0.48137713 119:0.3780091 
0.7893664618949478 1:0.16834476 3:0.31473769 9:0.69016882 104:0.6294976 
1 1:0.30701386 72:0.95170504 
0.1677257441942019 1:0.14724364 4:0.20842259 43:0.35351711 98:0.89994721 
1 1:0.28466796 5:0.41771517 71:0.8628315 
0.8468227418919403 1:0.28618465 4:0.40509286 9:0.39109371 56:0.77527017 
0.5455349110594705 1:0.43913962 4:0.3107996 51:0.57690189 86:0.61460899 
1 1:0.1199382 30:0.24875695 35:0.17925322 43:0.28795949 44:0.67919837 51:0.3151282 52:0.35218334 62:0.35218334 
0.2166518342079574 3:0.45597532 76:0.88999242 
1 1:0.25834849 36:0.96605179 
1 1:0.31488366 40:0.94913028 
1 1:0.17133339 43:0.41135417 53:0.39831232 71:0.25965664 76:0.62522473 85:0.42947919 
1 1:0.1083084 4:0.15330996 18:0.35167142 23:0.38640147 43:0.26003751 71:0.16414193 102:0.77280294 
0.3823671555040623 4:0.30877672 23:0.77823892 85:0.54680995 
1 32:0.40269886 61:0.34274077 90:0.67969255 98:0.50831135 
1 1:0.56315066 5:0.82635424 
1 61:0.374444 90:0.74256353 98:0.55532972 
1 1:0.25874271 11:0.70093032 30:0.53664344 71:0.3921259 
1 1:0.30061128 30:0.62348065 43:0.72173731 
-1 9:1 
-0.7661438730137187 4:0.39368386 5:0.40811357 7:0.73075051 9:0.38007898 
-1 85:0.47134146 107:0.70312092 108:0.53240792 
-1 1:1 
-1 1:0.20945017 8:0.51140598 35:0.31303303 43:0.50286869 87:0.58628317 
-1 1:0.3364266 87:0.94170969 
-1 1:0.3364266 86:0.94170969 
-1 4:0.27650644 6:0.44378466 9:0.80085289 35:0.29194864 
-0.9591552866180968 4:0.39368386 5:0.40811357 7:0.73075051 9:0.38007898 
-1 101:0.69029733 106:0.72352581 
-1 1:1 
-1 30:0.66572049 31:0.7462012 
-1 4:0.22741485 13:0.50546317 15:0.44471471 32:0.38896613 76:0.58627949 
-0.2295633071246953 4:0.18541193 5:0.19220784 8:0.31982655 9:0.35800897 13:0.41210547 15:0.36257709 34:0.35864342 110:0.51797775 
-1 4:0.23426377 5:0.48570016 9:0.22616811 46:0.59043695 55:0.55628053 
-1 4:0.25023323 7:0.46447943 9:0.72475709 14:0.44313581 
-1 60:0.71626229 61:0.41369667 87:0.56198167 
-1 50:0.64442402 109:0.76466835 
-0.1048833004700718 4:0.20553465 5:0.21306812 7:0.38151056 8:0.35453727 9:0.59529543 43:0.34861871 87:0.40644662 
-1 5:0.31841057 14:0.54393364 42:0.55397392 85:0.54393364 
-0.01488597505816616 4:0.34308733 5:0.35566251 7:0.63683392 8:0.59180894 
-1 4:0.38365918 5:0.19886086 9:0.37040099 43:0.32537302 45:0.72664517 71:0.20538327 
-1 1:0.34360115 9:0.93911567 
-1 1:0.40201201 9:0.9156344 
-1 43:0.54581015 54:0.69473369 61:0.46844037 
-0.3521053169522272 4:0.1742896 5:0.36135544 8:0.60128191 9:0.33653304 46:0.43927843 55:0.41386644 
-0.5754222762964105 119:1 
-1 61:1 
-1 1:1 
-1 71:0.47611239 86:0.87938444 
-0.6919472812735426 4:0.30576167 9:0.29519519 13:0.67960057 15:0.59792363 
-1 9:1 
-1 9:1 
-1 61:0.80557957 71:0.5924876 
-1 71:1 
-1 50:1 
-1 103:1 
-1 5:0.3801903 11:0.70188523 31:0.60233915 
-1 35:0.21272267 53:0.33089183 61:0.58657116 72:0.44121341 73:0.42335611 85:0.35678323 
-1 35:0.214968 53:0.33438446 56:0.38964679 61:0.29638141 85:0.36054915 105:0.53784713 109:0.42782472 
-1 73:0.70710678 109:0.70710678 
-1 1:0.19835696 31:0.46113615 47:0.7076591 50:0.49721882 
-0.2350882446737471 101:1 
-1 1:0.19822248 27:0.63333331 51:0.52081401 56:0.53698188 
-0.2347213482688591 10:1 
-0.4275464913534188 41:0.45333622 78:0.53239608 104:0.56991934 108:0.43154678 
-1 1:0.28693132 6:0.43457175 9:0.13070461 19:0.25381504 50:0.23974884 78:0.66819384 87:0.26772142 99:0.26772142 
-0.1187758012115633 17:0.59735899 30:0.42723083 35:0.30786075 119:0.60486181 
-0.6843013091230367 5:0.20273292 10:0.42221459 49:0.4929005 53:0.32119171 80:0.53055335 108:0.39119346 
-0.836614183868918 41:0.70041184 71:0.71373893 
-0.2327301677392999 59:0.87076804 61:0.49169403 
-1 1:0.28584559 5:0.41944319 40:0.86160299 
-0.5788602784192914 51:0.50519595 73:0.57191516 121:0.64628948 
-0.1564989865486568 6:0.58919225 30:0.53789742 31:0.60292525 
-1 1:0.5560991 35:0.83111599 
-0.01791215570174147 32:0.4071086 35:0.50263011 53:0.3909226 61:0.34649395 62:0.49376506 71:0.25483934 
-0.726696110763806 49:0.39627004 84:0.85308228 98:0.33944172 
-1 54:0.72107701 119:0.69285493 
-0.4839650709285043 34:0.52325964 61:0.39379518 113:0.75572793 
-1 43:1 
-1 43:0.50129166 98:0.63806838 99:0.58444454 
-1 1:1 
-1 1:0.15544023 5:0.2280894 19:0.41250041 35:0.23231267 51:0.40840702 52:0.45643058 61:0.32029491 71:0.47114095 
-1 86:1 
-1 1:1 
-1 74:1 
-1 108:1 
-1 14:0.23956792 17:0.27715269 18:0.31031553 24:0.26454496 30:0.19821945 34:0.26167486 35:0.14283611 57:0.34875681 81:0.36700756 119:0.56126744 
-0.7357020690264814 52:0.59616855 117:0.8028593 
-0.658269429992022 121:1 
-1 1:0.69414135 30:0.71983872 
-0.8200721593344815 34:0.45107628 42:0.42059109 64:0.61604303 109:0.4900248 
-0.9567158031848515 1:0.25200325 83:0.96772639 
-1 32:0.85092354 35:0.52528956 
-1 1:0.30928012 17:0.44844803 30:0.32072979 32:0.37438876 33:0.47936461 56:0.41891732 71:0.23435758 
-0.1736179577371984 25:0.54673972 35:0.48620911 59:0.59357798 61:0.33517394 
-1 1:0.55075267 71:0.8346685 
-0.01526119312367851 5:1 
-1 11:0.67403246 42:0.63521039 71:0.37707826 
-0.3482634218778092 1:0.27726066 5:0.20342273 32:0.33562866 51:0.36423995 65:0.51838487 86:0.38804718 120:0.46596662 
-1 1:0.14031526 45:0.75234951 53:0.32620201 118:0.55486404 
-1 31:0.54542115 35:0.35063858 50:0.58809889 61:0.48343361 
-1 5:1 
-1 5:0.518323 32:0.85518493 
-1 1:0.1293612 30:0.53660132 53:0.30073624 58:0.47206105 64:0.48372499 73:0.38477384 
-1 43:1 
-0.9404192450079305 71:0.39098186 102:0.92039838 
-1 1:0.25413388 32:0.61526724 62:0.746232 
-1 6:0.17639402 33:0.48137437 45:0.62447431 51:0.20400384 56:0.42067381 75:0.28333663 108:0.21984549 
-0.007586881887078234 113:1 
-1 5:0.25354592 86:0.96732335 
-1 42:0.81357602 58:0.58145856 
-0.8211151866612082 5:1 
-1 11:0.91425499 43:0.40513926 
-1 41:0.73117651 53:0.57148186 71:0.37254449 
-0.1756292285293584 1:0.27126897 19:0.35994044 27:0.4333603 73:0.40343279 111:0.5363538 119:0.39827311 
-0.02900966974343727 5:0.26638135 51:0.47697102 52:0.17768566 61:0.24937762 72:0.18757954 112:0.23928901 116:0.71786692 
-1 1:0.23202577 19:0.30786955 27:0.37066811 30:0.24061544 40:0.34968862 52:0.34065682 53:0.26970408 61:0.239052 71:0.3516359 79:0.4052488 
-0.5519737458866802 1:0.091810097 21:0.30859396 40:0.27673632 64:0.3433088 71:0.13913867 74:0.27673632 98:0.2805699 118:0.72610931 
-1 1:0.21426534 21:0.72019302 45:0.57442941 71:0.32472023 
-1 1:0.39676679 5:0.29110291 35:0.29649292 71:0.60130151 99:0.55530501 
-1 6:0.64649775 45:0.7629159 
-0.7629320013908276 88:1 
-0.5577528421435249 42:0.2735024 48:0.76440633 71:0.32471701 72:0.33209475 88:0.35376735 
-0.07353338185899605 5:0.64888017 35:0.33044758 72:0.68538961 
-0.6071474541191451 30:0.28670084 35:0.41319086 62:0.40590328 71:0.41898519 74:0.41666495 79:0.48286664 
-1 1:0.5560991 35:0.83111599 
-0.4549066134060348 35:0.23115164 71:0.46878633 82:0.59392825 111:0.61160243 
-0.05487971740605397 40:0.40165208 41:0.39634722 51:0.35010964 61:0.54914963 71:0.20194436 78:0.46546846 
-1 1:0.37192992 43:0.44648264 61:0.38319275 85:0.46615549 119:0.54606204 
-1 1:0.2232968 26:0.71344734 41:0.66417726 
-0.5447852405990639 5:0.3884622 35:0.39565517 50:0.33180086 53:0.30772241 79:0.46237394 115:0.52343056 
-1 5:0.518323 32:0.85518493 
-0.8348179261026444 85:1 
-1 34:0.2451178 41:0.26628268 44:0.2534839 48:0.31938761 50:0.44881929 112:0.70803214 
-1 109:1 
-1 54:0.63280656 65:0.77430993 
-0.5354274598984871 6:0.77356337 33:0.52775845 61:0.35081439 
-1 1:0.32937294 51:0.43270035 53:0.38285931 99:0.46098224 102:0.58753553 
-0.1502682511599061 113:1 
-1 120:1 
-1 30:0.52881619 35:0.38106273 109:0.75838291 
-0.7557758248946274 14:0.16456596 24:0.72689332 34:0.35950355 35:0.1962363 42:0.16760363 52:0.19277522 53:0.15262358 62:0.38555044 71:0.1989882 
-0.6574059246981951 121:1 
-1 44:0.32568021 56:0.6231883 61:0.71103358 
-1 30:0.49265697 44:0.67256753 53:0.55221557 
-0.2759364495751072 1:0.26581539 35:0.39727348 62:0.78053327 71:0.4028446 
-0.6940105076731659 14:0.271785 17:0.31442416 24:0.30012094 30:0.22487598 34:0.29686487 100:0.77362771 
-0.6245407975165046 35:0.33280943 41:0.66235022 74:0.67121536 
-0.5728423990561203 73:1 
-0.4843180132139894 61:1 
-1 19:0.72066089 42:0.69328774 
-1 24:0.49130641 30:0.3681283 34:0.48597613 42:0.4531323 43:0.42614303 
-1 20:0.57361835 30:0.36028039 71:0.26325724 117:0.6869175 
-1 98:1 
-0.3927644294022751 44:0.52998486 61:0.3856924 65:0.69992093 71:0.28366902 
-1 1:0.18693011 9:0.25545461 12:0.58810951 44:0.52928334 99:0.52324605 
-1 9:0.18139386 11:0.71915912 12:0.41760631 116:0.52489179 
-0.724612549997339 63:0.9267774 71:0.37561105 
-1 1:1 
