svm_type c_svc
kernel_type linear
nr_class 2
total_sv 116
rho -0.551197
label 1 0
nr_sv 63 53
SV
1 2:1 
1 1:0.2076395 32:0.46920978 36:0.60692999 37:0.60692999 
0.5206216414363263 3:0.32080633 16:0.64892175 38:0.68991584 
0.1647342166019482 17:0.35847088 39:0.38111642 40:0.76223302 41:0.38111642 
0.5442842827117888 1:0.11727044 2:0.37443622 10:0.61322938 39:0.68556174 
0.3890067844968953 17:0.47721917 41:0.50736636 42:0.50736636 43:0.50736636 
1 14:1 
0.7124024920804271 2:0.36460837 15:0.45516708 67:0.55074018 72:0.59713392 
1 2:0.42930622 4:0.27398262 6:0.31339369 15:0.53593391 29:0.27398262 30:0.28754325 33:0.3038326 68:0.32423307 
1 3:1 
0.3933901430254118 3:0.36409927 12:0.64598793 26:0.67091827 
1 3:0.39469912 7:0.22562259 12:0.46685232 15:0.38583674 26:0.48486962 33:0.43747848 
0.955917098887254 3:0.23493804 12:0.41682901 15:0.34449428 26:0.43291551 29:0.3522278 30:0.36966113 73:0.45194222 
0.8283131053300149 4:0.23303364 14:0.079010841 27:0.85924985 44:0.33427316 72:0.29900462 
1 2:0.40260562 14:0.17423433 15:0.5026018 29:0.51388466 30:0.53931911 
1 2:0.59264117 15:0.49322462 29:0.25214857 30:0.26462854 33:0.27961977 68:0.2983945 73:0.32353092 
0.5321576967301948 5:0.43770836 9:0.47173271 15:0.42809803 29:0.43770836 30:0.45937251 
1 2:0.25301321 15:0.63170927 29:0.32294534 30:0.33892935 70:0.38217592 72:0.41436999 
1 3:1 
1 29:1 
1 1:1 
1 33:0.44272858 35:0.30847939 68:0.47245506 71:0.47245506 74:0.51225414 
1 2:0.33263231 33:0.47082727 45:0.60902223 74:0.54476541 
1 1:0.29887658 2:0.95429177 
0.4488469952769912 18:1 
0.2812062048150282 1:0.12647086 11:0.6613401 46:0.73934727 
1 1:0.12325455 3:0.33504858 47:0.72054477 67:0.59444596 
1 2:0.26934695 3:0.22931243 8:0.39324673 70:0.406848 71:0.406848 75:0.44112042 76:0.44112042 
0.8372530447460028 1:0.12008066 50:0.70199025 51:0.70199025 
0.1250793450990553 3:0.25727153 5:0.38571099 9:0.41569343 48:0.55327993 49:0.55327993 
0.4492565523775657 52:1 
0.5828421491697278 2:0.22564139 8:0.32943658 11:0.36954205 14:0.097650091 20:0.38858291 21:0.38858291 22:0.38858291 28:0.35398438 68:0.34083084 
1 2:0.60042465 8:0.4383102 71:0.45347009 75:0.4916699 
1 3:1 
1 32:1 
0.3552664075291417 32:1 
0.1025098648278921 4:0.4676251 13:0.55339104 14:0.15854987 47:0.67078094 
1 14:0.27542473 69:0.96132264 
0.8505688918005101 14:0.23002772 60:0.97318408 
1 1:0.12599765 3:0.34250527 32:0.56944123 62:0.73658089 
0.8091739542387862 4:1 
0.859609265945642 1:0.084186609 2:0.26880188 3:0.22884838 4:0.34309795 9:0.36976795 10:0.44022774 28:0.42169422 63:0.492154 
1 1:0.16860844 61:0.98568311 
0.2592039992823407 12:0.53688576 64:0.65077443 71:0.53688576 
1 9:0.95390828 14:0.30009831 
0.694411703113148 3:0.3249703 6:0.55728994 32:0.54028799 34:0.54028799 
1 3:0.28878351 5:0.43295492 14:0.14679483 31:0.30229843 34:0.48012469 58:0.62104858 
1 19:0.5197177 34:0.85433805 
1 3:0.80514541 14:0.13642425 46:0.57717353 
1 5:0.66541008 14:0.11280477 34:0.73790548 
1 3:0.50373744 7:0.86385681 
1 3:1 
0.4487132958853308 65:1 
0.8052922618916871 8:0.46980148 9:0.44264777 13:0.48605056 54:0.58915564 
1 1:0.17892869 23:0.98386205 
1 1:0.20000534 3:0.54368382 5:0.8151109 
1 3:1 
1 14:0.27542473 69:0.96132264 
0.9899109647161997 76:1 
0.6802733012529216 13:0.52706982 24:0.60091489 25:0.60091489 
0.3588203027269917 7:1 
1 1:0.10750906 3:0.29224688 4:0.43814733 66:0.6284968 73:0.56218525 
1 3:1 
-1 2:0.53691393 14:0.2323585 71:0.81100737 
-1 1:0.21604012 32:0.97638449 
-1 15:0.44252165 29:0.45245578 30:0.47484984 32:0.50175013 35:0.34960376 
-1 1:0.13895423 15:0.55386674 29:0.56630043 30:0.59432918 
-1 15:0.55929254 29:0.57184804 30:0.60015137 
-1 15:0.55929254 29:0.57184804 30:0.60015137 
-1 1:0.1001816 14:0.1384303 15:0.79864048 35:0.31547362 68:0.48316714 
-1 1:0.18783053 76:0.98220145 
-1 3:1 
-1 1:0.34525053 3:0.93851056 
-1 1:0.061304174 3:0.16664599 13:0.88699389 27:0.30707515 69:0.29566469 
-1 1:0.18629075 3:0.50640282 32:0.84193345 
-1 35:0.54671102 67:0.83732136 
-1 2:1 
-1 2:0.53691393 14:0.2323585 68:0.81100737 
-1 7:1 
-0.8331305930973592 1:0.1726211 3:0.46924396 14:0.23852673 70:0.83253652 
-1 2:0.91774522 14:0.39716962 
-1 1:0.23494921 2:0.37508862 28:0.58843599 35:0.3699301 71:0.56657057 
-1 1:0.34525053 3:0.93851056 
-1 1:0.19577572 26:0.9806487 
-1 14:0.2923826 33:0.95630143 
-1 1:0.18783053 75:0.98220145 
-1 1:0.14959403 12:0.72147897 33:0.67608411 
-1 1:0.10871402 14:0.15022034 33:0.98265717 
-1 29:1 
-1 1:0.34525053 3:0.93851056 
-1 1:0.35723115 74:0.93401601 
-0.8257339398197909 1:0.4046762 34:0.91446005 
-1 34:1 
-1 1:0.34525053 3:0.93851056 
-0.8540084759144992 31:1 
-1 3:0.55489559 4:0.83192 
-1 34:1 
-1 3:1 
-0.9994859156020959 31:1 
-1 72:1 
-1 2:0.91774522 14:0.39716962 
-1 8:0.95876699 14:0.28419335 
-1 1:0.19060393 4:0.77679597 35:0.6002151 
-0.1385762197060633 14:1 
-1 1:0.18783053 73:0.98220145 
-1 5:0.29548101 9:0.95534861 
-1 1:0.22199328 9:0.9750482 
-1 1:0.20302533 69:0.97917349 
-1 1:0.44055318 5:0.89772652 
-0.3281308218554154 1:0.23043548 2:0.73576416 14:0.63682854 
-1 1:0.34525053 3:0.93851056 
-1 3:1 
-1 3:1 
-1 14:1 
-1 1:0.1726211 3:0.46924396 14:0.23852673 70:0.83253652 
-1 2:0.91774522 14:0.39716962 
