svm_type c_svc
kernel_type linear
nr_class 2
total_sv 1255
rho -0.817893
label 0 1
nr_sv 620 635
SV
1 162:1 
1 164:1 
1 6:0.11903463 112:0.63977946 116:0.75928453 
1 2:0.22367201 3:0.20168924 10:0.31298152 32:0.33536408 37:0.43059152 158:0.38932011 182:0.6015701 
0.2209440891011122 59:0.69041222 175:0.72341617 
1 3:1 
1 28:1 
1 1:0.31674801 6:0.12653034 88:0.65279353 105:0.67640327 
1 13:1 
1 32:1 
0.1528376140150569 6:0.24902916 101:0.96849599 
1 58:0.72222319 158:0.69166008 
1 6:0.14738973 34:0.6186421 163:0.77172419 
1 66:0.71956259 74:0.69442759 
1 6:0.12443258 13:0.38191732 41:0.62163714 44:0.67247525 
0.8694855371585498 210:1 
1 13:1 
1 53:1 
1 192:0.87105768 206:0.49118074 
1 6:0.099972917 41:0.49944218 44:0.54028707 74:0.47182341 85:0.47543188 
1 6:0.09850984 41:0.49213298 44:0.53238012 138:0.36165114 141:0.5778242 
1 3:0.36200892 87:0.7410961 138:0.56544328 
1 3:0.57248343 6:0.24356926 7:0.78290277 
1 1:0.69268005 2:0.721245 
1 1:0.20157724 3:0.18926169 6:0.080523431 34:0.33798275 82:0.39378666 115:0.40587287 158:0.36533126 206:0.59123821 
1 1:0.23855306 19:0.34984526 65:0.4760676 78:0.34984526 80:0.46035589 101:0.37060681 206:0.34984526 
1 80:0.76207296 138:0.5791337 206:0.28956685 
1 114:0.71898804 208:0.69502245 
1 2:0.32341303 7:0.39881686 82:0.6067739 161:0.6067739 
1 7:0.34274147 18:0.44131862 82:0.52145884 211:0.64486188 
0.1452719696150862 196:0.86000277 208:0.51028937 
1 3:0.37543335 7:0.51342589 134:0.77164996 
1 74:1 
1 3:0.35413355 6:0.15066994 7:0.48429723 130:0.55435608 210:0.55680654 
1 48:0.73156586 71:0.68177077 
1 6:0.14486642 179:0.83210818 210:0.53535941 
1 32:0.63046597 87:0.77621689 
1 2:0.53812169 125:0.84286716 
1 6:0.2622779 130:0.96499238 
0.03112113438720022 6:0.09001138 41:0.44967659 44:0.4864516 157:0.45785703 191:0.58602107 
1 58:1 
1 58:0.89510345 74:0.44585852 
1 58:1 
1 2:0.35672214 13:0.42004513 165:0.83445276 
1 58:1 
1 100:0.53700909 118:0.68451923 125:0.49300573 
1 134:0.79425298 210:0.6075872 
1 41:0.55840964 44:0.60407694 157:0.56856814 
1 2:0.48760028 48:0.87306699 
1 1:1 
1 6:0.10973958 32:0.42888175 34:0.46061233 183:0.76932044 
1 6:0.2180208 162:0.97594412 
1 13:1 
1 13:1 
1 114:1 
1 114:1 
1 1:0.30202445 3:0.28357199 82:0.59001304 180:0.69300272 
0.9847496685754541 13:0.39334186 59:0.78802555 210:0.473601 
1 3:0.22370034 9:0.3674697 130:0.35017762 148:0.56237858 177:0.61321297 
1 6:0.082953022 19:0.30453866 130:0.30520693 159:0.57343739 192:0.54006747 206:0.30453866 210:0.30655606 
1 6:0.10674663 18:0.44179941 31:0.4278426 38:0.59385662 85:0.50764501 
1 1:0.19365146 11:0.47486156 48:0.36103934 53:0.29654313 69:0.41577514 109:0.3722179 114:0.35587874 206:0.28399571 
1 6:0.16819256 13:0.25811428 59:0.51710908 113:0.43386833 114:0.38688089 139:0.54751067 
1 1:0.31935945 3:0.59969539 10:0.4653042 208:0.56733322 
1 7:0.36976409 19:0.42232773 130:0.42325448 186:0.57219642 206:0.42232773 
1 1:0.3238798 3:0.30409207 53:0.49596492 100:0.5753635 138:0.4749795 
1 67:0.78272034 125:0.62237358 
1 1:0.36700652 10:0.5347256 19:0.53822613 78:0.53822613 
1 3:0.24301231 6:0.10339221 10:0.3771067 76:0.57873295 193:0.67313726 
0.01185813156396381 13:0.44962577 165:0.89321703 
0.4493284282914397 6:0.042769223 121:0.28471636 125:0.17461412 182:0.89949036 192:0.27844996 
1 1:0.55195575 6:0.22048804 10:0.80419517 
1 1:0.23641271 6:0.094439046 10:0.34445145 32:0.36908454 68:0.54616871 71:0.4107613 82:0.4618387 
1 1:0.13285783 2:0.41501013 29:0.23996909 37:0.26631223 53:0.40689676 54:0.26513727 62:0.28682046 64:0.23679077 82:0.51908265 206:0.19484001 
1 94:1 
1 2:0.32534675 71:0.542894 84:0.77421934 
1 6:0.11061328 13:0.33950214 70:0.61536768 158:0.50184757 208:0.49190918 
1 2:0.14389335 19:0.40533264 62:0.29834143 87:0.26562384 101:0.21469354 108:0.34874663 130:0.20311105 138:0.20266632 158:0.25045858 186:0.54917039 206:0.20266632 
1 53:0.56018166 95:0.82836979 
1 5:0.71666088 31:0.36838761 175:0.59218895 
1 2:0.36211819 3:0.16326438 31:0.27840744 91:0.32782956 131:0.38412019 138:0.25501235 143:0.42712636 155:0.44308007 210:0.25670167 
1 1:0.13525437 3:0.25398158 5:0.42127976 6:0.10805928 7:0.3473341 19:0.19835461 25:0.21599368 40:0.24944489 47:0.2426614 53:0.20711826 69:0.29039493 109:0.25997271 129:0.27483025 186:0.26874341 208:0.24027563 
1 3:0.42779303 5:0.236527 6:0.1213395 7:0.3900206 19:0.44546379 48:0.28315561 53:0.23257258 87:0.29192272 109:0.29192272 186:0.30177131 
1 1:0.18477088 6:0.073809848 7:0.23724642 19:0.27097207 29:0.33373496 125:0.60268767 158:0.33487203 162:0.33040099 186:0.36713017 
1 3:0.43653225 6:0.18572748 7:0.2984912 19:0.34092307 53:0.35598565 60:0.4791013 186:0.46190423 
1 7:0.39238845 11:0.37468483 18:0.50524474 147:0.67109637 
1 78:0.43368848 125:0.48229822 175:0.7611194 
1 2:0.30636654 6:0.058768144 18:0.24322764 19:0.21575069 25:0.70481024 29:0.26572313 60:0.30319578 101:0.22855441 186:0.29231274 
1 46:1 
1 14:0.67374787 52:0.38261822 75:0.39968971 132:0.48981144 
1 18:0.35958879 25:0.3473315 76:0.48632387 147:0.4776274 187:0.53424515 
1 1:0.39881168 6:0.15931206 96:0.90308854 
1 1:1 
1 1:0.40397109 96:0.91477175 
1 118:0.75717566 209:0.65321131 
1 5:0.73024663 10:0.68318363 
1 5:0.55072031 148:0.83468985 
1 7:0.54108185 54:0.84096993 
1 1:0.30488935 2:0.95238778 
1 1:0.25719016 11:0.31533369 26:0.44824958 144:0.70087633 206:0.37717712 
1 1:0.15729456 19:0.23067721 26:0.27414431 37:0.63059085 75:0.34542081 106:0.33589652 176:0.40483644 206:0.23067721 
1 1:0.3570967 12:0.29519402 74:0.33661521 138:0.26184654 156:0.44240855 162:0.63854813 
1 6:0.14285722 76:0.79963643 125:0.58324386 
1 1:0.19920945 6:0.079577578 19:0.29214667 26:0.34719662 33:0.40859607 162:0.35621955 163:0.41666365 167:0.529751 
1 6:0.18806904 7:0.60450886 13:0.28861744 24:0.52965716 113:0.48514157 
1 6:0.18493038 7:0.14860507 24:0.52081792 30:0.78623276 115:0.23303225 
1 7:0.25513073 38:0.44157536 66:0.38816479 100:0.35298404 165:0.48397003 211:0.48002384 
1 1:0.22438183 3:0.21067301 6:0.08963311 112:0.48175411 119:0.55597513 168:0.59669106 
1 3:1 
0.5805006578062207 3:0.32359969 13:0.42257413 79:0.84658983 
1 19:0.29890475 78:0.29890475 91:0.38425516 115:0.82076786 
0.4655231161908728 6:0.17217672 31:0.69008769 125:0.70294676 
1 1:0.46307151 11:0.56775909 130:0.68059856 
1 1:0.51408856 6:0.10268068 11:0.31515484 103:0.50214305 126:0.61130959 
1 1:0.26363289 92:0.67852444 194:0.68564005 
1 6:0.11418785 48:0.53293332 206:0.83841708 
1 19:0.27921414 33:0.78101752 62:0.41102609 186:0.37829704 
1 2:0.23114147 3:0.20842459 50:0.3213535 62:0.47923741 79:0.54527287 114:0.40795194 130:0.32626515 
1 50:0.2517505 62:0.75087584 80:0.33560138 206:0.51007733 
1 138:1 
1 85:0.68293661 157:0.73047764 
1 13:1 
1 1:0.16152256 2:0.16818348 3:0.15165419 6:0.12904583 10:0.2353371 17:0.31553875 31:0.25860911 60:0.33288571 104:0.42007785 110:0.37061759 112:0.34679349 120:0.37315494 
1 1:0.18723835 5:0.29159771 6:0.074795518 17:0.36577524 19:0.27459068 47:0.33592646 76:0.41866434 78:0.27459068 206:0.54918137 
1 6:0.1592236 18:0.65898934 40:0.73510604 
0.01271176023044 6:1 
1 85:0.69863759 97:0.71547573 
1 60:1 
1 52:0.54370045 80:0.49910385 85:0.49132507 162:0.46247686 
1 6:0.17372557 94:0.9847941 
1 2:0.15546711 6:0.059644329 7:0.57514291 13:0.18306462 26:0.52045606 29:0.26968485 53:0.22864172 67:0.30624755 138:0.21896736 208:0.26524477 
1 7:1 
1 7:1 
1 6:0.15329506 13:0.47050412 94:0.86898015 
1 2:0.16642022 6:0.063846445 7:0.61566339 26:0.5571237 29:0.28868493 53:0.24475019 138:0.23439425 208:0.28393203 
1 13:1 
1 7:1 
1 7:0.61337585 18:0.78979115 
1 7:1 
1 2:0.62985837 7:0.77671001 
1 2:0.40872134 3:0.18427584 7:0.50401482 32:0.3064095 47:0.35212478 56:0.42851604 80:0.37875283 
1 2:0.42368769 7:0.52247058 114:0.3738927 161:0.39745249 187:0.49974894 
1 7:1 
1 3:0.33946232 6:0.096285315 7:0.61897828 19:0.17674221 29:0.21767946 135:0.55305982 145:0.32842509 
1 6:0.064217891 7:0.6192452 26:0.28018237 29:0.58072868 53:0.2461741 135:0.36886555 
1 7:0.74078859 29:0.52103431 130:0.42397585 
1 2:0.40976781 7:0.50530527 80:0.75944514 
0.6513195967464376 6:0.048897142 7:0.3143394 11:0.15007859 26:0.21333801 50:0.17719767 103:0.23912347 135:0.84259093 206:0.17951209 
1 5:0.46432188 13:0.73109882 34:0.4998997 
1 7:0.31422684 47:0.43906271 106:0.52259945 112:0.52543002 125:0.39912223 
1 7:1 
1 7:0.23588692 34:0.3080284 55:0.41600656 100:0.32635943 105:0.39231013 106:0.39231013 112:0.39443501 208:0.32635943 
1 7:0.48833385 135:0.87265689 
1 7:1 
1 7:0.65988117 27:0.32056157 29:0.30941867 65:0.34187078 100:0.30432441 208:0.30432441 210:0.25289301 
1 2:0.28718447 6:0.11017717 7:0.35414161 26:0.48070248 37:0.55285952 162:0.49319496 
1 1:0.2910278 81:0.69750406 164:0.65482128 
1 10:0.29134028 26:0.34850489 33:0.4101357 34:0.33527129 85:0.37986567 167:0.53174715 206:0.29324751 
1 11:0.33011712 74:0.5076097 85:0.51149187 94:0.60969759 
1 7:0.27924866 29:0.39281959 121:0.57834476 134:0.41969489 158:0.39415796 206:0.31894512 
1 2:0.4061957 32:0.20301064 41:0.25950599 49:0.27919105 67:0.26671534 85:0.24703044 90:0.30693549 114:0.23897091 197:0.38931894 208:0.46201071 
1 2:0.28718447 6:0.11017717 7:0.35414161 26:0.48070248 37:0.55285952 162:0.49319496 
1 2:0.26041677 3:0.23482268 6:0.099907846 34:0.41934537 100:0.44430097 112:0.53697808 158:0.45327749 
1 3:0.36407526 85:0.7366423 130:0.5699187 
1 3:1 
0.505838753369428 191:1 
1 27:1 
1 91:1 
1 11:0.59169983 19:0.23591471 85:0.30559816 101:0.24991505 142:0.4059602 177:0.4140282 186:0.31963222 
1 3:0.2511972 6:0.21374912 47:0.48000192 130:0.39322084 169:0.71146806 
1 7:0.31220971 161:0.95001321 
1 2:0.21403037 3:0.57898534 6:0.16422378 34:0.34465002 35:0.32411296 53:0.3147693 142:0.518734 
1 7:0.33171911 33:0.52989352 131:0.57069135 207:0.53243466 
1 7:0.33651662 31:0.419615 33:0.53755713 156:0.64939368 
1 6:0.14991334 97:0.73011145 208:0.66668078 
1 11:0.3821947 71:0.54161082 85:0.59218219 130:0.45815411 
1 53:0.31226557 101:0.31680017 147:0.89561592 
1 13:0.32985251 46:0.54921036 58:0.50912898 101:0.41795754 206:0.39454338 
1 18:0.62936201 46:0.77711225 
1 2:0.32662243 7:0.40277453 29:0.56658364 46:0.64036977 
1 1:0.28287591 2:0.14727062 3:0.26559317 6:0.056499778 7:0.36321359 26:0.24650828 29:0.2554666 46:0.57747215 50:0.20474876 53:0.21658734 164:0.31823964 206:0.20742303 
1 1:0.33038231 2:0.11466891 3:0.1033991 5:0.17150818 6:0.043992263 9:0.33970463 20:0.21513697 25:0.17586738 27:0.41215329 46:0.22481769 50:0.3188459 58:0.2084105 61:0.24624459 122:0.29285819 158:0.19959096 162:0.19692613 206:0.16150521 210:0.16257509 
1 46:0.6908525 101:0.52574939 206:0.49629669 
1 46:0.81215661 138:0.5834395 
1 3:0.20355528 46:0.88516907 134:0.41837898 
0.814908935579456 1:0.16654204 47:0.29879498 54:0.33235905 101:0.25873327 115:0.67066 166:0.44287964 206:0.24423892 
1 68:1 
1 2:0.17734654 6:0.068038284 32:0.26590568 114:0.31300686 135:0.78161953 162:0.30456527 208:0.30257359 
1 3:0.23753654 7:0.32484437 47:0.45389837 112:0.54318398 135:0.58049976 
1 3:0.30338982 7:0.41490237 32:0.5044694 112:0.69377321 
1 6:0.074534867 13:0.11438386 23:0.17722926 32:0.43694334 34:0.46927034 37:0.18700477 52:0.19612195 68:0.2155285 75:0.20487243 85:0.17722926 114:0.17144704 135:0.42812593 161:0.36450046 
1 13:0.48404463 18:0.65271125 210:0.58281114 
1 76:0.25737959 101:0.17882628 121:0.30610103 129:0.23389244 130:0.16917879 131:0.76281834 206:0.33761672 210:0.16992662 
1 10:0.65592231 34:0.75482841 
1 2:0.20588028 10:0.28808577 29:0.3571353 71:0.34354475 101:0.30718006 111:0.51986016 139:0.51423449 
1 2:0.46097052 37:0.88741545 
1 3:0.26716196 10:0.41458214 53:0.43573304 54:0.56785444 71:0.49439275 
1 10:0.63199462 34:0.3636465 53:0.33211881 71:0.37682965 101:0.33694171 210:0.3201731 
1 2:0.35389243 14:0.31453602 53:0.52046105 54:0.33913669 71:0.29526355 87:0.32663869 112:0.36486221 210:0.25087051 
1 2:0.19971978 3:0.18009107 9:0.59166636 47:0.34412827 82:0.37470583 97:0.37316475 131:0.42370918 
0.7199163668488686 128:0.78009076 161:0.62566637 
1 18:0.41274013 94:0.565311 143:0.6132127 206:0.3661137 
1 38:0.61852848 50:0.40290886 134:0.53710626 206:0.40817134 
1 32:0.39651034 94:0.57512459 105:0.54236453 114:0.46674615 
1 2:0.62695626 3:0.2826691 32:0.47001547 114:0.55327161 
1 6:0.20270352 134:0.97924016 
1 134:1 
1 29:0.75655792 32:0.65392668 
1 31:1 
1 3:0.76407393 72:0.64512869 
1 85:0.6139 138:0.4739166 161:0.63129221 
0.3220503440324495 85:0.60141981 142:0.79893317 
1 67:0.18437095 72:0.64133179 100:0.47905773 206:0.52730189 211:0.2171573 
1 3:0.17859523 12:0.6289706 55:0.43073592 130:0.27957066 162:0.340139 190:0.4394451 
1 6:0.2003393 66:0.97972658 
1 1:0.30457204 93:0.78389147 100:0.54106379 
1 1:0.24246265 6:0.096855798 13:0.2972767 49:0.52057413 113:0.49969707 141:0.56812217 
1 1:0.24318639 2:0.25321498 3:0.22832869 6:0.097144907 48:0.45339113 69:0.52212802 101:0.37780497 158:0.44074216 
1 6:0.16805929 141:0.98577689 
1 13:0.41459142 188:0.91000767 
1 13:0.64140733 78:0.76720052 
1 3:0.3490337 6:0.14850016 9:0.57335321 82:0.72621572 
1 1:0.34741892 26:0.60550677 88:0.71600394 
1 3:0.2878648 10:0.44670883 34:0.51406777 147:0.67328998 
1 18:0.44959096 147:0.59717367 161:0.53123338 206:0.39880156 
1 6:0.13185218 7:0.42381143 91:0.62227798 161:0.64480151 
1 7:0.35288372 32:0.42906247 161:0.53688961 190:0.63492363 
1 3:0.24068436 7:0.32914919 27:0.479689 47:0.4599134 161:0.50077906 206:0.37593923 
1 6:0.17372557 95:0.9847941 
1 85:1 
1 80:0.58485639 85:0.57574112 91:0.57137131 
1 5:0.38191057 20:0.47906218 88:0.50539894 156:0.60763118 
1 70:0.72105871 105:0.69287396 
1 3:0.28920101 6:0.12304369 70:0.68452099 105:0.65776443 
1 3:0.41457878 113:0.91001343 
1 9:0.39464471 67:0.52482489 141:0.59955229 162:0.45754939 
1 85:1 
1 1:0.29871258 2:0.41470809 7:0.38354793 37:0.19958883 55:0.67641915 71:0.17300193 155:0.2537139 
1 6:0.17739842 7:0.57021036 29:0.80211592 
1 3:0.26750953 6:0.11381482 7:0.36583409 25:0.45499623 29:0.51461946 209:0.55659276 
1 3:0.27644101 6:0.11761482 17:0.57517601 27:0.55095276 64:0.52475779 
1 3:0.25578187 13:0.33401391 18:0.45040194 71:0.47333349 120:0.62936781 
1 1:0.36200106 13:0.44383941 96:0.81973277 
1 5:0.54577684 6:0.13999308 11:0.42967672 45:0.7056256 
1 78:0.5460377 164:0.83776061 
1 3:0.29614354 13:0.19336032 27:0.29511035 31:0.25250033 47:0.28294416 97:0.61363624 138:0.23128226 206:0.46256453 
1 47:0.43954615 53:0.37516488 85:0.46541651 138:0.35929078 190:0.56599302 
1 13:0.30021061 88:0.50462872 106:0.52287975 108:0.61791602 
1 2:0.28623139 12:0.45448426 25:0.43899227 34:0.46091427 45:0.55349749 
1 3:0.25368072 7:0.86730661 106:0.28848838 181:0.31654351 
1 105:1 
1 101:1 
1 208:1 
1 157:1 
1 6:0.21444515 74:0.25301913 141:0.94339525 
1 52:0.77080658 71:0.63706923 
1 6:0.10792013 25:0.43143108 41:0.53914466 134:0.52135121 158:0.48962886 
1 6:0.41183921 11:0.42134874 78:0.5039839 114:0.63154884 
1 11:0.29262746 13:0.29262746 20:0.46624968 27:0.44661381 45:0.48055995 64:0.42537962 
1 10:0.36330697 72:0.59302062 109:0.47928409 112:0.53537029 
1 163:1 
1 6:0.08204351 11:0.25181378 23:0.78033309 91:0.38720535 115:0.41353472 
0.3597105571398904 35:0.50289248 53:0.4883949 61:0.71314064 
0.7363573610252187 8:0.62123875 39:0.78362135 
1 6:0.12039685 11:0.36953058 15:0.53368426 35:0.47523177 80:0.58162499 
1 13:0.30471515 35:0.39187643 45:0.50041066 78:0.36447607 209:0.48550927 210:0.36689052 
1 101:1 
1 13:0.39930741 125:0.53115357 180:0.74728139 
1 6:0.047874716 18:0.59442699 28:0.23609442 64:0.2136009 88:0.49398912 89:0.24699456 96:0.27138628 105:0.25592767 134:0.2312779 208:0.21290403 
1 11:0.42793879 50:0.505267 86:0.74938218 
1 2:0.18367484 23:0.67021804 25:0.28170159 96:0.39944961 101:0.27404882 138:0.25869649 163:0.36895654 
1 2:0.34635976 3:0.31231908 109:0.63937223 114:0.61130587 
0.2207321566900854 82:0.84155963 129:0.43767201 130:0.31657637 
1 13:0.48306528 70:0.87558434 
1 23:0.66730165 53:0.53790129 206:0.51514144 
1 100:1 
1 157:1 
1 3:0.23921439 6:0.10177635 10:0.37121308 25:0.40687015 103:0.49772056 134:0.49167122 206:0.37364319 
1 2:0.22131103 6:0.084905085 9:0.32781516 28:0.41870988 48:0.39626588 52:0.44681774 58:0.40223233 208:0.37758207 
1 6:0.14259274 54:0.35618061 125:0.29108204 141:0.83639926 206:0.26174455 
1 3:0.33521859 6:0.14262237 71:0.62033399 97:0.69460283 
1 9:0.48745072 66:0.61741064 103:0.61741064 
1 13:0.37491383 24:0.68802424 157:0.62133909 
1 35:1 
1 3:0.33621352 6:0.14304577 87:0.34414441 131:0.79102673 209:0.34977096 
1 27:0.54055893 35:0.45549232 209:0.56432521 210:0.42645029 
1 64:0.42856885 117:0.61271 160:0.66401446 
1 211:1 
1 9:0.22746389 10:0.42975741 66:0.28810836 73:0.37218237 100:0.52399199 109:0.28347374 206:0.43257095 
1 21:0.47844817 138:0.38045437 161:0.50679356 181:0.60786685 
1 2:0.25903937 6:0.09937941 25:0.39728795 50:0.18006983 64:0.22169877 91:0.23451117 101:0.19324757 115:0.25045758 206:0.54726543 208:0.44195081 210:0.18363021 
0.0986681207032552 6:0.063434363 11:0.19469726 15:0.28118611 19:0.2328814 35:0.25038882 81:0.38058886 93:0.40870478 162:0.56791274 164:0.35729926 
1 6:0.070123195 12:0.29022354 40:0.32374587 61:0.39251123 65:0.35031969 103:0.34292601 144:0.47837444 165:0.42756559 
1 6:0.1770854 9:0.68371969 25:0.7079323 
1 31:0.73667271 130:0.67624945 
1 64:1 
1 40:1 
0.5817827651039806 41:0.80581614 138:0.59216581 
0.182224730285955 136:1 
0.2155819417626224 35:0.60197503 163:0.79851491 
1 4:0.56436957 13:0.43884232 103:0.699217 
1 6:0.053306596 11:0.32722495 19:0.19570016 32:0.20833163 60:0.55003727 61:0.29838112 74:0.25158113 110:0.30619141 125:0.4352702 186:0.265147 
1 6:0.2622779 130:0.96499238 
1 6:0.10311569 31:0.20664486 56:0.28179539 64:0.69010119 101:0.20051293 180:0.59229328 
0.5078491880814861 6:0.26600496 50:0.96397166 
0.4076741218740656 42:0.69791364 110:0.71618192 
1 3:0.64760352 6:0.13776504 11:0.42283827 47:0.61873926 
1 6:0.33647216 42:0.94169341 
1 3:0.36200892 78:0.56544328 87:0.7410961 
0.8017226630058374 3:0.41097451 6:0.087426828 87:0.84133784 101:0.34001052 
1 11:0.33234619 119:0.67164896 138:0.39752612 209:0.5295344 
0.9761093919625028 4:0.3754455 20:0.46515243 87:0.45766981 138:0.34919401 181:0.55792095 
1 6:1 
1 2:0.30405235 69:0.62695441 187:0.71727285 
0.07249578492385625 6:0.12947929 53:0.49634841 162:0.57959862 209:0.63319729 
1 6:0.11843654 22:0.59968462 40:0.54679968 134:0.57215492 
1 13:0.32620926 208:0.94529758 
1 2:0.44375025 6:0.17024293 9:0.2191004 25:0.45371882 32:0.22177985 47:0.25486867 48:0.2648505 64:0.25318891 101:0.44139318 161:0.27751506 
1 3:0.59056361 97:0.40790034 164:0.47175086 206:0.30747895 209:0.40958486 
1 3:0.19947478 6:0.084868699 27:0.39755743 58:0.40205996 66:0.41503649 88:0.4378534 161:0.41503649 206:0.31157153 
1 6:0.10011685 13:0.30728575 40:0.46222104 75:0.55037816 79:0.61561976 
1 26:0.60109227 47:0.61876396 78:0.50578576 
1 47:0.77424892 138:0.6328812 
1 6:0.11639416 109:0.56005012 125:0.47520302 135:0.6685644 
1 67:0.61264093 147:0.65592861 210:0.44094076 
1 6:0.2102203 58:0.49795253 66:0.514024 130:0.3867291 207:0.54228281 
1 6:0.39401598 18:0.40768506 28:0.48577298 91:0.46489082 134:0.47586283 
0.7759201048939739 35:0.40273955 50:0.36975025 65:0.509726 140:0.66427781 
0.8960331571145229 6:0.13261067 19:0.48684273 194:0.86336468 
1 6:0.1653164 34:0.34694306 127:0.49210574 130:0.3041222 184:0.5794686 207:0.42644902 
1 6:0.10579766 9:0.40848057 11:0.64944374 78:0.38840632 91:0.49931336 
0.2855459313891297 6:1 
0.5505874887802174 35:1 
1 100:1 
0.1072842428626903 6:0.19619629 32:0.25558997 41:0.3267175 75:0.35952043 114:0.60172774 125:0.26700386 135:0.37564845 162:0.29274977 
1 48:0.50747544 66:0.53174178 115:0.54806214 206:0.39918322 
1 50:1 
1 20:0.60551196 53:0.47464654 88:0.63880039 
1 6:0.18514408 53:0.7097349 138:0.67970437 
1 6:0.19871086 12:0.41120895 13:0.30494875 101:0.38640189 115:0.50079428 147:0.54619238 
1 6:0.090340939 32:0.35306841 66:0.44179758 74:0.42636517 113:0.4660857 190:0.52246816 
0.1995364599222853 6:0.11023181 11:0.33833132 115:0.55561594 138:0.40468506 180:0.63316806 
1 26:0.76516026 78:0.64383986 
1 26:0.43725313 60:0.51704618 206:0.73584845 
0.2218153808969026 63:1 
1 6:0.1455723 17:0.71189754 91:0.68703028 
0.2738437432657815 8:1 
1 6:0.1279701 60:0.66022153 120:0.74008863 
1 3:0.25174488 28:0.52820159 32:0.41859541 74:0.50549553 208:0.47631895 
0.2954024442176282 19:0.54843615 42:0.83619244 
0.08277877037383935 6:0.077817021 11:0.23884153 13:0.23884153 16:0.4205492 20:0.38055141 103:0.38055141 157:0.3958285 195:0.50662942 
1 34:1 
1 6:0.081250092 27:0.38060649 118:0.92116075 
1 11:0.16440322 78:0.19664608 100:0.23820602 103:0.78584151 130:0.1970776 165:0.32659996 189:0.33838705 
1 6:0.24305828 11:0.24867059 14:0.37539427 21:0.74810354 130:0.29809271 210:0.29941039 
1 6:0.24484218 18:0.50667233 58:0.57996198 87:0.58904971 
1 10:0.70479608 19:0.70940996 
1 48:0.69040722 161:0.72342095 
1 101:0.72643031 130:0.68724014 
1 161:1 
1 6:0.10161031 25:0.40620638 64:0.45335105 109:0.48891512 134:0.4908691 206:0.37303363 
1 6:0.19290043 157:0.98121834 
1 3:0.22193644 6:0.28327576 48:0.44069806 87:0.45434303 101:0.367228 209:0.46177126 210:0.34895214 
1 3:0.67780613 6:0.14419006 13:0.4425584 35:0.56914861 
1 6:0.26326991 40:0.60773434 71:0.57254437 206:0.48326067 
1 3:0.41352676 10:0.64171117 78:0.64591207 
1 40:0.37405884 105:0.43312017 134:0.39140404 208:0.72061764 
0.9385649664938133 4:0.26500419 6:0.20141114 11:0.51515459 14:0.15553592 15:0.29759902 17:0.16416137 19:0.12323738 35:0.13250204 50:0.36494551 58:0.1590287 78:0.24647476 103:0.32832263 113:0.17318625 134:0.16216613 158:0.15229891 162:0.15026549 208:0.14928284 
1 6:0.20605213 13:0.63242986 50:0.74670945 
1 19:0.42732617 102:0.70972536 109:0.56007343 
1 6:0.11745878 13:0.36051285 127:0.69929106 207:0.60599169 
0.8718160947173044 2:0.29940505 50:0.41625963 78:0.42169648 140:0.74783462 
1 58:0.51940172 74:0.51743669 119:0.68005965 
1 31:0.61890561 157:0.78546537 
1 6:0.09943352 21:0.45906624 35:0.39248508 89:0.51299601 109:0.47844114 138:0.36504217 
1 3:0.43318508 209:0.90130499 
1 6:0.079558261 13:0.24418587 19:0.29207575 53:0.30498017 64:0.35496223 83:0.50747717 138:0.29207575 158:0.36095232 186:0.39572277 
1 20:0.51370586 50:0.38067147 158:0.47658498 179:0.60337574 
1 6:0.26441429 10:0.96440919 
1 138:1 
1 138:1 
1 6:0.13311112 9:0.51393674 101:0.51768068 115:0.67093753 
0.07444450449476568 8:0.42675099 15:0.40679482 50:0.33256817 86:0.49324547 126:0.54635967 
1 2:0.42083376 6:0.053817038 23:0.51186518 29:0.24333646 34:0.45177501 48:0.25117289 67:0.27632696 84:0.33381565 101:0.20929913 
1 3:0.21064643 25:0.71656011 61:0.50165373 97:0.4364782 
1 6:0.1353666 19:0.49696036 60:0.69838147 78:0.49696036 
1 6:0.20093206 47:0.45121951 66:0.49131267 70:0.55891614 162:0.44972421 
0.0416034786155721 6:0.10696979 75:0.58805123 198:0.80171891 
1 6:0.12804959 26:0.5586798 130:0.4711296 163:0.67046035 
1 3:0.27168152 148:0.6830024 181:0.67800949 
1 2:0.37551597 25:0.57592778 115:0.72615077 
1 25:0.67670457 71:0.73625466 
1 9:0.34665967 82:0.87816593 206:0.32962353 
1 2:0.32075934 101:0.47858335 130:0.45276427 131:0.68049683 
1 40:1 
1 6:0.21169065 21:0.97733672 
1 64:1 
1 3:0.43318508 209:0.90130499 
1 6:0.098019203 33:0.50328575 109:0.47163592 142:0.61922693 210:0.36223371 
1 65:1 
1 2:0.17897696 6:0.068663789 48:0.3204651 88:0.35424925 101:0.53407907 142:0.43377691 148:0.40572366 158:0.31152458 
1 64:0.49198684 68:0.63772266 69:0.59267087 
1 6:0.1875968 163:0.98224612 
1 3:0.26550486 76:0.63229888 176:0.72780856 
1 31:0.70054965 125:0.71360367 
1 35:0.52988632 189:0.84806868 
1 49:0.44500217 56:0.4525268 88:0.42715584 101:0.64399569 
1 2:0.20210049 3:0.18223779 6:0.15507008 7:0.24922027 31:0.31076196 40:0.35796499 74:0.36592756 116:0.49457166 129:0.39439416 138:0.28464806 
1 6:0.22104468 102:0.67389328 155:0.7049873 
1 100:0.92435228 138:0.38154013 
1 11:0.3890137 78:0.4653073 129:0.64470659 138:0.4653073 
1 78:0.28047899 157:0.38861769 179:0.87767182 
0.5414528841129658 6:1 
1 147:1 
1 18:0.57370192 148:0.81906417 
1 2:0.15825786 3:0.14270407 9:0.23441816 21:0.28030992 25:0.24271963 34:0.25484034 35:0.23965487 48:0.28336675 54:0.30331841 62:0.3281241 78:0.22289798 101:0.23612585 140:0.39528627 207:0.31323991 
1 2:0.2257223 32:0.3384382 50:0.3138193 52:0.45572391 103:0.42349066 144:0.59076041 
0.6381826989950247 50:0.26239046 57:0.43106821 86:0.77832386 207:0.37355511 
1 6:0.23485965 18:0.97202929 
1 3:0.54168242 10:0.84058322 
1 6:0.35438779 91:0.55751251 97:0.57531592 125:0.48228693 
1 15:0.39471282 60:0.91880454 
1 6:0.15213645 25:0.60819418 40:0.35119299 71:0.33085768 91:0.35900493 193:0.49524386 
1 6:0.089649805 100:0.79736444 166:0.5968022 
1 2:0.36219845 54:0.69419275 162:0.62201986 
0.3738267549529754 22:0.46144877 35:0.35972998 91:0.43011383 103:0.44568192 110:0.52347789 
1 6:0.15732568 31:0.63056442 134:0.76002443 
1 6:1 
1 32:1 
1 15:0.969578 162:0.24478254 
1 6:1 
1 6:0.11910197 37:0.5976434 169:0.79286637 
1 78:1 
1 6:0.099693683 26:0.4349631 47:0.4477507 163:0.52199043 179:0.57263738 
0.4691363983627221 11:0.30496417 15:0.44043602 19:0.36477392 50:0.36007096 78:0.36477392 95:0.56324227 
1 26:0.64209918 78:0.5402908 210:0.54386993 
0.8520360538013462 71:1 
1 13:0.48748462 75:0.87313157 
1 3:0.63573614 6:0.27048098 106:0.72296583 
1 18:0.63796398 65:0.77006621 
1 13:0.45099347 35:0.57999646 40:0.67838705 
1 6:0.36884338 13:0.56604018 25:0.73726052 
1 32:0.41633565 34:0.44713801 114:0.49008322 138:0.39109256 158:0.48331903 
1 3:0.1590397 10:0.49359566 20:0.33090538 138:0.24841357 207:0.34909713 209:0.66181056 
1 31:0.28136851 33:0.72090701 53:0.26911133 69:0.37731374 79:0.43166918 
1 6:0.1219914 78:0.44785709 95:0.69152982 158:0.55346963 
1 58:1 
1 3:1 
1 6:1 
1 3:0.5351192 25:0.45508168 47:0.51126847 71:0.49512893 
0.4653811862070387 97:0.57054416 182:0.82126693 
1 6:0.093663209 9:0.72325958 21:0.43242578 25:0.37443635 31:0.37540398 
1 2:1 
1 3:0.55121236 6:0.1172597 19:0.43048598 78:0.43048598 101:0.22801658 102:0.35748667 186:0.29162487 210:0.21666886 
1 6:1 
1 6:0.14975702 40:0.69140057 74:0.70678009 
0.4614540205480988 3:0.21483507 4:0.36079085 6:0.091403958 13:0.14027176 63:0.5483988 87:0.65970832 106:0.2443127 
0.4935400427718063 8:0.40889854 32:0.34365402 130:0.32352612 150:0.63579036 207:0.45365776 
1 13:0.40365972 125:0.53694297 164:0.74077735 
1 21:0.78069675 210:0.62491007 
1 6:1 
1 12:0.49616475 32:0.46852118 128:0.73096405 
1 6:0.14486642 179:0.83210818 210:0.53535941 
1 10:0.63166463 162:0.77524177 
1 6:0.20430518 13:0.62706799 130:0.75169484 
0.3833333246575494 6:0.058521937 11:0.35923956 13:0.17961969 15:0.77823242 19:0.42969362 50:0.21207683 
1 6:0.14125268 18:0.29230596 52:0.37167506 100:0.31408296 120:0.40845286 193:0.45981436 195:0.45981436 210:0.26100235 
1 6:1 
1 101:1 
1 6:0.2622779 130:0.96499238 
0.0544167667446842 71:1 
1 22:1 
1 13:0.61384318 35:0.78942799 
1 6:1 
1 6:0.20018094 9:0.38644533 12:0.4142511 32:0.39117131 40:0.46209926 130:0.36826031 210:0.36988816 
1 6:0.24376005 18:0.504433 66:0.59603433 74:0.57521428 
1 6:1 
0.2649614211303327 36:0.70710678 126:0.70710678 
1 35:0.41989463 65:0.53143828 66:0.520222 161:0.520222 
1 2:0.55674586 101:0.83068288 
0.2960504586964493 89:0.71209444 129:0.70208369 
1 11:0.28099092 50:0.66353152 103:0.44770894 190:0.5294589 
1 6:0.079923033 12:0.33078279 23:0.38008252 25:0.31950741 32:0.31235339 48:0.37301383 54:0.39927748 143:0.49144775 
1 2:1 
0.5690706581687371 138:0.45272789 149:0.89164873 
1 50:0.37717127 74:0.4912032 103:0.50898245 110:0.59782783 
1 6:0.1407853 9:0.18118882 11:0.28807231 19:0.17228453 32:0.55021407 49:0.25222784 50:0.1700633 53:0.35979272 61:0.26267966 101:0.18250875 109:0.22580407 186:0.23342202 207:0.24211251 208:0.20869581 
1 6:0.14160108 65:0.70740712 66:0.69247693 
1 6:0.18911702 10:0.68977435 210:0.69888919 
0.8184381746398691 3:0.22264482 6:0.094726645 11:0.5814838 101:0.36840014 125:0.38674094 126:0.56395525 
1 10:1 
1 2:1 
0.9621120827830726 64:0.54735089 146:0.83690322 
1 89:0.66569486 190:0.74622407 
1 4:0.22582796 6:0.11442406 63:0.34325657 75:0.31451503 88:0.59033502 93:0.36861458 163:0.29955893 168:0.3808627 
1 31:0.52137379 67:0.6679175 125:0.53108905 
1 6:0.14011994 10:0.51106527 87:0.67421072 138:0.51441092 
0.3801569567995959 96:0.75717566 209:0.65321131 
1 6:0.15282537 13:0.46906249 71:0.66471177 78:0.5610553 
1 47:1 
1 6:0.20270352 134:0.97924016 
1 13:0.43703714 67:0.73111646 130:0.52389624 
1 53:0.44436265 91:0.54707686 130:0.42649448 209:0.56687847 
1 6:0.14415661 54:0.72017397 64:0.32158918 91:0.34017445 180:0.41401553 206:0.2646152 
1 3:0.22520447 53:0.36730165 106:0.51220945 138:0.35176026 179:0.55036222 210:0.35409048 
1 6:0.17065787 13:0.52379527 209:0.83457439 
1 25:0.63904831 109:0.7691666 
1 3:0.13333783 6:0.11346004 11:0.17411981 19:0.20826829 50:0.20558313 53:0.4349399 66:0.27742888 114:0.52196746 129:0.28856616 158:0.2573816 186:0.28217511 207:0.29268072 
1 6:0.26794654 11:0.16448012 12:0.6653811 19:0.19673806 25:0.21423338 34:0.22493157 35:0.21152831 78:0.19673806 88:0.27647721 118:0.30378046 186:0.26655321 
1 2:0.19215726 3:0.1732718 48:0.68813011 63:0.44230203 87:0.35471794 115:0.37158245 
0.8484045813658805 40:0.5604752 146:0.82817121 
1 2:0.25249459 6:0.096868531 53:0.37133769 71:0.42132831 98:0.65259344 208:0.43078481 
1 10:0.5505916 131:0.83477476 
1 12:0.38005757 93:0.59164824 162:0.41106024 189:0.58011903 
1 34:1 
1 106:1 
1 12:0.37021451 32:0.34958819 100:0.39779577 129:0.45500373 190:0.51731815 206:0.32839211 
1 3:0.16783849 6:0.071408698 9:0.27570615 11:0.21917266 26:0.31155583 31:0.28620746 64:0.63720301 130:0.2627322 134:0.34496819 210:0.26389357 
1 3:0.16021165 6:0.06816382 54:0.17026555 82:0.16667201 123:0.68065376 177:0.65876469 206:0.12512214 
1 3:0.69299657 82:0.72094088 
1 6:0.050508116 32:0.19739467 34:0.21199881 83:0.64435082 100:0.22461504 114:0.23236016 118:0.5726282 129:0.25691747 
1 6:0.1280284 110:0.73539111 130:0.47105163 138:0.47002022 
1 3:0.35322591 6:0.075141939 13:0.46126219 87:0.7231162 97:0.36595804 
1 129:1 
1 13:0.33805581 89:0.56824331 113:0.56824331 208:0.48981358 
1 11:0.32927825 50:0.38877858 86:0.57661343 126:0.63870494 
1 6:0.12597783 10:0.45948415 15:0.55842311 35:0.49726107 138:0.46249212 
1 6:0.19290043 129:0.98121834 
1 2:0.30307532 18:0.48122942 25:0.46482577 158:0.52752832 206:0.42686588 
1 3:0.92017821 6:0.39149976 
0.2113310246381384 4:0.58339608 6:0.14779957 11:0.45363695 100:0.65728062 
1 35:0.64155353 74:0.76707826 
1 6:0.35781413 11:0.36607619 31:0.47804202 74:0.56290272 130:0.43883213 
1 7:0.2183083 18:0.28109676 191:0.88436347 208:0.30203867 
1 17:0.68794379 113:0.72576397 
1 6:0.1875968 163:0.98224612 
1 34:0.61436468 35:0.57775581 78:0.5373586 
1 6:1 
1 21:1 
1 6:0.10530355 13:0.32320516 127:0.6269249 166:0.70100981 
1 3:1 
0.9628749217370878 54:1 
0.3645905417723531 158:1 
0.8566976667248292 53:0.54137382 57:0.84078201 
0.2642098696614604 6:0.10175827 31:0.40784915 80:0.4915839 197:0.76265955 
1 6:0.1703948 9:0.65788731 19:0.31277827 58:0.40361717 186:0.42377186 206:0.31277827 
1 6:0.20653359 58:0.97843951 
1 28:0.71435595 80:0.69978252 
1 6:1 
1 31:1 
1 6:0.087109028 13:0.13368061 27:0.20402599 82:0.42599232 138:0.15989813 161:0.85198476 
1 4:0.46653722 8:0.5496223 11:0.36276987 65:0.59047132 
1 11:0.45120704 50:0.53273981 97:0.71596124 
0.6241678672793045 64:0.43410523 80:0.47003055 103:0.47581364 156:0.60351082 
1 10:0.32111117 91:0.83100998 113:0.45421363 
1 12:0.5597375 14:0.31331554 18:0.27986875 23:0.32158027 27:0.31676398 32:0.264276 114:0.3110885 131:0.37393801 
1 6:0.09312528 105:0.9956544 
1 3:0.46462449 6:0.049419908 10:0.54075369 56:0.27011025 101:0.38439677 195:0.3217494 206:0.36286256 210:0.18263316 
1 3:0.16513791 6:0.14051941 13:0.21564609 19:0.25793873 31:0.28160229 53:0.26933491 97:0.68436096 100:0.3124525 186:0.34947177 
1 130:1 
1 52:0.49856426 129:0.48189997 162:0.42408358 187:0.58254546 
0.3537834275195683 6:0.21938706 208:0.9756379 
0.4980142802289442 8:0.33994485 57:0.87044744 97:0.35603195 
1 19:0.35514036 27:0.45315016 64:0.4316052 70:0.5381672 158:0.43888867 
1 6:0.15490237 11:0.47543739 25:0.61925148 32:0.60538596 
1 6:0.10817648 13:0.33202296 19:0.3971395 78:0.3971395 134:0.52258963 186:0.53806981 
0.8732985765964106 6:0.19800909 8:0.306925 16:0.35670244 49:0.70949723 78:0.24231154 83:0.4210126 
0.4456595283447976 6:0.13246423 11:0.40656864 45:0.66767694 114:0.60939533 
1 3:0.2550577 10:0.13193297 21:0.16700116 148:0.85494749 206:0.39839009 
1 12:0.53012676 64:0.57148606 161:0.62639389 
1 32:0.31267154 114:0.36805657 117:0.51032319 208:0.71157649 
1 23:1 
0.560445012203549 15:0.47637604 31:0.43073532 138:0.39453984 206:0.39453984 209:0.52555645 
1 6:0.095041534 9:0.36695159 28:0.46869783 113:0.49033694 125:0.38802654 130:0.34968389 210:0.35122962 
1 2:0.63664285 3:0.43055427 10:0.22271159 62:0.32999594 109:0.29380697 130:0.22466146 131:0.33766227 
1 60:1 
1 6:0.17997445 56:0.98367128 
1 6:0.11314047 12:0.468262 32:0.44217302 58:0.53599563 74:0.53396783 
1 25:0.35954092 34:0.75499097 165:0.54837848 
1 90:1 
1 6:0.18219008 14:0.42207848 16:0.49230806 28:0.44923568 178:0.5869213 
1 3:0.14979467 6:0.063731762 31:0.25543816 55:0.36127475 64:0.56869922 78:0.23397322 80:0.30788169 101:0.24785835 134:0.30788169 211:0.38542628 
1 6:0.085563555 9:0.33035749 23:0.81381299 147:0.4703735 
1 3:0.15054421 12:0.26509075 71:0.27858745 82:0.62645836 100:0.2848402 114:0.29466199 118:0.36308249 120:0.37042377 
1 6:0.20270352 80:0.97924016 
1 47:0.40862912 50:0.32971235 91:0.4293958 163:0.47638225 187:0.55945617 
1 6:1 
0.9911173315673253 6:1 
1 120:0.68712669 161:0.58103236 206:0.43618609 
1 4:0.39344588 6:0.099676932 10:0.3635558 11:0.30593553 53:0.38210347 179:0.57254116 210:0.36835991 
1 6:0.21486458 9:0.27652787 12:0.29642479 31:0.28706048 32:0.27990963 69:0.38494664 71:0.31151681 74:0.33801867 89:0.36950876 157:0.36431415 
1 11:0.40937409 100:0.59314758 130:0.49073528 138:0.48966078 
1 6:0.082747373 50:0.59973411 86:0.44474511 97:0.40299821 189:0.52274861 
1 6:0.14121537 185:0.9899789 
1 11:0.21167415 31:0.27641552 49:0.37067179 88:0.3558064 105:0.36867493 110:0.39613629 113:0.3558064 163:0.36109999 210:0.25486504 
0.1895584056191727 35:1 
1 3:0.25529224 50:0.39361506 97:0.5289883 195:0.70715234 
1 6:0.18291667 69:0.98312842 
1 6:0.16686506 90:0.98597974 
1 3:0.26146278 6:0.22248433 10:0.40573816 47:0.49961799 143:0.68402949 
1 9:0.45489551 115:0.59385999 164:0.66362669 
1 21:0.76936147 53:0.63881368 
1 6:0.18797937 19:0.34505666 43:0.56841508 181:0.55131055 186:0.46750468 
1 53:1 
1 6:0.20563533 50:0.37259951 53:0.39414323 78:0.37746611 91:0.48524924 130:0.37829442 138:0.37746611 
1 6:0.13864218 35:0.54724994 127:0.82540647 
1 4:0.28413013 6:0.071982504 11:0.22093382 50:0.2608564 53:0.27593912 81:0.43187538 87:0.34635595 95:0.40804554 138:0.2642635 181:0.42222414 
1 31:0.53604519 67:0.68671262 206:0.49100033 
0.9520603351420061 35:1 
1 4:0.59982299 13:0.46641021 20:0.49542737 23:0.2408892 61:0.28353181 101:0.19699673 
1 6:0.11019964 9:0.42547643 25:0.44054386 56:0.60230893 158:0.49997091 
0.007197665853831615 103:0.69305863 129:0.72088122 
1 11:0.21227447 19:0.50781173 32:0.27029423 109:0.33278076 128:0.42169996 133:0.46593195 186:0.34400778 
1 6:0.11752493 13:0.36071587 115:0.5923764 211:0.7107476 
1 6:0.11538871 12:0.47756696 77:0.75945924 210:0.42642339 
0.9809653407839107 210:1 
1 22:0.46741611 45:0.46530126 161:0.45144537 194:0.60101081 
1 6:0.32102087 25:0.42778051 65:0.53458266 66:0.52330001 78:0.39284591 
1 101:0.46445404 158:0.5418258 181:0.70050499 
1 90:1 
-1 2:0.36237673 6:0.13902437 7:0.44686495 53:0.5329387 71:0.60468454 
-1 7:0.3558338 18:0.45817647 147:0.60857747 161:0.54137796 
-1 1:0.34477974 26:0.60090702 163:0.72113638 
-1 1:0.38681282 4:0.60991874 6:0.15451891 26:0.67416532 
-1 3:0.92017821 6:0.39149976 
-0.3851473661623877 2:0.28367373 7:0.34981234 60:0.56147567 155:0.69419422 
-1 3:0.28835284 25:0.49044778 48:0.57258079 109:0.59030912 
-1 3:1 
-1 6:0.13220776 27:0.30965583 74:0.31197806 78:0.48536355 85:0.31436405 130:0.48642882 134:0.31934114 207:0.34104219 
-1 1:0.28433034 11:0.34860952 14:0.52626254 100:0.50510498 158:0.51530997 
-1 13:0.31742025 19:0.37967289 27:0.48445306 186:0.51440495 209:0.50575258 
-1 19:0.59384526 186:0.80457927 
-1 13:0.60798931 31:0.79394521 
-1 13:0.42088612 31:0.54961577 52:0.72164907 
-1 6:0.12467723 11:0.38266821 78:0.91543467 
-1 3:0.26811779 32:0.4458199 82:0.55785832 118:0.6466464 
-1 1:0.44829786 6:0.17908014 209:0.87576214 
-0.2695120291105397 5:0.71493456 6:0.18338245 130:0.67471435 
-1 3:0.1867447 5:0.30975361 6:0.079452551 19:0.29168767 50:0.28792699 130:0.29232774 138:0.29168767 181:0.46604082 186:0.39519697 209:0.3885497 
-0.7791134999401044 1:0.38304516 6:0.15301385 72:0.91096826 
-1 6:1 
-1 1:0.54726796 6:0.21861542 210:0.80790165 
-1 3:0.34492341 6:0.14675139 73:0.92708785 
-1 3:0.11457381 6:0.048746664 25:0.19487399 31:0.19537759 78:0.71583876 89:0.2514931 134:0.4709804 180:0.27999931 210:0.18014516 
-0.0717859059989558 5:0.71493456 6:0.18338245 130:0.67471435 
-1 6:0.13299913 19:0.48826886 78:0.48826886 106:0.71098401 
-1 78:0.57689185 130:0.28907889 162:0.35170717 177:0.50622002 179:0.45130095 
-1 3:0.20632034 54:0.43853519 78:0.32226402 101:0.34138876 105:0.46925901 106:0.46925901 130:0.32297119 
-1 3:0.15883464 6:0.13515582 70:0.37595181 88:0.34864701 106:0.72251321 209:0.33047872 210:0.24973675 
-1 7:0.40453011 82:0.61546623 112:0.67642938 
-1 7:0.34546354 18:0.44482358 112:0.57766203 147:0.59084136 
-1 7:0.4354947 18:0.56074894 19:0.49740224 130:0.49849373 
-1 7:1 
-1 6:0.097043949 46:0.49593258 54:0.48480972 170:0.71385775 
-1 1:0.25014123 37:0.50140568 96:0.56643194 211:0.60429841 
-1 6:0.10057772 32:0.39307558 53:0.38555658 91:0.4746778 118:0.57014259 138:0.36924279 
-1 3:0.27590136 118:0.66541883 148:0.693611 
-1 6:0.14855027 168:0.98890486 
-0.6845550829993576 7:0.45203045 32:0.5496125 65:0.70256286 
-1 119:0.59212773 132:0.64311478 157:0.4855802 
-1 13:0.62650296 20:0.49911014 181:0.59865108 
-1 10:0.29507181 13:0.24830562 181:0.47453408 209:0.79126124 
-1 13:0.40837324 109:0.64020302 209:0.65066995 
-1 6:0.065670655 29:0.29693319 34:0.27564087 53:0.25174316 82:0.32115159 101:0.25539887 109:0.31598543 111:0.4322276 139:0.42755025 147:0.36101511 
-1 1:0.47554568 6:0.18996475 29:0.85893521 
-0.2522067547720509 2:0.14545861 21:0.25763961 25:0.22308946 46:0.57036699 54:0.27878727 101:0.21702897 118:0.31633829 151:0.40349379 181:0.32733029 210:0.20622807 
-1 1:0.22090636 9:0.34070956 10:0.32185881 68:0.51034541 142:0.55747789 158:0.40036264 
-1 3:1 
-0.912481756887601 6:0.1575372 13:0.48352438 56:0.86103787 
-1 6:0.07545905 19:0.27702665 34:0.63345205 65:0.37697642 67:0.38744923 78:0.27702665 157:0.38383432 
-1 6:0.10874988 9:0.41987896 25:0.43474816 32:0.42501381 138:0.39924455 209:0.53182348 
-1 30:0.76238423 109:0.64712462 
-1 1:0.18585423 82:0.36307132 187:0.91303747 
-1 3:0.43318508 82:0.90130499 
-1 2:0.24470234 53:0.35987782 116:0.59882509 138:0.34465056 187:0.57726357 
-1 2:0.4474558 6:0.085832307 65:0.42879888 71:0.37332641 129:0.43659952 187:0.52778395 
-1 6:0.13889981 65:0.69391218 157:0.70653572 
-1 34:0.67269179 40:0.73992281 
-1 118:0.74428253 157:0.66786489 
-1 7:0.52317315 163:0.85222641 
-1 6:0.30978278 13:0.95080736 
-1 31:0.59870612 32:0.58379198 138:0.54839575 
-1 31:0.59870612 32:0.58379198 138:0.54839575 
-1 6:0.1116902 17:0.54620262 61:0.62518052 103:0.54620262 
-1 1:0.19323974 19:0.28339191 26:0.33679218 78:0.28339191 100:0.34328505 158:0.35022068 160:0.53361867 163:0.40417749 
-1 1:0.34832562 164:0.78374309 210:0.51421399 
-1 1:0.19679778 3:0.18477423 125:0.96287544 
-1 1:0.42119001 35:0.66412401 78:0.61768785 
-1 10:0.48806954 125:0.54632778 157:0.68067179 
-1 6:0.13508705 19:0.49593406 35:0.53321708 186:0.67192295 
-1 1:0.30063159 3:0.28226422 6:0.12009236 29:0.54300369 31:0.48133255 162:0.53757915 
-0.506501275231395 6:0.043396176 37:0.21775827 58:0.41117314 73:0.27415119 78:0.15931684 80:0.20964253 81:0.26036521 106:0.46397277 119:0.53835451 130:0.15966644 158:0.19688654 
-1 6:0.12366599 91:0.58364314 106:0.66109107 130:0.4550011 
-1 6:0.070101339 37:0.35176248 46:0.35824529 53:0.26872783 81:0.4205889 95:0.39738182 158:0.31804669 159:0.48459632 
-0.00240036085608132 5:0.54465058 11:0.42879005 88:0.7207599 
-1 5:0.31957375 6:0.08197144 11:0.25159258 31:0.32854314 88:0.4229059 103:0.40086792 114:0.37710567 126:0.48801712 
-1 3:0.5528075 6:0.11759904 80:0.56810903 157:0.59818598 
-1 81:0.63910733 119:0.66073788 210:0.39365884 
-1 19:0.59714276 28:0.80213498 
-1 6:0.16061501 25:0.6420888 48:0.74961643 
-1 2:0.29664785 7:0.36581137 47:0.51114072 108:0.71896958 
-1 6:0.07622236 7:0.24500094 20:0.37275298 125:0.62238682 156:0.4727911 164:0.4293287 
-1 6:0.16446419 31:0.65917572 64:0.73378396 
-1 64:1 
-1 5:0.45925079 6:0.11779894 19:0.43246564 195:0.76693259 
-1 7:0.44889284 114:0.64247735 208:0.62106205 
-1 6:0.13246595 46:0.67695285 56:0.72400802 
-1 3:0.27647768 6:0.23526083 46:0.60113748 87:0.56599857 138:0.43184695 
-1 11:0.70710678 13:0.70710678 
-1 3:0.14898678 6:0.063388033 10:0.2311978 15:0.28098074 78:0.23271131 88:0.32703064 91:0.2991606 120:0.36659159 162:0.56749795 208:0.28189342 210:0.2342529 
-1 3:0.2930711 6:0.12469026 78:0.4577652 123:0.83006788 
-1 3:0.30785307 6:0.06548975 13:0.2010058 19:0.24042717 28:0.32296305 35:0.25850186 78:0.24042717 120:0.75749287 
-1 3:0.09737074 6:0.041427433 9:0.15994967 123:0.27578401 133:0.83727721 152:0.29953998 200:0.310491 
-1 6:0.19601522 7:0.6300502 53:0.75140853 
-1 7:0.8099484 53:0.32198606 158:0.38107925 206:0.30836208 
-1 1:0.27357449 50:0.39603257 86:0.58737212 126:0.65062216 
-1 7:0.40425541 129:0.63973918 130:0.46273534 206:0.46172215 
-1 13:0.30665024 34:0.41935354 71:0.43455623 117:0.6372932 130:0.36759555 
-1 118:1 
-1 34:0.63290496 67:0.77422949 
-1 6:0.091292084 30:0.5175053 67:0.46874493 82:0.446449 211:0.55210098 
-1 1:0.23363326 3:0.43871815 6:0.093328747 129:0.47473134 157:0.47473134 162:0.41777502 210:0.34489995 
-1 9:0.64151839 40:0.76710766 
-1 7:1 
-1 6:0.090519119 52:0.47636191 134:0.87457739 
-1 10:0.49263765 92:0.87023453 
-1 23:0.3103006 38:0.36299789 129:0.33190145 148:0.38554871 162:0.29208127 166:0.43436792 202:0.48903245 
-1 28:0.74044849 162:0.67211311 
-1 78:0.58523087 157:0.81086671 
-1 13:0.49479444 35:0.63632633 138:0.59183381 
-1 11:0.29377347 13:0.29377347 25:0.38263641 27:0.44836288 35:0.37780497 109:0.46054601 210:0.35371625 
-1 5:0.31976175 6:0.16403933 58:0.38856284 80:0.79245738 210:0.3031068 
-1 3:0.19043374 74:0.38238475 96:0.45928803 100:0.36031397 109:0.38985144 112:0.43547217 158:0.36759365 
-0.2259204883116044 6:0.073173092 12:0.30284636 52:0.38507747 55:0.4147946 58:0.34665278 62:0.39545186 158:0.33198309 211:0.44252398 
-1 1:0.30151883 6:0.12044678 101:0.46842799 107:0.82167767 
-1 2:0.22923259 3:0.20670332 6:0.087944161 21:0.40602199 23:0.41822785 29:0.39764397 48:0.41044974 53:0.33712684 101:0.34202247 
-1 6:0.091546641 29:0.41393277 97:0.44585261 101:0.71206593 210:0.33831411 
-1 6:0.13011476 10:0.47457296 28:0.64166165 29:0.58832047 
-0.1169116220781323 1:0.12817107 6:0.1024002 7:0.16457208 11:0.15714698 26:0.2233858 35:0.20209759 47:0.45990652 66:0.2503857 74:0.24163949 120:0.59221038 201:0.38373533 
-1 1:0.34460613 3:0.3235521 6:0.13765873 20:0.67319752 31:0.55173891 
-1 3:0.27499134 5:0.22806434 6:0.058499055 31:0.23446536 85:0.2781985 209:0.85823999 
-1 5:0.36308149 6:0.27939384 19:0.34190527 25:0.37230987 35:0.36760882 40:0.42996997 186:0.46323497 
-1 4:0.36010876 11:0.28001326 14:0.42270932 17:0.44615121 50:0.33061144 87:0.43897425 138:0.33492963 
-1 5:0.62336132 103:0.78193392 
-1 5:0.34404711 57:0.52539009 103:0.43156689 125:0.36029429 165:0.53808445 
-1 2:0.29213909 58:0.53096219 62:0.60570691 114:0.51560939 
-0.3230487520587637 2:0.29827649 6:0.11443257 32:0.4472228 114:0.52644156 118:0.64868126 
-0.7366900217924237 92:1 
-1 2:0.33756931 3:0.30439257 6:0.12950711 87:0.62314526 109:0.62314526 
-1 1:0.14585249 6:0.17478971 10:0.21250592 41:0.58214003 44:0.31487402 53:0.44669483 138:0.21389707 164:0.32817247 180:0.3346622 
-1 2:0.26892882 3:0.24249815 6:0.30952037 19:0.37877229 181:0.60517934 186:0.51318476 
-1 2:0.27443144 6:0.10528451 10:0.76801682 62:0.56899272 
-1 2:0.18434539 3:0.33245516 6:0.14144673 7:0.22732556 21:0.32651675 31:0.28346064 53:0.54222462 109:0.34029739 138:0.25964092 209:0.34586105 
-1 2:0.31721084 6:0.12169666 21:0.28092553 25:0.24325268 53:0.23325716 64:0.2714848 71:0.26465895 138:0.22338751 153:0.43996227 158:0.55213238 
-1 2:0.44042483 53:0.64772216 130:0.62167674 
-1 3:1 
-1 2:0.16951549 3:0.30571039 6:0.13006787 10:0.23720096 101:0.50584542 120:0.37611032 192:0.42340486 206:0.47750756 
-1 3:0.57674091 13:0.37657011 148:0.72495853 
-1 1:0.32524068 3:0.30536979 6:0.12992288 26:0.56685293 163:0.68026876 
-0.9347353887107507 2:0.27804898 6:0.10667237 99:0.71864092 114:0.49074112 130:0.39247694 
-1 1:0.27891107 6:0.11141573 10:0.40637122 26:0.48610635 130:0.40992906 163:0.58336641 
-0.6291243527514273 2:0.24191171 6:0.092808452 84:0.57567111 201:0.69558231 210:0.34297718 
-1 6:0.095694284 125:0.39069153 183:0.67085702 194:0.62301974 
-1 7:0.2173107 9:0.26103041 18:0.27981224 25:0.27027429 55:0.38324584 58:0.3202868 130:0.24874706 147:0.3716634 158:0.30673287 176:0.435593 
-1 1:0.43795255 6:0.17494754 115:0.88181116 
-1 2:0.63724724 6:0.14668637 25:0.19546881 71:0.2126701 84:0.30328812 178:0.63006249 
-1 1:0.11608921 3:0.32698976 10:0.16914106 21:0.21409927 23:0.22053553 34:0.19464574 97:0.4517015 112:0.49849347 142:0.29296201 165:0.28275721 180:0.26636962 210:0.17137613 
-0.3402898850809101 2:0.28008579 6:0.053726892 21:0.24804716 54:0.53681491 68:0.31071838 71:0.23368436 96:0.30456038 102:0.32759161 109:0.25851599 153:0.3884709 
-1 6:0.094415644 7:0.30347947 25:0.37744436 53:0.36193475 102:0.57568514 135:0.54232049 
-0.5277110011989696 7:0.39081167 67:0.62428893 70:0.67640932 
-1 5:0.45446175 41:0.58236016 100:0.51840176 210:0.43079088 
-1 3:0.32056264 28:0.67259243 209:0.66697752 
-1 2:0.18962244 6:0.14549577 49:0.78200081 71:0.31641589 100:0.32351769 209:0.35576162 
-1 1:0.24003268 66:0.46891041 71:0.41705091 74:0.45253092 82:0.46891041 206:0.35201516 
-1 2:0.43946745 6:0.16859991 34:0.35383404 56:0.46075121 90:0.49811535 206:0.30948355 210:0.31153371 
-1 1:0.22865949 25:0.36515646 72:0.54380412 194:0.5946834 208:0.40620725 
-1 2:0.19430583 6:0.1490893 13:0.4575957 25:0.2980063 97:0.3630491 113:0.3845897 188:0.50219971 208:0.33150809 
-1 3:0.2822173 6:0.1200724 27:0.56246502 78:0.440812 163:0.62869222 
-1 3:0.15730889 6:0.13385754 8:0.31122983 19:0.24571012 23:0.3182869 50:0.24254223 53:0.25656603 78:0.24571012 87:0.32203904 103:0.32730419 130:0.49249881 138:0.24571012 
-1 2:0.36574431 6:0.14031633 25:0.56094101 78:0.51513189 130:0.51626229 
-1 6:0.050285651 46:0.25697937 54:0.25121579 55:0.2850531 58:0.23822501 69:0.27027199 74:0.23732375 91:0.23732375 106:0.53763199 120:0.29081667 130:0.37002958 206:0.18460961 
-0.1737819727574421 1:0.33553222 10:0.48886779 23:0.63741304 206:0.49206812 
-1 3:0.25898424 6:0.11018764 23:0.52400909 68:0.63724746 208:0.49001633 
-1 2:0.57045814 91:0.51644199 138:0.40173036 158:0.4964654 
-1 3:0.22631264 5:0.37538498 40:0.44454006 47:0.43245109 129:0.48977975 208:0.42819937 
-1 6:1 
-1 2:0.33650892 6:0.12910029 13:0.3962438 46:0.65975304 125:0.5270784 
-1 2:0.36601417 80:0.67835413 158:0.63707872 
-1 1:0.52485749 6:0.13977546 14:0.32381681 26:0.30491985 35:0.55172343 93:0.45028352 
-0.2642792925492397 6:0.086447444 13:0.26533065 37:0.43378582 65:0.43187197 127:0.51466501 187:0.53156643 
-1 3:0.12561782 7:0.17178932 12:0.22119828 32:0.20887433 52:0.2812597 58:0.50638879 74:0.2522365 100:0.23767772 129:0.27185872 147:0.29380882 180:0.30698903 190:0.30909077 208:0.23767772 
-0.2858252675559889 6:0.12612145 7:0.40539119 18:0.52198725 141:0.73978421 
-0.3927224793519743 2:0.28375968 3:0.08529044 6:0.18143869 11:0.11137691 21:0.33506761 23:0.34514032 48:0.1693608 58:0.17191081 60:0.18721519 69:0.19503694 96:0.20570346 114:0.33388 115:0.18290588 130:0.13351255 185:0.25439225 208:0.48412636 
-1 2:0.17316645 6:0.13286922 10:0.4846192 53:0.25467171 114:0.61125845 115:0.33485912 187:0.40850725 
-1 2:0.21506634 6:0.082509335 7:0.53041823 53:0.31629288 104:0.53717884 155:0.52630114 
-1 3:0.29706633 6:0.12639008 11:0.38792542 88:0.65206991 162:0.56577013 
-0.5977088449042058 6:0.073754357 32:0.28824511 47:0.33125033 65:0.36846016 94:0.4180896 130:0.27136252 145:0.50314592 147:0.40545411 
-1 2:0.56278624 6:0.21591067 210:0.79790615 
-1 2:0.25895436 12:0.41117322 58:0.47064901 90:0.58702479 162:0.4447141 
-1 2:0.3296697 91:0.59690716 190:0.73145043 
-1 1:0.56337262 206:0.82620294 
-1 3:0.43891192 87:0.89853009 
-0.6389633129603115 1:0.33329662 6:0.13314096 185:0.9333739 
-1 7:0.45353406 25:0.56407068 161:0.69002255 
-0.2575339149524572 3:0.27679522 6:0.11776552 30:0.66757463 120:0.68107253 
-1 6:0.094624055 32:0.36980759 65:0.47272047 82:0.46274346 145:0.64551722 
-1 1:0.3543925 2:0.36900704 11:0.43451078 163:0.7412423 
-1 2:0.31482809 37:0.60607631 211:0.73044835 
-0.2863555816737838 3:0.25804664 6:0.10978873 9:0.42388993 60:0.56642047 90:0.64872455 
-1 34:1 
-1 2:0.26436315 6:0.10142186 31:0.4065008 48:0.47335235 54:0.50668077 60:0.52325422 
-1 1:0.43795255 6:0.17494754 115:0.88181116 
-1 2:0.28523511 12:0.45290234 37:0.54910679 141:0.64187392 
-0.7412969210939826 2:0.46425092 9:0.34383394 71:0.3873391 84:0.55238301 207:0.45944612 
-1 6:0.10696126 91:0.50480499 102:0.65218015 138:0.39267816 206:0.39267816 
-1 6:0.26859319 34:0.56368603 47:0.60316154 210:0.49629821 
-1 48:0.43234283 64:0.82661255 101:0.3602657 
-1 2:0.41549213 6:0.15940188 25:0.6372391 35:0.62919286 
-1 2:0.31950885 6:0.12257828 33:0.62938588 71:0.5331525 138:0.45001164 
-0.2298454435876099 3:0.20184598 31:0.34419891 66:0.41997011 143:0.52806215 154:0.62093541 
-1 6:0.064313606 13:0.098697946 21:0.14846203 46:0.82166947 51:0.39892363 54:0.16064815 76:0.17999616 101:0.12506059 171:0.23654626 
-1 2:0.1793995 25:0.27514451 70:0.7657895 71:0.29935726 95:0.39015175 138:0.2526749 
-1 6:0.11905595 28:0.58712506 40:0.5496594 82:0.58222365 
-1 2:0.14224846 6:0.054573049 13:0.16749948 25:0.21816606 40:0.25195371 53:0.20920138 82:0.53376097 109:0.52517484 115:0.27507174 130:0.20078923 138:0.20034958 157:0.27759439 
-1 13:0.24744687 32:0.3150801 49:0.43331495 114:0.37089178 208:0.71705789 
-1 7:1 
-1 6:0.10086362 7:0.32420513 11:0.30957778 13:0.30957778 50:0.36551825 158:0.45761378 181:0.59163062 
-1 6:0.07965113 13:0.24447091 56:0.43534251 74:0.37591449 113:0.41093499 127:0.47420314 180:0.45751359 
-1 6:0.1000447 13:0.30706431 18:0.41406167 19:0.36728594 101:0.38908251 130:0.36809191 147:0.54998154 
-1 1:0.39821624 26:0.46269351 49:0.28499383 50:0.19215559 61:0.29680341 75:0.58299189 86:0.28499383 
-1 1:0.21046051 6:0.16814401 19:0.30864668 25:0.3360937 26:0.36680577 34:0.35287724 158:0.38143097 186:0.41817413 208:0.37387727 
-1 7:1 
-1 1:0.28544136 21:0.52642951 29:0.51556695 69:0.61285064 
-0.06923347422441538 4:0.2698668 6:0.13673796 7:0.21975788 11:0.20984294 32:0.26719811 50:0.2477614 68:0.39539788 74:0.32266825 94:0.38756165 102:0.41686954 114:0.31452821 
-1 2:0.20653882 6:0.15847557 12:0.32794671 21:0.36582625 23:0.37682374 71:0.34464362 75:0.43559848 101:0.30816261 109:0.38126595 
-1 1:0.32894015 58:0.62250227 62:0.71013329 
-1 6:0.068977814 10:0.25158564 21:0.31845786 23:0.32803136 29:0.31188667 34:0.28952208 53:0.26442088 111:0.45399448 139:0.44908158 206:0.25323262 
-1 1:0.20883248 6:0.16684332 8:0.3879245 26:0.36396832 39:0.48932221 40:0.38514243 50:0.30231059 103:0.40795997 
-1 2:0.34956825 6:0.13411045 49:0.72080796 71:0.5833115 
-1 6:0.084796324 13:0.26026291 32:0.66279841 113:0.43748 114:0.39010141 208:0.3770984 
-0.1537614870840878 26:0.42091925 52:0.50770417 105:0.51573315 118:0.54688461 
-1 6:0.10782095 13:0.33093172 127:0.64191219 130:0.39670285 207:0.5562683 
-1 18:0.36552026 32:0.34515548 70:0.49132393 114:0.40629455 161:0.43189605 208:0.39275179 
-1 2:0.2209629 18:0.35084957 32:0.66260457 147:0.46601943 161:0.41456127 
-1 18:0.33693108 32:0.15907957 47:0.18281371 85:0.19357358 137:0.28964589 138:0.14943432 147:0.22376603 161:0.79623047 
-1 2:0.29111727 25:0.44648573 71:0.48577653 84:0.69276431 
-1 42:0.75832853 87:0.65187257 
-1 3:0.41784877 46:0.90851659 
-0.006413594142783845 1:0.41569212 2:0.10820864 6:0.041513808 26:0.5433738 45:0.20924752 48:0.19375171 53:0.15913983 80:0.200549 206:0.60962515 
-1 1:0.34061223 26:0.59364358 35:0.53707056 50:0.49307791 
-0.4137315573635174 7:0.33203556 35:0.40774588 38:0.57468076 50:0.3743465 97:0.50309284 
-1 1:0.14218941 12:0.23508178 37:0.85505189 73:0.3588283 162:0.25425825 
-0.3555801705621545 7:0.33308744 119:0.64277622 168:0.68984888 
-1 6:0.297066 7:0.95485695 
-1 6:0.064398912 9:0.49728309 25:0.2574468 58:0.30508567 95:0.73011302 130:0.23694127 
-1 6:0.13036556 13:0.60019106 40:0.30093688 52:0.34302801 129:0.33156245 130:0.23982533 158:0.2957314 161:0.31876571 210:0.24088545 
-1 6:0.17327509 7:0.27847839 13:0.26591411 88:0.4469792 105:0.4631452 158:0.39307072 162:0.38782265 210:0.32017236 
-0.2285098140905615 2:0.079499031 6:0.030499483 46:0.1558643 62:0.4944883 69:0.1639266 92:0.19650681 131:0.50597596 155:0.58363978 180:0.17518807 190:0.17638746 
-1 6:0.12236715 157:0.62243973 189:0.77304273 
-1 3:0.16384015 48:0.32533655 131:0.77094967 201:0.52244536 
-1 9:0.34660939 40:0.82892937 82:0.4390194 
-1 6:0.14803112 10:0.53992003 76:0.8285971 
-1 6:0.12153789 69:0.65323381 187:0.74733803 
-1 116:0.45942455 131:0.39828975 138:0.26441933 173:0.52981737 206:0.52883866 
-1 6:0.081728667 116:0.52132151 138:0.60008758 173:0.60119815 
-0.7392091140213474 3:0.18226065 6:0.077544763 10:0.28283223 54:0.38739618 101:0.30157831 153:0.5606854 173:0.57042125 
-0.3640115743594007 6:0.18874932 116:0.60198632 138:0.34646999 173:0.69422238 
-1 3:0.20250409 6:0.08615755 10:0.314246 82:0.4213394 88:0.44450282 162:0.38567401 167:0.57355412 
-1 1:0.17046196 2:0.17749152 49:0.36598663 96:0.77200448 100:0.30282095 115:0.3432227 
-1 1:0.21681818 6:0.086611681 7:0.27839525 58:0.41031722 74:0.40876489 101:0.33684034 193:0.56388725 206:0.3179704 
-0.488411740663836 6:0.045380741 12:0.1878203 32:0.17735598 55:0.7717461 100:0.40362596 119:0.28148709 132:0.30572543 
-1 6:0.24724958 8:0.38325047 13:0.25295866 27:0.38607051 72:0.49066693 103:0.40304453 129:0.41922461 
-1 6:0.10275302 10:0.37477536 13:0.31537688 101:0.39961541 193:0.66897581 206:0.37722879 
-1 6:0.078250518 100:0.69597675 138:0.28727474 158:0.35501915 183:0.54856891 
-1 6:0.20480459 8:0.3174584 11:0.2095336 27:0.63958887 35:0.26946898 80:0.32979674 103:0.33385444 209:0.33385444 
-1 3:0.18187359 114:0.35598336 130:0.28470257 134:0.7476307 208:0.34411758 210:0.28596106 
-1 6:0.12053544 31:0.24155421 40:0.27824496 50:0.21840335 52:0.31716224 64:0.26889432 80:0.58229451 91:0.28443425 134:0.29114725 158:0.27343199 210:0.22272166 
-1 2:0.12019584 6:0.046112648 37:0.23138929 47:0.2071041 55:0.52279524 58:0.65536718 90:0.27247247 101:0.17933609 211:0.27887235 
-0.8371943676131364 3:0.076104918 6:0.097138978 21:0.14949092 37:0.64991336 55:0.36709954 64:0.14446716 68:0.37452214 72:0.19277236 88:0.16705268 101:0.1259273 105:0.17309451 114:0.14896107 117:0.20653968 162:0.14494369 164:0.18238109 206:0.1188728 
-1 6:0.1049664 26:0.45796792 90:0.62023013 91:0.49539019 130:0.38620018 
-1 64:0.44789216 109:0.48302799 204:0.75238061 
-1 5:0.48634442 47:0.56027861 112:0.6704901 
-0.7315876228171347 6:0.061322058 13:0.56464226 40:0.28311265 114:0.28210918 134:0.59248131 166:0.4082233 
-0.9885063836518049 6:0.16983521 7:0.54589999 134:0.8204567 
-1 6:0.1207633 113:0.6230403 130:0.44432131 163:0.63230972 
-1 3:0.389409 6:0.16567834 64:0.7392009 97:0.26896351 112:0.29682565 138:0.20274712 209:0.27007427 
-0.4925401077151507 6:0.19344039 31:0.38765645 40:0.44653933 64:0.43153302 91:0.45647216 134:0.46724548 
-1 6:0.10698015 13:0.32835109 127:0.63690653 175:0.68926836 
-1 2:0.19128877 6:0.14677433 11:0.22524511 33:0.75362223 78:0.26942031 130:0.27001152 179:0.42153357 
-0.2167167199762588 3:0.11103418 6:0.04724069 33:0.24256029 50:0.17119488 60:0.2437235 62:0.76591359 84:0.29302396 120:0.27320677 130:0.17381146 206:0.17343089 210:0.17457977 
-1 78:0.47415435 138:0.47415435 179:0.74185935 
-1 6:0.1962711 33:0.50388315 48:0.45801463 53:0.37619472 80:0.47408291 210:0.36266369 
-1 3:0.32082543 6:0.13649865 7:0.43874654 19:0.50111634 134:0.65941114 
-1 6:0.10501229 12:0.86924274 114:0.48310399 
-1 2:0.069669864 6:0.16037138 9:0.30959368 12:0.11062329 13:0.16407449 25:0.10685247 31:0.1071286 32:0.10445996 34:0.11218838 58:0.75974907 71:0.11625551 91:0.12614578 99:0.18006761 113:0.27579525 114:0.12296347 128:0.16297337 208:0.1188648 209:0.13071166 
-1 2:0.069669864 6:0.16037138 9:0.30959368 12:0.11062329 13:0.16407449 25:0.10685247 31:0.1071286 32:0.10445996 34:0.11218838 58:0.75974907 71:0.11625551 91:0.12614578 99:0.18006761 113:0.27579525 114:0.12296347 128:0.16297337 208:0.1188648 209:0.13071166 
-1 7:0.30480909 47:0.42590348 66:0.46374719 134:0.45811076 190:0.54842568 
-1 6:0.16802256 11:0.51570679 13:0.51570679 35:0.6632205 
-0.5467676170997562 5:0.54465058 11:0.42879005 88:0.7207599 
-1 34:0.48723885 78:0.42616705 100:0.51623484 134:0.56078654 
-0.1376532892235667 2:0.15201985 3:0.13707915 10:0.21271953 31:0.23375493 37:0.29265378 60:0.30089302 104:0.37970538 157:0.59332603 210:0.4310609 
-0.4373368166241461 1:0.26932253 3:0.25286802 6:0.10758543 58:0.50967899 91:0.50775075 112:0.57824304 
-1 6:0.083685771 11:0.25685432 13:0.5137089 35:0.3303254 208:0.74431905 
-1 6:0.032124883 7:0.10325876 9:0.2480657 32:0.37664932 68:0.55736287 101:0.24987301 158:0.14574918 177:0.20697919 206:0.5896874 
-1 11:0.28982182 13:0.28982182 50:0.3421924 78:0.34666185 138:0.34666185 190:0.54609859 208:0.4199267 
-1 6:0.32903162 7:0.52880189 23:0.78237251 
-0.6686509955076917 2:0.52566397 3:0.15800029 10:0.24518497 33:0.34516035 37:0.33731886 58:0.63692853 
-1 1:0.17348911 6:0.069303152 21:0.31995989 69:0.372486 76:0.38792108 90:0.40950156 131:0.38323851 206:0.50885402 
-1 6:0.13954128 100:0.62055512 131:0.77164731 
-0.4156828682708968 6:0.11058451 17:0.54079547 27:0.51802014 148:0.65342671 
-1 3:0.42601021 6:0.18125064 66:0.88637662 
-1 3:0.24501479 6:0.10424419 53:0.39961168 143:0.64099883 180:0.59877534 
-1 85:1 
-1 40:0.53638621 179:0.66733993 208:0.51666938 
-1 113:1 
-1 13:0.5200931 115:0.85410958 
-1 25:1 
-0.9510739889404172 7:0.48686709 100:0.673601 138:0.55607745 
-1 6:0.25072963 9:0.96805715 
-1 6:0.19028747 60:0.98172841 
-1 47:0.68661207 85:0.72702398 
-1 6:1 
-1 10:0.43644118 64:0.53388309 109:0.57576466 206:0.4392983 
-1 3:0.46367037 47:0.88600778 
-1 174:1 
-1 11:0.31100083 91:0.47821524 112:0.54460704 134:0.48950172 138:0.3719945 
-1 64:1 
-1 64:0.55845895 134:0.60467543 158:0.56788311 
-1 1:0.44481256 115:0.89562369 
-1 6:0.045203674 21:0.20869704 49:0.24295772 55:0.25624501 58:0.21414947 68:0.26142611 74:0.21333929 90:0.80130432 210:0.1670519 
-1 6:0.063005538 19:0.11565355 22:0.15950927 40:0.43632745 45:0.15878756 78:0.11565355 169:0.83886067 186:0.15669477 
-1 6:0.23176039 34:0.9727729 
-1 6:0.17691611 70:0.98422593 
-1 6:0.1476531 76:0.82648119 130:0.5432563 
-1 3:1 
-1 6:0.091770421 10:0.33471806 101:0.35690312 120:0.53073527 192:0.59747334 206:0.33690926 
-1 52:0.61967369 70:0.65507914 206:0.43229138 
-1 80:0.48658115 88:0.51964712 106:0.53844132 162:0.45087315 
-0.01533061472466696 1:0.19328203 2:0.20125265 10:0.28161039 29:0.69821551 71:0.3358228 117:0.49249687 
-0.2849043071674436 1:0.19328203 2:0.20125265 10:0.28161039 29:0.69821551 71:0.3358228 117:0.49249687 
-0.5282442926081978 6:0.05649751 52:0.2973213 91:0.26664069 134:0.81880125 154:0.40850378 
-1 85:0.72816059 162:0.68540656 
-0.1448210488062338 12:0.27080636 170:0.96263384 
-1 6:0.07868537 13:0.24150673 80:0.38012105 95:0.44604192 170:0.57881157 176:0.50696634 
-1 2:0.25187779 6:0.1932638 192:0.6291241 206:0.70951361 
-1 6:0.090367471 7:0.096822486 29:0.13620036 46:0.76968879 51:0.1868434 53:0.11547213 60:0.15540753 76:0.1686092 111:0.19825859 139:0.19611314 165:0.18366734 171:0.2215818 206:0.33175881 
-1 6:0.14105975 26:0.61544307 75:0.77545598 
-1 12:0.64601408 161:0.76332549 
-0.7245169749024112 3:0.058649856 6:0.099812859 10:0.091012894 18:0.10327553 29:0.22565437 64:0.66799693 134:0.12054645 172:0.18355648 193:0.64983397 
-1 2:0.16205401 6:0.062171367 10:0.1133801 23:0.88698744 32:0.24297682 101:0.24178993 114:0.14300819 120:0.17977763 
-0.962632053953888 64:0.53691732 124:0.84363487 
-1 2:0.33648736 10:0.47084268 108:0.81552647 
-1 6:0.043483928 66:0.21265104 78:0.159639 89:0.22434167 117:0.27737033 124:0.60968097 134:0.21006645 162:0.19465062 194:0.56620628 210:0.16069652 
-1 65:0.69563814 88:0.71839236 
-1 3:0.61623523 6:0.19663808 7:0.21068408 11:0.20117853 41:0.32745319 48:0.30591399 53:0.2512654 100:0.29149025 141:0.38447002 
-1 6:0.297066 7:0.95485695 
-1 7:1 
-1 3:0.35361293 6:0.075224269 7:0.12089639 27:0.17618962 41:0.18790175 47:0.16892604 100:0.66906076 129:0.19132003 141:0.44123931 158:0.1706446 211:0.22746437 
-1 6:0.19028747 60:0.98172841 
-1 6:0.17305152 47:0.77722041 50:0.31355949 91:0.40835938 138:0.31765496 
-1 50:0.53358416 135:0.84574697 
-1 60:0.51084236 135:0.56874525 191:0.64464636 
-1 14:0.2474738 95:0.30276972 135:0.92037341 
-1 9:0.39112895 67:0.52014939 199:0.75925144 
-1 2:0.34956825 6:0.13411045 49:0.72080796 71:0.5833115 
-1 6:0.12040823 9:0.2324457 10:0.21958497 19:0.22102246 25:0.24067732 27:0.2820191 60:0.31060423 106:0.64367585 186:0.29945526 207:0.31060423 
-1 10:0.44069545 60:0.6233663 106:0.64591174 
-0.3646245831197481 1:0.30169372 102:0.73483206 115:0.60745596 
-1 6:0.17918292 125:0.73155098 206:0.65781962 
-0.7063416187993021 6:0.15002649 10:0.3647984 33:0.5135471 48:0.23339936 53:0.19170481 54:0.24983285 62:0.27026444 108:0.31592599 175:0.32220467 179:0.28724915 206:0.18359334 210:0.18480954 
-1 2:0.2585339 6:0.099185488 10:0.36176334 31:0.39753739 47:0.44546826 167:0.66028161 
-1 11:0.42165757 15:0.60896722 17:0.67183616 
-0.1751958396774803 34:0.44604209 113:0.54825773 123:0.70743192 
-1 118:0.69493012 141:0.71907728 
-1 11:0.33413161 17:0.53237916 22:0.55121308 45:0.54871909 
-1 11:1 
-0.08813430734469879 3:0.19640271 6:0.083561656 10:0.30477789 13:0.25647338 138:0.30677309 167:0.55627315 202:0.62627926 
-0.9816020507747854 28:1 
-1 6:0.30978278 13:0.95080736 
-1 6:0.297066 7:0.95485695 
-1 13:0.61384318 35:0.78942799 
-1 7:0.3805351 50:0.42902628 138:0.43462988 181:0.6944252 
-0.2391143684035727 6:0.14786442 7:0.47527947 181:0.8673209 
-1 6:0.11756742 7:0.37789605 50:0.42605094 138:0.43161568 181:0.68960929 
-1 3:0.46473071 6:0.098862414 50:0.35826612 86:0.53135916 97:0.48148206 138:0.36294551 
-1 6:0.17866978 125:0.72945602 210:0.66028102 
-1 6:0.1325106 13:0.40671096 110:0.76113671 130:0.48754286 
-1 7:0.41803088 56:0.71082409 71:0.56566712 
-1 7:0.41847866 112:0.69975324 208:0.57898274 
-1 7:1 
-1 6:0.10643945 7:0.34212748 100:0.4733477 158:0.48291108 211:0.64370667 
-1 13:0.53159357 66:0.84699958 
-1 6:0.12752649 66:0.62364743 211:0.77123335 
-1 6:0.061409247 12:0.50831709 52:0.32316958 53:0.23540739 58:0.29092232 101:0.23882589 161:0.60062356 162:0.27489118 
-1 6:0.25072963 9:0.96805715 
-1 12:0.64601408 66:0.76332549 
-1 6:0.065061169 21:0.30037543 32:0.25427059 34:0.81924817 60:0.33566267 206:0.23885376 
-1 2:0.22953363 3:0.20697477 6:0.088059651 29:0.39816617 90:0.5203308 129:0.44792926 141:0.51652705 
-1 6:0.13862259 13:0.42547031 22:0.70189348 25:0.55416996 
-1 6:0.30910004 7:0.33117929 19:0.37825792 22:0.52169301 78:0.37825792 91:0.48626715 
-0.6534106511246074 6:0.085284019 67:0.43789615 113:0.43999611 127:0.50773856 181:0.50024617 210:0.31517035 
-1 6:0.043095622 18:0.17836273 31:0.1727281 71:0.1874438 72:0.25656986 105:0.6911392 114:0.19825934 137:0.3066623 147:0.47382414 
-1 1:0.24961505 6:0.099712944 11:0.30604606 19:0.366068 96:0.56524044 130:0.36687129 186:0.49597217 
-0.8941158065231811 74:0.57835268 169:0.81578684 
-1 85:1 
-1 19:0.40410292 169:0.73276181 186:0.54750429 
-1 6:0.051099154 52:0.26891214 105:0.81949456 110:0.29351193 169:0.34016903 208:0.22724345 
-1 53:0.7222211 138:0.69166226 
-1 6:0.13817579 7:0.44413736 18:0.57187736 82:0.67572609 
-1 7:0.17722509 18:0.22819745 31:0.22098851 33:0.28310225 47:0.24763298 100:0.4903965 156:0.34200051 206:0.60725548 
-1 60:0.8147715 206:0.5797822 
-1 3:0.36927217 4:0.310075 6:0.078555467 11:0.24110803 50:0.28467606 61:0.43971047 85:0.37357891 87:0.37798287 97:0.38258268 
-1 1:0.16640643 2:0.17326875 6:0.066473857 10:0.24245285 23:0.31612353 101:0.2585226 115:0.33505695 131:0.73518566 206:0.24404005 
-1 3:0.30826246 6:0.043717884 38:0.48642587 47:0.39269729 87:0.42071193 89:0.22554869 97:0.42583173 138:0.3209958 
-1 161:1 
-1 3:0.23302584 50:0.35928425 57:0.59025018 97:0.48285033 209:0.48484438 
-0.1913305172552088 3:0.33598321 6:0.14294769 13:0.43874521 179:0.82108701 
-1 9:0.38418033 25:0.39778533 31:0.3988133 53:0.38143989 138:0.36530028 157:0.50614186 
-1 6:0.13552322 13:0.20797875 35:0.26746937 59:0.416667 85:0.32224757 87:0.65209281 91:0.31980175 138:0.24876767 
-0.309402432326287 13:1 
-0.3239261891391178 6:0.067087393 34:0.28158737 40:0.30973014 85:0.31904126 189:0.84763657 
-1 85:0.60141981 189:0.79893317 
-1 6:0.070475892 53:0.27016364 85:0.67031104 91:0.33261184 110:0.40481131 189:0.4452247 
-1 5:0.4593784 20:0.57623652 50:0.42700856 100:0.52401016 
-1 6:0.11280589 13:0.34623187 32:0.44086544 114:0.51895809 164:0.63538846 
-1 18:0.64601408 161:0.76332549 
-1 6:0.11405543 13:0.35006704 35:0.45020085 78:0.4187224 103:0.55776942 138:0.4187224 
-1 10:0.70479608 78:0.70940996 
-1 15:0.62528019 18:0.58381648 78:0.51786388 
-0.2943435179814565 3:0.23095354 27:0.46029526 78:0.36074008 138:0.36074008 184:0.68885552 
-1 13:1 
-1 10:0.70479608 78:0.70940996 
-1 64:1 
-0.6522384958821277 3:0.28963352 102:0.75136235 109:0.59293089 
-1 15:0.62528019 18:0.58381648 78:0.51786388 
-1 3:0.23095354 27:0.46029526 78:0.36074008 138:0.36074008 184:0.68885552 
-1 33:0.45643779 138:0.32635356 167:0.59177851 193:0.57875391 
-1 3:0.18686571 8:0.3697069 11:0.24401943 29:0.35948151 38:0.44229963 64:0.35472028 97:0.38720242 207:0.41017609 
-1 25:0.4953667 182:0.86868396 
-1 1:0.19757744 7:0.25369007 19:0.28975327 35:0.31153616 53:0.60511015 71:0.34328596 102:0.48123718 
-1 5:0.71564748 6:0.18356531 19:0.67390835 
-1 3:0.27491567 6:0.23393168 27:0.54791271 65:0.584335 125:0.47753702 
-1 6:0.23895706 7:0.38403891 74:0.5638804 190:0.6909794 
-0.06845946174106898 2:0.048873756 3:0.088140704 6:0.018750219 7:0.060268684 21:0.17313262 29:0.084780065 53:0.071877452 80:0.090580411 101:0.072921229 109:0.09021984 133:0.6315916 148:0.11079213 152:0.40671898 200:0.14052945 205:0.56211769 206:0.068836151 210:0.069292152 
-1 6:0.031266627 23:0.14869178 133:0.63192025 152:0.22607253 179:0.17959452 205:0.70301278 
-1 2:0.55674586 101:0.83068288 
-1 1:0.24629951 3:0.23125162 69:0.52881199 185:0.68974458 206:0.36120566 
-1 2:0.29762256 26:0.49817423 34:0.47925731 100:0.50777832 206:0.41918594 
-1 4:0.23197398 5:0.22911708 6:0.11753817 11:0.36075669 32:0.22968001 50:0.42594494 86:0.31586819 88:0.30320063 103:0.28740059 126:0.34988185 181:0.34471886 
-1 6:0.092307178 32:0.72150593 74:0.43564486 110:0.53020953 
-1 53:0.6231163 87:0.78212919 
-1 53:0.33426147 62:0.94248038 
-1 2:0.54570558 6:0.10467887 70:0.58235319 95:0.59339069 
-1 6:0.083303074 33:0.42772486 62:0.45019767 131:0.46065647 165:0.50792792 208:0.37045776 
-1 2:0.22342263 6:0.042857595 7:0.13775683 9:0.16547147 11:0.13154158 18:0.17737759 19:0.15733959 21:0.19786562 22:0.21700263 25:0.17133133 45:0.21602079 48:0.20002339 66:0.20958806 82:0.20958806 85:0.20381387 101:0.33335394 128:0.26131772 130:0.31536984 143:0.2635319 186:0.21317367 195:0.27902532 210:0.15838188 
-1 3:0.19133295 6:0.24421401 7:0.26165839 18:0.33691494 40:0.37583036 114:0.37449827 120:0.47078709 135:0.46758586 
-1 3:0.22673437 6:0.19293317 7:0.3100718 114:0.4437899 120:0.55789457 135:0.55410104 
-1 13:1 
-1 6:0.16600068 7:0.53357469 65:0.82930201 
-1 6:0.039405324 10:0.28744922 21:0.18192712 29:0.17817316 33:0.40465834 84:0.24442285 111:0.25935585 129:0.60132412 131:0.21790694 139:0.25654923 148:0.23283994 162:0.17639324 
-1 2:0.21749008 6:0.083439193 9:0.64431057 70:0.46419185 130:0.30699569 164:0.46997811 
-1 2:0.54617685 25:0.83766989 
-1 2:0.37551597 25:0.57592778 45:0.72615077 
-1 2:0.14730008 6:0.11302216 34:0.47439054 71:0.24579415 84:0.35052622 114:0.25997651 148:0.6678304 210:0.20883886 
-1 6:0.12193815 9:0.23539918 23:0.28994495 25:0.24373538 29:0.27567475 34:0.25590682 54:0.30458777 71:0.53036826 95:0.34561397 117:0.38890259 
-1 3:0.19173355 6:0.08157511 50:0.29561891 60:0.42086116 85:0.77587805 130:0.30013722 
-1 6:0.067832237 21:0.31316894 76:0.3796877 192:0.44162327 206:0.74708108 
-1 3:0.27103625 6:0.1153153 9:0.44522779 21:0.5323895 71:0.50156227 130:0.42427664 
-0.1546636136667583 2:0.43037113 6:0.16511015 49:0.88742286 
-1 6:0.096049278 26:0.41906257 32:0.37537762 94:0.5444723 130:0.35339166 163:0.50290853 
-0.5915106512603495 2:1 
-1 65:0.55506193 94:0.62982555 161:0.54334706 
-1 6:0.12826157 44:0.69316842 131:0.70927182 
-1 74:0.6398335 94:0.76851356 
-1 3:1 
-0.06381562618248271 1:0.15949952 3:0.14975475 6:0.19114433 26:0.27798728 64:0.28427392 78:0.23391086 91:0.30070266 141:0.37372854 148:0.37648071 163:0.33360692 172:0.4686875 
-1 6:0.10409043 157:0.52947232 162:0.4659484 164:0.58629788 210:0.38467016 
-0.3225068820058593 3:0.17341108 131:0.8159857 192:0.48034383 206:0.27086109 
-1 1:0.14529222 53:0.22248947 101:0.22572037 102:0.35388666 109:0.55853299 114:0.2670076 115:0.29254379 131:0.32095141 158:0.26332233 206:0.21307542 208:0.2581076 
-1 6:0.13296398 10:0.48496503 101:0.51710844 206:0.48813981 210:0.49137347 
-1 1:0.26195628 6:0.10464286 69:0.56242751 175:0.67420928 210:0.38671168 
-0.7826322362186767 6:0.081712244 10:0.29803246 30:0.46320029 58:0.38710646 123:0.54396155 211:0.49416564 
-1 6:0.10078971 19:0.37002106 30:0.5713443 50:0.36525044 71:0.43838344 208:0.44822273 
-1 6:0.099020928 31:0.39687782 35:0.3908565 138:0.36352745 192:0.64467793 206:0.36352745 
-0.9766738091045948 6:0.097123678 183:0.68087766 192:0.63232584 206:0.35656223 
-1 92:0.84469066 125:0.53525478 
-1 48:0.76823875 101:0.64016343 
-1 3:0.297596 6:0.12661543 94:0.71774196 97:0.61664547 
-1 2:0.23503148 3:0.21193229 6:0.09016888 48:0.42083287 54:0.45046342 58:0.42716922 130:0.33175606 138:0.33102965 206:0.33102965 
-1 18:0.64601408 161:0.76332549 
-1 3:0.22887967 32:0.38057568 114:0.89597782 
-1 56:0.52758867 134:0.46632023 172:0.71006735 
-1 12:0.50499303 48:0.56946549 50:0.44216969 101:0.47452824 
-1 6:0.099423758 12:0.41149174 48:0.4640269 50:0.36030037 101:0.38666762 110:0.57108694 
-1 2:0.27621235 32:0.8282819 114:0.48749957 
-1 6:0.14395872 66:0.70400655 80:0.69544998 
-1 2:0.23503148 3:0.21193229 6:0.09016888 48:0.42083287 54:0.45046342 58:0.42716922 130:0.33175606 138:0.33102965 206:0.33102965 
-1 11:0.61384318 35:0.78942799 
-1 53:0.4522447 105:0.63066423 106:0.63066423 
-1 6:0.10121246 11:0.31064849 19:0.37157306 67:0.51968174 85:0.48132667 186:0.50343077 
-1 67:0.6082763 74:0.55910651 85:0.56338252 
-1 6:0.30978278 11:0.95080736 
-1 35:0.63867492 85:0.76947667 
-0.4439545672314713 11:0.38446941 13:0.38446941 74:0.59118534 85:0.59570668 
-1 6:0.17488981 13:0.53678424 74:0.82539459 
-0.9738300236789989 2:0.24241362 3:0.43717751 6:0.093001006 154:0.67244137 190:0.53785211 
-1 6:0.20076631 7:0.64532157 138:0.73705696 
-1 67:0.6082763 74:0.55910651 85:0.56338252 
-0.8884713151348014 2:1 
-1 18:0.60146369 147:0.79890014 
-0.6472258947384583 2:0.32152372 25:0.49312002 48:0.57570053 114:0.56747163 
-1 161:1 
-1 6:0.16564533 32:0.64737132 47:0.74395698 
-1 3:0.34857329 6:0.14830427 91:0.69992382 125:0.60548258 
-1 20:0.470043 33:0.49351723 38:0.53471981 78:0.3528654 130:0.35363972 
-1 6:0.098965985 10:0.36096274 76:0.55395737 87:0.47619152 100:0.44011241 130:0.36412302 
-1 4:0.28641274 6:0.14512157 20:0.35484665 63:0.43534491 76:0.40615553 100:0.64537107 
-1 6:0.11941838 11:0.36652738 13:0.36652738 35:0.47136954 114:0.54937851 130:0.43937299 
-1 3:0.23630007 13:0.30857352 103:0.49165689 130:0.36990107 144:0.68585083 
-1 6:0.14897608 131:0.8238207 206:0.54692374 
-1 89:0.57315482 91:0.5243097 94:0.62975621 
-0.2103059615598139 3:0.18480982 74:0.37109211 85:0.37393019 97:0.38294243 116:0.50155183 138:0.28866546 190:0.45473651 
-1 11:0.49903994 32:0.63543966 50:0.58921607 
-1 2:0.1735401 6:0.066577961 105:0.71182218 129:0.67731853 
-1 2:0.35954322 6:0.13793731 25:0.55143042 101:0.53645015 210:0.50975259 
-0.04968923421463457 9:0.65879348 65:0.42621329 66:0.41721783 69:0.45854408 
-1 18:0.58273292 100:0.62614695 130:0.51803701 
-1 12:0.5819682 68:0.81321154 
-1 52:1 
-1 53:0.55359645 100:0.64222121 138:0.5301725 
-1 34:1 
-1 6:0.10396531 88:0.53637637 158:0.47168603 169:0.69210107 
-1 6:0.23485965 18:0.97202929 
-1 2:0.21950433 3:0.19793116 6:0.1684239 21:0.38879107 46:0.43035605 71:0.3662787 88:0.43446512 164:0.47433073 
-1 23:0.77410601 101:0.63305599 
-1 6:0.19621054 34:0.41177937 48:0.45787329 101:0.76308009 
-1 18:1 
-1 6:0.10427605 66:0.50994494 67:0.53541191 117:0.66514416 
-1 12:0.72874663 101:0.68478343 
-1 1:0.21039195 3:0.39507545 6:0.084044613 31:0.33685246 45:0.42362115 47:0.37746659 87:0.40439482 163:0.44005279 
-1 6:0.14219004 18:0.58849139 42:0.79590193 
-1 3:0.64349485 6:0.1825213 48:0.42592834 53:0.34984034 56:0.49879569 
-0.666548575205737 12:0.54963133 18:0.54963133 58:0.62913495 
-1 6:0.079334573 13:0.24349931 18:0.32834729 31:0.31797453 45:0.39988051 47:0.35631255 87:0.38173167 145:0.54121367 
-1 9:1 
-1 65:1 
-0.7651907317965255 6:0.074834001 13:0.22968584 29:0.33836572 97:0.36445831 101:0.29103592 109:0.36007641 111:0.49253842 139:0.48720841 
-1 3:1 
-1 10:0.46714577 28:0.63161947 80:0.61873393 
-0.36004127791922 2:0.33031112 3:0.29784772 6:0.25344506 23:0.60264252 80:0.61218371 
-0.01000458208145485 1:0.20200411 6:0.080693951 26:0.35206735 81:0.48414168 95:0.45742791 163:0.42250892 164:0.45451531 
-1 6:0.28610983 13:0.43907432 127:0.8516777 
-1 11:0.27125539 28:0.43583552 35:0.34884577 50:0.32027103 64:0.39431198 94:0.50098509 130:0.32516613 
-1 6:0.070601705 11:0.86678331 74:0.33320561 207:0.36424732 
-0.6563760906773748 9:0.40884642 69:0.56914356 99:0.71338644 
-1 46:0.76421834 60:0.38575746 159:0.51687669 
-1 1:0.40280292 6:0.080453211 29:0.72754628 179:0.46212072 210:0.29731792 
-0.9973947757200371 1:0.19683561 2:0.20495277 6:0.078629304 97:0.38294229 104:0.51191782 115:0.39632566 203:0.5893122 
-1 6:0.10891756 69:0.58540292 74:0.51403778 94:0.61741845 
-1 3:0.5182979 6:0.22051558 13:0.33841105 25:0.44077633 31:0.44191539 53:0.42266434 
-1 1:0.26832249 4:0.42308555 11:0.32898273 63:0.64308642 100:0.47666747 
-1 2:0.41886726 3:0.37770045 6:0.16069674 115:0.80998096 
-1 6:0.089493877 15:0.39670036 18:0.37039428 27:0.41922353 147:0.49197989 148:0.52880542 
-1 6:0.12946104 9:0.49984395 40:0.59769779 58:0.6133133 
-1 40:0.45390882 179:0.56472645 184:0.68923931 
-0.7270630118327774 5:0.60965228 6:0.15637729 11:0.47996429 32:0.61115017 
-1 6:0.104677 32:0.4090963 66:0.51190576 125:0.42736533 141:0.61399862 
-0.6818168537296631 9:0.43043279 32:0.43569671 66:0.54519109 67:0.57241826 
-1 6:0.2270455 32:0.44366703 66:0.55516442 141:0.66588465 
-1 6:0.1332787 32:0.520877 66:0.65177747 88:0.34380479 143:0.40976621 
-1 1:0.34477974 26:0.60090702 163:0.72113638 
-0.2289106865660995 13:0.40735485 18:0.54929872 147:0.7296115 
-1 3:0.11887587 11:0.15523459 26:0.66200212 27:0.23692211 125:0.20649106 175:0.651731 
-1 6:0.068715833 7:0.22087277 32:0.26855366 44:0.37136334 53:0.2634166 94:0.38952783 161:0.67208686 206:0.25227083 
-1 6:0.074008345 7:0.23788445 32:0.28923774 53:0.28370502 94:0.41952938 161:0.72385118 206:0.2717008 
-1 6:0.071408295 38:0.39726114 91:0.67402487 97:0.34777436 130:0.26273072 143:0.43909052 
-0.5103250725118074 13:0.22321341 40:0.33575894 66:0.35565078 125:0.29691561 127:0.43296972 143:0.44718829 158:0.32995111 161:0.35565078 
-1 3:0.18731487 7:0.25616345 25:0.31859634 31:0.31941966 32:0.31146272 158:0.36157331 206:0.58515649 208:0.35441286 
-0.6674077504091915 3:0.094747085 12:0.33367706 32:0.47262974 58:0.38194311 67:0.41396059 74:0.19024906 105:0.21549462 130:0.14831586 137:0.28684854 162:0.3608963 206:0.14799111 
-1 6:0.07286804 7:0.70265752 100:0.32405204 128:0.44430187 161:0.35634923 206:0.26751449 
-1 17:0.61289755 50:0.45417549 89:0.646592 
-1 17:0.50734249 50:0.37595602 78:0.38086646 140:0.67542684 
-1 17:0.56740768 26:0.50622227 61:0.64945172 
-1 113:0.72994921 134:0.68350139 
-1 13:0.34960757 122:0.75827483 134:0.55026705 
-1 13:1 
-1 134:1 
-1 6:0.20270352 134:0.97924016 
-1 18:0.60330484 71:0.31701061 80:0.3520982 134:0.3520982 147:0.40067283 161:0.35643029 
-1 13:1 
-1 6:0.061796966 7:0.19863351 19:0.22687016 64:0.2757173 74:0.29165154 96:0.35030702 97:0.30096504 103:0.30220795 130:0.227368 134:0.29853488 162:0.27662675 186:0.3073781 190:0.35738999 
-1 6:1 
-1 2:0.35430183 10:0.24788512 21:0.31377373 48:0.3171955 54:0.33952901 58:0.32197142 91:0.32075332 101:0.26431491 114:0.31266159 138:0.24950788 206:0.24950788 
-1 6:0.20877128 27:0.97796449 
-0.9641592941343168 1:0.21534368 10:0.31375404 13:0.26402689 21:0.39715081 23:0.40908998 53:0.32976095 71:0.37415438 101:0.33454961 206:0.315808 
-0.2501499428669765 6:0.048937951 21:0.22593751 23:0.23272965 46:0.75027643 51:0.30355171 76:0.27392784 171:0.35998881 210:0.18085207 
-0.7191404330253093 18:0.15484266 25:0.14956454 32:0.14621567 71:0.16272624 76:0.8376646 109:0.18001777 125:0.15274523 131:0.20688824 147:0.2056713 164:0.2107304 206:0.13735039 
-1 6:0.39018322 74:0.92073724 
-1 12:1 
-0.583063253496573 7:0.40248415 73:0.79104664 130:0.46070785 
-1 168:1 
-1 3:0.20063075 6:0.085360518 31:0.34212663 97:0.83144961 208:0.37960743 
-1 6:0.11472778 34:0.48154939 125:0.46839966 155:0.73181246 
-1 6:0.11884815 9:0.45886799 40:0.54870001 130:0.43727496 162:0.53200958 
-1 113:0.75744381 208:0.65290036 
-1 6:0.059873913 119:0.55707765 132:0.80672893 138:0.10990511 157:0.15227904 
-1 5:0.45865257 6:0.23529099 10:0.42909329 50:0.42633387 207:0.60695498 
-1 97:0.73845665 208:0.67430096 
-1 6:0.095788803 11:0.29400181 35:0.37809862 74:0.45207643 94:0.54299575 105:0.51206581 
-1 3:0.32787419 6:0.13949762 41:0.69689868 64:0.62239149 
-1 40:0.60042076 143:0.79968425 
-1 38:0.83296723 210:0.55332233 
-0.6185424684157181 81:0.75822139 113:0.65199718 
-1 113:1 
-1 6:0.072961335 66:0.71361072 134:0.35246882 141:0.42796562 190:0.42195681 
-1 74:0.5506189 85:0.55483 105:0.62368461 
-1 1:0.12541236 3:0.35325037 6:0.15029425 10:0.36544948 54:0.25027874 55:0.28398983 58:0.47467284 60:0.25846532 97:0.24398886 112:0.26926386 130:0.36864935 
-1 41:0.44605264 44:0.48253128 69:0.47988837 191:0.58129833 
-1 6:0.099541052 7:0.15997701 9:0.19216202 10:0.54459016 72:0.29630892 101:0.19356189 112:0.26750333 141:0.29193646 143:0.3060396 185:0.34891224 206:0.36543694 
-1 3:0.38378427 6:0.081642633 38:0.45419717 47:0.36667866 53:0.31297044 97:0.39761787 138:0.29972794 209:0.39925994 
-1 6:0.10490777 7:0.33720424 19:0.38513935 53:0.40215548 60:0.54123871 186:0.52181125 
-0.3032203127610438 28:1 
-1 10:0.5142833 80:0.68116753 210:0.52107916 
-1 162:1 
-1 6:0.11174305 10:0.81512977 157:0.56839858 
-1 3:0.21486227 6:0.091415475 10:0.33342345 31:0.36639502 101:0.35552271 177:0.58898584 206:0.33560617 210:0.33782938 
-1 6:0.056609675 10:0.20647481 31:0.45378555 37:0.28406247 101:0.22015994 177:0.72946724 206:0.20782648 210:0.20920322 
-0.764353669579403 6:0.042833465 10:0.15622827 95:0.485618 101:0.16658306 177:0.82792233 206:0.15725101 
-1 19:0.52193836 81:0.85298321 
-0.072903940076173 1:0.17977145 3:0.33757607 6:0.071812738 10:0.26192558 187:0.88315488 
-1 2:0.3421278 6:0.087503934 40:0.20199477 91:0.20648794 125:0.17862637 187:0.2690314 189:0.82919672 
-1 3:0.41609225 6:0.088515529 29:0.40022744 47:0.39754665 64:0.39492655 101:0.34424457 112:0.47574741 
-1 13:1 
-1 3:0.30854748 6:0.13127486 85:0.6242916 86:0.70556741 
-1 6:0.10759428 15:0.2384671 18:0.22265382 27:0.25200638 35:0.21234867 37:0.26994942 65:0.26875841 103:0.26308612 121:0.35812964 194:0.35024748 207:0.55509891 
-0.6236793228502668 15:0.49985808 17:0.55146274 27:0.52823816 50:0.40865045 
-1 15:0.28363425 17:0.62583233 27:0.29973795 87:0.30788257 126:0.38094466 138:0.23490898 148:0.3780872 
-1 6:0.10224031 7:0.32863024 10:0.37290533 31:0.40978118 33:0.5249593 101:0.39762144 206:0.37534652 
-1 164:1 
-1 6:1 
-1 6:0.14513953 78:0.53283892 179:0.83367691 
-1 31:0.31946102 54:0.79638099 177:0.51353868 
-1 6:0.082002016 10:0.29908935 47:0.36829274 78:0.30104731 174:0.60320891 179:0.471017 210:0.30304158 
-0.4370450546105656 2:0.099439156 3:0.26899833 6:0.038149431 10:0.41743189 21:0.3522578 29:0.17249458 51:0.23663282 53:0.14624277 54:0.38117194 58:0.18073046 60:0.19682001 91:0.18004671 101:0.29673301 113:0.19682001 148:0.22541906 168:0.25396223 206:0.1400549 
-1 3:0.18447912 6:0.078488635 31:0.31458399 54:0.39211155 89:0.40493746 177:0.50569878 179:0.45083625 210:0.29005775 
-1 6:0.058854141 7:0.18917441 47:0.26432952 105:0.94386394 
-1 3:0.30163275 88:0.66209334 105:0.68603942 
-1 3:0.16920811 21:0.33237111 96:0.8161919 161:0.35206224 210:0.26604703 
-0.8607375157092021 6:0.11272444 12:0.46654017 26:0.49181624 34:0.47314075 161:0.55126044 
-1 3:0.18490679 79:0.48374647 146:0.53668405 159:0.54383382 161:0.38472566 
-1 7:0.42492008 75:0.72673475 125:0.53972172 
-0.2008914026223657 3:0.19871281 6:0.16908902 7:0.81525228 34:0.35486051 208:0.37597855 
-0.8376716892147942 1:0.1387888 6:0.055441529 13:0.17016509 34:0.69811797 67:0.28466801 70:0.30843427 80:0.26783241 125:0.22635141 135:0.3184544 208:0.24655446 
-0.6987493801745636 13:1 
-1 3:1 
