svm_type c_svc
kernel_type linear
nr_class 3
total_sv 684
rho -0.735751 0.0182886 0.680995
label 1 2 3
nr_sv 264 140 280
SV
0.05239754942054973 1 7:0.21821397 17:0.30954918 19:0.57684772 141:0.30954918 157:0.21821397 275:0.57684772 276:0.21821397 
0 1 2:0.23366891 4:0.10548412 7:0.12979953 34:0.27010263 68:0.32947784 121:0.45599641 140:0.23366891 146:0.10548412 157:0.12979953 213:0.24894755 268:0.23366891 270:0.10548412 276:0.12979953 319:0.14129833 332:0.27010263 337:0.45599641 
1 1 9:0.28534616 12:0.27058701 75:0.54117401 91:0.26063901 122:0.42911291 135:0.28534616 203:0.27058701 213:0.23427072 293:0.27058701 319:0.13296802 
0.5080106377408302 0 2:0.34060618 103:0.80744181 140:0.34060618 268:0.34060618 
1 0.1460886185259655 2:0.34060618 103:0.80744181 140:0.34060618 268:0.34060618 
0.6412960461817284 1 4:0.12391553 32:0.38704806 36:0.42193673 47:0.37310483 146:0.12391553 214:0.37310483 215:0.38704806 270:0.12391553 323:0.44483411 
0 0.7982538506542899 27:0.70710678 327:0.70710678 
0.3938973804487138 0 4:0.071876621 9:0.41323057 75:0.78371368 135:0.41323057 146:0.071876621 213:0.16963226 270:0.071876621 
1 1 17:0.38342764 141:0.38342764 205:0.84021812 
1 1 2:0.13415146 7:0.14903833 74:0.29864152 128:0.50255524 140:0.13415146 157:0.14903833 213:0.2858464 217:0.45094837 268:0.13415146 276:0.14903833 328:0.50255524 
0 1 18:0.30851509 38:0.63625344 287:0.30851509 291:0.63625344 
0 1 27:0.70710678 327:0.70710678 
0 1 63:0.70710678 221:0.70710678 
0.2766664816117644 1 27:0.70710678 327:0.70710678 
0 1 11:0.31499877 21:0.45238315 31:0.44286032 269:0.31499877 297:0.45238315 331:0.44286032 
0 1 4:0.32649917 7:0.20088066 11:0.30646747 31:0.43086607 146:0.32649917 157:0.20088066 269:0.30646747 270:0.32649917 276:0.20088066 331:0.43086607 
1 1 8:0.51894054 34:0.40850244 70:0.35728553 136:0.51894054 332:0.40850244 
1 1 11:0.40985076 31:0.57621381 269:0.40985076 331:0.57621381 
1 1 10:0.40417538 98:0.67192722 148:0.40417538 315:0.40417538 319:0.2417449 
0.1275098819336722 0.412760599343234 2:0.098608039 36:0.30314502 96:0.2802487 140:0.098608039 222:0.89464693 268:0.098608039 
0 1 2:0.31327965 140:0.31327965 268:0.31327965 330:0.8399807 
0 1 18:0.38930713 31:0.59028803 287:0.38930713 331:0.59028803 
0 1 14:0.56074837 18:0.43076823 163:0.56074837 287:0.43076823 
0 0.9711945456980061 17:0.70710678 141:0.70710678 
0 1 2:0.14831627 21:0.36102326 70:0.29989404 102:0.43558207 140:0.14831627 268:0.14831627 277:0.45158759 297:0.36102326 335:0.43558207 
0.1867608204989406 0.2832367712509924 10:0.28988346 18:0.22530951 29:0.37443712 148:0.28988346 209:0.60495262 287:0.22530951 315:0.28988346 339:0.37443712 
0.9687349640633145 0.9007724010866184 10:0.28988346 18:0.22530951 29:0.37443712 148:0.28988346 209:0.60495262 287:0.22530951 315:0.28988346 339:0.37443712 
0 1 2:0.25607083 93:0.633752 140:0.25607083 202:0.633752 268:0.25607083 
0 0.1225698748231652 2:0.22447744 7:0.24938785 49:0.5754332 140:0.22447744 157:0.24938785 268:0.22447744 276:0.24938785 278:0.5754332 
0 0.5317160709567688 2:0.16135381 7:0.17925935 11:0.27348156 31:0.38449082 49:0.41361992 140:0.16135381 157:0.17925935 268:0.16135381 269:0.27348156 276:0.17925935 278:0.41361992 319:0.19513974 331:0.38449082 
0 1 11:0.63130284 269:0.63130284 319:0.45045916 
0 1 95:0.65528762 277:0.70202711 319:0.27884777 
1 1 2:0.16138692 12:0.39718659 52:0.455118 140:0.16138692 203:0.39718659 268:0.16138692 277:0.4913846 293:0.39718659 
0 1 2:0.21363405 105:0.66330781 140:0.21363405 268:0.21363405 277:0.65046462 
1 1 4:0.068173471 51:0.18583397 110:0.61905951 146:0.068173471 212:0.18583397 217:0.2538226 223:0.68507518 270:0.068173471 
0 0.7504061616649833 97:1 
0 0.6195955560704917 96:0.72738442 330:0.68623022 
0 1 11:0.51783964 17:0.48149985 141:0.48149985 269:0.51783964 
1 0 18:0.28142335 67:0.42020155 156:0.42020155 206:0.69890136 287:0.28142335 
1 0 18:0.39347908 67:0.58751529 156:0.58751529 287:0.39347908 
1 1 4:0.17061111 12:0.46506858 69:0.4599781 146:0.17061111 203:0.46506858 270:0.17061111 293:0.46506858 319:0.22853739 
0 1 4:0.31206224 69:0.8413391 146:0.31206224 270:0.31206224 
1 1 1:0.31164975 4:0.13481412 10:0.30192417 17:0.23532525 64:0.40036488 106:0.45464461 134:0.31164975 141:0.23532525 146:0.13481412 148:0.30192417 270:0.13481412 315:0.30192417 
0.2925605568045551 1 17:0.19155296 51:0.29913375 69:0.29585953 104:0.37738428 119:0.39393815 141:0.19155296 212:0.29913375 243:0.45533137 324:0.39393815 
0 1 2:0.22447744 7:0.24938785 49:0.5754332 140:0.22447744 157:0.24938785 268:0.22447744 276:0.24938785 278:0.5754332 
0 0.6268985944597908 24:0.70710678 334:0.70710678 
1 0.3021298493155926 216:1 
0 1 2:0.13489408 4:0.12178938 10:0.27275449 32:0.38040704 47:0.36670305 63:0.24430153 140:0.13489408 146:0.12178938 148:0.27275449 214:0.36670305 215:0.38040704 221:0.24430153 268:0.13489408 270:0.12178938 315:0.27275449 
0 1 2:0.36455275 49:0.4672531 74:0.40577452 140:0.36455275 268:0.36455275 278:0.4672531 
0 0.1016201849984594 2:0.19964234 66:0.62623146 93:0.49409663 140:0.19964234 202:0.49409663 268:0.19964234 
0 1 2:0.25607083 93:0.633752 140:0.25607083 202:0.633752 268:0.25607083 
0 0.9835554180773295 17:0.70710678 141:0.70710678 
0 0.995614377659347 96:0.72738442 330:0.68623022 
0.535148255720071 0 2:0.15493736 27:0.35644935 46:0.45118482 71:0.39717177 140:0.15493736 159:0.45118482 213:0.33013645 268:0.15493736 327:0.35644935 
0 1 4:0.24302286 31:0.64141237 146:0.24302286 270:0.24302286 331:0.64141237 
0 1 17:0.70710678 141:0.70710678 
1 1 68:0.75488982 213:0.57038121 319:0.32373853 
0 0.52498962402818 98:0.94095385 319:0.33853486 
0.6839092282521099 1 2:0.16318109 14:0.33383303 19:0.47923776 65:0.48773881 140:0.16318109 163:0.33383303 268:0.16318109 275:0.47923776 
0.2413342864921149 1 1:0.1302355 7:0.069324063 10:0.25234254 14:0.25531192 18:0.098065569 25:0.1848562 47:0.16963016 53:0.19183133 64:0.16730871 65:0.55952587 103:0.14792451 134:0.1302355 148:0.25234254 157:0.069324063 163:0.25531192 214:0.16963016 267:0.1848562 276:0.069324063 287:0.098065569 294:0.20711977 315:0.25234254 319:0.075465408 336:0.19183133 
0 0.1915558545189444 2:0.10356938 14:0.42376103 38:0.33567595 65:0.61912571 140:0.10356938 163:0.42376103 268:0.10356938 291:0.33567595 
0.08199283974139021 1 2:0.12045736 32:0.3396949 47:0.32745755 63:0.21815575 70:0.24356361 100:0.4159984 109:0.42856291 140:0.12045736 214:0.32745755 215:0.3396949 221:0.21815575 268:0.12045736 
1 1 4:0.12549976 12:0.34209962 18:0.21845475 103:0.3295225 146:0.12549976 203:0.34209962 224:0.63057351 270:0.12549976 287:0.21845475 293:0.34209962 
0 0.6444767709606468 4:0.17085976 31:0.45095168 109:0.67329362 146:0.17085976 270:0.17085976 319:0.22887047 331:0.45095168 
0 1 7:0.27934807 51:0.61882711 157:0.27934807 212:0.61882711 276:0.27934807 
0 0.07281301328899338 63:0.47142912 125:0.67557631 221:0.47142912 319:0.31481077 
0 1 2:0.14598496 38:0.47314798 63:0.26438782 70:0.59036032 140:0.14598496 221:0.26438782 268:0.14598496 291:0.47314798 
0 0.3059415731669725 7:0.20302979 63:0.66194286 157:0.20302979 221:0.66194286 276:0.20302979 
0 1 7:0.17638939 51:0.39074741 101:0.54831254 157:0.17638939 212:0.39074741 276:0.17638939 292:0.54831254 
0 0.3012001066530108 7:0.14969276 11:0.22837419 18:0.42350966 63:0.24402343 69:0.32797791 157:0.14969276 221:0.24402343 269:0.22837419 276:0.14969276 287:0.42350966 319:0.16295388 325:0.46532513 
0 0.6402334978713985 7:0.17456023 45:0.50354081 127:0.52817051 157:0.17456023 206:0.61324444 276:0.17456023 
1 1 4:0.17204391 9:0.49455443 135:0.49455443 146:0.17204391 213:0.40603184 216:0.45173265 270:0.17204391 319:0.23045666 
0 1 2:0.091011505 4:0.082169912 31:0.21687177 99:0.61186779 140:0.091011505 146:0.082169912 204:0.33475951 268:0.091011505 270:0.082169912 320:0.61186779 331:0.21687177 
0 1 2:0.19050315 129:0.66750492 140:0.19050315 268:0.19050315 280:0.66750492 
0 1 4:0.18040949 99:0.67169831 146:0.18040949 270:0.18040949 320:0.67169831 
1 1 14:0.29031913 35:0.44514183 94:0.52197874 95:0.40331787 162:0.44514183 163:0.29031913 
1 1 15:0.46423601 104:0.48655379 204:0.57639853 274:0.46423601 
0 0.0005969327850807779 2:0.31327965 64:0.8399807 140:0.31327965 268:0.31327965 
1 1 2:0.070164679 3:0.18563725 9:0.18209997 14:0.14354168 25:0.4157202 49:0.17986255 67:0.164646 103:0.16633255 119:0.22740887 135:0.18209997 137:0.18563725 140:0.070164679 156:0.164646 163:0.14354168 213:0.14950505 216:0.3326651 267:0.4157202 268:0.070164679 277:0.21363467 278:0.17986255 322:0.18563725 324:0.22740887 
0 1 4:0.27261607 32:0.28383722 107:0.30083694 126:0.33833357 129:0.35266794 146:0.27261607 213:0.21446232 215:0.28383722 216:0.23860107 270:0.27261607 280:0.35266794 319:0.24345004 
0 1 2:0.10515812 4:0.28482662 11:0.17823443 63:0.19044787 72:0.42009984 140:0.10515812 146:0.28482662 205:0.36316259 221:0.19044787 268:0.10515812 269:0.17823443 270:0.28482662 277:0.32018132 316:0.42009984 
0 1 7:0.34386204 125:0.80329116 157:0.34386204 276:0.34386204 
1 1 2:0.14668337 9:0.38069064 49:0.37601319 67:0.3442021 135:0.38069064 140:0.14668337 156:0.3442021 268:0.14668337 278:0.37601319 319:0.35479463 
0 1 4:0.25578565 69:0.68961393 70:0.57284705 146:0.25578565 270:0.25578565 
0 1 4:0.2429456 11:0.45608031 103:0.63789796 146:0.2429456 269:0.45608031 270:0.2429456 
0 0.8509425968595524 2:0.18803693 34:0.43471178 70:0.38020882 140:0.18803693 268:0.18803693 323:0.60944148 332:0.43471178 
0 1 7:0.1007506 103:0.21498282 128:0.67945947 157:0.1007506 276:0.1007506 328:0.67945947 
1 1 2:0.16718808 12:0.41146371 49:0.42857567 140:0.16718808 203:0.41146371 268:0.16718808 278:0.42857567 293:0.41146371 319:0.20219564 
0 1 7:0.31032775 25:0.4137525 53:0.42936452 157:0.31032775 267:0.4137525 276:0.31032775 336:0.42936452 
0.6958374918516205 1 2:0.17787876 50:0.5832973 69:0.43298262 100:0.61430265 140:0.17787876 268:0.17787876 
0 1 2:0.10979122 4:0.099125218 11:0.55826172 68:0.30961593 69:0.26724772 140:0.10979122 146:0.099125218 268:0.10979122 269:0.55826172 270:0.099125218 325:0.37916298 
0.7214837985479914 0 2:0.13120109 5:0.17025442 10:0.13264354 17:0.20676962 27:0.15092067 34:0.151658 51:0.32289646 64:0.17589123 67:0.15393583 69:0.31936214 70:0.13264354 71:0.16816254 106:0.1997378 123:0.25603418 138:0.17025442 140:0.13120109 141:0.20676962 148:0.13264354 156:0.15393583 212:0.32289646 213:0.13977979 268:0.13120109 315:0.13264354 319:0.079336594 321:0.17025442 327:0.15092067 332:0.151658 338:0.25603418 
0 1 7:0.23030314 29:0.54141686 69:0.50459583 157:0.23030314 276:0.23030314 339:0.54141686 
0 1 2:0.13295144 4:0.24007093 25:0.39386341 63:0.48156661 140:0.13295144 146:0.24007093 221:0.48156661 267:0.39386341 268:0.13295144 270:0.24007093 
0 1 4:0.16331935 18:0.28428649 19:0.53125412 69:0.44031906 146:0.16331935 270:0.16331935 275:0.53125412 287:0.28428649 
0 1 4:0.26260737 31:0.34655096 69:0.35400285 146:0.26260737 216:0.34476176 218:0.55564223 270:0.26260737 331:0.34655096 
0.3334369374719454 1 18:0.41428072 36:0.8103968 287:0.41428072 
1 1 1:0.20880597 8:0.2938165 14:0.20467012 17:0.1576684 25:0.29637909 91:0.47433337 134:0.20880597 136:0.2938165 141:0.1576684 163:0.20467012 227:0.45384163 267:0.29637909 
1 0 7:0.32025515 9:0.24938114 10:0.19429039 14:0.19657657 53:0.29539994 103:0.22778808 106:0.2925671 135:0.24938114 148:0.19429039 157:0.32025515 163:0.19657657 216:0.22778808 276:0.32025515 315:0.19429039 319:0.11620874 336:0.29539994 
1 1 5:0.32242995 7:0.13802146 30:0.39382639 47:0.33772694 138:0.32242995 157:0.13802146 158:0.39382639 213:0.26471672 214:0.33772694 276:0.13802146 319:0.15024864 321:0.32242995 
1 0.5430640331011204 1:0.17448104 4:0.075477383 8:0.24551697 9:0.21696598 17:0.39524927 21:0.2034917 51:0.2057437 75:0.2057437 91:0.19817963 107:0.24987211 134:0.17448104 135:0.21696598 136:0.24551697 141:0.39524927 146:0.075477383 212:0.2057437 270:0.075477383 297:0.2034917 326:0.28870786 
0 1 4:0.10420677 7:0.12822774 10:0.46675442 27:0.26553457 106:0.35142496 146:0.10420677 148:0.46675442 157:0.12822774 270:0.10420677 276:0.12822774 315:0.46675442 327:0.26553457 
1 1 1:0.30149994 5:0.3749131 17:0.22766118 134:0.30149994 138:0.3749131 141:0.22766118 243:0.5411625 321:0.3749131 
1 0.109848000915957 5:0.14165964 7:0.18191924 10:0.11036563 14:0.22332867 18:0.085780769 47:0.29676075 98:0.18347894 103:0.25878763 138:0.14165964 148:0.11036563 157:0.18191924 163:0.22332867 165:0.23809362 211:0.3947076 214:0.29676075 240:0.44749515 276:0.18191924 287:0.085780769 315:0.11036563 321:0.14165964 
1 1 2:0.076383735 3:0.20209124 14:0.31252916 38:0.49513058 137:0.20209124 140:0.076383735 163:0.31252916 211:0.27617965 240:0.31311539 268:0.076383735 291:0.49513058 322:0.20209124 
0.001709200475005698 1 2:0.16527782 113:0.67751374 140:0.16527782 268:0.16527782 289:0.67751374 
0 0.9004425283613756 2:0.35453522 74:0.78924923 140:0.35453522 268:0.35453522 
0 1 2:0.16178978 63:0.29301131 70:0.32713734 129:0.56689598 140:0.16178978 221:0.29301131 268:0.16178978 280:0.56689598 
1 1 3:0.3705173 6:0.40444598 17:0.2207047 137:0.3705173 141:0.2207047 145:0.40444598 279:0.40444598 322:0.3705173 
1 1 10:0.27518063 18:0.21388186 44:0.48419472 148:0.27518063 168:0.48419472 216:0.32262464 287:0.21388186 315:0.27518063 319:0.32918118 
0.8223388674074819 1 7:0.15294888 14:0.28164575 35:0.43184306 38:0.4462031 157:0.15294888 162:0.43184306 163:0.28164575 276:0.15294888 291:0.4462031 
0.7395087059278032 0 14:0.29441727 17:0.22680545 35:0.45142544 95:0.40901109 141:0.22680545 162:0.45142544 163:0.29441727 330:0.38586992 
0 0.2311032047593924 95:1 
1 0.6027934865201975 67:0.70710678 156:0.70710678 
0 1 7:0.17405786 71:0.40161809 121:0.61147956 157:0.17405786 276:0.17405786 337:0.61147956 
0 1 4:0.13609627 49:0.38641315 92:0.4728375 95:0.42841135 146:0.13609627 270:0.13609627 278:0.38641315 323:0.48856073 
1 1 7:0.16636353 11:0.25380745 12:0.36853759 31:0.35683076 103:0.35498848 157:0.16636353 203:0.36853759 269:0.25380745 276:0.16636353 293:0.36853759 331:0.35683076 
1 1 18:0.27252027 31:0.41320962 46:0.50496585 159:0.50496585 287:0.27252027 331:0.41320962 
0 1 7:0.10545721 11:0.48266293 31:0.22619367 64:0.25451351 70:0.19193437 119:0.30765401 157:0.10545721 269:0.48266293 276:0.10545721 324:0.30765401 325:0.32781742 331:0.22619367 
1 1 11:0.66622136 12:0.19347541 203:0.19347541 269:0.66622136 293:0.19347541 
1 0.3027344445428873 2:0.1970914 7:0.10948128 74:0.21937749 140:0.1970914 157:0.10948128 228:0.89408054 268:0.1970914 276:0.10948128 
0 1 34:0.39151842 63:0.30670952 70:0.34243092 221:0.30670952 296:0.62291755 332:0.39151842 
0.1733102974318373 0.3276735951881072 2:0.087945916 4:0.079402139 6:0.25398865 11:0.14906116 15:0.26053631 27:0.20232863 34:0.40663423 67:0.20637084 70:0.17782578 91:0.20848479 140:0.087945916 145:0.25398865 146:0.079402139 156:0.20637084 268:0.087945916 269:0.14906116 270:0.079402139 274:0.26053631 279:0.25398865 319:0.10636094 327:0.20232863 332:0.40663423 
0 1 2:0.22755367 31:0.54223879 74:0.50656903 140:0.22755367 268:0.22755367 331:0.54223879 
1 1 10:0.42607828 11:0.35715719 51:0.25930243 69:0.25646419 148:0.42607828 212:0.25930243 269:0.35715719 315:0.42607828 
1 1 18:0.22334132 32:0.40076485 47:0.38632749 65:0.42476766 74:0.31636523 214:0.38632749 215:0.40076485 287:0.22334132 
0 1 7:0.22084777 27:0.45733255 157:0.22084777 276:0.22084777 294:0.65982774 327:0.45733255 
1 1 36:1 
0 0.4152074787643156 4:0.14564063 24:0.41605782 59:0.52897107 146:0.14564063 270:0.14564063 326:0.55708869 334:0.41605782 
0 0.6437023537811003 2:0.15792686 74:0.35156917 95:0.44883557 99:0.53086905 140:0.15792686 268:0.15792686 319:0.19099522 320:0.53086905 
0 1 2:0.14477725 4:0.13071242 31:0.34499044 49:0.37112699 74:0.32229615 140:0.14477725 146:0.13071242 216:0.3432093 268:0.14477725 270:0.13071242 278:0.37112699 330:0.38818384 331:0.34499044 
0 0.8792651461311687 2:0.33005647 14:0.50641775 114:0.33824516 125:0.21415065 140:0.33005647 163:0.50641775 268:0.33005647 
0.8955632775074491 0.1238163285067299 17:0.17944626 93:0.56360387 97:0.36904013 108:0.40510346 141:0.17944626 202:0.56360387 
0.4380207943682412 1 17:0.70710678 141:0.70710678 
0 1 2:0.14194797 14:0.29039468 102:0.41687936 119:0.46006379 140:0.14194797 163:0.29039468 268:0.14194797 324:0.46006379 335:0.41687936 
0.6950413278170932 1 68:0.56173504 102:0.5850016 335:0.5850016 
1 1 23:0.70710678 144:0.70710678 
0.2745218309545686 0 23:0.64290511 127:0.41634847 144:0.64290511 
1 1 23:0.70710678 144:0.70710678 
1 0 23:0.64290511 127:0.41634847 144:0.64290511 
0 0.4017587270668903 4:0.092642348 23:0.26630808 29:0.26799551 127:0.34492481 144:0.26630808 146:0.092642348 270:0.092642348 296:0.75484825 339:0.26799551 
0 1 4:0.23815383 146:0.23815383 270:0.23815383 325:0.91096008 
1 1 23:0.70710678 144:0.70710678 
0.2326400852348887 1 2:0.17762536 10:0.35915673 69:0.43236582 97:0.57569682 140:0.17762536 148:0.35915673 268:0.17762536 315:0.35915673 
1 1 4:0.062269404 7:0.15324657 67:0.3236837 93:0.51208101 123:0.26918389 125:0.17899855 146:0.062269404 156:0.3236837 157:0.15324657 202:0.51208101 270:0.062269404 276:0.15324657 319:0.083411258 338:0.26918389 
0 1 4:0.36103558 122:0.78035885 146:0.36103558 270:0.36103558 
1 1 67:0.70710678 156:0.70710678 
1 0 4:0.1426826 67:0.37084048 146:0.1426826 156:0.37084048 213:0.33673774 230:0.71690868 270:0.1426826 319:0.19112653 
1 0 17:0.37734797 67:0.56185595 141:0.37734797 156:0.56185595 319:0.28957351 
0 1 7:0.08743305 25:0.23314475 71:0.40348301 75:0.19368647 104:0.244353 129:0.55151249 157:0.08743305 267:0.23314475 276:0.08743305 280:0.55151249 
0.2629248934279415 0 27:0.33960198 70:0.29847474 71:0.37839968 166:0.64390455 216:0.3499349 327:0.33960198 
1 1 4:0.19756379 9:0.56791344 17:0.34485816 135:0.56791344 141:0.34485816 146:0.19756379 270:0.19756379 
0 1 4:0.27998854 68:0.87453945 146:0.27998854 270:0.27998854 
0 1 4:0.27152968 7:0.11137356 11:0.16991368 12:0.2467208 21:0.24402028 22:0.35126254 23:0.26017817 144:0.26017817 146:0.27152968 157:0.11137356 203:0.2467208 269:0.16991368 270:0.27152968 273:0.35126254 276:0.11137356 293:0.2467208 297:0.24402028 
0.2269374391526628 0 1:0.19734699 2:0.094554582 4:0.34147514 23:0.24539963 27:0.21753255 70:0.38237687 134:0.19734699 140:0.094554582 144:0.24539963 146:0.34147514 213:0.20147441 219:0.36125797 268:0.094554582 270:0.34147514 319:0.1143534 327:0.21753255 
1 1 10:0.1474148 13:0.6622052 17:0.038299268 48:0.094848762 141:0.038299268 148:0.1474148 206:0.18969748 271:0.6622052 272:0.094848762 315:0.1474148 319:0.029390521 
0.9322849724855541 0.8520291485520676 2:0.1053286 7:0.11701698 32:0.29703114 37:0.34961208 47:0.28633073 49:0.27000296 63:0.19075663 67:0.24716044 140:0.1053286 156:0.24716044 157:0.11701698 214:0.28633073 215:0.29703114 221:0.19075663 242:0.34961208 268:0.1053286 276:0.11701698 278:0.27000296 
0.03464556240797638 1 4:0.20189508 15:0.66246326 146:0.20189508 270:0.20189508 274:0.66246326 
0.3273646403245216 1 4:0.12240041 49:0.34752701 50:0.4445619 60:0.50787257 146:0.12240041 270:0.12240041 278:0.34752701 329:0.50787257 
0 1 4:0.17126188 50:0.62202818 70:0.38355109 146:0.17126188 270:0.17126188 323:0.61479884 
0.6609045304022214 1 19:0.50885511 275:0.50885511 313:0.66198446 319:0.20954602 
0.917259977466182 0 18:0.26654991 63:0.30716854 67:0.39799358 93:0.41976154 156:0.39799358 202:0.41976154 221:0.30716854 287:0.26654991 
0 1 4:0.29627431 15:0.32404759 36:0.3362748 67:0.25667813 92:0.343114 93:0.27071695 146:0.29627431 156:0.25667813 202:0.27071695 270:0.29627431 274:0.32404759 319:0.13228869 
1 0.5634342147024034 18:0.33582713 46:0.62227015 159:0.62227015 287:0.33582713 
0.8527137316048807 1 1:0.21040294 2:0.2016203 18:0.31686114 64:0.27029685 102:0.29606364 119:0.32673279 134:0.21040294 140:0.2016203 268:0.2016203 287:0.31686114 294:0.3346139 319:0.12191871 324:0.32673279 335:0.29606364 
0.6238717867236032 0.5131659511030263 12:0.17935553 53:0.67212156 203:0.17935553 293:0.17935553 336:0.67212156 
0 1 1:0.19877404 2:0.19047681 18:0.29934833 21:0.23182385 64:0.25535763 102:0.2797003 119:0.30867438 134:0.19877404 140:0.19047681 268:0.19047681 287:0.29934833 294:0.31611991 297:0.23182385 319:0.1151803 324:0.30867438 335:0.2797003 
0.8124449523411326 0.731564706220141 11:0.39070966 211:0.8334818 269:0.39070966 
0.2340948436679004 1 52:0.37799655 326:0.92580701 
0 1 31:0.20803749 32:0.24620141 47:0.23733212 52:0.49240266 104:0.27106878 214:0.23733212 215:0.24620141 326:0.60300813 331:0.20803749 
0.318737279248917 0 18:0.38267076 205:0.84090795 287:0.38267076 
1 1 14:0.70710678 163:0.70710678 
0.8832692564309385 0.8592174419137428 14:0.50965224 163:0.50965224 213:0.26541264 231:0.56505879 319:0.30128704 
1 1 7:0.21898701 37:0.65426832 157:0.21898701 242:0.65426832 276:0.21898701 
0 1 2:0.068208475 7:0.30311045 17:0.10749494 33:0.2076785 103:0.16169517 127:0.22928189 128:0.51104228 140:0.068208475 141:0.10749494 157:0.30311045 268:0.068208475 276:0.30311045 328:0.51104228 333:0.2076785 
0.6970634411643775 1 2:0.16958786 7:0.18840713 61:0.63530628 140:0.16958786 157:0.18840713 268:0.16958786 276:0.18840713 288:0.63530628 
0 1 74:0.36467508 95:0.93113484 
1 1 5:0.21154339 7:0.18110928 10:0.32962274 18:0.12809827 33:0.24817689 50:0.26728465 51:0.20060159 63:0.14761873 138:0.21154339 148:0.32962274 157:0.18110928 212:0.20060159 221:0.14761873 276:0.18110928 287:0.12809827 296:0.29980907 315:0.32962274 321:0.21154339 333:0.24817689 
0.2628156465347201 1 11:0.26484664 31:0.37235088 101:0.53963977 269:0.26484664 292:0.53963977 331:0.37235088 
0.6186058671534073 0 11:0.20006495 17:0.18602524 34:0.2728855 67:0.27698411 92:0.74051594 141:0.18602524 156:0.27698411 269:0.20006495 332:0.2728855 
0 1 7:0.077990961 10:0.28389041 11:0.11898453 17:0.1106347 31:0.1672817 34:0.16229306 50:0.46040239 67:0.16473062 92:0.44040669 141:0.1106347 148:0.28389041 156:0.16473062 157:0.077990961 213:0.29916378 269:0.11898453 276:0.077990961 315:0.28389041 319:0.16980007 331:0.1672817 332:0.16229306 
0 1 2:0.10172692 4:0.091844346 7:0.11301562 10:0.20569083 11:0.34483786 31:0.24240559 64:0.27275519 66:0.31909362 101:0.35131299 140:0.10172692 146:0.091844346 148:0.20569083 157:0.11301562 268:0.10172692 269:0.34483786 270:0.091844346 276:0.11301562 292:0.35131299 315:0.20569083 331:0.24240559 
0 1 4:0.19194834 35:0.66688361 146:0.19194834 162:0.66688361 270:0.19194834 
0 1 11:0.51783964 17:0.48149985 141:0.48149985 269:0.51783964 
1 1 11:0.70710678 269:0.70710678 
0 1 11:0.69731365 269:0.69731365 319:0.16585342 
1 1 11:0.25843291 28:0.50610324 124:0.5950999 269:0.25843291 295:0.50610324 
0.063561116970624 1 11:0.32157326 28:0.62975443 269:0.32157326 295:0.62975443 
0.7985564701991509 1 330:1 
0 0.2376295867477822 105:1 
1 1 4:0.073522662 32:0.22964678 37:0.54059861 47:0.22137386 59:0.26703647 66:0.25543883 107:0.2434009 146:0.073522662 214:0.22137386 215:0.22964678 242:0.54059861 270:0.073522662 
0 0.03102397352190451 2:0.31327965 64:0.8399807 140:0.31327965 268:0.31327965 
0 1 4:0.21924504 63:0.43979123 68:0.68480814 146:0.21924504 221:0.43979123 270:0.21924504 
1 1 11:0.70710678 269:0.70710678 
0 0.2158038529743885 4:0.157569 59:0.57229524 63:0.31607312 120:0.63102278 146:0.157569 221:0.31607312 270:0.157569 
0.06589617250545875 0 14:0.40607026 96:0.56412194 107:0.5932793 163:0.40607026 
1 1 32:0.63501163 96:0.31998339 215:0.63501163 330:0.30187926 
1 1 2:0.12237548 4:0.11048693 15:0.36253253 19:0.35939795 68:0.34510405 105:0.379961 107:0.3657732 140:0.12237548 146:0.11048693 268:0.12237548 270:0.11048693 274:0.36253253 275:0.35939795 
0.6144331119706487 0.787563264140305 11:0.57272724 17:0.26626769 103:0.40052304 141:0.26626769 269:0.57272724 319:0.20433148 
1 1 11:0.70710678 269:0.70710678 
1 1 3:0.57735027 137:0.57735027 322:0.57735027 
0 1 4:0.31791388 103:0.83474085 146:0.31791388 270:0.31791388 
1 1 1:0.38889247 62:0.69802343 75:0.45857232 134:0.38889247 
0 0.001771117136965159 91:1 
1 1 67:0.70710678 156:0.70710678 
1 1 1:0.38889247 62:0.69802343 75:0.45857232 134:0.38889247 
1 1 71:0.47462558 99:0.62238676 320:0.62238676 
0 1 4:0.12209601 11:0.22921011 14:0.55331775 69:0.3291784 103:0.32058533 146:0.12209601 163:0.55331775 269:0.22921011 270:0.12209601 319:0.16355033 
0 0.5935065137364063 7:0.36143196 11:0.55140766 157:0.36143196 269:0.55140766 276:0.36143196 
0.4323041358381006 1 2:0.1707035 4:0.15411998 11:0.28932852 12:0.42011546 74:0.38001191 140:0.1707035 146:0.15411998 203:0.42011546 268:0.1707035 269:0.28932852 270:0.15411998 293:0.42011546 
0 0.3004247254454318 29:0.6202498 70:0.48018785 339:0.6202498 
0 0.6239443739427731 18:0.37636765 69:0.58293958 71:0.61390246 287:0.37636765 
1 1 1:0.25819222 4:0.11168935 11:0.20967374 17:0.19495972 31:0.29478267 33:0.37665906 51:0.30445384 134:0.25819222 141:0.19495972 146:0.11168935 212:0.30445384 269:0.20967374 270:0.11168935 319:0.14961038 331:0.29478267 333:0.37665906 
0.9496158823239947 1 44:0.63519162 75:0.4393896 168:0.63519162 
1 1 4:0.14851266 15:0.48730349 46:0.47901074 146:0.14851266 159:0.47901074 270:0.14851266 274:0.48730349 
0.2645151876011943 1 317:1 
0 0.6623407194127553 4:0.08837416 7:0.10874551 11:0.16590428 46:0.57008168 69:0.2382622 102:0.28746831 146:0.08837416 157:0.10874551 159:0.57008168 269:0.16590428 270:0.08837416 276:0.10874551 319:0.11837916 335:0.28746831 
1 1 7:0.36068736 12:0.39950718 17:0.25582798 141:0.25582798 157:0.36068736 203:0.39950718 276:0.36068736 293:0.39950718 
0 1 2:0.13769012 4:0.24862758 12:0.33886679 49:0.35295959 140:0.13769012 146:0.24862758 203:0.33886679 268:0.13769012 270:0.24862758 278:0.35295959 293:0.33886679 319:0.1665211 330:0.36918147 
0 1 11:0.3814078 69:0.54775599 96:0.63954636 269:0.3814078 
0.9305885567467043 1 26:1 
1 1 4:0.077473772 10:0.17350708 51:0.4223713 89:0.32784837 92:0.26916612 117:0.35175615 139:0.32784837 146:0.077473772 148:0.17350708 212:0.4223713 241:0.35175615 270:0.077473772 315:0.17350708 
0 1 18:0.22511076 49:0.36718366 90:0.54726289 278:0.36718366 287:0.22511076 314:0.54726289 319:0.17323181 
1 0.5543752603621029 89:0.70710678 139:0.70710678 
0 1 11:0.47127287 269:0.47127287 330:0.74552248 
0.619441745657233 1 7:0.18910691 11:0.2885052 17:0.26825913 30:0.53959211 141:0.26825913 157:0.18910691 158:0.53959211 269:0.2885052 276:0.18910691 
0 1 7:0.16436301 17:0.23315846 30:0.46898858 103:0.35071974 127:0.49731656 141:0.23315846 157:0.16436301 158:0.46898858 276:0.16436301 
1 0.693850976255487 17:0.3302483 141:0.3302483 208:0.88423533 
0.03397427013025641 1 7:0.20970307 51:0.4645457 93:0.46715547 157:0.20970307 202:0.46715547 212:0.4645457 276:0.20970307 
0 1 4:0.13631849 25:0.44729168 106:0.45971792 146:0.13631849 218:0.57686355 267:0.44729168 270:0.13631849 
0 1 68:0.51614746 71:0.46918091 75:0.45044769 106:0.55727726 
0.9435752439251155 1 63:0.5189386 103:0.67926833 221:0.5189386 
0 1 4:0.31546423 11:0.59221911 146:0.31546423 269:0.59221911 270:0.31546423 
0 1 7:0.23955209 157:0.23955209 276:0.23955209 318:0.90985954 
0 1 49:0.70710678 278:0.70710678 
0.2641092228253475 1 24:0.70710678 334:0.70710678 
0 1 4:0.18069629 15:0.59290525 17:0.31541504 141:0.31541504 146:0.18069629 270:0.18069629 274:0.59290525 
0.7173502709871835 1 2:0.12047192 3:0.31873696 4:0.10876831 7:0.26768153 11:0.20419009 14:0.24645936 137:0.31873696 140:0.12047192 146:0.10876831 157:0.26768153 163:0.24645936 204:0.44312114 268:0.12047192 269:0.20419009 270:0.10876831 276:0.26768153 322:0.31873696 
1 1 2:0.13067318 5:0.33913903 34:0.30209582 70:0.26421988 138:0.33913903 140:0.13067318 232:0.59278309 268:0.13067318 321:0.33913903 332:0.30209582 
0.2349487703565271 1 98:1 
0 1 2:0.16088395 18:0.2528412 25:0.47661237 49:0.41241545 140:0.16088395 267:0.47661237 268:0.16088395 278:0.41241545 287:0.2528412 
0.2101457459225091 1 4:0.23539596 10:0.52718315 146:0.23539596 148:0.52718315 270:0.23539596 315:0.52718315 
1 1 4:0.10842554 6:0.34682762 10:0.24282539 17:0.18926257 69:0.29232195 102:0.35269253 141:0.18926257 145:0.34682762 146:0.10842554 148:0.24282539 270:0.10842554 279:0.34682762 315:0.24282539 319:0.14523843 335:0.35269253 
1 1 4:0.10406969 9:0.59831387 21:0.28057833 91:0.27325396 135:0.59831387 146:0.10406969 270:0.10406969 297:0.28057833 319:0.13940368 
0 0.6386051402925972 7:0.2582293 17:0.36631325 92:0.72909676 141:0.36631325 157:0.2582293 276:0.2582293 
1 1 4:0.11010892 5:0.31651719 7:0.13549041 17:0.19220101 22:0.42732498 31:0.29061144 138:0.31651719 141:0.19220101 146:0.11010892 157:0.13549041 270:0.11010892 273:0.42732498 276:0.13549041 321:0.31651719 331:0.29061144 
1 1 2:0.15689249 10:0.31723508 12:0.38612543 140:0.15689249 148:0.31723508 203:0.38612543 268:0.15689249 293:0.38612543 315:0.31723508 330:0.42066782 
0.02441241981963077 0.9942145779014534 91:1 
0 1 2:0.19182035 63:0.34739855 70:0.38785886 140:0.19182035 221:0.34739855 268:0.19182035 296:0.70555571 
1 1 17:0.70710678 141:0.70710678 
1 0.9804137000763297 17:0.70710678 141:0.70710678 
0 1 4:0.24701839 36:0.84110627 146:0.24701839 270:0.24701839 319:0.33088666 
0 1 4:0.38653734 68:0.60367139 70:0.43283659 146:0.38653734 270:0.38653734 
0.5800215961185654 0.9706694029852797 216:1 
0 1 18:0.21754215 63:0.25069266 118:0.56742938 216:0.32814592 221:0.25069266 287:0.21754215 290:0.56742938 319:0.16740745 
0 1 63:0.70710678 221:0.70710678 
0 0.1287218460987727 4:0.57735027 146:0.57735027 270:0.57735027 
0 1 2:0.17136752 4:0.15471949 31:0.40835252 102:0.50328004 140:0.17136752 146:0.15471949 268:0.17136752 270:0.15471949 331:0.40835252 335:0.50328004 
1 1 5:0.55752541 138:0.55752541 319:0.25980041 321:0.55752541 
1 1 93:0.41138928 103:0.78810201 202:0.41138928 319:0.2010297 
0 0.396588524147423 4:0.21076095 52:0.65830824 68:0.65830824 146:0.21076095 270:0.21076095 
0.4589531776801232 1 4:0.064165708 7:0.078956709 28:0.23589926 51:0.17490922 68:0.2004205 70:0.14370289 90:0.54306438 92:0.22293008 146:0.064165708 157:0.078956709 167:0.31001265 212:0.17490922 270:0.064165708 276:0.078956709 295:0.23589926 314:0.54306438 
0 1 61:0.64128996 75:0.4213008 288:0.64128996 
0.009015315208298014 1 108:0.56536601 125:0.82484015 
-0.8440682920346511 0.4002709968674376 89:0.41483925 91:0.12869856 139:0.41483925 164:0.2368143 165:0.2368143 169:0.25847719 244:0.27567195 245:0.27567195 246:0.27567195 247:0.27567195 248:0.27567195 249:0.27567195 319:0.065657066 
-0.3498160127110244 0.1413487688912798 89:0.46589649 139:0.46589649 164:0.53192148 165:0.53192148 
-0.903351412354089 1 89:0.26473879 122:0.27044166 130:0.31433452 139:0.26473879 169:0.32990581 170:0.32990581 234:0.31433452 250:0.35185224 251:0.35185224 252:0.35185224 
-1 1 37:0.2113641 98:0.21405359 130:0.28886868 131:0.28886868 165:0.27776917 171:0.30317846 172:0.30317846 208:0.26870024 209:0.26870024 234:0.28886868 242:0.2113641 253:0.3233469 254:0.3233469 
-0.7728095276856364 0 89:0.427233 139:0.427233 164:0.24388938 171:0.26619947 172:0.26619947 208:0.23592659 209:0.23592659 255:0.28390794 256:0.28390794 257:0.28390794 258:0.28390794 
-1 0.8391105315730001 47:0.21326294 89:0.29972888 132:0.3558796 139:0.29972888 150:0.3558796 214:0.21326294 259:0.39835598 260:0.39835598 261:0.39835598 
-0.8638040574003238 0.3957427250592397 89:0.51527328 139:0.51527328 262:0.68482619 
-0.4982843718413607 0 1:0.15423655 8:0.2170304 17:0.11646329 30:0.23426107 76:0.32235344 134:0.15423655 136:0.2170304 141:0.11646329 142:0.32235344 158:0.23426107 173:0.35184114 205:0.25520999 211:0.26719612 231:0.33523451 263:0.37524677 
-0.1324119298442856 0.351552831929061 1:0.16519599 17:0.12473871 76:0.34525862 134:0.16519599 141:0.12473871 142:0.34525862 173:0.37684159 211:0.28618203 225:0.35905496 264:0.40191034 265:0.40191034 
-1 1 1:0.15692722 10:0.15203004 11:0.12743807 17:0.118495 76:0.32797694 134:0.15692722 141:0.118495 142:0.32797694 148:0.15203004 205:0.51932432 211:0.27185739 231:0.34108272 266:0.381793 269:0.12743807 315:0.15203004 
-1 1 17:0.25963072 141:0.25963072 217:0.5537807 225:0.74733575 
-1 1 10:0.48708183 17:0.37964053 141:0.37964053 148:0.48708183 315:0.48708183 
-0.8379465094813355 0.5711156257300005 1:0.22070656 7:0.11748161 8:0.31056213 10:0.21381902 23:0.27444709 31:0.25198462 134:0.22070656 136:0.31056213 144:0.27444709 148:0.21381902 157:0.11748161 174:0.5034711 276:0.11748161 315:0.21381902 331:0.25198462 
-1 0 9:0.38355774 18:0.11613003 46:0.21518289 47:0.2008774 116:0.30290954 133:0.3352114 135:0.38355774 151:0.3352114 159:0.21518289 204:0.27179787 206:0.28840335 214:0.2008774 287:0.11613003 319:0.17873335 
-1 1 11:0.63384431 91:0.44326379 269:0.63384431 
-1 1 6:0.25769369 11:0.15123558 15:0.26433687 17:0.28124502 44:0.31745808 50:0.29259779 68:0.25162908 100:0.30815091 141:0.28124502 145:0.25769369 168:0.31745808 269:0.15123558 274:0.26433687 279:0.25769369 319:0.10791247 
-1 1 10:0.32619075 12:0.19851295 17:0.12711953 39:0.33064818 63:0.14608174 103:0.19121472 106:0.2455929 141:0.12711953 148:0.32619075 175:0.38403416 203:0.19851295 221:0.14608174 235:0.36590805 293:0.19851295 315:0.32619075 
-0.4892248034025722 1 1:0.39252137 17:0.14819551 18:0.29556329 38:0.30477142 92:0.29496303 134:0.39252137 141:0.14819551 175:0.4477057 287:0.29556329 291:0.30477142 
-0 0.9021287575534862 1:0.42959765 3:0.13614462 5:0.1335504 16:0.1892738 17:0.081096771 23:0.1335504 26:0.37854761 30:0.16312279 31:0.1226198 40:0.21093925 102:0.15112457 121:0.20083748 134:0.42959765 137:0.13614462 138:0.1335504 141:0.081096771 143:0.1892738 144:0.1335504 158:0.16312279 319:0.062232948 321:0.1335504 322:0.13614462 331:0.1226198 335:0.15112457 337:0.20083748 
-1 1 12:0.3059051 17:0.19588905 38:0.40285554 141:0.19588905 203:0.3059051 236:0.56385812 291:0.40285554 293:0.3059051 
-0.7899014034011231 0.8130344913852368 1:0.16227498 8:0.22834149 17:0.12253307 134:0.16227498 136:0.22834149 141:0.12253307 176:0.37017823 177:0.37017823 205:0.26851091 209:0.32808063 233:0.35270611 236:0.35270611 240:0.31871841 319:0.094030798 
-0.6898081391699608 1 1:0.16526012 17:0.12478713 19:0.46508406 68:0.22329335 92:0.24837184 93:0.19596538 103:0.18770629 134:0.16526012 141:0.12478713 152:0.35919434 153:0.35919434 202:0.19596538 275:0.46508406 
-0.3884292279937586 1 1:0.39347851 17:0.14855688 25:0.2792516 134:0.39347851 141:0.14855688 178:0.4487974 205:0.32553777 227:0.42761452 267:0.2792516 
-1 1 1:0.21420972 7:0.11402336 8:0.30142026 17:0.16174875 19:0.30142026 119:0.33264431 134:0.21420972 136:0.30142026 141:0.16174875 154:0.46558674 157:0.11402336 275:0.30142026 276:0.11402336 319:0.12412456 324:0.33264431 
-1 1 4:0.066134077 8:0.21512455 10:0.14811117 11:0.1241531 12:0.18027479 14:0.14985396 17:0.11544057 18:0.11511817 37:0.24313579 47:0.19912712 50:0.24020091 69:0.17830156 100:0.25296886 103:0.17364708 136:0.21512455 141:0.11544057 146:0.066134077 148:0.14811117 163:0.14985396 203:0.18027479 213:0.15607958 214:0.19912712 218:0.2798618 224:0.33229065 242:0.24313579 269:0.1241531 270:0.066134077 287:0.11511817 293:0.18027479 315:0.14811117 319:0.088588074 
-1 1 5:0.34362118 8:0.19441949 10:0.13385594 13:0.22548642 15:0.19611517 23:0.17181059 44:0.23552653 54:0.27934157 77:0.28876966 136:0.19441949 138:0.34362118 144:0.17181059 148:0.13385594 168:0.23552653 271:0.22548642 274:0.19611517 315:0.13385594 319:0.080061754 321:0.34362118 
-1 1 1:0.34470086 11:0.55985231 17:0.26028199 134:0.34470086 141:0.26028199 269:0.55985231 
-0 1 1:0.23351963 5:0.29038006 11:0.18963753 17:0.17632957 23:0.29038006 44:0.39806747 134:0.23351963 138:0.29038006 141:0.17632957 144:0.29038006 168:0.39806747 269:0.18963753 319:0.13531376 321:0.29038006 
-1 1 2:0.31045861 93:0.38417806 102:0.45588419 140:0.31045861 202:0.38417806 268:0.31045861 335:0.45588419 
-1 1 10:0.25212177 18:0.19595954 51:0.30687219 69:0.60702654 98:0.41914348 148:0.25212177 212:0.30687219 287:0.19595954 315:0.25212177 
-1 1 11:0.23888446 17:0.22212057 46:0.4104284 141:0.22212057 159:0.4104284 179:0.6710368 269:0.23888446 
-1 1 6:0.21721221 11:0.50991132 17:0.11853191 46:0.21902008 124:0.29354622 141:0.11853191 145:0.21721221 159:0.21902008 179:0.35809055 269:0.50991132 279:0.21721221 
-1 1 9:0.28526093 11:0.18629439 32:0.3099607 37:0.36483046 49:0.281756 67:0.25791916 135:0.28526093 156:0.25791916 215:0.3099607 242:0.36483046 269:0.18629439 278:0.281756 319:0.1329283 
-0 1 1:0.28012872 8:0.39417666 30:0.42547149 36:0.41261766 134:0.28012872 136:0.39417666 158:0.42547149 
-1 1 2:0.39594332 27:0.30363594 74:0.58761986 140:0.39594332 268:0.39594332 327:0.30363594 
-1 1 2:0.096861013 69:0.23577372 74:0.21562732 140:0.096861013 213:0.20638889 228:0.87879658 268:0.096861013 319:0.23428537 
-1 1 17:0.30016369 99:0.6402357 141:0.30016369 320:0.6402357 
-1 1 31:0.54228248 68:0.64176275 331:0.54228248 
-1 1 5:0.27203036 10:0.21193617 11:0.17765395 12:0.25795995 15:0.31051218 17:0.16518695 51:0.25795995 138:0.27203036 141:0.16518695 148:0.21193617 203:0.25795995 212:0.25795995 269:0.17765395 274:0.31051218 293:0.25795995 315:0.21193617 321:0.27203036 
-1 1 7:0.31252766 107:0.84082066 157:0.31252766 276:0.31252766 
-0 1 1:0.19112704 3:0.2422818 6:0.26446782 10:0.18516259 19:0.26894 46:0.26666899 51:0.22537225 69:0.2229054 134:0.19112704 137:0.2422818 145:0.26446782 148:0.18516259 159:0.26666899 212:0.22537225 275:0.26894 279:0.26446782 315:0.18516259 322:0.2422818 
-0 1 1:0.15723266 3:0.39863119 6:0.32635083 8:0.11062316 10:0.076162972 11:0.12768618 46:0.10968902 93:0.093223216 94:0.13854839 134:0.15723266 136:0.11062316 137:0.39863119 145:0.32635083 148:0.076162972 159:0.10968902 202:0.093223216 204:0.13854839 269:0.12768618 279:0.32635083 315:0.076162972 322:0.39863119 
-1 1 31:0.23423655 180:0.93602011 319:0.11888154 331:0.23423655 
-1 1 11:0.39230924 17:0.36477864 68:0.65273272 141:0.36477864 269:0.39230924 
-1 1 6:0.41068967 16:0.26153017 55:0.30002823 90:0.27165645 143:0.26153017 145:0.41068967 149:0.30002823 279:0.41068967 314:0.27165645 319:0.17198134 
-1 1 2:0.38625414 7:0.42911662 140:0.38625414 157:0.42911662 268:0.38625414 276:0.42911662 
-1 1 2:0.2970644 7:0.33002952 18:0.23342929 51:0.36554972 140:0.2970644 157:0.33002952 212:0.36554972 268:0.2970644 276:0.33002952 287:0.23342929 319:0.17963325 
-1 1 3:0.2052566 11:0.39447616 23:0.20134547 27:0.17848108 31:0.18486609 47:0.21089786 137:0.2052566 144:0.20134547 170:0.36936674 214:0.21089786 228:0.35193292 269:0.39447616 322:0.2052566 327:0.17848108 331:0.18486609 
-1 1 11:0.53240599 17:0.12376093 32:0.22145708 76:0.34255226 141:0.12376093 142:0.34255226 215:0.22145708 217:0.26397653 269:0.53240599 
-0.3861932104814692 0.2860877689403598 9:0.17501638 55:0.28455376 56:0.56910753 67:0.15824137 135:0.17501638 149:0.28455376 156:0.15824137 177:0.32106622 181:0.32106622 182:0.32106622 237:0.30591215 
-0.3631516712552945 0.8411977970934875 4:0.070780939 9:0.40693132 51:0.19294167 55:0.33080857 56:0.33080857 69:0.19082979 93:0.1940256 135:0.40693132 146:0.070780939 149:0.33080857 181:0.37325621 202:0.1940256 212:0.19294167 270:0.070780939 
-1 0.7685794978253678 9:0.16512976 16:0.46805907 31:0.15161451 47:0.17296399 67:0.14930236 135:0.16512976 143:0.46805907 156:0.14930236 214:0.17296399 224:0.57726256 319:0.15389702 331:0.15161451 
-1 1 4:0.041293042 9:0.11870026 12:0.11256065 17:0.14415843 32:0.51591229 44:0.16272024 67:0.32196915 93:0.113193 103:0.10842241 125:0.11870026 135:0.11870026 141:0.14415843 146:0.041293042 155:0.20747688 156:0.32196915 168:0.16272024 202:0.113193 203:0.11256065 215:0.51591229 270:0.041293042 293:0.11256065 
-1 0.2524876405905565 4:0.052261452 18:0.090970392 32:0.16323776 67:0.54332237 92:0.18157128 93:0.14325975 146:0.052261452 153:0.26258765 155:0.26258765 156:0.54332237 183:0.27559555 202:0.14325975 215:0.16323776 270:0.052261452 287:0.090970392 319:0.14001066 330:0.1552037 
-0 0.6350858478616775 1:0.078671557 4:0.034031911 5:0.19565508 9:0.29348255 20:0.14401399 32:0.21259612 93:0.1865774 105:0.11703464 132:0.17099333 133:0.17099333 134:0.078671557 135:0.29348255 138:0.19565508 146:0.034031911 150:0.17099333 151:0.17099333 184:0.35892777 185:0.17946388 186:0.17946388 202:0.1865774 213:0.080316935 215:0.21259612 217:0.12670718 220:0.14401399 235:0.34198666 239:0.15451596 270:0.034031911 319:0.091172944 321:0.19565508 
-0 1 9:0.46718589 16:0.33105872 31:0.21447424 51:0.22151066 78:0.39260999 135:0.46718589 143:0.33105872 212:0.22151066 331:0.21447424 
-0.7705171536388197 0.08523911095883285 9:0.50852244 17:0.15439687 135:0.50852244 141:0.15439687 184:0.46644028 187:0.46644028 
-0.3154120462081408 1 1:0.097217314 4:0.084108949 9:0.24177813 16:0.17132957 20:0.17796334 31:0.11099475 67:0.10930206 99:0.15657669 115:0.19094101 122:0.18179694 132:0.2113027 133:0.2113027 134:0.097217314 135:0.24177813 143:0.17132957 146:0.084108949 150:0.2113027 151:0.2113027 156:0.10930206 185:0.22177007 186:0.22177007 204:0.51398862 220:0.17796334 270:0.084108949 319:0.11266573 320:0.15657669 331:0.11099475 
-1 1 9:0.60440076 17:0.36701461 135:0.60440076 141:0.36701461 
-1 1 18:0.70710678 287:0.70710678 
-1 0.5584150771928833 4:0.11242378 67:0.29219602 93:0.20545165 146:0.11242378 153:0.18829108 156:0.29219602 166:0.18105618 180:0.19761852 202:0.20545165 216:0.098396376 230:0.75316433 270:0.11242378 319:0.15059409 
-1 1 4:0.17386138 17:0.10116144 46:0.18692339 67:0.15062532 93:0.15886366 123:0.50105583 141:0.10116144 146:0.17386138 156:0.15062532 159:0.18692339 182:0.30561354 202:0.15886366 213:0.13677372 230:0.29118882 270:0.17386138 319:0.15526069 338:0.50105583 
-0 0.7080056383005347 1:0.10349409 3:0.13119407 5:0.12869419 6:0.14320766 10:0.20052876 11:0.084045883 14:0.10144417 23:0.12869419 28:0.16459163 50:0.16260486 51:0.12203766 62:0.18576164 100:0.17124817 134:0.10349409 137:0.13119407 138:0.12869419 144:0.12869419 145:0.14320766 148:0.20052876 163:0.10144417 167:0.21630202 188:0.23608852 189:0.23608852 190:0.23608852 191:0.23608852 192:0.23608852 207:0.19353455 212:0.12203766 218:0.18945344 226:0.22494533 269:0.084045883 279:0.14320766 295:0.16459163 315:0.20052876 319:0.05997001 321:0.12869419 322:0.13119407 
-1 1 3:0.072509017 5:0.3556368 6:0.1582975 10:0.1662439 13:0.093348472 14:0.11213342 23:0.3556368 28:0.18193475 31:0.065305861 38:0.088824811 49:0.070253447 50:0.08986929 51:0.067448402 79:0.11954692 100:0.09464632 106:0.083444675 137:0.072509017 138:0.3556368 144:0.3556368 145:0.1582975 148:0.1662439 163:0.11213342 212:0.067448402 213:0.058395952 271:0.093348472 278:0.070253447 279:0.1582975 291:0.088824811 295:0.18193475 315:0.1662439 321:0.3556368 322:0.072509017 331:0.065305861 
-0.2486709419098437 0.988849679048537 1:0.10349409 3:0.13119407 5:0.12869419 6:0.14320766 10:0.20052876 11:0.084045883 14:0.10144417 23:0.12869419 28:0.16459163 50:0.16260486 51:0.12203766 62:0.18576164 100:0.17124817 134:0.10349409 137:0.13119407 138:0.12869419 144:0.12869419 145:0.14320766 148:0.20052876 163:0.10144417 167:0.21630202 188:0.23608852 189:0.23608852 190:0.23608852 191:0.23608852 192:0.23608852 207:0.19353455 212:0.12203766 218:0.18945344 226:0.22494533 269:0.084045883 279:0.14320766 295:0.16459163 315:0.20052876 319:0.05997001 321:0.12869419 322:0.13119407 
-1 0.5858880111472644 9:0.43677177 75:0.41418033 103:0.39895319 135:0.43677177 213:0.35859196 216:0.39895319 
-1 1 103:1 
-1 0 18:0.33540218 67:0.50079894 156:0.50079894 213:0.45474514 287:0.33540218 319:0.25810549 
-0.1380254727803933 1 1:0.22999012 8:0.32362529 124:0.43008285 134:0.22999012 136:0.32362529 222:0.49988557 238:0.49988557 
-1 1 11:0.073799297 22:0.61026104 31:0.31126571 75:0.10715924 154:0.19752077 269:0.073799297 273:0.61026104 331:0.31126571 
-0.795492512348795 0.5937522817440413 3:0.4128581 9:0.20249565 14:0.15961873 31:0.18592214 67:0.18308679 135:0.20249565 137:0.4128581 156:0.18308679 163:0.15961873 193:0.37147673 205:0.26945278 319:0.094360637 322:0.4128581 331:0.18592214 
-1 1 3:0.48819464 14:0.37749038 137:0.48819464 163:0.37749038 322:0.48819464 
-1 1 1:0.13350765 3:0.1692407 11:0.21683893 14:0.39258985 44:0.2275828 62:0.23963299 69:0.15570573 102:0.18786221 119:0.20732281 134:0.13350765 137:0.1692407 163:0.39258985 168:0.2275828 194:0.30455481 213:0.1362999 216:0.1516411 269:0.21683893 322:0.1692407 324:0.20732281 335:0.18786221 
-1 0.6578832690764702 1:0.072011491 4:0.031150885 9:0.089545795 19:0.30398798 34:0.15952991 60:0.12925349 63:0.062486642 67:0.48577798 117:0.28287033 134:0.072011491 135:0.089545795 146:0.031150885 156:0.48577798 206:0.1346619 219:0.13182225 221:0.062486642 229:0.15651762 241:0.28287033 270:0.031150885 275:0.30398798 319:0.041727307 329:0.12925349 332:0.15952991 
-1 1 4:0.097161722 7:0.11955872 17:0.16960098 34:0.2487923 67:0.50505807 141:0.16960098 146:0.097161722 156:0.50505807 157:0.11955872 166:0.46943085 270:0.097161722 276:0.11955872 319:0.1301503 332:0.2487923 
-1 0 67:0.70710678 156:0.70710678 
-1 1 32:0.45161884 37:0.26578266 69:0.19490945 128:0.299968 206:0.3125197 207:0.3125197 215:0.45161884 242:0.26578266 319:0.19367907 328:0.299968 
-1 1 67:0.5500157 156:0.5500157 330:0.62846278 
-0 1 1:0.07660689 3:0.29133163 6:0.42401236 14:0.15017912 35:0.11513361 47:0.099779551 57:0.15488054 101:0.12675882 115:0.15046082 134:0.07660689 137:0.29133163 145:0.42401236 162:0.11513361 163:0.15017912 210:0.15488054 214:0.099779551 279:0.42401236 292:0.12675882 322:0.29133163 
-0 1 1:0.20629078 6:0.2854503 14:0.20220475 17:0.15576919 35:0.31003741 57:0.4170699 134:0.20629078 141:0.15576919 145:0.2854503 162:0.31003741 163:0.20220475 210:0.4170699 279:0.2854503 
-1 1 14:0.23343823 35:0.35792722 49:0.29250596 57:0.48149244 162:0.35792722 163:0.23343823 210:0.48149244 278:0.29250596 
-1 1 4:0.11766348 7:0.14478638 12:0.32073871 17:0.20538789 34:0.30128909 53:0.40064826 141:0.20538789 146:0.11766348 157:0.14478638 203:0.32073871 270:0.11766348 276:0.14478638 293:0.32073871 332:0.30128909 336:0.40064826 
-1 1 1:0.31886897 4:0.091957988 7:0.056577729 10:0.10297267 11:0.43158063 17:0.16051759 46:0.14830004 51:0.25066816 73:0.20344764 134:0.31886897 141:0.16051759 146:0.091957988 147:0.20344764 148:0.10297267 157:0.056577729 159:0.14830004 212:0.25066816 229:0.23102145 269:0.43158063 270:0.091957988 276:0.056577729 315:0.10297267 
-1 1 12:0.20786931 14:0.34558413 30:0.26774717 155:0.38315411 158:0.26774717 163:0.34558413 203:0.20786931 240:0.34623236 293:0.20786931 325:0.2916906 326:0.2916906 330:0.22646508 
-0.05583062171735708 1 1:0.1164274 8:0.32765636 32:0.47193708 35:0.17498043 51:0.13728829 94:0.20518419 134:0.1164274 136:0.32765636 154:0.25305599 162:0.17498043 193:0.26559171 205:0.19264847 212:0.13728829 215:0.47193708 
-1 1 17:0.19897623 26:0.23219782 46:0.18383146 63:0.11432858 68:0.17802344 73:0.25219196 80:0.27536863 103:0.59860482 141:0.19897623 147:0.25219196 159:0.18383146 217:0.42440726 221:0.11432858 
-1 1 2:0.26479044 7:0.19611615 51:0.21722361 71:0.22625751 126:0.59339255 140:0.26479044 157:0.19611615 195:0.42023096 212:0.21722361 268:0.26479044 276:0.19611615 
-0 1 1:0.29127471 11:0.23653949 17:0.21994016 73:0.55752528 134:0.29127471 141:0.21994016 147:0.55752528 269:0.23653949 
-0.6549329751575569 1 1:0.1405739 17:0.10614668 18:0.10585025 26:0.24773843 46:0.19613498 71:0.17265492 73:0.26907074 81:0.29379858 93:0.16669247 103:0.31933421 117:0.2760961 134:0.1405739 141:0.10614668 147:0.26907074 159:0.19613498 183:0.32067418 202:0.16669247 213:0.14351393 239:0.2760961 241:0.2760961 287:0.10585025 319:0.08145603 
-1 1 19:0.33015465 103:0.79949578 217:0.37789194 275:0.33015465 
-1 1 1:0.1572667 12:0.18544497 37:0.50021771 91:0.17862718 93:0.18648679 134:0.1572667 202:0.18648679 203:0.18544497 223:0.34182057 239:0.30888183 242:0.50021771 293:0.18544497 319:0.18225733 
-0 1 1:0.24161239 5:0.30044335 10:0.23407245 14:0.23682674 17:0.18244037 30:0.36697124 134:0.24161239 138:0.30044335 141:0.18244037 148:0.23407245 158:0.36697124 163:0.23682674 315:0.23407245 321:0.30044335 
-0 1 1:0.24632771 3:0.31225681 72:0.47149279 134:0.24632771 137:0.31225681 213:0.25147953 216:0.27978475 316:0.47149279 322:0.31225681 
-0.05407812293744431 1 1:0.26492498 32:0.35795682 47:0.3450616 134:0.26492498 187:0.60434123 214:0.3450616 215:0.35795682 
-1 1 61:0.70710678 288:0.70710678 
-1 1 10:0.29888323 12:0.18189416 26:0.27184988 30:0.23428974 106:0.22503274 114:0.3029675 148:0.29888323 158:0.23428974 203:0.18189416 243:0.55374653 293:0.18189416 315:0.29888323 
-1 0.6679202208952493 3:0.19115032 5:0.18750799 10:0.14608563 14:0.14780459 23:0.18750799 35:0.22662649 40:0.2961638 58:0.30486348 67:0.16953567 106:0.21997921 111:0.2961638 137:0.19115032 138:0.18750799 144:0.18750799 148:0.14608563 156:0.16953567 162:0.22662649 163:0.14780459 208:0.30486348 216:0.17127231 315:0.14608563 319:0.087376559 321:0.18750799 322:0.19115032 
-1 1 12:0.41176693 15:0.49565309 203:0.41176693 274:0.49565309 293:0.41176693 
-1 1 2:0.13033055 4:0.11766919 67:0.30582915 74:0.29013559 75:0.32075428 110:0.53425642 140:0.13033055 146:0.11766919 156:0.30582915 219:0.49794467 268:0.13033055 270:0.11766919 
-0.8193293220259917 1 5:0.39821366 23:0.19910683 42:0.31448385 54:0.32372168 138:0.39821366 144:0.19910683 161:0.31448385 213:0.16346777 216:0.18186685 243:0.28739766 321:0.39821366 
-0.2188466041614968 1 1:0.19759585 3:0.25048197 11:0.1604644 82:0.82594822 134:0.19759585 137:0.25048197 269:0.1604644 322:0.25048197 
-1 1 9:0.35539115 10:0.27688175 46:0.39876185 51:0.16850451 92:0.21476698 135:0.35539115 148:0.27688175 159:0.39876185 212:0.16850451 237:0.31059513 315:0.27688175 
-0.6611161456862762 1 9:0.28420477 13:0.37299399 36:0.33664964 135:0.28420477 174:0.52137151 219:0.41838384 271:0.37299399 
-1 1 5:0.2825084 14:0.22268938 23:0.2825084 35:0.34144618 138:0.2825084 144:0.2825084 162:0.34144618 163:0.22268938 196:0.51825952 321:0.2825084 
-0.7946169240899915 1 5:0.26990672 14:0.21275601 23:0.26990672 42:0.42631037 114:0.42631037 138:0.26990672 144:0.26990672 161:0.42631037 163:0.21275601 321:0.26990672 
-0.6924624159870073 1 1:0.1187102 5:0.29523064 10:0.11500564 14:0.23271789 23:0.29523064 30:0.18030214 58:0.24000322 134:0.1187102 138:0.29523064 144:0.29523064 148:0.11500564 158:0.18030214 163:0.23271789 197:0.27079919 198:0.27079919 199:0.27079919 243:0.21307304 315:0.11500564 321:0.29523064 
-1 1 7:0.11498008 10:0.4185324 51:0.25471017 148:0.4185324 157:0.11498008 212:0.25471017 213:0.22052476 216:0.49069174 276:0.11498008 315:0.4185324 319:0.12516605 
-1 1 32:0.36837848 52:0.36837848 70:0.26412994 89:0.49908378 139:0.49908378 215:0.36837848 319:0.15798108 
-1 1 12:0.48871157 203:0.48871157 293:0.48871157 330:0.53243121 
-1 1 60:0.421846 201:0.53613331 204:0.41419244 218:0.43022971 329:0.421846 
-1 1 14:0.31608859 35:0.24232676 43:0.3166815 55:0.32598388 149:0.32598388 162:0.24232676 163:0.31608859 211:0.27932509 216:0.3662755 238:0.35045198 319:0.18685956 
-1 1 36:0.54244645 201:0.84009038 
-1 1 12:0.46827462 36:0.58494158 203:0.46827462 293:0.46827462 
-0 1 1:0.25801546 8:0.3630605 43:0.50675883 134:0.25801546 136:0.3630605 200:0.58857938 
-1 1 103:1 
-1 0.3548663925409893 1:0.23768909 2:0.11388364 46:0.33163445 47:0.30958718 134:0.23768909 140:0.11388364 159:0.33163445 211:0.41176754 214:0.30958718 233:0.51661936 268:0.11388364 
-1 1 1:0.17458556 4:0.075522595 7:0.092931501 8:0.24566403 14:0.17112752 28:0.2776518 65:0.50004358 69:0.20361359 134:0.17458556 136:0.24566403 146:0.075522595 157:0.092931501 163:0.17112752 213:0.35647386 232:0.37946326 270:0.075522595 276:0.092931501 295:0.2776518 
-0.627867892747816 0.3504851633207572 1:0.3322919 134:0.3322919 213:0.33924163 216:0.37742488 232:0.72223941 
-0.8686412677849845 1 1:0.24722812 14:0.24233124 41:0.4855718 134:0.24722812 160:0.4855718 163:0.24233124 227:0.53735251 
-1 1 1:0.27642183 11:0.44895566 44:0.47120037 134:0.27642183 168:0.47120037 269:0.44895566 
-1 1 11:0.27018395 117:0.65345285 241:0.65345285 269:0.27018395 
-1 1 4:0.094851116 5:0.27265737 17:0.16556769 23:0.27265737 32:0.29626584 42:0.43065495 138:0.27265737 141:0.16556769 144:0.27265737 146:0.094851116 161:0.43065495 215:0.29626584 270:0.094851116 321:0.27265737 
-0 0.7182927777280587 1:0.32769004 3:0.13846516 8:0.15370045 10:0.31746381 11:0.088703907 14:0.10706645 22:0.18337758 134:0.32769004 136:0.15370045 137:0.13846516 148:0.31746381 163:0.10706645 195:0.24917312 222:0.23741234 243:0.39211407 269:0.088703907 273:0.18337758 315:0.31746381 322:0.13846516 
-0 1 1:0.27041741 8:0.38051162 41:0.53111706 134:0.27041741 136:0.38051162 160:0.53111706 
-0.6109212994809887 1 3:0.43511162 6:0.23747772 10:0.16626594 15:0.24359974 17:0.12959073 70:0.16626594 137:0.43511162 141:0.12959073 145:0.23747772 148:0.16626594 274:0.24359974 279:0.23747772 315:0.16626594 322:0.43511162 
-1 1 3:0.43511162 6:0.23747772 10:0.16626594 15:0.24359974 17:0.12959073 70:0.16626594 137:0.43511162 141:0.12959073 145:0.23747772 148:0.16626594 274:0.24359974 279:0.23747772 315:0.16626594 322:0.43511162 
-0 0.208513594925253 9:0.70710678 135:0.70710678 
-1 0 9:0.62818344 18:0.19019552 36:0.37205168 135:0.62818344 287:0.19019552 
-1 1 9:0.37615145 18:0.22777525 20:0.55374048 135:0.37615145 220:0.55374048 287:0.22777525 
-1 1 93:0.43194638 152:0.79173521 202:0.43194638 
-1 1 17:0.39423882 67:0.58700575 141:0.39423882 156:0.58700575 
-1 1 1:0.36057335 2:0.17276099 63:0.31288087 134:0.36057335 140:0.17276099 206:0.67427425 221:0.31288087 268:0.17276099 
-1 1 1:0.50225603 2:0.24064543 4:0.1086335 7:0.26734976 17:0.18962557 134:0.50225603 140:0.24064543 141:0.18962557 146:0.1086335 157:0.26734976 268:0.24064543 270:0.1086335 276:0.26734976 
-1 1 12:0.33490397 116:0.55782451 167:0.5935906 203:0.33490397 293:0.33490397 
-1 1 5:0.37861244 14:0.29844412 18:0.22926548 23:0.37861244 138:0.37861244 144:0.37861244 163:0.29844412 287:0.22926548 321:0.37861244 
-0.2590264895094959 1 4:0.10874658 9:0.31260105 16:0.44303265 31:0.28701582 135:0.31260105 143:0.44303265 146:0.10874658 219:0.46018659 270:0.10874658 331:0.28701582 
-1 1 4:0.10364016 12:0.28251258 21:0.13971014 49:0.14713086 67:0.26936688 91:0.27212614 94:0.21111456 98:0.19293587 110:0.23528004 146:0.10364016 156:0.26936688 203:0.28251258 216:0.13606307 223:0.52073997 270:0.10364016 278:0.14713086 293:0.28251258 297:0.13971014 
-0 1 1:0.15194499 5:0.18894255 9:0.37788509 14:0.14893539 21:0.17720861 30:0.23078055 47:0.19790651 68:0.20530244 69:0.17720861 91:0.17258266 93:0.1801763 134:0.15194499 135:0.37788509 138:0.18894255 158:0.23078055 163:0.14893539 166:0.31756409 202:0.1801763 214:0.19790651 297:0.17720861 321:0.18894255 
-1 1 1:0.21620238 5:0.26884618 10:0.20945541 23:0.26884618 49:0.26554294 124:0.40429971 134:0.21620238 138:0.26884618 144:0.26884618 148:0.20945541 213:0.22072415 216:0.24556771 278:0.26554294 315:0.20945541 321:0.26884618 
-1 1 3:0.16586117 4:0.056599768 13:0.2135305 18:0.098522006 30:0.19872792 35:0.19664384 37:0.20808379 39:0.25698138 47:0.17041969 112:0.51396275 137:0.16586117 146:0.056599768 158:0.19872792 162:0.19664384 207:0.24467467 213:0.13357815 214:0.17041969 216:0.29722602 242:0.20808379 270:0.056599768 271:0.2135305 287:0.098522006 322:0.16586117 
-1 -0 24:0.35774496 125:0.35997902 277:0.42231748 334:0.35774496 340:0.66037879 
-1 -0.02980593812008964 2:0.13016093 34:0.30091159 140:0.13016093 268:0.13016093 332:0.30091159 341:0.61970914 342:0.61970914 
-1 -0 11:0.4139748 269:0.4139748 294:0.8107094 
-1 -0.00706726098754764 330:1 
-0.003577402834582787 -1 1:0.54890725 11:0.44575872 134:0.54890725 269:0.44575872 
-1 -0 2:0.1886004 4:0.17027823 140:0.1886004 146:0.17027823 268:0.1886004 270:0.17027823 343:0.89794523 
-1 -0.5612202904720813 2:0.14681726 4:0.2651085 18:0.23073434 140:0.14681726 146:0.2651085 213:0.31283435 268:0.14681726 270:0.2651085 287:0.23073434 319:0.17755938 343:0.69901158 
-1 -0 11:0.40985076 31:0.57621381 269:0.40985076 331:0.57621381 
-1 -0.0007187917840033031 31:0.70710678 331:0.70710678 
-0.9277304786825426 -0 7:0.17066204 125:0.39868114 157:0.17066204 276:0.17066204 277:0.46772175 344:0.73137754 
-1 -1 2:0.16914136 4:0.076354732 11:0.28668071 12:0.41627052 51:0.20813526 52:0.2384927 105:0.26258146 140:0.16914136 146:0.076354732 203:0.41627052 212:0.20813526 268:0.16914136 269:0.28668071 270:0.076354732 293:0.41627052 
-1 -0 7:0.1503072 14:0.27678126 18:0.42524804 157:0.1503072 163:0.27678126 276:0.1503072 277:0.41193663 287:0.42524804 296:0.49763835 
-1 -0.894257635564398 2:0.10774512 36:0.66246906 140:0.10774512 268:0.10774512 345:0.51298524 346:0.51298524 
-1 -0 2:0.14891755 4:0.067225186 7:0.082721435 36:0.45780809 38:0.24132613 125:0.19324435 140:0.14891755 146:0.067225186 157:0.082721435 213:0.15865465 268:0.14891755 270:0.067225186 276:0.082721435 291:0.24132613 319:0.09004964 345:0.70901061 
-1 -0 4:0.13057812 7:0.16067801 36:0.44462307 96:0.41104101 146:0.13057812 157:0.16067801 270:0.13057812 276:0.16067801 319:0.17491231 346:0.68859066 
-1 -0 4:0.12616583 7:0.15524864 12:0.34391528 19:0.41039914 104:0.43388023 146:0.12616583 157:0.15524864 203:0.34391528 270:0.12616583 275:0.41039914 276:0.15524864 293:0.34391528 
-1 -0 2:0.09254884 4:0.1671158 7:0.10281904 34:0.21395835 36:0.28451757 63:0.33522337 115:0.37938006 140:0.09254884 146:0.1671158 157:0.10281904 221:0.33522337 268:0.09254884 270:0.1671158 276:0.10281904 277:0.56357835 332:0.21395835 
-1 -0.1674214369456955 7:0.2051126 10:0.18665465 18:0.29015155 63:0.33436675 96:0.26235603 148:0.18665465 157:0.2051126 221:0.33436675 276:0.2051126 287:0.29015155 296:0.33954427 315:0.18665465 347:0.43950824 
-1 -0.5340728208145715 38:0.70710678 291:0.70710678 
-1 -1 31:0.70710678 331:0.70710678 
-1 -1 1:0.17438331 3:0.22105664 4:0.075435107 7:0.092823846 11:0.14161387 14:0.17092928 16:0.30732197 30:0.26486084 47:0.22713216 94:0.30732197 134:0.17438331 137:0.22105664 143:0.30732197 146:0.075435107 157:0.092823846 158:0.26486084 163:0.17092928 214:0.22713216 269:0.14161387 270:0.075435107 276:0.092823846 317:0.35256074 322:0.22105664 
-1 -1 4:0.063683499 5:0.18306348 10:0.071311477 12:0.086797382 19:0.20715324 67:0.082758582 102:0.10357659 117:0.57828764 138:0.18306348 146:0.063683499 148:0.071311477 156:0.082758582 203:0.086797382 217:0.1185528 219:0.13474581 241:0.57828764 270:0.063683499 275:0.20715324 293:0.086797382 298:0.15998886 315:0.071311477 319:0.042652735 321:0.18306348 335:0.10357659 
-1 -0.4876546492293772 2:0.15668017 12:0.38560288 17:0.24692424 140:0.15668017 141:0.24692424 203:0.38560288 268:0.15668017 293:0.38560288 313:0.5986168 
-1 -0.9737911050630145 10:0.22074991 14:0.22334743 38:0.35384279 97:0.35384279 103:0.51761898 106:0.33241047 148:0.22074991 163:0.22334743 291:0.35384279 315:0.22074991 
-0 -0.3244683010424207 56:0.59024549 91:0.16579996 118:0.28670103 128:0.26200774 290:0.28670103 299:0.31727443 328:0.26200774 348:0.33299136 349:0.33299136 
-1 -0 27:0.12164745 56:0.2231199 103:0.25069752 118:0.21675287 128:0.59425256 290:0.21675287 299:0.23986711 327:0.12164745 328:0.59425256 
-1 -0 36:0.19009837 56:0.26092593 91:0.29317638 118:0.25348006 128:0.46329623 290:0.25348006 299:0.28051083 328:0.46329623 348:0.29440659 349:0.29440659 
-1 -1 14:0.11904545 25:0.17238756 35:0.18253055 67:0.1365482 93:0.57606643 98:0.19560716 115:0.23853761 156:0.1365482 162:0.18253055 163:0.11904545 202:0.57606643 219:0.22232495 267:0.17238756 
-1 -1 4:0.074942667 18:0.1304511 32:0.23408214 51:0.20428612 67:0.19478041 93:0.20543378 121:0.32396903 146:0.074942667 156:0.19478041 202:0.20543378 212:0.20428612 213:0.17686827 215:0.23408214 270:0.074942667 287:0.1304511 294:0.27551975 319:0.20077461 325:0.28666253 337:0.32396903 350:0.39520267 
-1 -1 9:0.34552327 31:0.31724349 67:0.31240547 135:0.34552327 156:0.31240547 237:0.60394215 331:0.31724349 
-1 -0 49:0.49422466 71:0.49422466 278:0.49422466 330:0.51693903 
-1 -0.4195638145788055 49:0.30608109 71:0.30608109 217:0.40137074 277:0.3635528 278:0.30608109 330:0.32014846 344:0.56848831 
-1 -1 5:0.23248457 14:0.36651559 23:0.23248457 50:0.29374378 51:0.22045961 100:0.30935782 138:0.23248457 144:0.23248457 163:0.36651559 212:0.22045961 321:0.23248457 351:0.42649117 
-0.2133579380126076 -1 3:0.072509017 5:0.3556368 6:0.1582975 10:0.1662439 13:0.093348472 14:0.11213342 23:0.3556368 28:0.18193475 31:0.065305861 38:0.088824811 49:0.070253447 50:0.08986929 51:0.067448402 79:0.11954692 100:0.09464632 106:0.083444675 137:0.072509017 138:0.3556368 144:0.3556368 145:0.1582975 148:0.1662439 163:0.11213342 212:0.067448402 213:0.058395952 271:0.093348472 278:0.070253447 279:0.1582975 291:0.088824811 295:0.18193475 315:0.1662439 321:0.3556368 322:0.072509017 331:0.065305861 
-0.3673985600420133 -0.6354742079994038 5:0.27726776 6:0.077134161 7:0.029672266 10:0.054004155 11:0.13580581 14:0.054639612 19:0.07843851 23:0.20795081 28:0.088651942 46:0.077776152 50:0.17516366 51:0.065731625 69:0.065012148 81:0.11650407 83:0.11650407 84:0.11650407 85:0.11650407 92:0.08377807 98:0.089779989 101:0.09223727 124:0.10424111 131:0.12115951 138:0.27726776 144:0.20795081 145:0.077134161 148:0.054004155 157:0.029672266 159:0.077776152 163:0.054639612 212:0.065731625 216:0.12663007 269:0.13580581 275:0.07843851 276:0.029672266 279:0.077134161 281:0.11650407 282:0.11650407 283:0.11650407 292:0.09223727 295:0.088651942 300:0.12115951 315:0.054004155 319:0.064601753 321:0.27726776 352:0.12716142 353:0.12716142 354:0.12716142 355:0.12716142 356:0.12716142 357:0.12716142 358:0.38148422 359:0.12716142 360:0.12716142 361:0.12716142 362:0.12716142 363:0.12716142 364:0.12716142 
-0.9059100130170298 -0.9913897558926742 5:0.27726776 6:0.077134161 7:0.029672266 10:0.054004155 11:0.13580581 14:0.054639612 19:0.07843851 23:0.20795081 28:0.088651942 46:0.077776152 50:0.17516366 51:0.065731625 69:0.065012148 81:0.11650407 83:0.11650407 84:0.11650407 85:0.11650407 92:0.08377807 98:0.089779989 101:0.09223727 124:0.10424111 131:0.12115951 138:0.27726776 144:0.20795081 145:0.077134161 148:0.054004155 157:0.029672266 159:0.077776152 163:0.054639612 212:0.065731625 216:0.12663007 269:0.13580581 275:0.07843851 276:0.029672266 279:0.077134161 281:0.11650407 282:0.11650407 283:0.11650407 292:0.09223727 295:0.088651942 300:0.12115951 315:0.054004155 319:0.064601753 321:0.27726776 352:0.12716142 353:0.12716142 354:0.12716142 355:0.12716142 356:0.12716142 357:0.12716142 358:0.38148422 359:0.12716142 360:0.12716142 361:0.12716142 362:0.12716142 363:0.12716142 364:0.12716142 
-0.7631892626018827 -1 9:0.26527018 11:0.34647839 17:0.16108192 49:0.26201088 135:0.26527018 141:0.16108192 269:0.34647839 278:0.26201088 301:0.4636673 302:0.4636673 
-1 -0 11:0.39214437 27:0.26613905 269:0.39214437 301:0.52477881 302:0.52477881 327:0.26613905 
-1 -0 2:0.05204071 13:0.35451531 19:0.15283556 50:0.3413022 82:0.22700539 100:0.35944423 102:0.15283556 103:0.24673566 119:0.33733552 140:0.05204071 268:0.05204071 271:0.35451531 275:0.15283556 324:0.33733552 335:0.15283556 365:0.24777099 
-1 -0.03072912418087611 11:0.34657878 12:0.5032449 203:0.5032449 269:0.34657878 293:0.5032449 
-1 -0 50:0.56288432 68:0.48407086 122:0.66995272 
-0.001276710968127534 -0 20:0.70710678 220:0.70710678 
-1 -1 18:0.41251591 69:0.63892806 218:0.50143015 287:0.41251591 
-1 -0.1615129025423493 18:0.24977199 69:0.38686103 75:0.39114235 287:0.24977199 350:0.75668627 
-1 -0 4:0.091652193 7:0.056389587 14:0.10383788 18:0.079768506 31:0.36284757 37:0.16847538 49:0.13011236 51:0.1249173 63:0.091924156 111:0.2080654 113:0.4161308 116:0.2080654 146:0.091652193 157:0.056389587 163:0.10383788 212:0.1249173 221:0.091924156 242:0.16847538 270:0.091652193 276:0.056389587 278:0.13011236 287:0.079768506 289:0.4161308 313:0.19392384 331:0.36284757 366:0.24165934 
-1 -1 17:0.70710678 141:0.70710678 
-1 -0 31:0.34953657 69:0.35705266 90:0.5604292 314:0.5604292 331:0.34953657 
-1 -1 11:0.34866476 41:0.42163101 64:0.27578214 95:0.29232119 160:0.42163101 269:0.34866476 367:0.48970695 
-1 -1 17:0.32978078 93:0.51788685 103:0.49606017 141:0.32978078 202:0.51788685 
-1 -0.2979852339589437 18:0.2332082 287:0.2332082 318:0.62616048 368:0.70650614 
-0.3046091052588157 -0 318:0.65160216 319:0.18675492 368:0.73521237 
-0.1229539215285161 -0 25:0.70710678 267:0.70710678 
-0.3216255387092619 -0.3190281385225444 340:1 
-1 -0 101:0.60005139 277:0.5290337 292:0.60005139 
-1 -1 9:0.70710678 135:0.70710678 
-1 -1 9:0.29736899 18:0.36013843 67:0.26886669 123:0.44719325 135:0.29736899 156:0.26886669 287:0.36013843 319:0.13857052 338:0.44719325 
-0.0005263019311913114 -0 48:0.69072079 272:0.69072079 319:0.21403172 
-0.7761627567929397 -0 48:0.69072079 272:0.69072079 319:0.21403172 
-1 -1 47:0.46511966 204:0.62933181 214:0.46511966 319:0.41384643 
-1 -1 10:0.4300682 92:0.66717615 148:0.4300682 315:0.4300682 
-1 -0 7:0.080252511 11:0.24486973 35:0.22658871 38:0.23412345 63:0.13082459 71:0.18517326 74:0.16080918 90:0.27598846 101:0.24946772 123:0.28193366 157:0.080252511 162:0.22658871 221:0.13082459 269:0.24486973 276:0.080252511 291:0.23412345 292:0.24946772 314:0.27598846 338:0.28193366 369:0.34392465 
-1 -0.6535885239443817 9:0.38624132 49:0.38149568 75:0.36626351 135:0.38624132 278:0.38149568 294:0.49397791 319:0.179984 
-1 -0 4:0.24302286 31:0.64141237 146:0.24302286 270:0.24302286 331:0.64141237 
-1 -1 216:1 
-1 -0 11:0.31738494 17:0.29511221 141:0.29511221 269:0.31738494 318:0.79015895 
-1 -0 11:0.70710678 269:0.70710678 
-1 -1 17:0.70710678 141:0.70710678 
-1 -0.1139936969703145 11:0.26412701 17:0.24559169 121:0.60821184 141:0.24559169 269:0.26412701 337:0.60821184 
-1 -0.4563059324346627 11:0.35621763 17:0.33121979 141:0.33121979 269:0.35621763 325:0.72581326 
-1 -0 4:0.53849273 146:0.53849273 270:0.53849273 319:0.36066153 
-0.3461247794065052 -0.5917156271545452 114:0.65246885 370:0.75781554 
-0.921925196635774 -0.4997200571041531 17:0.29978939 141:0.29978939 371:0.905678 
-1 -0.9818372093371384 5:0.16122793 6:0.17941039 10:0.12561109 11:0.52646313 17:0.097903594 22:0.21767134 51:0.15288863 103:0.14726775 106:0.18914817 138:0.16122793 141:0.097903594 145:0.17941039 148:0.12561109 212:0.15288863 269:0.52646313 273:0.21767134 279:0.17941039 315:0.12561109 319:0.075130356 321:0.16122793 
-1 -0 17:0.22109161 69:0.3414829 102:0.41200623 141:0.22109161 335:0.41200623 372:0.66792827 
-1 -0 11:0.25840884 17:0.2402748 104:0.47337266 141:0.2402748 269:0.25840884 371:0.72588161 
-1 -0 19:0.4034384 49:0.35214233 99:0.46177184 275:0.4034384 278:0.35214233 320:0.46177184 
-0 -1 1:0.3561998 8:0.50121833 14:0.34914451 134:0.3561998 136:0.50121833 163:0.34914451 
-0 -1 3:0.17731265 6:0.19354937 11:0.11359048 14:0.13710478 22:0.2348256 25:0.19853895 35:0.21022064 57:0.28279394 137:0.17731265 145:0.19354937 162:0.21022064 163:0.13710478 210:0.28279394 267:0.19853895 269:0.11359048 273:0.2348256 277:0.20405457 279:0.19354937 322:0.17731265 323:0.21721109 372:0.31908058 373:0.31908058 
-0.3329259952440727 -0 11:0.26260715 22:0.54288774 31:0.36920236 269:0.26260715 273:0.54288774 331:0.36920236 
-0.9710804317206176 -0 11:0.25069137 25:0.43817052 49:0.3791515 267:0.43817052 269:0.25069137 277:0.45034336 278:0.3791515 
-0.9912548888567324 -0 11:0.26260715 22:0.54288774 31:0.36920236 269:0.26260715 273:0.54288774 331:0.36920236 
-0.7210381800528235 -1 3:0.34500047 6:0.18829634 14:0.26676749 38:0.21131587 47:0.17724129 57:0.27511876 70:0.13183244 102:0.19148045 137:0.34500047 145:0.18829634 163:0.26676749 210:0.27511876 214:0.17724129 279:0.18829634 291:0.21131587 322:0.34500047 335:0.19148045 
-0.3578296857665603 -0 38:0.4023948 100:0.42876744 277:0.37802167 291:0.4023948 373:0.59111332 
-1 -0 2:0.087353687 7:0.097047379 10:0.17662829 11:0.14805738 12:0.21498466 19:0.25654434 51:0.21498466 63:0.15820294 64:0.23421697 69:0.21263151 106:0.26597109 140:0.087353687 148:0.17662829 157:0.097047379 203:0.21498466 212:0.21498466 221:0.15820294 268:0.087353687 269:0.14805738 275:0.25654434 276:0.097047379 293:0.21498466 315:0.17662829 330:0.23421697 374:0.41589958 
-1 -1 1:0.26462075 7:0.14085703 11:0.21489424 17:0.19981388 60:0.47496801 67:0.29751483 134:0.26462075 141:0.19981388 156:0.29751483 157:0.14085703 269:0.21489424 276:0.14085703 329:0.47496801 
-0.1488348540861972 -0.3837749902403789 10:0.20190538 110:0.40932888 148:0.20190538 315:0.20190538 318:0.84270548 
-1 -0 11:0.25727778 121:0.59243996 269:0.25727778 330:0.40699641 337:0.59243996 
-1 -1 1:0.14382376 3:0.1823179 5:0.17884386 11:0.11679696 15:0.20414338 30:0.21844569 31:0.16420616 43:0.28247905 44:0.24516809 47:0.18732872 51:0.1695934 62:0.2581494 102:0.20237829 134:0.14382376 137:0.1823179 138:0.17884386 158:0.21844569 168:0.24516809 212:0.1695934 214:0.18732872 216:0.16335838 269:0.11679696 274:0.20414338 321:0.17884386 322:0.1823179 331:0.16420616 335:0.20237829 
-1 -0.671529255523148 2:0.14850763 27:0.68331415 140:0.14850763 268:0.14850763 327:0.68331415 
-0.6450592055688472 -0.6911583628063025 26:0.64463664 80:0.76448911 
-1 -0 11:0.23782472 22:0.24582738 25:0.20784067 26:0.25805636 32:0.19784889 36:0.21568307 40:0.28759509 47:0.19072147 63:0.1270607 70:0.14185903 80:0.30603485 98:0.2358356 103:0.166317 119:0.22738761 214:0.19072147 215:0.19784889 221:0.1270607 267:0.20784067 269:0.23782472 273:0.24582738 324:0.22738761 
-1 -0.532674705522408 11:0.21989516 22:0.2272945 32:0.54879918 36:0.19942276 47:0.17634302 69:0.15790032 114:0.26591335 214:0.17634302 215:0.54879918 269:0.21989516 273:0.2272945 
-1 -0 25:0.38420516 40:0.5316357 70:0.26223439 119:0.42033879 267:0.38420516 324:0.42033879 
-0.05378989411945774 -0 26:0.62898939 63:0.15484957 79:0.37296634 80:0.37296634 86:0.37296634 221:0.15484957 284:0.37296634 
-1 -1 26:0.84299799 37:0.38036455 242:0.38036455 
-1 -0 2:0.13664151 4:0.18505041 25:0.40479474 61:0.25594148 98:0.22965912 101:0.23594489 140:0.13664151 146:0.18505041 267:0.40479474 268:0.13664151 270:0.18505041 288:0.25594148 292:0.23594489 319:0.082626389 375:0.32528162 376:0.32528162 
-1 -0 2:0.22112341 7:0.24566161 63:0.4004682 64:0.59288689 140:0.22112341 157:0.24566161 221:0.4004682 268:0.22112341 276:0.24566161 
-1 -0 4:0.34100265 68:0.71007708 106:0.38333031 146:0.34100265 270:0.34100265 
-1 -0 4:0.57735027 146:0.57735027 270:0.57735027 
-1 -0 4:0.57735027 146:0.57735027 270:0.57735027 
-1 -0.07343074897634015 4:0.18016191 146:0.18016191 270:0.18016191 376:0.95006582 
-1 -0.1694877019130535 19:0.23910892 28:0.54048644 70:0.16462417 102:0.23910892 275:0.23910892 295:0.54048644 319:0.098464813 335:0.23910892 374:0.38763396 
-0.5537013964149231 -0 6:0.27604565 11:0.32401217 106:0.29102847 107:0.28569311 145:0.27604565 269:0.32401217 279:0.27604565 301:0.43360236 377:0.45508186 
-0.4501130642129658 -1 12:0.37369192 19:0.44593204 68:0.42819653 203:0.37369192 275:0.44593204 293:0.37369192 
-0 -1 6:0.49421665 14:0.11669627 17:0.08989741 25:0.16898575 35:0.17892858 46:0.16611001 49:0.14622435 141:0.08989741 145:0.49421665 159:0.16611001 162:0.17892858 163:0.11669627 267:0.16898575 278:0.14622435 279:0.49421665 319:0.068986481 
-1 -1 7:0.19653613 10:0.35769995 11:0.14991968 16:0.32534675 18:0.13900965 103:0.20968557 143:0.32534675 148:0.35769995 157:0.19653613 269:0.14991968 276:0.19653613 287:0.13900965 303:0.40125384 315:0.35769995 
-1 -1 8:0.43320322 9:0.1914131 14:0.15088283 18:0.11590855 19:0.21660154 67:0.34613298 70:0.14912806 135:0.1914131 136:0.43320322 156:0.34613298 163:0.15088283 275:0.21660154 287:0.11590855 378:0.35114589 
-0.2130339373402398 -0 77:0.66075046 129:0.53075834 280:0.53075834 
-0.8182549855954477 -0.4917178291289903 70:0.17053323 77:0.73578839 78:0.36789419 114:0.34572717 129:0.29551688 280:0.29551688 
-1 -1 11:0.080794791 14:0.48760053 68:0.13442815 81:0.4158699 103:0.45201541 124:0.18604818 163:0.48760053 213:0.1015715 269:0.080794791 319:0.057650229 330:0.12781201 379:0.22695607 
-1 -1 10:0.13714516 30:0.21501176 51:0.16692742 58:0.28620579 72:0.54192747 102:0.19919693 148:0.13714516 158:0.21501176 212:0.16692742 213:0.1445236 216:0.16079041 315:0.13714516 316:0.54192747 335:0.19919693 
-1 -0.8250871174372345 7:0.097886714 17:0.13885798 30:0.27930707 50:0.28892629 60:0.33007267 100:0.30428425 103:0.20887184 119:0.28556833 141:0.13885798 157:0.097886714 158:0.27930707 276:0.097886714 324:0.28556833 329:0.33007267 380:0.41949658 
-1 -0 2:0.35024807 7:0.12970503 18:0.091740133 36:0.17945781 74:0.51980339 75:0.14366484 121:0.22783221 140:0.35024807 157:0.12970503 268:0.35024807 276:0.12970503 287:0.091740133 319:0.14119536 325:0.2015963 337:0.22783221 380:0.27792748 
-0.9400712854644755 -0 25:0.70710678 267:0.70710678 
-1 -0.2940528689378981 2:0.20277186 17:0.31956365 70:0.82000541 140:0.20277186 141:0.31956365 268:0.20277186 
-0 -1 6:0.35831337 12:0.30534487 17:0.1955303 116:0.50859012 141:0.1955303 145:0.35831337 203:0.30534487 279:0.35831337 293:0.30534487 
-1 -0 2:0.28861122 4:0.26057319 63:0.5226928 140:0.28861122 146:0.26057319 221:0.5226928 268:0.28861122 270:0.26057319 
-1 -0 4:0.31324513 7:0.19272603 17:0.27339306 34:0.40104773 70:0.35076547 141:0.27339306 146:0.31324513 157:0.19272603 270:0.31324513 276:0.19272603 332:0.40104773 
-1 -0 4:0.23108668 31:0.60990911 146:0.23108668 270:0.23108668 319:0.30954578 331:0.60990911 
-1 -0 2:0.10710643 4:0.48350622 18:0.16832579 74:0.23843517 75:0.26359779 140:0.10710643 146:0.48350622 216:0.25390675 268:0.10710643 270:0.48350622 287:0.16832579 319:0.12953348 
-1 -1 2:0.38625395 7:0.42911679 140:0.38625395 157:0.42911679 268:0.38625395 276:0.42911679 
-1 -0 2:0.22956887 4:0.20726669 140:0.22956887 146:0.20726669 268:0.22956887 270:0.20726669 296:0.84440272 
-1 -0.4613271823249538 7:0.17057277 13:0.52296052 18:0.24129162 74:0.34179201 103:0.3639702 157:0.17057277 271:0.52296052 276:0.17057277 287:0.24129162 
-0.7713724347760541 -0.1833471145193514 4:0.14767389 10:0.33072438 146:0.14767389 148:0.33072438 270:0.14767389 315:0.33072438 381:0.77874349 
-1 -0.2243888176533808 2:0.13253956 7:0.14724756 74:0.29505319 99:0.44552999 140:0.13253956 157:0.14724756 268:0.13253956 276:0.14724756 320:0.44552999 381:0.63103402 
-0.8134984558675591 -0.006317769150181943 7:0.098392414 17:0.13957535 54:0.3737111 68:0.2497553 93:0.21918876 103:0.2099509 141:0.13957535 157:0.098392414 202:0.21918876 276:0.098392414 330:0.23746312 382:0.42166377 383:0.42166377 384:0.42166377 
-0.9637368417296243 -0.6272865725744734 7:0.098392414 17:0.13957535 54:0.3737111 68:0.2497553 93:0.21918876 103:0.2099509 141:0.13957535 157:0.098392414 202:0.21918876 276:0.098392414 330:0.23746312 382:0.42166377 383:0.42166377 384:0.42166377 
-1 -0 1:0.16699809 7:0.17778542 17:0.12609947 25:0.23703701 49:0.20510951 85:0.34902499 86:0.34902499 107:0.23915588 134:0.16699809 141:0.12609947 157:0.17778542 267:0.23703701 276:0.17778542 278:0.20510951 283:0.34902499 284:0.34902499 319:0.096767623 323:0.25932981 
-1 -0.4148064516817984 10:0.3026864 15:0.44347226 17:0.23591935 92:0.4695654 141:0.23591935 148:0.3026864 274:0.44347226 315:0.3026864 
-1 -0.1957617231680616 11:0.31796986 269:0.31796986 385:0.8931911 
-1 -0 11:0.50601624 12:0.18368837 17:0.11762648 106:0.22725247 141:0.11762648 203:0.18368837 269:0.50601624 293:0.18368837 298:0.33858271 325:0.25775893 386:0.35535519 
-1 -1 11:0.41455891 17:0.38546693 141:0.38546693 213:0.52116441 269:0.41455891 319:0.29580393 
-1 -1 7:0.35944034 157:0.35944034 276:0.35944034 319:0.78256497 
-0 -1 3:0.28080687 10:0.21460517 14:0.21713039 42:0.43507554 94:0.39038918 137:0.28080687 148:0.21460517 161:0.43507554 163:0.21713039 315:0.21460517 322:0.28080687 
-1 -1 1:0.35629008 10:0.34517142 14:0.34923299 17:0.26903295 134:0.35629008 141:0.26903295 148:0.34517142 163:0.34923299 315:0.34517142 
-1 -0.218233421265671 4:0.070931685 7:0.087282329 10:0.31771139 14:0.16072492 15:0.23274284 23:0.20389899 51:0.19335259 69:0.38247242 144:0.20389899 146:0.070931685 148:0.31771139 157:0.087282329 163:0.16072492 212:0.19335259 270:0.070931685 274:0.23274284 276:0.087282329 294:0.26077375 298:0.35639624 315:0.31771139 
-1 -0.9010912555165171 2:0.35453522 74:0.78924923 140:0.35453522 268:0.35453522 
-1 -0 4:0.13214377 95:0.83193889 146:0.13214377 270:0.13214377 325:0.50546193 
-1 -0 7:0.27694299 95:0.70846612 102:0.36604883 157:0.27694299 276:0.27694299 335:0.36604883 
-0 -1 5:0.27160214 10:0.21160255 15:0.31002338 16:0.3849271 74:0.2329682 106:0.31863616 138:0.27160214 143:0.3849271 148:0.21160255 274:0.31002338 315:0.21160255 321:0.27160214 
-0.1014501408741913 -1 3:0.31130491 5:0.30537305 15:0.34857157 23:0.30537305 137:0.31130491 138:0.30537305 144:0.30537305 274:0.34857157 321:0.30537305 322:0.31130491 
-0 -1 1:0.29331455 4:0.063441319 5:0.18236731 11:0.23819614 12:0.17293461 15:0.20816526 67:0.16488772 69:0.17104172 101:0.24266882 134:0.29331455 138:0.18236731 146:0.063441319 156:0.16488772 203:0.17293461 269:0.23819614 270:0.063441319 274:0.20816526 292:0.24266882 293:0.17293461 294:0.46647235 319:0.084981065 321:0.18236731 
-0.4871543348576714 -0.1072402162572697 4:0.13945048 111:0.63315058 146:0.13945048 270:0.13945048 387:0.73537816 
-1 -0.2624555525940945 2:0.1143446 27:0.26306152 36:0.35152302 51:0.28141153 64:0.30658632 69:0.27833129 70:0.23120366 140:0.1143446 212:0.28141153 268:0.1143446 319:0.13828725 327:0.26306152 387:0.54440601 
-1 -0 2:0.18451932 7:0.20499555 140:0.18451932 157:0.20499555 268:0.18451932 276:0.20499555 388:0.87851484 
-0 -0.0887851453769236 12:0.14996028 96:0.17317344 101:0.21043032 111:0.74933288 203:0.14996028 292:0.21043032 293:0.14996028 342:0.29010636 389:0.29010636 390:0.29010636 
-1 -0 2:0.19050315 129:0.66750492 140:0.19050315 268:0.19050315 280:0.66750492 
-1 -0 4:0.16528689 15:0.54234352 92:0.57425408 146:0.16528689 270:0.16528689 274:0.54234352 
-1 -0 15:0.70710678 274:0.70710678 
-1 -1 12:0.57735027 203:0.57735027 293:0.57735027 
-1 -1 12:0.48871157 203:0.48871157 293:0.48871157 330:0.53243121 
-1 -0.4870894134805558 11:0.34657878 12:0.5032449 203:0.5032449 269:0.34657878 293:0.5032449 
-1 -0 7:0.10448149 60:0.35231017 90:0.35931194 93:0.23275339 99:0.31613181 102:0.27619638 157:0.10448149 202:0.23275339 276:0.10448149 314:0.35931194 320:0.31613181 329:0.35231017 335:0.27619638 
-1 -1 4:0.060848165 5:0.17491308 7:0.074874431 14:0.13787656 30:0.2136445 35:0.21140399 55:0.28438581 102:0.19793025 122:0.26304003 138:0.17491308 146:0.060848165 149:0.28438581 157:0.074874431 158:0.2136445 162:0.21140399 163:0.13787656 205:0.46549954 270:0.060848165 276:0.074874431 321:0.17491308 330:0.18070413 335:0.19793025 391:0.32087672 
-0.2090382872623721 -1 1:0.24609725 8:0.34629007 10:0.23841736 17:0.18582687 43:0.48335071 134:0.24609725 136:0.34629007 141:0.18582687 148:0.23841736 205:0.40720878 315:0.23841736 
-0.3771005561001982 -1 1:0.17744412 3:0.22493667 11:0.28819917 31:0.20259112 43:0.69702315 134:0.17744412 137:0.22493667 216:0.20154517 269:0.28819917 319:0.10282061 322:0.22493667 331:0.20259112 
-0 -1 3:0.37343922 20:0.5392724 137:0.37343922 220:0.5392724 322:0.37343922 
-1 -0.7409717333634212 10:0.3770121 11:0.31602764 50:0.6114235 148:0.3770121 269:0.31602764 315:0.3770121 
-1 -1 51:0.70710678 212:0.70710678 
-0.06898531474093755 -0 15:0.50216623 19:0.49782434 274:0.50216623 275:0.49782434 
-1 -0 4:0.17584489 11:0.33011255 12:0.47933535 146:0.17584489 203:0.47933535 269:0.33011255 270:0.17584489 293:0.47933535 
-0.5543714403579055 -0.1593304450980786 10:0.34210436 148:0.34210436 315:0.34210436 392:0.80553946 
-1 -1 7:0.095319609 19:0.25197699 32:0.48391068 99:0.28841052 157:0.095319609 213:0.18281718 215:0.48391068 275:0.25197699 276:0.095319609 319:0.10376387 320:0.28841052 392:0.40849517 
-0 -1 1:0.55130992 103:0.62619066 134:0.55130992 
-0.8015527798017493 -1 1:0.54890725 11:0.44575872 134:0.54890725 269:0.44575872 
-0.3567087969847397 -1 13:0.35201714 37:0.34303793 47:0.28094653 118:0.42364838 214:0.28094653 242:0.34303793 271:0.35201714 290:0.42364838 
-1 -1 1:0.33874955 7:0.18031563 17:0.25578818 134:0.33874955 141:0.25578818 157:0.18031563 276:0.18031563 304:0.73627516 
-1 -1 1:0.20830263 2:0.099803742 4:0.090108001 7:0.22175805 17:0.31457667 44:0.3550815 63:0.36150153 134:0.20830263 140:0.099803742 141:0.31457667 146:0.090108001 157:0.22175805 168:0.3550815 221:0.36150153 268:0.099803742 270:0.090108001 276:0.22175805 
-1 -1 1:0.17658694 5:0.21958465 17:0.13333996 27:0.19464906 134:0.17658694 138:0.21958465 141:0.13333996 206:0.66043704 213:0.18028017 216:0.20057156 319:0.10232391 321:0.21958465 327:0.19464906 388:0.40282637 
-0 -0.1224829048656342 13:0.34924645 70:0.20732385 78:0.4472632 99:0.34466853 103:0.24306864 271:0.34924645 303:0.4651356 320:0.34466853 
-0.7345698308910315 -0.1798602926343905 32:0.28259457 43:0.41078225 67:0.23514773 84:0.43712042 156:0.23514773 215:0.28259457 282:0.43712042 317:0.42284881 
-1 -1 1:0.62483137 4:0.2702909 134:0.62483137 146:0.2702909 270:0.2702909 
-1 -1 9:0.51575858 21:0.48372832 135:0.51575858 297:0.48372832 
-1 -1 22:0.30178297 93:0.63947403 202:0.63947403 273:0.30178297 
-0 -1 1:0.70710678 134:0.70710678 
-0 -0.7519977584334162 1:0.13467771 19:0.18950863 20:0.49307461 67:0.15141902 93:0.15970077 134:0.13467771 156:0.15141902 202:0.15970077 220:0.49307461 275:0.18950863 294:0.21418443 317:0.27228565 393:0.30722393 394:0.30722393 
-0.7323826971712303 -0 7:0.083383308 10:0.15175939 13:0.2556456 15:0.2223459 46:0.2185621 93:0.18575297 106:0.22852291 148:0.15175939 157:0.083383308 159:0.2185621 202:0.18575297 271:0.2556456 274:0.2223459 276:0.083383308 305:0.68095106 315:0.15175939 
-1 -0 2:0.27943415 103:0.33121332 118:0.57273354 140:0.27943415 268:0.27943415 290:0.57273354 
-0 -0.1005600273370684 28:0.39586185 58:0.50324619 123:0.46547291 295:0.39586185 338:0.46547291 
-0.03328994985450527 -0.5136419868656864 5:0.3879159 129:0.52371928 138:0.3879159 280:0.52371928 321:0.3879159 
-0 -1 1:0.25784 13:0.42078877 39:0.50641421 112:0.50641421 134:0.25784 271:0.42078877 
-1 -0 49:0.35390506 62:0.51719338 216:0.32728287 278:0.35390506 294:0.45825233 319:0.16696716 330:0.3701704 
-0.6832105630813807 -0.1918788426272639 14:0.1473485 23:0.18692938 72:0.57547434 144:0.18692938 163:0.1473485 306:0.32673496 316:0.57547434 369:0.34292054 
-1 -1 2:0.15691793 4:0.14167365 10:0.31728651 31:0.37392052 69:0.38196094 91:0.37199001 140:0.15691793 146:0.14167365 148:0.31728651 268:0.15691793 270:0.14167365 315:0.31728651 331:0.37392052 
-0.5712965551449026 -1 1:0.31708808 62:0.56914167 134:0.31708808 238:0.68919377 
-1 -1 17:0.58374446 70:0.24964969 110:0.50612236 141:0.58374446 
-1 -0 2:0.27015929 11:0.45789798 74:0.60141561 140:0.27015929 268:0.27015929 269:0.45789798 
-1 -1 15:0.43906323 46:0.43159141 67:0.34778202 156:0.34778202 159:0.43159141 274:0.43906323 
-0.2916960445701831 -1 12:0.34202049 117:0.56967796 203:0.34202049 241:0.56967796 293:0.34202049 
-0.6313789942335664 -1 1:0.11912128 2:0.05707441 4:0.051529741 5:0.1481265 7:0.063407992 9:0.1481265 10:0.11540389 19:0.16761876 23:0.1481265 42:0.4679236 44:0.20305919 82:0.24896275 134:0.11912128 135:0.1481265 138:0.1481265 140:0.05707441 144:0.1481265 146:0.051529741 148:0.11540389 157:0.063407992 161:0.4679236 168:0.20305919 268:0.05707441 270:0.051529741 275:0.16761876 276:0.063407992 294:0.1894443 315:0.11540389 321:0.1481265 395:0.27173694 
-0.04943934143384238 -0 101:0.5063287 292:0.5063287 385:0.6980419 
-1 -0.6745332909484649 2:0.11426259 4:0.2063244 7:0.25388476 10:0.23103783 14:0.23375641 18:0.17957223 54:0.48214872 103:0.27087116 140:0.11426259 146:0.2063244 148:0.23103783 157:0.25388476 163:0.23375641 268:0.11426259 270:0.2063244 276:0.25388476 287:0.17957223 315:0.23103783 
-1 -0 2:0.18267741 4:0.16493051 7:0.40589811 28:0.30317584 111:0.3744191 140:0.18267741 146:0.16493051 157:0.40589811 268:0.18267741 270:0.16493051 276:0.40589811 295:0.30317584 
-1 -0 4:0.23915622 18:0.20814706 29:0.34591521 70:0.26780224 129:0.46407424 146:0.23915622 270:0.23915622 280:0.46407424 287:0.20814706 339:0.34591521 
-0 -1 1:0.16699858 3:0.2116954 8:0.23498819 11:0.13561685 12:0.19692056 14:0.16369081 31:0.19066526 49:0.2051101 99:0.2689653 134:0.16699858 136:0.23498819 137:0.2116954 163:0.16369081 203:0.19692056 269:0.13561685 277:0.24362286 278:0.2051101 293:0.19692056 305:0.36297289 320:0.2689653 322:0.2116954 331:0.19066526 
-0 -1 1:0.25329654 3:0.32109073 10:0.12269599 11:0.20569814 14:0.12413973 46:0.17670533 92:0.19034153 134:0.25329654 137:0.32109073 148:0.12269599 159:0.17670533 163:0.12413973 269:0.20569814 305:0.55054228 315:0.12269599 322:0.32109073 
-1 -0.6643227628651248 2:0.17877728 103:0.42380984 140:0.17877728 268:0.17877728 386:0.8511764 
-0.4036356568974225 -1 1:0.13310986 2:0.063776739 4:0.057580951 8:0.18730247 34:0.14744178 48:0.24891621 63:0.11550363 86:0.2781988 103:0.15118929 134:0.13310986 136:0.18730247 140:0.063776739 146:0.057580951 207:0.24891621 217:0.21438467 221:0.11550363 268:0.063776739 270:0.057580951 272:0.24891621 284:0.2781988 319:0.15426183 332:0.14744178 341:0.60729479 
-1 -1 1:0.2034655 8:0.28630178 35:0.30579125 37:0.32358096 91:0.23110085 123:0.38048165 134:0.2034655 136:0.28630178 162:0.30579125 242:0.32358096 319:0.11789879 338:0.38048165 
-0 -1 1:0.46559778 75:0.27451065 115:0.45723187 134:0.46559778 377:0.53105587 
-1 -0 4:0.20189508 15:0.66246326 146:0.20189508 270:0.20189508 274:0.66246326 
-1 -0 31:0.39764172 129:0.58470596 280:0.58470596 331:0.39764172 
-1 -0.690961292465137 31:0.70710678 331:0.70710678 
-1 -0 10:0.29817007 49:0.37801341 148:0.29817007 278:0.37801341 307:0.66895108 315:0.29817007 
-1 -0 10:0.26103261 49:0.33093136 148:0.26103261 278:0.33093136 315:0.26103261 326:0.44583486 397:0.61464305 
-0.0986874443659683 -0.4221624837596412 10:0.23518322 25:0.17228596 37:0.3860713 49:0.29816008 148:0.23518322 242:0.3860713 267:0.17228596 278:0.29816008 307:0.26381935 315:0.23518322 323:0.18848906 326:0.20084249 396:0.27688826 397:0.27688826 
-0 -1 6:0.29266133 8:0.29761027 9:0.26300138 17:0.15970422 22:0.35507412 51:0.24939799 135:0.26300138 136:0.29761027 141:0.15970422 145:0.29266133 212:0.24939799 273:0.35507412 279:0.29266133 
-1 -0 7:0.17414625 49:0.40182206 101:0.54133969 157:0.17414625 276:0.17414625 278:0.40182206 292:0.54133969 
-1 -0 4:0.11554706 25:0.37913596 68:0.36090929 99:0.43020336 146:0.11554706 267:0.37913596 270:0.11554706 320:0.43020336 323:0.41479284 
-1 -0 25:0.38696477 68:0.36836174 99:0.43908668 267:0.38696477 320:0.43908668 323:0.42335794 
-1 -0 3:0.33669196 11:0.21569246 31:0.30324446 49:0.32621833 137:0.33669196 269:0.21569246 278:0.32621833 322:0.33669196 323:0.41245352 331:0.30324446 
-1 -1 4:0.029326557 5:0.33720639 10:0.19703567 12:0.079941223 14:0.13290282 16:0.11947614 23:0.33720639 32:0.091601001 72:0.12976401 83:0.14168945 94:0.11947614 116:0.13315212 127:0.10918827 138:0.33720639 143:0.11947614 144:0.33720639 146:0.029326557 148:0.19703567 163:0.13290282 203:0.079941223 205:0.11217675 215:0.091601001 218:0.12410218 270:0.029326557 281:0.14168945 293:0.079941223 315:0.19703567 316:0.12976401 321:0.33720639 326:0.11217675 330:0.17418531 379:0.15465067 
-1 -1 2:0.093979741 10:0.19002611 11:0.159288 17:0.29621969 69:0.22876028 94:0.34567731 98:0.31591166 119:0.30459523 140:0.093979741 141:0.29621969 148:0.19002611 236:0.42632775 268:0.093979741 269:0.159288 315:0.19002611 324:0.30459523 
-0.413051127687555 -0.3503159798757984 3:0.20285615 17:0.36250362 85:0.33445256 86:0.33445256 103:0.18176083 137:0.20285615 141:0.36250362 283:0.33445256 284:0.33445256 322:0.20285615 398:0.36504704 
-0 -1 5:0.2819621 9:0.2819621 48:0.42402385 135:0.2819621 138:0.2819621 235:0.4928432 272:0.42402385 321:0.2819621 
-1 -1 11:0.53636928 46:0.46076891 159:0.46076891 269:0.53636928 
-1 -0 11:0.70710678 269:0.70710678 
-1 -0.2976353153794484 7:0.35035535 51:0.38806316 63:0.28556797 125:0.40923004 157:0.35035535 212:0.38806316 221:0.28556797 276:0.35035535 
-0.01344286855856858 -1 1:0.19319294 8:0.27184698 10:0.18716401 25:0.27421796 122:0.72254365 134:0.19319294 136:0.27184698 148:0.18716401 267:0.27421796 315:0.18716401 
-1 -0 2:0.1625721 11:0.27554636 46:0.23670855 49:0.41674254 94:0.29898697 140:0.1625721 159:0.23670855 204:0.29898697 268:0.1625721 269:0.27554636 277:0.24749637 278:0.41674254 323:0.26345382 
-1 -0 4:0.31206224 69:0.8413391 146:0.31206224 270:0.31206224 
-1 -0 31:0.66554589 319:0.33778298 331:0.66554589 
-1 -0 69:1 
-1 -0 4:0.23721091 68:0.74092422 70:0.53124782 146:0.23721091 270:0.23721091 
-1 -0.3963794359817796 69:1 
-0 -0.3129938536657884 12:0.34251678 15:0.41229512 32:0.39247435 203:0.34251678 215:0.39247435 274:0.41229512 293:0.34251678 
-1 -1 4:0.1502122 67:0.39041035 146:0.1502122 156:0.39041035 270:0.1502122 398:0.79212903 
-0.6753216209882497 -0 25:0.27484765 68:0.26163456 267:0.27484765 399:0.88343924 
-0 -0.7287682435726279 36:0.5018968 61:0.61159611 288:0.61159611 
-0.8924187804587276 -1 36:0.5018968 61:0.61159611 288:0.61159611 
-1 -1 68:0.76546866 103:0.64347318 
-1 -0.4953277156462921 9:0.27885792 49:0.55086333 135:0.27885792 278:0.55086333 300:0.48741739 
-0 -1 12:0.42160088 32:0.48309321 203:0.42160088 215:0.48309321 293:0.42160088 
-0.9877170236303615 -0 38:0.48015211 129:0.51908954 280:0.51908954 291:0.48015211 
-1 -0 17:0.16951123 63:0.58439061 141:0.16951123 221:0.58439061 323:0.34860825 325:0.37145577 
-1 -0.8476238238453429 2:0.087671624 5:0.22753593 20:0.33496044 23:0.22753593 47:0.11916544 64:0.11753461 67:0.1028635 70:0.177271 84:0.19121485 87:0.3824297 98:0.14735337 138:0.22753593 140:0.087671624 144:0.22753593 156:0.1028635 213:0.093404108 214:0.11916544 220:0.33496044 268:0.087671624 282:0.19121485 285:0.3824297 319:0.05301456 321:0.22753593 
-1 -0 2:0.30311674 21:0.14756589 74:0.13495668 87:0.52888659 128:0.22710569 140:0.30311674 268:0.30311674 285:0.52888659 297:0.14756589 328:0.22710569 
-0.1540601366908964 -1 5:0.29633986 17:0.17994858 23:0.29633986 87:0.4980715 138:0.29633986 141:0.17994858 144:0.29633986 285:0.4980715 321:0.29633986 
-1 -0 2:0.44084888 4:0.14925787 7:0.12244245 17:0.086845864 21:0.13413615 87:0.24037672 128:0.20643715 140:0.44084888 141:0.086845864 146:0.14925787 157:0.12244245 216:0.13063458 268:0.44084888 270:0.14925787 276:0.12244245 285:0.24037672 297:0.13413615 325:0.19030831 328:0.20643715 
-1 -0 17:0.35560145 27:0.51910535 70:0.4562395 141:0.35560145 327:0.51910535 
-1 -0 4:0.048275055 63:0.096836608 88:0.46647588 113:0.43836894 146:0.048275055 221:0.096836608 270:0.048275055 286:0.46647588 289:0.43836894 296:0.39334432 
-0 -0.2111188756188969 63:0.10010305 88:0.48221082 113:0.45315578 221:0.10010305 286:0.48221082 289:0.45315578 296:0.20330621 308:0.25073985 
-1 -0 2:0.077791621 4:0.14046863 7:0.086424205 29:0.20317362 63:0.14088545 71:0.19941372 88:0.33933274 103:0.184413 110:0.31888666 140:0.077791621 146:0.14046863 157:0.086424205 221:0.14088545 268:0.077791621 270:0.14046863 276:0.086424205 286:0.33933274 302:0.3528923 308:0.3528923 319:0.28224116 330:0.20857869 339:0.20317362 
-0.1546654241394014 -0 63:0.17087711 88:0.41156983 113:0.38677119 221:0.17087711 286:0.41156983 289:0.38677119 296:0.34704614 308:0.42801594 
-1 -0.2637883725284105 32:0.38002135 47:0.36633126 68:0.38002135 69:0.32801878 214:0.36633126 215:0.38002135 323:0.43675832 
-1 -0 2:0.22738086 4:0.4105825 63:0.41180084 140:0.22738086 146:0.4105825 221:0.41180084 268:0.22738086 270:0.4105825 
-1 -0 7:0.24909208 31:0.17809135 38:0.24222834 157:0.24909208 276:0.24909208 291:0.24222834 331:0.17809135 347:0.71166128 367:0.35583064 
-0.5067652845885059 -0 20:0.70710678 220:0.70710678 
-0.6878382717245775 -0.7969702659443771 1:0.15801063 91:0.17947215 134:0.15801063 319:0.091559803 365:0.72090096 375:0.36045048 389:0.36045048 390:0.36045048 
-1 -0 4:0.23716556 18:0.20641451 146:0.23716556 270:0.23716556 287:0.20641451 303:0.59581914 378:0.62533443 
-1 -0 17:0.067577573 63:0.077658004 66:0.13450398 71:0.10991959 141:0.067577573 221:0.077658004 309:0.58355732 310:0.77807643 319:0.051858435 
-0.0006656871324217679 -0 309:0.70710678 310:0.70710678 
-0.01821578176314923 -0.3190275200874746 309:0.70710678 310:0.70710678 
-1 -1 63:0.38187092 68:0.59461902 73:0.4211754 147:0.4211754 221:0.38187092 
-1 -1 3:0.1633104 9:0.16019855 11:0.10462033 14:0.25255555 15:0.18286047 31:0.1470869 44:0.43921632 49:0.15823023 102:0.1812794 119:0.20005809 135:0.16019855 137:0.1633104 163:0.25255555 168:0.43921632 269:0.10462033 274:0.18286047 278:0.15823023 322:0.1633104 324:0.20005809 330:0.16550243 331:0.1470869 335:0.1812794 
-0.8997764228860623 -0.6620838688745153 2:0.080253289 8:0.47138328 11:0.13602278 32:0.22631769 49:0.20572404 63:0.14534368 125:0.20828316 136:0.47138328 140:0.080253289 215:0.22631769 221:0.14534368 268:0.080253289 269:0.13602278 278:0.20572404 311:0.36405936 313:0.30661804 
-1 -0 2:0.064388908 4:0.058133649 18:0.101192 19:0.18910032 24:0.16607288 29:0.16816885 37:0.21372296 48:0.25130547 60:0.2412123 63:0.1166123 102:0.18910032 140:0.064388908 146:0.058133649 221:0.1166123 242:0.21372296 268:0.064388908 270:0.058133649 272:0.25130547 275:0.18910032 287:0.101192 294:0.21372296 317:0.54339797 329:0.2412123 334:0.16607288 335:0.18910032 339:0.16816885 
-1 -0 2:0.030776942 4:0.13893511 7:0.068384556 24:0.07938037 41:0.12616212 52:0.086792287 95:0.08746952 96:0.26240856 140:0.030776942 146:0.13893511 157:0.068384556 160:0.12616212 268:0.030776942 270:0.13893511 276:0.068384556 311:0.55846353 313:0.23517455 319:0.037221336 326:0.63772732 334:0.07938037 366:0.14653208 
-1 -0 61:0.64054967 63:0.15483446 75:0.21040718 221:0.15483446 288:0.64054967 326:0.29525184 
-1 -0 4:0.12484843 7:0.051209186 18:0.07244033 34:0.10656229 63:0.25043771 70:0.093201808 125:0.23925808 146:0.12484843 157:0.051209186 221:0.25043771 270:0.12484843 276:0.051209186 287:0.07244033 311:0.6273009 313:0.52832531 332:0.10656229 395:0.21945857 
-0.1400115888420009 -0 4:0.14793136 60:0.61380742 125:0.42524093 146:0.14793136 270:0.14793136 329:0.61380742 
-1 -0.7571672467199971 17:0.11544015 32:0.61970363 102:0.21512378 119:0.23740839 141:0.11544015 215:0.61970363 324:0.23740839 335:0.21512378 
-1 -1 4:0.21076095 32:0.65830824 146:0.21076095 215:0.65830824 270:0.21076095 
-0.1866676075181819 -0 13:0.39056108 14:0.11728883 38:0.37163451 39:0.23501777 47:0.31170863 62:0.21477591 93:0.14189151 112:0.23501777 163:0.11728883 202:0.14189151 214:0.31170863 271:0.39056108 291:0.37163451 
-0.3227227512584567 -0 3:0.18767897 4:0.064045047 18:0.11148184 72:0.56677246 92:0.22251087 93:0.17556108 137:0.18767897 146:0.064045047 202:0.17556108 270:0.064045047 287:0.11148184 306:0.32179432 316:0.56677246 322:0.18767897 
-1 -1 3:0.39323177 14:0.30406153 18:0.23358079 74:0.33086955 137:0.39323177 163:0.30406153 213:0.31669363 287:0.23358079 319:0.17974984 322:0.39323177 
-1 -0 10:0.1214633 13:0.4092209 14:0.36867771 37:0.19939127 39:0.24624621 47:0.16330056 62:0.22503726 93:0.14867066 112:0.24624621 148:0.1214633 163:0.36867771 202:0.14867066 214:0.16330056 242:0.19939127 271:0.4092209 315:0.1214633 
-0 -0.4389120939778845 3:0.12533139 4:0.042769069 11:0.080290117 13:0.16135226 28:0.3144731 39:0.388371 72:0.37848876 93:0.11723911 112:0.388371 137:0.12533139 146:0.042769069 202:0.11723911 213:0.10093704 216:0.11229799 269:0.080290117 270:0.042769069 271:0.16135226 295:0.3144731 306:0.21489318 316:0.37848876 322:0.12533139 
-1 -0 11:0.17138144 14:0.41371821 163:0.41371821 240:0.41449424 269:0.17138144 277:0.30787057 312:0.45869535 326:0.34919923 
-1 -1 2:0.15257489 4:0.027550486 5:0.23758839 10:0.12340188 11:0.051720362 14:0.062426964 23:0.23758839 30:0.19346549 34:0.35272887 47:0.082953438 48:0.11909777 58:0.12876259 60:0.11431445 65:0.091207431 69:0.074277816 130:0.13842741 138:0.23758839 140:0.15257489 144:0.23758839 146:0.027550486 148:0.12340188 158:0.19346549 163:0.062426964 214:0.082953438 234:0.13842741 243:0.22862896 268:0.15257489 269:0.051720362 270:0.027550486 272:0.11909777 312:0.13842741 315:0.12340188 319:0.036904492 321:0.23758839 326:0.10538312 329:0.11431445 332:0.35272887 351:0.14528474 394:0.14528474 
-1 -1 3:0.36618082 4:0.12495846 14:0.28314495 30:0.21937136 35:0.21707078 106:0.21070379 137:0.36618082 146:0.12495846 158:0.21937136 162:0.21707078 163:0.28314495 270:0.12495846 312:0.31392689 322:0.36618082 326:0.23898875 
-0.4352425102215833 -1 6:0.52737093 17:0.2877844 141:0.2877844 145:0.52737093 279:0.52737093 
-0.4949360700757085 -0.8658564840685413 6:0.34007615 11:0.1995843 17:0.18557832 90:0.44989629 141:0.18557832 145:0.34007615 269:0.1995843 279:0.34007615 314:0.44989629 330:0.31572914 
-1 -0 11:0.22136338 12:0.32142762 68:0.36830925 70:0.26408029 203:0.32142762 269:0.22136338 293:0.32142762 370:0.62181931 
-1 -0.1369719530695436 2:0.094511798 4:0.085330159 6:0.54590195 74:0.21039761 140:0.094511798 145:0.54590195 146:0.085330159 268:0.094511798 270:0.085330159 279:0.54590195 319:0.11430166 
-0 -0.515051994456966 4:0.049229277 6:0.4724184 17:0.2577969 28:0.18098686 69:0.13272518 92:0.17103664 141:0.2577969 145:0.4724184 146:0.049229277 216:0.12926044 270:0.049229277 279:0.4724184 295:0.18098686 304:0.24735249 
-1 -0 4:0.10839233 6:0.1733607 11:0.10174213 17:0.3784091 28:0.19924716 69:0.14611621 83:0.26184541 90:0.22934373 91:0.14230191 121:0.23428414 141:0.3784091 145:0.1733607 146:0.10839233 216:0.14230191 269:0.10174213 270:0.10839233 279:0.1733607 281:0.26184541 295:0.19924716 304:0.27230861 314:0.22934373 337:0.23428414 
-1 -0 2:0.099459071 11:0.16857502 28:0.33012964 69:0.24209776 92:0.3119799 98:0.33433036 140:0.099459071 268:0.099459071 269:0.16857502 295:0.33012964 319:0.12028484 325:0.34348099 330:0.26667452 391:0.47353452 
-1 -0.6227909629090719 128:0.70710678 328:0.70710678 
-1 -0 4:0.16344559 61:0.67818015 146:0.16344559 270:0.16344559 288:0.67818015 
