svm_type c_svc
kernel_type linear
nr_class 3
total_sv 686
rho -0.674328 -0.00521386 0.635225
label 1 2 3
nr_sv 271 140 275
SV
0.2742064583788134 1 7:0.3162218 17:0.44857898 19:0.83593102 
0 0.6449438826802921 2:0.40976201 74:0.91219246 
0 1 2:0.31395093 4:0.14172547 7:0.17439497 34:0.36290224 68:0.4426771 121:0.61266387 182:0.33447888 249:0.18984444 
1 0.7299962439931869 9:0.32473058 12:0.30793432 75:0.61586864 91:0.29661326 122:0.48834049 182:0.26660554 249:0.1513207 
0.9081574166848307 1 2:0.38866822 103:0.92137778 
1 1 2:0.38866822 103:0.92137778 
0.6116539173156126 1 4:0.14984689 32:0.46804419 38:0.5153186 47:0.45118312 250:0.53792293 
0 1 31:1 
0.06629335885685865 0 4:0.079427354 9:0.45664099 75:0.86604383 182:0.18745235 
1 1 17:0.41515777 176:0.90974943 
1 1 2:0.16425777 7:0.18248556 74:0.36566274 128:0.61533883 182:0.34999613 184:0.55215034 
0 1 18:0.43630622 37:0.89979825 
0 1 63:1 
0.3730577139925814 1 31:1 
0 0.1245227566831717 21:0.67340504 30:0.65922962 249:0.3345773 
0 1 11:0.44547553 21:0.63976638 30:0.62629907 
0 1 4:0.49993213 7:0.30758638 11:0.46925979 30:0.65973763 
1 1 8:0.69110632 34:0.54402884 70:0.47582001 
0.653777054876964 1 11:0.57961651 30:0.81488938 
1 1 10:0.49257293 98:0.81888501 249:0.29461713 
0.3210550617966196 0.5365432211678839 2:0.099487738 38:0.30889735 96:0.28274884 187:0.90262822 
0 1 2:0.34944758 253:0.93695592 
0 1 18:0.55056343 30:0.83479333 
0 1 14:0.79301795 18:0.60919828 
0 0.8454294033471739 17:1 
0 1 2:0.18598693 21:0.45271908 70:0.37606374 102:0.546215 229:0.56628573 
0.3039552687119164 0 10:0.36208071 18:0.28142422 28:0.46769298 180:0.75561977 
0.9906517449391776 0.7618797823778806 10:0.36208071 18:0.28142422 28:0.46769298 180:0.75561977 
0 0.9220819716264541 2:0.37462974 93:0.9271745 
0 0.2560016885790001 2:0.23051597 7:0.25609647 11:0.39070578 30:0.54929766 49:0.59091257 249:0.27878379 
0 0.8593125181613831 11:0.81402089 249:0.5808356 
0 1 95:0.65528762 229:0.70202711 249:0.27884777 
0 0.3272137012554466 2:0.21295846 4:0.19226995 34:0.49232643 183:0.50483982 229:0.64840759 
0.6524073728997976 1 2:0.20294316 12:0.49945994 52:0.57230836 229:0.61791341 
0 1 2:0.22410689 105:0.69582469 229:0.6823519 
1 1 4:0.069718453 51:0.19004544 110:0.63308895 184:0.25957486 188:0.7006007 
0 0.7105046779349548 97:1 
0 0.8971229098777129 96:0.72738442 253:0.68623022 
0 1 11:0.73233584 17:0.68094362 
1 0.01848161931085193 18:0.32621662 67:0.48708372 177:0.8101433 
1 0 18:0.55646345 67:0.83087209 
0.8173445822596543 1 4:0.23908949 12:0.65173373 69:0.64460006 249:0.32026572 
0 0.4587809633042649 4:0.3526902 31:0.93574015 
0 1 4:0.34776036 69:0.93758345 
1 1 1:0.39300677 4:0.17000771 10:0.38074231 17:0.29675756 64:0.50488123 106:0.57333084 
0.3296257501483056 0.898022612210713 17:0.22596096 51:0.35286612 69:0.34900376 104:0.44517252 119:0.4646999 205:0.53712098 
0 0.6203591025896404 2:0.33699556 7:0.37439217 49:0.86386602 
0 0.1935266147663352 24:1 
1 0.002453066036871738 183:1 
0 1 2:0.20192277 4:0.18230636 10:0.40828585 32:0.56943081 47:0.54891733 63:0.36569465 
0 0.9853112920780959 2:0.37462974 93:0.9271745 
0 1 17:1 
0 1 96:0.72738442 253:0.68623022 
0.3034681248403716 0 2:0.19488565 31:0.46682947 46:0.56751609 71:0.49957658 182:0.41525721 
0 1 4:0.35430819 30:0.93512871 
0.1950114826084322 1 17:1 
1 1 68:0.75488982 182:0.57038121 249:0.32373853 
0 0.8013595423269633 98:0.94095385 249:0.33853486 
0.562489150597378 0.7460589702808623 2:0.20968432 14:0.42896852 19:0.61581059 65:0.62673425 
0 1 1:0.15892697 7:0.084596471 10:0.30793476 14:0.31155831 18:0.11966986 25:0.22558087 47:0.20700047 53:0.23409265 64:0.20416759 65:0.68279198 103:0.18051296 230:0.2527492 249:0.092090784 
0 0.01005094821951676 2:0.12501898 14:0.51152351 37:0.40519567 65:0.74734893 
0.1455649015459291 1 2:0.14389527 32:0.40579079 47:0.39117237 63:0.26060326 70:0.29095482 100:0.496941 109:0.51195023 
1 1 4:0.15144513 12:0.41282407 18:0.26361729 103:0.39764679 189:0.76093601 
0 0.4133667052397049 4:0.19885484 30:0.52483934 109:0.78361162 249:0.26637051 
0 1 7:0.41143717 51:0.91143812 
0 0.1079556335116316 63:0.53455834 125:0.76604295 249:0.35696718 
0.1941052454084251 0 2:0.42485176 182:0.90526293 
0 1 2:0.17920606 37:0.58082 63:0.32455329 70:0.72470579 
0 1 7:0.25342586 51:0.56140282 101:0.7877831 
0 1 7:0.1836864 11:0.28023556 18:0.51968424 63:0.29943858 69:0.40245823 249:0.19995899 251:0.57099557 
0.3276618265422395 0.8620153419488782 7:0.18013547 45:0.51962328 127:0.54503961 177:0.63283069 
1 1 4:0.20618961 9:0.59270906 182:0.48661731 183:0.5413884 249:0.27619559 
0.4933280265729701 0 4:0.12639513 24:0.36107837 52:0.39479304 63:0.25354038 93:0.34647592 183:0.33187347 190:0.63507232 
0.1737660139198994 1 2:0.12288596 4:0.11094782 30:0.29282556 99:0.82615882 175:0.45200046 
0.04407711073629753 1 2:0.27443804 129:0.96160478 
0 1 4:0.25939378 99:0.96577164 
1 1 14:0.34272475 35:0.52549455 94:0.61620133 95:0.47612093 
1 1 15:0.52413905 104:0.54933663 175:0.65077455 
1 1 2:0.091856376 3:0.24302777 9:0.23839691 14:0.18791817 25:0.54424179 49:0.23546779 67:0.21554699 103:0.21775494 119:0.29771325 182:0.19572514 183:0.43550988 229:0.2796807 
0 1 4:0.33907296 32:0.35302954 107:0.37417335 126:0.42081071 129:0.43863944 182:0.26674279 183:0.29676596 249:0.30279698 
0 1 2:0.13914998 4:0.37689549 11:0.23584788 63:0.25200925 72:0.55589514 176:0.48055319 229:0.42367843 
0 1 7:0.39352711 125:0.91931301 
1 1 2:0.19739671 9:0.51230811 49:0.50601351 67:0.46320427 249:0.47745898 
0 1 4:0.27436547 69:0.73970628 70:0.61445766 
0 1 4:0.29593519 11:0.55555735 103:0.77703179 
0 0.9427999838776389 2:0.21854274 34:0.50523641 70:0.44189126 250:0.70831304 
0 1 7:0.13998088 103:0.29869287 128:0.9440275 
1 1 2:0.25742137 12:0.63353531 49:0.65988279 249:0.31132291 
0 1 7:0.46166215 25:0.615523 53:0.63874838 
0.2759014993562333 0 2:0.15553524 64:0.41702869 109:0.55336289 138:0.67845611 249:0.18810282 
1 1 2:0.18378903 50:0.60267818 69:0.44736908 100:0.63471372 
0 1 2:0.13675017 4:0.12346515 11:0.6953414 68:0.38564129 69:0.33286969 251:0.47226544 
0 1 7:0.29712485 28:0.69850722 69:0.65100268 
0 1 2:0.19552847 4:0.35306651 25:0.5792454 63:0.70822837 
0 1 4:0.21378566 18:0.37213212 19:0.6954137 69:0.57637936 
0 1 4:0.30486785 30:0.4023202 69:0.4109713 183:0.40024306 185:0.64505979 
0.2320052870905136 0 7:0.28857725 10:0.52521674 18:0.20411017 63:0.23521382 65:0.38819238 96:0.36911424 178:0.5068978 
0.08766470430090924 1 18:0.45160725 38:0.89221684 
1 1 1:0.24685589 8:0.34735757 14:0.24196638 17:0.18639972 25:0.35038713 91:0.56076935 192:0.53654348 
1 0 7:0.43937348 9:0.34213802 10:0.26655636 14:0.26969288 53:0.40527342 103:0.31251345 106:0.40138691 183:0.31251345 249:0.15943237 
1 1 5:0.4630687 7:0.1982242 29:0.56560711 47:0.48503799 182:0.38018188 249:0.21578467 
1 0.01645943401017311 1:0.22324486 4:0.096571741 8:0.31413385 9:0.27760345 17:0.50571322 21:0.26036339 51:0.26324478 75:0.26324478 91:0.25356671 107:0.31970617 252:0.3693957 
0 1 4:0.15619506 7:0.19219998 10:0.69961609 31:0.41440898 106:0.52674928 
1 1 1:0.39720985 5:0.49392772 17:0.29993128 205:0.71295229 
1 0 5:0.16648409 7:0.21379879 10:0.12970611 14:0.2624648 18:0.100813 47:0.34876513 98:0.21563181 103:0.3041376 139:0.27981717 181:0.46387619 204:0.52591424 
1 1 2:0.10172564 3:0.26913924 14:0.41621727 37:0.65940053 181:0.36780804 204:0.41699799 
0.08395334976868669 1 2:0.23699755 113:0.97151025 
0 1 2:0.40976201 74:0.91219246 
0 1 2:0.22008213 63:0.39858238 70:0.44500391 129:0.77114685 
1 1 3:0.62667345 6:0.68405864 17:0.37328831 
1 0.4306247088137322 10:0.36501073 18:0.28370155 44:0.64225547 183:0.42794238 249:0.43663924 
0.7302382981937152 1 7:0.21887767 14:0.40304947 35:0.61798951 37:0.63853947 
0.03685465250184366 0 14:0.36292735 17:0.27958245 35:0.55647088 95:0.50418684 253:0.47566078 
0 0.5144839350990472 95:1 
1 0.5877463375473353 67:1 
0 1 7:0.23146064 71:0.53406827 121:0.81314024 
0 1 4:0.1508794 49:0.42838635 92:0.52419833 95:0.4749465 250:0.54162946 
1 1 7:0.23981052 11:0.36585962 12:0.53124138 30:0.51436617 103:0.51171055 
1 1 18:0.38540187 30:0.58436665 46:0.71412955 
0 1 7:0.13626061 11:0.62364576 30:0.29226343 64:0.32885532 70:0.2479972 119:0.39751782 251:0.42357084 
1 1 11:0.96032449 12:0.27888505 
1 0.4554878880956262 2:0.20794471 7:0.11551013 74:0.23145804 193:0.94331521 
0 1 34:0.45129217 63:0.35353535 70:0.3947104 231:0.71801938 
0 1 2:0.29318091 30:0.69862226 74:0.65266522 
1 1 10:0.64079848 11:0.53714494 51:0.38997672 69:0.38570816 
1 0.3804430563969892 18:0.27912056 32:0.50085541 47:0.48281233 65:0.53085289 74:0.39537708 
0 1 7:0.31739836 230:0.9482923 
1 1 38:1 
0 1 4:0.16443468 24:0.46974758 59:0.5972316 252:0.62897763 
0 1 2:0.17725043 4:0.16003089 30:0.42237094 49:0.45436985 74:0.39458637 183:0.42019028 253:0.47525251 
0.866072734709056 1 2:0.45523234 14:0.69847967 114:0.46652663 125:0.29536854 
0.4054239986205576 0 17:0.22255007 93:0.69898407 97:0.45768524 108:0.50241115 
1 1 17:1 
0 1 2:0.20279826 14:0.41488114 102:0.59558729 119:0.65728403 
1 1 68:0.69261749 102:0.72130508 
1 1 23:1 
1 1 23:1 
0.6841938760457474 0 23:0.83936106 127:0.54357429 
0.1236694014642864 0 23:0.89329228 28:0.44947626 
0 1 4:0.10107548 23:0.29054982 28:0.29239086 127:0.37632295 231:0.82356127 
0.1183637910718117 1 4:0.25293105 251:0.96748431 
1 1 23:1 
0.3400728924220124 1 2:0.21557502 10:0.43589057 69:0.52474078 97:0.69869445 
0.7416439646602387 1 4:0.087554321 7:0.21547338 67:0.45511767 93:0.720015 123:0.37848784 125:0.25168213 249:0.11728097 
0 1 4:0.4198921 122:0.90757403 
1 1 67:1 
1 0 4:0.15739768 67:0.40908584 182:0.37146604 195:0.7908446 249:0.21083771 
1 0 17:0.51259204 67:0.76322893 249:0.39335862 
0.03788230724187465 0 2:0.14480598 7:0.16087518 34:0.33476862 46:0.42168174 49:0.37120062 71:0.37120062 184:0.48676338 253:0.38826085 
0 1 7:0.11049003 25:0.29462739 71:0.50988559 75:0.24476357 104:0.30879138 129:0.69695195 
0.442767785477079 0 31:0.37389368 70:0.31560855 71:0.40012153 140:0.6808676 183:0.37002275 
1 1 4:0.28501503 9:0.81929925 17:0.49750897 
0 0.1467591784464555 2:0.18671486 4:0.33715174 31:0.44725714 70:0.37753561 186:0.7133682 
0 1 4:0.30490999 68:0.95238117 
0 1 4:0.41577533 7:0.17053892 11:0.26017751 12:0.37778714 21:0.373652 22:0.53786494 23:0.39839351 
1 0 1:0.2534256 2:0.12142344 4:0.43850955 23:0.31513299 31:0.29085795 70:0.49103401 182:0.25872587 186:0.46391392 249:0.14684834 
1 1 10:0.2069178 13:0.92949993 17:0.053758512 48:0.13313383 177:0.26626761 249:0.041253809 
0.7849161114950016 1 2:0.15083829 7:0.1675769 32:0.42537039 36:0.50067016 47:0.41004662 49:0.38666405 63:0.27317749 67:0.35395189 
0.7706346479800644 1 4:0.29152611 15:0.95656287 
0.3291327167357066 1 4:0.1591729 49:0.45193379 50:0.57812066 60:0.66045161 
0 1 4:0.17651749 50:0.64111671 70:0.39532133 250:0.63366552 
0.4582642417963623 1 19:0.59110625 246:0.76898738 249:0.24341696 
0.8762789067194594 0 18:0.37695849 63:0.43440191 67:0.56284791 93:0.59363247 
0 1 4:0.38818154 15:0.42457037 38:0.44498126 67:0.33630223 92:0.44955136 93:0.35469603 249:0.17332595 
1 0.8402042964368123 18:0.47493128 46:0.88002289 
0.6628155623210593 1 1:0.2763631 2:0.26482716 18:0.41619537 64:0.35503343 102:0.38887796 119:0.42916173 230:0.43951353 249:0.16013956 
0.7938935627223818 0.4385334316114831 12:0.25782788 53:0.96619086 
0 0.5449132575039755 1:0.26303767 2:0.25205795 18:0.39612763 21:0.30677248 64:0.33791474 102:0.37012739 119:0.40846879 230:0.41832145 249:0.15241809 
1 0.5884196642391083 11:0.4244473 181:0.90545264 
0.2641200194401624 1 52:0.37799655 252:0.92580701 
0 1 30:0.22701741 32:0.26866315 47:0.25898468 52:0.53732613 104:0.29579924 252:0.65802248 
1 0.3492370084771185 18:0.41419749 176:0.91018704 
1 1 14:1 
1 0.6942752935938257 14:0.59235681 182:0.30848286 196:0.65675454 249:0.35017883 
1 1 7:0.31739836 36:0.9482923 
0 0.4023701361117782 2:0.097332125 7:0.43253253 17:0.15339312 33:0.29635305 103:0.23073576 127:0.32718066 128:0.72924709 
0.7589799801298107 1 2:0.24793139 7:0.27544449 61:0.92879511 
0 1 95:1 
0.6939912586693261 1 5:0.30295944 7:0.25937358 10:0.47206543 18:0.18345446 33:0.35542368 50:0.38278864 51:0.28728926 63:0.21141046 231:0.42936812 
0.1976966755774314 1 11:0.37454971 30:0.52658366 101:0.76316589 
0.5210532965698146 0 11:0.22737855 17:0.21142209 34:0.31014083 67:0.31479899 92:0.8416139 
0.5322629943022537 0 7:0.17162605 17:0.24346151 34:0.71428066 67:0.3625044 126:0.51929249 
0 1 7:0.09199046 10:0.33484919 11:0.14034244 17:0.13049381 30:0.19730902 34:0.19142492 50:0.54304534 67:0.19430003 92:0.51946038 182:0.35286414 249:0.20027945 
0 1 2:0.1370222 4:0.12371075 7:0.15222763 10:0.27705753 11:0.46448315 30:0.32651088 64:0.3673906 66:0.42980666 101:0.47320489 
0.4748077697548076 1 4:0.2765993 35:0.96098534 
0 1 11:0.73233584 17:0.68094362 
1 1 11:1 
0 1 11:0.97286077 249:0.23139127 
1 1 11:0.31407286 27:0.61506598 124:0.7232234 
0.2091340633717336 1 11:0.45477326 27:0.89060725 
0 0.3244656059492375 2:0.41183438 4:0.12394175 19:0.40316451 63:0.24861905 70:0.27757486 108:0.48840748 246:0.52448848 
1 1 253:1 
0 0.2270900113014838 105:1 
1 1 4:0.095299476 32:0.29766629 36:0.70071952 47:0.286943 59:0.3461305 66:0.33109773 107:0.31549426 
0 0.2838646938590054 2:0.34944758 64:0.93695592 
0 1 4:0.26011414 63:0.52177198 68:0.81246208 
1 1 11:1 
1 1 32:0.82201879 96:0.4142166 253:0.39078091 
0.8867738105787267 1 2:0.14785546 4:0.13349159 15:0.43801598 19:0.43422874 68:0.41695869 105:0.45907326 107:0.44193139 
1 1 11:1 
1 1 3:1 
0 1 4:0.35591454 103:0.93451851 
1 1 1:0.42212047 62:0.75766439 75:0.49775395 
1 1 67:1 
1 1 1:0.42212047 62:0.75766439 75:0.49775395 
0 0.6387129743647699 91:1 
1 1 71:0.60638763 99:0.79516919 
0 0.532715563529926 4:0.2038359 34:0.5219422 67:0.52978151 68:0.63667796 
0 1 4:0.15613769 11:0.29311634 14:0.70758867 69:0.42095686 103:0.40996796 249:0.20914992 
0 0.1901268281241025 2:0.23609968 4:0.21316305 183:0.55969845 250:0.76521638 
0 0.1384052580158926 7:0.54820121 11:0.83634648 
0.6060468799111614 1 2:0.25237264 4:0.22785513 11:0.42775106 12:0.62110998 74:0.56181982 
0 0.3830125079598965 28:0.79072713 70:0.61216878 
0 0.308580842164989 18:0.40623818 69:0.62920476 71:0.66262501 
1 1 1:0.36334324 4:0.1571758 11:0.29506518 17:0.27435876 30:0.41483547 33:0.53005672 51:0.4284453 249:0.2105405 
0.6474908434735723 1 44:0.82240933 75:0.56889621 
1 1 4:0.21238384 15:0.69687925 46:0.68502002 
0.3256801320832802 1 247:1 
0 0.1641913442702754 4:0.12190137 7:0.15000116 11:0.22884471 46:0.78635811 69:0.32865363 102:0.39652745 249:0.16328961 
0.9083745609778028 1 7:0.60523695 12:0.67037699 17:0.42928187 
0 1 2:0.19787278 4:0.35729964 12:0.48698131 49:0.50723389 249:0.23930543 253:0.53054616 
0 0.5974956390156676 11:0.41259732 69:0.59254859 96:0.69184509 
1 1 26:1 
1 1 4:0.10762616 10:0.24103513 51:0.58675599 89:0.45544524 92:0.37392416 117:0.48865779 
0 1 18:0.31368279 49:0.51165566 90:0.76258882 249:0.24139155 
1 0.5396450870702935 89:1 
0.2154625170318271 1 11:0.53433058 253:0.8452756 
0.5229087395479335 1 7:0.27235174 11:0.41550514 17:0.38634675 29:0.77712045 
0 0.126357238517114 7:0.20055361 17:0.28449694 29:0.57225378 103:0.42794368 127:0.60681921 
0 0.04613348285615974 4:0.43530686 7:0.26782527 11:0.40859947 92:0.75619048 
1 0.7372905773497587 17:0.34987855 179:0.93679507 
0.703276185407518 1 7:0.30330896 51:0.67190659 93:0.6756813 
0.2787552719934348 1 4:0.15608439 25:0.51214806 106:0.52637607 185:0.66050758 
0 1 68:0.51614746 71:0.46918091 75:0.45044769 106:0.55727726 
0.7385263252319821 1 63:0.60707956 103:0.79464106 
0 1 4:0.47014036 11:0.88259166 
0.01055583415558795 1 7:0.25460798 248:0.96704435 
0 1 49:1 
0.1474001546236541 1 24:1 
0 1 4:0.25982006 15:0.85252816 17:0.4535298 
0.890471648146959 0.7943131742759187 2:0.17064922 3:0.45149287 4:0.15407097 7:0.37917253 11:0.28923651 14:0.34911119 175:0.62768382 
1 0.763167927516197 2:0.16276309 5:0.4224227 34:0.37628265 70:0.32910537 197:0.73835511 
0.2372748664812053 1 98:1 
0 1 2:0.23052727 18:0.3622909 25:0.68292795 49:0.59094153 
0 0.3382119692601387 4:1 
0.1551417122377358 1 4:0.40771777 10:0.913108 
0 1 2:0.40976201 74:0.91219246 
0 0.2625670151433049 4:0.10646154 7:0.26200452 11:0.19985961 74:0.78750328 91:0.27953418 120:0.42635072 
1 1 4:0.16025394 6:0.51261441 10:0.35889815 17:0.27973182 69:0.43205453 102:0.52128279 249:0.21466373 
1 1 4:0.14140696 9:0.812972 21:0.38124192 91:0.37128976 249:0.18941779 
0 1 7:0.30172867 17:0.42801963 92:0.85191491 
1 1 4:0.16701053 5:0.48008557 7:0.20550855 17:0.29152581 22:0.64815613 30:0.44079236 
1 1 2:0.23354245 10:0.47222054 12:0.57476733 253:0.62618543 
0.09708783906787516 0.6078833577833201 91:1 
0 0.9006907864098794 2:0.21369851 63:0.38702124 70:0.43209628 231:0.78602819 
1 1 17:1 
0.9992423238581225 1 17:1 
0 1 4:0.26152556 38:0.89937797 249:0.35031934 
0 1 4:0.46161231 68:0.72091909 70:0.516904 
0.7165050007689493 0.8181231149997235 183:1 
0 1 18:0.28868595 63:0.33267782 118:0.7529984 183:0.43546097 249:0.22215547 
0 1 63:1 
0 1 2:0.24907977 4:0.22488215 30:0.59353342 102:0.73150896 
1 1 5:0.90641857 249:0.4223806 
0 0.01054024400512825 4:1 
1 1 93:0.45135211 103:0.86465916 249:0.22055796 
0 0.27088127848576 4:0.22079687 52:0.68965526 68:0.68965526 
0.6708046730204752 1 4:0.082966507 7:0.10209133 27:0.30501865 51:0.22615829 68:0.25914447 70:0.18580839 90:0.70218434 92:0.28824946 141:0.40084755 
0 1 61:0.83577625 75:0.54907018 
0 1 108:0.56536601 125:0.82484015 
0 0.6169472267112285 14:0.29909138 21:0.35586953 31:0.35020539 52:0.41228743 230:0.48527123 249:0.17681167 250:0.47384171 
-0 0.2838606679337933 1:0.44034894 3:0.55820743 8:0.61962685 17:0.3325054 
-0.9184856744587086 0.5040761313546773 89:0.45592005 91:0.14144335 138:0.26026561 139:0.26026561 142:0.28407374 206:0.30297126 207:0.30297126 208:0.30297126 209:0.30297126 210:0.30297126 211:0.30297126 249:0.07215897 
-0.6483003098383734 0.2714188727272912 89:0.52653237 138:0.60115043 139:0.60115043 
-0.999189608657826 1 89:0.29039495 122:0.2966505 130:0.34479706 142:0.36187739 143:0.36187739 212:0.38595067 213:0.38595067 214:0.38595067 
-1 1 36:0.22636164 98:0.22924197 130:0.30936564 131:0.30936564 139:0.29747856 144:0.32469079 145:0.32469079 179:0.28776613 180:0.28776613 215:0.34629029 216:0.34629029 
-0.9690157306438507 0.1113997649229002 89:0.47252888 138:0.26974689 144:0.29442233 145:0.29442233 179:0.26093988 180:0.26093988 217:0.31400828 218:0.31400828 219:0.31400828 220:0.31400828 
-1 0.9541481011911297 47:0.24824357 89:0.34889218 132:0.41425306 221:0.46369666 222:0.46369666 223:0.46369666 
-1 0.6223806437695799 89:0.60123417 224:0.79907288 
-0.9248222253105176 0.001409725429628528 1:0.17730035 8:0.24948409 17:0.13387865 29:0.26929136 76:0.37055664 146:0.40445379 176:0.29337288 181:0.30715136 196:0.38536389 225:0.43135939 
-0.4081239215975483 0.4818917817164543 1:0.18046427 17:0.13626772 76:0.37716922 146:0.41167126 181:0.31263247 190:0.3922407 226:0.43905699 227:0.43905699 
-1 1 1:0.17641215 10:0.1709069 11:0.14326146 17:0.13320798 76:0.3687003 176:0.58380639 181:0.30561266 196:0.38343337 228:0.42919846 
-1 1 17:0.26885014 184:0.5734453 190:0.77387344 
-1 1 10:0.78872472 17:0.61474655 
-0.2574342083587921 0.4696219094446238 1:0.28565042 7:0.15205108 8:0.40194639 10:0.27673619 23:0.35520433 30:0.32613218 147:0.65161965 
-1 0 9:0.4793067 18:0.14512001 46:0.26889981 47:0.25102318 116:0.37852599 133:0.41889149 175:0.3396478 177:0.36039857 249:0.22335123 
-1 1 11:0.81949133 91:0.57309158 
-1 1 6:0.33419867 11:0.19613491 15:0.3428141 17:0.36474199 44:0.41170611 50:0.37946521 68:0.32633357 100:0.39963581 249:0.1399499 
-1 1 10:0.39824245 12:0.24236213 17:0.15519874 39:0.40368447 63:0.17834948 103:0.2334518 106:0.29984148 148:0.46886279 199:0.44673284 
-0.3465734605366493 1 1:0.48923126 17:0.1847081 18:0.36838453 37:0.37986137 92:0.36763638 148:0.55801197 
-0 1 1:0.56523669 3:0.17913025 5:0.17571695 16:0.24903418 17:0.10670187 23:0.17571695 26:0.49806836 29:0.21462638 30:0.16133517 40:0.27754017 102:0.1988399 121:0.26424891 249:0.081882072 
-1 1 12:0.39097366 17:0.25036346 37:0.51488486 200:0.72066033 
-1 0.7444652060472603 1:0.17043729 8:0.2398269 17:0.12869639 149:0.38879793 150:0.38879793 176:0.28201681 180:0.34458285 198:0.37044698 200:0.37044698 204:0.33474972 249:0.09876048 
-0.5994938304012499 1 1:0.19718424 17:0.14889289 19:0.55492668 68:0.26642805 92:0.29635107 93:0.233821 103:0.22396646 134:0.42858171 135:0.42858171 
-0.6629890378623575 1 1:0.455834 17:0.17209905 25:0.32350528 151:0.51991942 176:0.37712654 192:0.49537963 
-1 1 1:0.27436005 7:0.14604124 8:0.3860594 17:0.20716797 19:0.3860594 119:0.4260512 136:0.596324 249:0.15897888 
-1 1 4:0.080622145 8:0.26225213 10:0.18055805 11:0.15135147 12:0.2197678 14:0.18268265 17:0.14073026 18:0.14033724 36:0.29639982 47:0.24275013 50:0.292822 69:0.21736229 100:0.30838705 103:0.21168814 182:0.19027211 185:0.34117145 189:0.40508595 249:0.10799517 
-1 1 5:0.47839812 8:0.27067575 10:0.18635763 13:0.31392791 15:0.27303651 23:0.23919906 44:0.327906 54:0.38890641 77:0.40203244 249:0.111464 
-1 1 1:0.48748063 11:0.79175073 17:0.36809432 
-0 1 1:0.34171769 5:0.42492361 11:0.27750343 17:0.25802941 23:0.42492361 44:0.58250647 249:0.1980095 
-1 1 2:0.46187759 93:0.57155198 102:0.6782311 
-1 1 10:0.2930265 18:0.22775241 51:0.35665974 69:0.70551172 98:0.48714614 
-1 1 11:0.28052749 17:0.26084126 46:0.48197545 152:0.78801385 
-1 1 6:0.28433048 11:0.6674732 17:0.15515811 46:0.28669698 124:0.38425159 152:0.46874003 
-1 1 9:0.39990222 11:0.2611628 32:0.43452839 36:0.51144933 49:0.39498872 67:0.36157229 249:0.18634982 
-0 1 1:0.36514957 8:0.51381179 29:0.5546048 38:0.54320967 
-1 1 2:0.51030339 31:0.40746034 74:0.75734175 
-1 1 2:0.097782761 69:0.23801738 74:0.21767927 182:0.20835293 193:0.88715938 249:0.23651488 
-1 1 17:0.42449556 99:0.90543002 
-1 1 30:0.6454236 68:0.76382484 
-1 1 5:0.42626177 10:0.33209634 11:0.27837733 12:0.40421394 15:0.48656139 17:0.25884199 51:0.40421394 
-1 1 7:0.34840483 107:0.93734416 
-0 1 1:0.28703482 3:0.36385911 6:0.39717809 10:0.2780774 19:0.40389443 46:0.40048382 51:0.33846432 69:0.3347596 
-0 1 1:0.25386888 3:0.64363252 6:0.52692818 8:0.17861287 10:0.12297323 11:0.20616293 46:0.17710461 93:0.15051881 94:0.22370113 175:0.22370113 
-1 1 30:0.24093958 153:0.96280572 249:0.12228351 
-1 1 11:0.46459511 17:0.4319918 68:0.77300354 
-1 1 6:0.62596422 16:0.39861856 55:0.45729647 90:0.41405282 249:0.2621302 
-1 1 2:0.6690118 7:0.74325178 
-1 1 2:0.45972277 7:0.51073803 18:0.36124409 51:0.5657074 249:0.27799189 
-1 1 3:0.26242615 11:0.50434851 23:0.25742566 30:0.23635634 31:0.23759589 47:0.26963866 143:0.47224543 193:0.44995582 
-1 1 11:0.72799812 17:0.16922749 32:0.30281466 76:0.46839707 184:0.36095465 
-0.3268411694135004 0.6216958887527937 9:0.18835763 55:0.30624489 56:0.61248978 67:0.17030388 150:0.34554064 154:0.34554064 155:0.34554064 201:0.3292314 
-0.464064078339413 0.7737222349372509 4:0.088470625 9:0.50863224 51:0.24116196 55:0.41348478 56:0.41348478 69:0.23852228 93:0.24251678 154:0.466541 
-1 0.7840167462680741 9:0.20047666 16:0.56824958 30:0.1840684 47:0.20998784 67:0.18126132 189:0.70082865 249:0.18683948 
-1 1 4:0.05686763 9:0.1634707 12:0.1550154 17:0.19853098 32:0.71050006 44:0.22409379 67:0.44340696 93:0.15588626 103:0.14931633 125:0.1634707 137:0.28573139 
-1 0.4884035764656814 4:0.065129044 18:0.11336873 32:0.20342946 67:0.67709689 92:0.22627699 93:0.17853255 135:0.32724087 137:0.32724087 156:0.34345151 249:0.17448349 253:0.19341729 
-0 0.6198842104806484 1:0.096143108 4:0.041589792 5:0.23910659 9:0.3586598 20:0.17599693 32:0.25980993 93:0.22801292 105:0.14302595 132:0.2089679 133:0.2089679 157:0.43863923 158:0.21931961 159:0.21931961 182:0.098153895 184:0.15484659 199:0.4179358 203:0.1888312 249:0.11142083 
-0 1 9:0.61499981 16:0.43580307 30:0.28233219 51:0.29159488 78:0.51682868 
-0.6642677170807342 0.0109339782553125 9:0.60031478 17:0.18226673 157:0.55063645 160:0.55063645 
-0.8776318484119092 1 1:0.11466427 4:0.099203429 9:0.28516845 16:0.20207696 20:0.20990125 30:0.13091424 67:0.12891778 99:0.18467647 115:0.22520793 122:0.21442284 132:0.2492238 133:0.2492238 158:0.26156969 159:0.26156969 175:0.60623077 249:0.13288511 
-0.9598811031406079 1 9:0.85475175 17:0.51903704 
-1 1 18:1 
-1 0.4184309167512491 4:0.12214689 67:0.31746696 93:0.22322039 135:0.20457567 140:0.19671504 153:0.2147098 183:0.10690631 195:0.81830268 249:0.16361841 
-1 1 4:0.22532176 17:0.13110373 46:0.24224993 67:0.19520817 93:0.20588494 123:0.64936089 155:0.3960706 182:0.1772567 195:0.37737638 249:0.20121554 
-0 0.3810863927153375 1:0.12159798 3:0.15414343 5:0.15120625 6:0.16825851 10:0.2356066 11:0.098747756 14:0.11918947 23:0.15120625 27:0.19338311 50:0.19104879 51:0.14338531 62:0.21825631 100:0.20120405 141:0.25413903 161:0.27738672 162:0.27738672 163:0.27738672 164:0.27738672 165:0.27738672 178:0.22738892 185:0.22259391 191:0.26429429 249:0.070460369 
-1 1 3:0.11075122 5:0.5432043 6:0.24178567 10:0.25392311 13:0.14258168 14:0.17127406 23:0.5432043 27:0.27788952 30:0.099749026 37:0.13567218 49:0.10730603 50:0.13726753 51:0.10302157 79:0.18259752 100:0.14456403 106:0.12745449 182:0.08919474 
-0.6740419674726064 0.9819881424370636 1:0.12159798 3:0.15414343 5:0.15120625 6:0.16825851 10:0.2356066 11:0.098747756 14:0.11918947 23:0.15120625 27:0.19338311 50:0.19104879 51:0.14338531 62:0.21825631 100:0.20120405 141:0.25413903 161:0.27738672 162:0.27738672 163:0.27738672 164:0.27738672 165:0.27738672 178:0.22738892 185:0.22259391 191:0.26429429 249:0.070460369 
-1 0.7402255203322049 9:0.48553267 75:0.46041914 103:0.44349205 182:0.39862492 183:0.44349205 
-1 1 103:1 
-1 0.2567058002423721 18:0.42033589 67:0.62761599 182:0.56990002 249:0.32346541 
-0.4599665885071634 1 1:0.25058636 8:0.35260681 124:0.46859793 187:0.54465168 202:0.54465168 
-1 1 11:0.10182858 22:0.84204077 30:0.42948575 75:0.14785878 136:0.27253999 
-1 0.4220812589343367 3:0.57005574 9:0.27959681 14:0.2203943 30:0.25671285 67:0.25279794 166:0.51291823 176:0.37204818 249:0.13028889 
-1 1 3:0.79108969 14:0.61170017 
-1 1 1:0.17327319 3:0.21964941 11:0.28142488 14:0.50952359 44:0.29536883 62:0.3110082 69:0.20208302 102:0.24381737 119:0.26907435 167:0.39526712 182:0.17689712 183:0.19680773 
-1 0.6914066166947112 1:0.09887904 4:0.042773308 9:0.12295541 19:0.41740616 34:0.21905066 60:0.17747807 63:0.085800462 67:0.66702216 117:0.38840949 177:0.18490438 186:0.18100525 194:0.21491447 249:0.057295802 
-1 1 4:0.12473198 7:0.15348427 17:0.21772635 34:0.31938871 67:0.64837155 140:0.60263486 249:0.16708128 
-1 0 67:1 
-1 1 32:0.56655474 36:0.33342371 69:0.24451344 128:0.37630913 177:0.39205522 178:0.39205522 249:0.24296993 
-1 1 67:0.65857973 253:0.75251096 
-0 1 1:0.12443844 3:0.4732323 6:0.68875577 14:0.24394746 35:0.18702034 47:0.16207957 57:0.25158434 101:0.20590407 115:0.24440504 
-0 1 1:0.30440442 6:0.42121288 14:0.29837504 17:0.22985434 35:0.45749382 57:0.61543187 
-1 1 14:0.33013151 35:0.50618553 49:0.41366589 57:0.68093313 
-1 1 4:0.17919369 7:0.22050009 12:0.48846385 17:0.31279218 34:0.45884337 53:0.61016081 
-1 1 1:0.44409379 4:0.12807133 7:0.078796688 10:0.14341165 11:0.60106909 17:0.22355535 46:0.20653978 51:0.34910946 73:0.28334471 194:0.32174718 
-1 1 12:0.24455826 14:0.40657976 29:0.31500457 137:0.45078085 204:0.40734241 251:0.34317402 252:0.34317402 253:0.26643619 
-0 1 1:0.14945084 8:0.42059274 32:0.60579721 35:0.22461185 51:0.17622871 94:0.26338259 136:0.32483274 166:0.34092409 176:0.24729125 
-1 1 17:0.2158273 26:0.2518624 46:0.19939994 63:0.12401094 68:0.19310004 73:0.27354981 80:0.29868929 103:0.64929999 184:0.46034983 
-1 1 2:0.30871867 7:0.22865144 51:0.25326059 71:0.26379319 126:0.69183523 168:0.48994647 
-0 1 1:0.41192464 11:0.33451736 17:0.31104235 73:0.78845982 
-1 1 1:0.16309631 17:0.12315325 18:0.12280932 26:0.28743049 46:0.22755926 71:0.20031728 73:0.31218061 81:0.34087029 93:0.19339954 103:0.37049718 117:0.32033156 156:0.37205183 182:0.16650739 203:0.32033156 249:0.09450672 
-1 1 19:0.34976719 103:0.84698912 184:0.40034028 
-1 1 1:0.19948895 12:0.23523241 36:0.63451391 91:0.2265842 93:0.23655392 188:0.43359101 203:0.39180903 249:0.23118895 
-0 1 1:0.36954335 5:0.45952462 10:0.3580111 14:0.36222375 17:0.27904043 29:0.56127825 
-0 1 1:0.34093725 3:0.4321884 72:0.65258372 182:0.34806779 183:0.38724447 
-0.08846383129726565 1 1:0.32065297 32:0.43325442 47:0.41764663 160:0.73146673 
-1 1 61:1 
-1 1 10:0.35716365 12:0.21736241 26:0.32485896 29:0.27997482 106:0.26891276 114:0.36204432 205:0.66172374 
-1 0.9105968348959729 3:0.23234855 5:0.22792119 10:0.17757115 14:0.1796606 23:0.22792119 35:0.27547082 40:0.35999536 58:0.37057007 67:0.20607534 106:0.26739087 111:0.35999536 179:0.37057007 183:0.20818627 249:0.10620865 
-1 1 12:0.63901382 15:0.76919526 
-1 1 2:0.14179736 4:0.12802202 67:0.33273678 74:0.31566246 75:0.34897506 110:0.58126166 186:0.54175511 
-0.6660411572971493 1 5:0.53975135 23:0.26987567 42:0.42626133 54:0.43878258 182:0.22156937 183:0.24650806 205:0.38954785 
-0.5718140876478307 1 1:0.21958827 3:0.27836062 11:0.17832409 82:0.91787628 
-1 1 9:0.48680735 10:0.37926681 46:0.54621562 51:0.23081394 92:0.29418331 201:0.4254467 
-1 1 9:0.3213101 13:0.42169149 38:0.38439496 147:0.58944095 186:0.47300738 
-1 1 5:0.36643358 14:0.28884404 23:0.36643358 35:0.44288009 169:0.67221962 
-1 1 5:0.36248019 14:0.28572775 23:0.36248019 42:0.57252767 114:0.57252767 
-0.6985076008282944 1 1:0.15183046 5:0.37760028 10:0.14709233 14:0.29764641 23:0.37760028 29:0.23060661 58:0.30696436 170:0.34635243 171:0.34635243 172:0.34635243 205:0.27252063 
-1 1 7:0.1538764 10:0.56011665 51:0.34087542 182:0.29512552 183:0.6566866 249:0.16750815 
-1 1 32:0.46965789 52:0.46965789 70:0.33674797 89:0.63629837 249:0.20141529 
-1 1 12:0.67621292 253:0.73670624 
-1 1 60:0.4652709 174:0.59132296 175:0.45682948 185:0.47451763 
-1 1 14:0.36866808 35:0.2826364 43:0.36935961 55:0.38020939 181:0.32578919 183:0.42720328 202:0.40874762 249:0.21794256 
-1 1 38:0.5462448 174:0.83762559 
-1 1 12:1 
-0.1974642035065394 1 1:0.2881793 8:0.40550485 43:0.56600254 173:0.6573885 
-1 1 103:1 
-1 0.4175884942502037 1:0.28174018 2:0.13498977 46:0.39309649 47:0.36696319 181:0.4880807 198:0.61236479 
-1 1 1:0.19842931 4:0.085836979 7:0.10562348 8:0.27921523 14:0.194499 27:0.31557168 65:0.56833628 69:0.23142181 182:0.40515874 197:0.43128788 
-1 0.2629702787873955 1:0.35231144 182:0.35967986 183:0.40016354 197:0.76575204 
-0.8604498276719041 1 1:0.30798453 14:0.30188424 41:0.60490127 192:0.66940712 
-0.6741819041695504 1 1:0.3909195 11:0.63491918 44:0.66637796 
-1 1 11:0.38209781 117:0.92412189 
-1 1 4:0.1401048 5:0.40274282 17:0.24456042 23:0.40274282 32:0.43761495 42:0.6361214 
-0 0.002965514814751001 1:0.43172281 3:0.18242412 8:0.2024962 10:0.41825002 11:0.11686501 14:0.14105716 22:0.24159502 168:0.32827887 187:0.31278437 205:0.51659973 
-0 1 1:0.38242798 8:0.5381247 41:0.75111294 
-1 1 3:0.70851451 6:0.38669712 10:0.27073933 15:0.39666592 17:0.21101921 70:0.27073933 
-1 1 3:0.70851451 6:0.38669712 10:0.27073933 15:0.39666592 17:0.21101921 70:0.27073933 
-1 0.7505808093102203 9:0.83060511 18:0.25148286 38:0.49684155 
-0.9350073192351739 1 9:0.53195848 18:0.32212285 20:0.7831073 
-1 1 93:0.47892973 134:0.87785324 
-1 1 17:0.55753789 67:0.83015149 
-1 1 1:0.42720051 2:0.20468397 63:0.37069535 177:0.79886742 
-1 1 1:0.76646255 2:0.36723443 4:0.16577901 7:0.4079863 17:0.28937612 
-1 1 12:0.38025889 116:0.63336881 141:0.67397858 
-1 1 5:0.57850551 14:0.45601134 18:0.350309 23:0.57850551 
-0.1810748410553034 1 4:0.1403944 9:0.40357531 16:0.57196559 30:0.37054418 186:0.59411173 
-1 1 4:0.12341913 12:0.33642803 21:0.1663728 49:0.1752097 67:0.32077358 91:0.32405942 94:0.25140423 98:0.22975626 110:0.28018151 183:0.16202971 188:0.62011937 
-0 0.6830260536590866 1:0.19878788 5:0.24719137 9:0.49438274 14:0.19485046 21:0.23183999 29:0.30192754 47:0.25891882 68:0.26859483 69:0.23183999 91:0.22578791 93:0.23572259 140:0.41546546 
-1 0.4760337889988505 1:0.28433766 5:0.35357192 10:0.2754644 23:0.35357192 49:0.34922768 124:0.53171306 182:0.29028444 183:0.32295734 
-1 1 3:0.19375883 4:0.066119785 13:0.24944609 18:0.1150933 29:0.23215373 35:0.22971911 36:0.24308325 39:0.30020535 47:0.19908409 112:0.60041071 178:0.28582867 182:0.15604585 183:0.3472191 
-1 -0 24:0.38309868 125:0.38549108 229:0.45224753 254:0.70718046 
-1 -0 2:0.13910271 34:0.32158357 255:0.66228183 256:0.66228183 
-1 -0 11:0.45477326 230:0.89060725 
-1 -0.5785844838826161 253:1 
-0.002087870631458124 -1 1:0.77627207 11:0.63039803 
-0.8736823525013536 -0 2:0.20209977 4:0.18246617 257:0.96221712 
-1 -0.6574785355481637 2:0.16807007 4:0.30348477 18:0.26413472 182:0.35811927 249:0.20326232 257:0.8001983 
-1 -0 11:0.57961651 30:0.81488938 
-1 -0.02957096056516185 30:1 
-0.7759936198169429 -0 7:0.17586093 125:0.4108262 229:0.48196999 258:0.75365754 
-1 -1 2:0.24964218 4:0.11269486 11:0.423123 12:0.61438955 51:0.30719477 52:0.35200048 105:0.38755399 
-1 -0.1104259682900846 7:0.17998968 14:0.33143969 18:0.50922552 229:0.49328537 231:0.59591137 
-0.7998820903314562 -0.7739859556440977 2:0.10853087 38:0.67395033 259:0.51672624 260:0.51672624 
-1 -0 2:0.15884749 4:0.071707817 7:0.088237368 37:0.25741795 38:0.49320174 125:0.20613005 182:0.16923387 249:0.096054224 259:0.75628801 
-1 -0 4:0.13626872 7:0.16768037 38:0.46862373 96:0.4289542 249:0.182535 260:0.71859947 
-1 -0 4:0.1758117 7:0.2163385 12:0.47924487 19:0.57188992 104:0.60461076 
-1 -0 2:0.10691331 4:0.19305378 7:0.11877755 34:0.24716675 38:0.33195286 63:0.38725327 115:0.4382635 229:0.65105114 
-1 -0.2658534006822541 7:0.25437396 10:0.23148301 18:0.35983648 63:0.41467073 96:0.32536539 231:0.42109172 261:0.54506378 
-1 -0.7558500260095669 37:1 
-1 -0 30:1 
-0.6346733712695227 -1 1:0.22941468 3:0.29081705 4:0.099240695 7:0.12211692 11:0.18630396 14:0.22487063 16:0.40430573 29:0.34844483 47:0.29880986 94:0.40430573 247:0.46382081 
-1 -1 4:0.089639963 5:0.25767748 10:0.10037699 12:0.12217473 19:0.29158587 67:0.11648977 102:0.14579289 117:0.81398924 184:0.16687319 186:0.18966623 232:0.22519799 249:0.060037367 
-1 -0.3613537720886132 2:0.2035405 12:0.50093003 17:0.320775 246:0.77765273 
-1 -0.4388254208206081 10:0.25882064 14:0.26186613 37:0.41486684 97:0.41486684 103:0.60688803 106:0.38973828 
-0.01552914870102891 -0.6600830813702371 56:0.64052979 91:0.17992482 118:0.31112571 128:0.28432875 233:0.34430373 262:0.36135962 263:0.36135962 
-0.4282709864195278 -0 56:0.29545544 103:0.33197374 118:0.28702423 128:0.78690943 233:0.3176321 
-1 -0 38:0.22597893 56:0.30711447 91:0.34507383 118:0.29835055 128:0.54530794 233:0.33016625 262:0.34652181 263:0.34652181 
-1 -1 14:0.15736302 25:0.22787454 35:0.24128229 67:0.18049945 93:0.76148692 98:0.25856792 115:0.31531654 186:0.29388545 
-1 -1 4:0.09021226 18:0.15703055 32:0.28177646 51:0.24590948 67:0.23446698 93:0.24729098 121:0.38997783 182:0.21290524 230:0.33165699 249:0.2416825 251:0.34507011 264:0.47572534 
-1 -1 9:0.4182793 30:0.3840447 67:0.37818796 201:0.73111283 
-1 -0 49:0.56850938 71:0.56850938 253:0.59463785 
-1 -0.7106383102850568 49:0.32151191 71:0.32151191 184:0.42160551 229:0.38188101 253:0.33628847 258:0.59714817 
-1 -1 5:0.28727716 14:0.45289699 23:0.28727716 50:0.36297412 51:0.27241814 100:0.38226812 265:0.52700778 
-0.8180286461397789 -1 3:0.11075122 5:0.5432043 6:0.24178567 10:0.25392311 13:0.14258168 14:0.17127406 23:0.5432043 27:0.27788952 30:0.099749026 37:0.13567218 49:0.10730603 50:0.13726753 51:0.10302157 79:0.18259752 100:0.14456403 106:0.12745449 182:0.08919474 
-0.3209968269227533 -0.147038794739693 5:0.33416162 6:0.092961678 7:0.035760856 10:0.065085518 11:0.16367244 14:0.065851368 19:0.094533673 23:0.2506212 27:0.10684285 46:0.093735401 50:0.2111063 51:0.079219402 69:0.078352293 81:0.14041008 83:0.14041008 84:0.14041008 85:0.14041008 92:0.10096888 98:0.10820236 101:0.11116386 124:0.12563082 131:0.14602079 183:0.15261388 234:0.14602079 249:0.077857686 266:0.15325427 267:0.15325427 268:0.15325427 269:0.15325427 270:0.15325427 271:0.15325427 272:0.45976274 273:0.15325427 274:0.15325427 275:0.15325427 276:0.15325427 277:0.15325427 278:0.15325427 
-0.9369679971742755 -0.9919813827006934 5:0.33416162 6:0.092961678 7:0.035760856 10:0.065085518 11:0.16367244 14:0.065851368 19:0.094533673 23:0.2506212 27:0.10684285 46:0.093735401 50:0.2111063 51:0.079219402 69:0.078352293 81:0.14041008 83:0.14041008 84:0.14041008 85:0.14041008 92:0.10096888 98:0.10820236 101:0.11116386 124:0.12563082 131:0.14602079 183:0.15261388 234:0.14602079 249:0.077857686 266:0.15325427 267:0.15325427 268:0.15325427 269:0.15325427 270:0.15325427 271:0.15325427 272:0.45976274 273:0.15325427 274:0.15325427 275:0.15325427 276:0.15325427 277:0.15325427 278:0.15325427 
-0.3141128435430788 -0.8337477800799904 9:0.30903615 11:0.40364261 17:0.18765824 49:0.3052391 235:0.54016609 279:0.56692448 
-1 -0 11:0.43590151 31:0.30802625 235:0.58333587 279:0.61223277 
-1 -0 2:0.061831115 13:0.42121018 19:0.18158848 50:0.4055113 82:0.26971185 100:0.42706637 102:0.18158848 103:0.29315397 119:0.40079836 280:0.29438409 
-1 -0.2378506066646716 11:0.56719309 12:0.82358485 
-1 -0 50:0.56288432 68:0.48407086 122:0.66995272 
-1 -1 18:0.45284124 69:0.70138622 185:0.55044726 
-1 -0.1200846467639413 18:0.25794772 69:0.39952408 75:0.40394553 264:0.78145473 
-1 -0 4:0.11977823 7:0.073694307 14:0.13570343 18:0.1042477 30:0.47419748 36:0.22017677 49:0.17004097 51:0.16325166 63:0.12013365 111:0.27191608 113:0.54383216 116:0.27191608 246:0.25343479 281:0.31581926 
-1 -1 17:1 
-1 -0 30:0.46553456 69:0.47554495 90:0.74641448 
-1 -1 11:0.41653772 41:0.50370797 64:0.32946738 95:0.349226 282:0.58503594 
-1 -1 17:0.4177997 93:0.65611153 103:0.62845928 
-1 -0.3598750294745934 18:0.23982082 248:0.64391527 283:0.72653913 
-0.2456651858311679 -0 248:0.65160216 249:0.18675492 283:0.73521237 
-0.001540861331623055 -0 25:1 
-0.2977350699132825 -0.3643348560289166 254:1 
-1 -0 101:0.75010038 229:0.66132399 
-1 -1 9:1 
-1 -1 9:0.4165629 18:0.50449211 67:0.37663607 123:0.62644096 249:0.19411351 
-0.9985277081441653 -0 48:0.95519319 249:0.29598304 
-1 -1 47:0.52541182 175:0.71091032 249:0.46749218 
-1 -1 10:0.54179945 92:0.84050779 
-1 -0 7:0.10483619 11:0.31988045 35:0.29599943 37:0.30584227 63:0.17089996 71:0.24189721 74:0.21006971 90:0.36053175 101:0.32588694 123:0.36829815 284:0.44927877 
-1 -0.5849414243097082 9:0.45991583 49:0.45426496 75:0.43612729 230:0.58820289 249:0.21431547 
-1 -0 4:0.35430819 30:0.93512871 
-1 -1 183:1 
-1 -0 11:0.35217729 17:0.32746299 248:0.87677771 
-1 -0.1037364662614452 11:1 
-1 -1 17:1 
-1 -0.2522203294264175 11:0.37353199 17:0.3473191 121:0.86014144 
-1 -0.4152466593255892 11:0.40769806 17:0.37908754 251:0.83070749 
-1 -0 4:0.83086172 249:0.55647893 
-0.2972835863732825 -0.7647945956579632 114:0.65246885 285:0.75781554 
-0.6444902331136294 -0.4714380029974803 17:0.31424286 286:0.94934263 
-1 -1 5:0.22925799 6:0.25511253 10:0.17861264 11:0.74860403 17:0.13921398 22:0.30951768 51:0.21739993 103:0.20940732 106:0.26895917 249:0.10683158 
-1 -0 17:0.25011749 69:0.38631428 102:0.46609623 287:0.75561685 
-1 -0 11:0.27617289 17:0.25679225 104:0.50591419 286:0.77578161 
-1 -0.08140889607761541 19:0.57054806 49:0.49800446 99:0.653044 
-0 -1 1:0.50374259 8:0.70882976 14:0.4937649 
-0 -0.8119044657925107 3:0.22669668 6:0.24745555 11:0.14522701 14:0.17529036 22:0.30022778 25:0.2538348 35:0.26877 57:0.36155597 229:0.2608866 250:0.27770739 287:0.40794895 288:0.40794895 
-0.796425506023377 -0 11:0.3713826 22:0.76775921 30:0.52213098 
-0.927952035665598 -0 11:0.32326302 25:0.56501476 49:0.48891056 229:0.58071147 
-0.7213679271882281 -0 11:0.3713826 22:0.76775921 30:0.52213098 
-1 -1 3:0.52523627 6:0.28666647 14:0.40613267 37:0.3217119 47:0.26983602 57:0.41884683 70:0.20070459 102:0.29151404 
-0.418118712567129 -0 37:0.43955176 100:0.46835965 229:0.41292803 288:0.64569647 
-1 -0 2:0.10817532 7:0.12017961 10:0.21872944 11:0.18334835 12:0.26622843 19:0.31769429 51:0.26622843 63:0.19591222 64:0.29004496 69:0.26331438 106:0.329368 253:0.29004496 289:0.51503346 
-1 -1 1:0.37799892 7:0.20120798 11:0.30696683 17:0.2854252 60:0.67847059 67:0.42498664 
-0.1431364814085444 -0.3264688361747762 10:0.21067635 110:0.42711052 248:0.87931341 
-1 -0 11:0.33700312 121:0.77602549 253:0.53311663 
-0.1954602999675565 -1 1:0.19323956 3:0.24495973 5:0.24029207 11:0.15692673 15:0.27428414 29:0.29350052 30:0.22062506 43:0.37953483 44:0.32940435 47:0.2516922 51:0.22786328 62:0.34684586 102:0.27191259 183:0.219486 
-1 -0.9320487285448039 2:0.38524418 31:0.92281467 
-0.582573468431956 -0.8839048962031311 26:0.64463664 80:0.76448911 
-1 -0 11:0.2847896 22:0.2943726 25:0.2488844 26:0.30901653 32:0.23691947 38:0.26084932 40:0.34438848 47:0.22838456 63:0.15215226 70:0.16987291 80:0.36646967 98:0.28240768 103:0.19916077 119:0.27229141 
-1 -0.0418504412247131 11:0.2916416 22:0.30145516 32:0.727859 38:0.26712532 47:0.23387946 69:0.20941935 114:0.35267441 
-1 -0 25:0.46739675 40:0.64675029 70:0.31901576 119:0.51135436 
-1 -1 26:0.91151016 36:0.41127755 
-1 -0 2:0.17507555 4:0.23710074 25:0.51865396 61:0.32793179 98:0.29425682 101:0.30231063 249:0.10586725 291:0.41677568 292:0.41677568 
-1 -0 2:0.28057036 7:0.31170542 63:0.50813031 64:0.75227894 
-1 -0 4:0.38925762 68:0.81055943 106:0.43757504 
-1 -0 4:1 
-1 -0 4:1 
-0.8093891966466065 -0.1600544011744255 4:0.1863107 292:0.98249088 
-1 -0.1082689708429776 19:0.31036666 27:0.70155884 70:0.21368444 102:0.31036666 249:0.12780868 289:0.50315422 
-1 -0.05397701932913179 6:0.37067211 11:0.43508121 106:0.39079094 107:0.38362665 293:0.61108065 
-0.4666073728188497 -1 12:0.51729644 19:0.61729742 68:0.5927464 
-0 -1 6:0.80145693 14:0.18924298 17:0.14578404 25:0.27403933 35:0.29016333 46:0.26937583 49:0.23712782 249:0.11187339 
-1 -1 7:0.27275687 10:0.49642331 11:0.20806161 16:0.45152288 18:0.19292044 103:0.29100593 236:0.55686829 
-1 -1 8:0.57240187 9:0.25291876 14:0.19936512 18:0.15315276 19:0.28620085 67:0.45735387 70:0.19704651 294:0.46397755 
-1 -0.8481247717871082 70:0.17850574 77:0.77018684 78:0.38509342 114:0.36189008 129:0.30933243 
-1 -1 11:0.092940178 14:0.56089854 68:0.15463591 81:0.47838508 103:0.51996413 124:0.21401567 182:0.11684012 249:0.066316436 253:0.14702521 295:0.26107298 
-1 -1 10:0.18410441 29:0.28863296 51:0.22408428 58:0.38420422 72:0.72748641 102:0.26740306 182:0.19400927 183:0.21584593 
-0.9814252007485521 -0.6832842540096712 7:0.11758258 17:0.16679771 29:0.33550668 50:0.34706138 60:0.39648687 100:0.36550954 103:0.25089911 119:0.34302776 296:0.50390383 
-1 -0 2:0.43069279 7:0.15949558 18:0.11281094 38:0.22287467 74:0.63919144 75:0.17666167 121:0.28016054 249:0.173625 251:0.24789878 296:0.34176166 
-0.806199681588924 -0 25:1 
-1 -0.2769286926531662 2:0.2245209 17:0.35383961 70:0.90795809 
-0 -1 6:0.49759989 12:0.42404103 17:0.27153845 116:0.70629344 
-1 -0 2:0.44302088 4:0.39998225 63:0.80233827 
-1 -0 4:0.44572939 7:0.27423781 17:0.38902224 34:0.57066734 70:0.49911864 
-1 -0 4:0.32008776 30:0.84481043 249:0.4287647 
-1 -0.2349016026057723 2:0.15440734 4:0.6970348 18:0.24266271 74:0.34373418 75:0.38000925 183:0.36603839 249:0.18673874 
-1 -1 2:0.66901147 7:0.74325208 
-1 -0 2:0.25528504 4:0.23048459 231:0.93899223 
-1 -0.5844624906840392 7:0.21837806 13:0.66952718 18:0.30891681 74:0.43758378 103:0.4659777 
-0.4154966729083109 -0 4:0.17194325 10:0.38507705 297:0.90672553 
-1 -0.4860334668604111 2:0.15587434 7:0.17317181 74:0.34699994 99:0.52396953 297:0.74213321 
-0.4352601034274161 -0.001323325884275729 7:0.10296731 17:0.14606511 54:0.39108735 68:0.26136804 93:0.22938026 103:0.21971288 253:0.24850431 298:0.44126965 299:0.44126965 300:0.44126965 
-0.9973088130909318 -0.5161738841627067 7:0.10296731 17:0.14606511 54:0.39108735 68:0.26136804 93:0.22938026 103:0.21971288 253:0.24850431 298:0.44126965 299:0.44126965 300:0.44126965 
-0.7250700710073373 -0 1:0.20014105 7:0.21306927 17:0.15112556 25:0.28408011 49:0.24581617 85:0.41829357 86:0.41829357 107:0.28661949 249:0.11597242 250:0.3107972 290:0.45655751 
-1 -0.4485192511988543 10:0.40288903 15:0.59028125 17:0.31401911 92:0.62501238 
-1 -0.1088441137545677 11:0.33537558 301:0.94208451 
-0.4724851543816495 -0 11:0.62162621 12:0.22565581 17:0.1445007 106:0.27917304 232:0.41593899 251:0.31664934 302:0.4365435 
-1 -1 11:0.50289067 17:0.46759994 182:0.63221105 249:0.35883208 
-1 -1 7:0.41738843 249:0.90872818 
-0.09520453634259458 -1 3:0.39177137 10:0.2994092 14:0.30293229 42:0.60700131 94:0.54465655 
-1 -1 1:0.53686624 10:0.52011239 14:0.52623246 17:0.40538516 
-1 -0 4:0.090532864 7:0.11140182 10:0.40550738 14:0.20513946 15:0.29705873 23:0.2602442 51:0.24678341 69:0.4881644 230:0.33283566 232:0.45488235 
-1 -0.3701423206592788 2:0.40976201 74:0.91219246 
-1 -0 4:0.13451351 95:0.84685812 251:0.51452643 
-1 -0 7:0.32806764 95:0.83925143 102:0.43362271 
-0 -1 5:0.37714157 10:0.29382728 15:0.43049257 16:0.53450246 74:0.32349522 106:0.44245212 
-0.58555362537777 -1 3:0.48921783 5:0.47989587 15:0.54778265 23:0.47989587 
-0 -0.5689103474161432 1:0.38075391 4:0.082353673 5:0.23673244 11:0.30920427 12:0.22448777 15:0.27022096 67:0.21404205 69:0.2220306 101:0.3150103 230:0.60553142 249:0.11031459 
-0.1697447833057753 -0.3002231448940917 4:0.14224405 111:0.6458343 303:0.75010978 
-1 -0 2:0.12522675 31:0.29996839 38:0.38881385 51:0.3081934 64:0.33576407 69:0.30482001 70:0.25320725 249:0.15144802 303:0.59621698 
-1 -0 2:0.20039186 7:0.22262946 304:0.95408554 
-0 -0.240592155557014 12:0.15713696 96:0.18146104 101:0.22050092 111:0.78519385 256:0.30399004 305:0.30399004 306:0.30399004 
-1 -0 2:0.27443804 129:0.96160478 
-1 -0 4:0.2048204 15:0.67206187 92:0.71160484 
-0.9490702679263161 -0 15:1 
-1 -1 12:1 
-1 -0 12:0.67621292 253:0.73670624 
-1 -1 11:0.56719309 12:0.82358485 
-0.5626223556037108 -0 7:0.1485723 60:0.50098379 90:0.51094028 93:0.33097448 99:0.44953829 102:0.39275026 
-1 -1 4:0.073210354 5:0.21044921 7:0.090086259 14:0.16588818 29:0.25704949 35:0.25435378 55:0.34216292 102:0.23814265 122:0.31648043 176:0.56007254 253:0.2174168 307:0.38606749 
-1 -1 1:0.30036394 8:0.42265018 10:0.29099055 17:0.22680339 43:0.58993393 176:0.49700202 
-0.1149443517250816 -1 1:0.20582746 3:0.26091676 11:0.3342985 30:0.23499689 43:0.80851653 183:0.23378362 249:0.11926743 
-0 -1 3:0.56930972 20:0.82212313 
-1 -0.6630757466500704 10:0.48041627 11:0.40270543 50:0.77912036 
-1 -1 51:1 
-0 -0.136231184460463 15:0.7101703 19:0.70402993 
-1 -0 4:0.28922088 11:0.54295261 12:0.7883868 
-0.4204550583194959 -0 10:0.39089876 308:0.92043368 
-1 -1 7:0.12295612 19:0.325034 32:0.62421343 99:0.37203089 182:0.23582232 249:0.13384868 308:0.52693232 
-1 -1 1:0.66080496 103:0.75055767 
-0.6511814688954425 -1 1:0.77627207 11:0.63039803 
-0.7546542719880445 -0.9632316449191363 13:0.49782742 36:0.4851289 47:0.3973184 118:0.59912929 
-0.8215644852086091 -1 1:0.3899102 7:0.20754833 17:0.29441935 237:0.84747329 
-1 -1 1:0.30502029 2:0.14614393 4:0.13194633 7:0.32472323 17:0.46063875 44:0.51995052 63:0.52935145 
-1 -1 1:0.1950194 5:0.24250529 17:0.14725823 31:0.22382484 177:0.72937464 182:0.19909814 183:0.22150758 249:0.11300467 304:0.44487411 
-0.5766124960913041 -0 32:0.34427657 43:0.50044382 67:0.2864735 84:0.53253082 247:0.51514414 
-0 -1 1:0.91780697 4:0.39702691 
-1 -1 9:0.72939278 21:0.68409515 
-1 -1 22:0.42678557 93:0.90435285 
-0 -1 1:1 
-0 -0.2573732517511524 1:0.1664854 19:0.23426608 20:0.60952717 67:0.18718061 93:0.19741832 230:0.26476973 247:0.33659307 309:0.37978295 310:0.37978295 
-0.6949696715955901 -0 7:0.096737408 10:0.17606414 13:0.29658806 15:0.2579553 46:0.25356552 93:0.2155019 106:0.26512158 238:0.79000752 
-1 -0 2:0.38907636 103:0.46117225 118:0.7974583 
-0 -0.1894648649900436 27:0.50007901 58:0.63573404 123:0.58801633 
-0.0898530009618642 -0.4626825611670106 5:0.59520347 129:0.80357503 
-0 -1 1:0.2964549 13:0.48380738 39:0.58225635 112:0.58225635 
-1 -0 49:0.37839422 62:0.5529816 183:0.34992985 230:0.48996201 249:0.17852078 253:0.39578507 
-0.04830641947635503 -0.178487892793636 14:0.18832496 23:0.23891297 72:0.73550923 239:0.41759738 284:0.43828404 
-1 -1 2:0.20794274 4:0.1877415 10:0.42045816 30:0.49550779 69:0.50616269 91:0.49294953 
-0.903040194786187 -1 1:0.33434141 62:0.60010967 202:0.72669402 
-1 -1 17:0.71895251 70:0.30747405 110:0.62335143 
-1 -0 2:0.33655537 11:0.57043391 74:0.74922335 
-1 -1 15:0.62092917 46:0.61036243 67:0.49183805 
-0.287296069848043 -1 12:0.51473223 117:0.85735099 
-0.4259328350728494 -1 1:0.15872121 2:0.076047867 4:0.068659963 5:0.19736874 7:0.084486946 9:0.19736874 10:0.15376804 19:0.22334089 23:0.19736874 42:0.62347718 44:0.27056291 82:0.33172636 230:0.25242197 311:0.36207145 
-0.08332205734851113 -0.1915671414551563 101:0.58715631 301:0.80947358 
-1 -1 2:0.15185306 4:0.27420166 7:0.33740858 10:0.30704539 14:0.31065834 18:0.23864848 54:0.64076755 103:0.35998322 
-1 -0 2:0.27009824 4:0.2438585 7:0.60014188 27:0.44826155 111:0.55359849 
-1 -0 4:0.33578854 18:0.29224997 28:0.48568406 70:0.37600913 129:0.65158587 
-0 -0.5105091132807601 1:0.22441619 3:0.28448072 8:0.31578206 11:0.18224477 12:0.26462598 14:0.21997115 30:0.25621997 49:0.27563125 99:0.36144121 229:0.3273855 238:0.48777058 
-0 -1 1:0.32415717 3:0.41091703 10:0.15702064 11:0.26324295 14:0.15886827 46:0.22613929 92:0.24359026 238:0.70455849 
-1 -0.5500759152112893 2:0.18478063 103:0.4380414 302:0.87975897 
-0.3757927741174677 -1 1:0.15288884 2:0.073253413 4:0.066136985 8:0.21513401 34:0.16935036 48:0.28590302 63:0.13266647 86:0.31953675 103:0.17365471 178:0.28590302 184:0.24624038 249:0.17718381 255:0.69753356 
-1 -1 1:0.27852292 8:0.3919171 35:0.41859615 36:0.44294839 91:0.31635283 123:0.52083948 249:0.16139107 
-0 -1 1:0.52610129 75:0.31018277 115:0.51664825 293:0.60006554 
-1 -0 4:0.29152611 15:0.95656287 
-1 -0 30:0.56235032 129:0.8268991 
-1 -0.985554227376735 30:1 
-1 -0 10:0.36177188 49:0.45864639 240:0.81164315 
-1 -0 10:0.30057239 49:0.38105902 252:0.51336747 313:0.70774579 
-0.03162050505338374 -0.3096554317462358 10:0.2982636 25:0.21849616 36:0.48962259 49:0.37813199 240:0.33458046 250:0.23904523 252:0.25471207 312:0.35115468 313:0.35115468 
-0 -1 6:0.43283688 8:0.44015621 9:0.38897076 17:0.23619751 22:0.52514342 51:0.36885176 
-1 -0 7:0.2501016 49:0.5770801 101:0.77744951 
-1 -0 4:0.14393109 25:0.47227034 68:0.44956631 99:0.53588241 250:0.51668631 
-1 -0 25:0.4772395 68:0.45429658 99:0.54152088 250:0.5221228 
-1 -0 3:0.46319119 11:0.29673072 30:0.41717707 49:0.44878249 250:0.56741728 
-1 -1 4:0.041917111 5:0.48197671 10:0.28162753 12:0.1142618 14:0.18996101 16:0.17076995 23:0.48197671 32:0.13092738 72:0.18547464 83:0.20251993 94:0.17076995 116:0.19031733 127:0.15606525 176:0.16033676 185:0.17738205 252:0.16033676 253:0.248967 295:0.22104569 
-1 -1 2:0.11199031 10:0.22644331 11:0.18981445 17:0.35298816 69:0.27260062 94:0.41192399 98:0.37645396 119:0.36296882 200:0.50803053 
-1 -1 3:0.30959995 17:0.55325464 85:0.51044299 86:0.51044299 103:0.27740418 
-0 -1 5:0.36969428 9:0.36969428 48:0.55595839 199:0.64619079 
-1 -1 11:0.75854071 46:0.65162565 
-1 -0 11:1 
-1 -0.4328504029861361 7:0.48475659 51:0.53692965 63:0.39511586 125:0.56621644 
-0.4037486833388984 -1 1:0.22405006 8:0.31526687 10:0.21705819 25:0.31801655 122:0.83794963 
-1 -0 2:0.20297589 11:0.34402746 46:0.29553736 49:0.52031491 94:0.37329373 175:0.37329373 229:0.30900625 250:0.32892958 
-1 -0 4:0.34776036 69:0.93758345 
-1 -0.6491750262991319 30:0.89172601 249:0.45257566 
-1 -0.01474969968916793 69:1 
-1 -0 4:0.25180235 68:0.78650035 70:0.56392622 
-1 -0.9136196562858535 69:1 
-0 -0.6894779676026279 12:0.51557832 15:0.62061318 32:0.59077768 
-1 -1 4:0.3590923 67:0.93330205 
-1 -0 25:0.72430256 68:0.68948227 
-0.3538162147459903 -0.9732016610389804 38:0.63812786 61:0.76993041 
-0.8343788992433702 -1 38:0.63812786 61:0.76993041 
-1 -1 68:0.76546866 103:0.64347318 
-1 -0.6241643505037069 9:0.35449662 49:0.70028201 234:0.6196267 
-0 -1 12:0.65752739 32:0.75343064 
-1 -0 37:0.67903762 129:0.73410347 
-1 -0 17:0.21360587 63:0.73640702 250:0.43929105 251:0.46808184 
-1 -1 2:0.12282334 5:0.31876589 20:0.469262 23:0.31876589 47:0.16694452 64:0.16465982 67:0.14410637 70:0.24834737 84:0.26788196 87:0.53576393 98:0.20643434 182:0.13085425 249:0.074270615 
-1 -0 2:0.44539079 21:0.21682896 74:0.19830136 87:0.77713032 128:0.33370238 
-0.1043308120695704 -1 5:0.43879751 17:0.26645417 23:0.43879751 87:0.73750638 
-1 -0 2:0.68779242 4:0.23286536 7:0.19102916 17:0.13549298 21:0.20927314 87:0.37502485 128:0.32207388 183:0.20381015 251:0.2969104 
-1 -0 17:0.4491785 31:0.68272795 70:0.5762996 
-1 -0 4:0.063597226 63:0.12757188 88:0.61453212 113:0.57750423 231:0.5181891 
-0 -0.2139000228732486 63:0.13472174 88:0.64897402 113:0.60987087 231:0.27361569 241:0.33745334 
-1 -0 2:0.089396712 4:0.16142399 7:0.09931712 28:0.23348342 63:0.16190299 71:0.22916261 88:0.389955 103:0.21192405 110:0.36645873 235:0.40553739 241:0.40553739 249:0.3243464 253:0.23969483 
-0.4689252144423619 -0 63:0.21165098 88:0.50977662 113:0.47906064 231:0.4298566 241:0.53014702 
-1 -0.1894987103538739 32:0.44742926 47:0.43131083 68:0.44742926 69:0.38620251 250:0.5142302 
-1 -0 2:0.36416616 4:0.65757623 63:0.65952749 
-0.5175582887609154 -0 7:0.28104938 30:0.2009396 37:0.27330505 261:0.80296395 282:0.40148197 
-0.5361361514895927 -0.01899179512409304 20:1 
-0.708025364730655 -0.6416368972623019 1:0.1600209 91:0.18175547 249:0.092724665 280:0.73007256 291:0.36503628 305:0.36503628 306:0.36503628 
-0.9993308879114121 -0 4:0.25801768 18:0.22456293 236:0.64820488 294:0.68031522 
-1 -0 17:0.067938521 63:0.078072794 66:0.1352224 71:0.1105067 242:0.58667424 243:0.78223232 249:0.052135423 
-0 -0.002829304265673183 242:0.70710678 243:0.70710678 
-0.03720109494508839 -0.362233969217022 242:0.70710678 243:0.70710678 
-1 -1 63:0.46418482 68:0.72279169 73:0.51196155 
-1 -1 3:0.2308726 9:0.22647336 11:0.14790219 14:0.35703883 15:0.25851061 30:0.20793736 44:0.62092195 49:0.22369074 102:0.25627545 119:0.28282296 253:0.23397148 
-0.01412998787078366 -0.4439309743381787 2:0.1009697 8:0.59306512 11:0.17113541 32:0.28473885 49:0.25882919 63:0.18286238 125:0.26204892 244:0.45803684 246:0.38576775 
-1 -0 2:0.078857025 4:0.071196217 18:0.12392973 19:0.23159095 24:0.20338927 28:0.20595621 36:0.26174627 48:0.30777353 60:0.29541244 63:0.14281496 102:0.23159095 230:0.26174627 247:0.66549891 
-1 -0 2:0.031949803 4:0.1442297 7:0.070990584 24:0.082405431 41:0.13096996 52:0.090099805 95:0.090802846 96:0.27240854 244:0.57974569 246:0.24413668 249:0.038639783 252:0.6620301 281:0.15211619 
-1 -0 61:0.85163032 63:0.20585714 75:0.27974276 252:0.39254633 
-1 -0 4:0.13276799 7:0.05445756 18:0.077035468 34:0.1133219 63:0.26632383 70:0.099113917 125:0.25443504 244:0.66709274 246:0.56183879 311:0.23337958 
-0.6601898775234616 -0 4:0.19433169 60:0.80633498 125:0.5586225 
-1 -0.9694821964614735 17:0.16325703 32:0.87639328 102:0.30423096 119:0.33574617 
-1 -1 4:0.30490999 32:0.95238117 
-0.08913440870773993 -0 13:0.51358606 14:0.15423428 37:0.48869771 39:0.30904731 47:0.40989544 62:0.28242936 93:0.1865867 112:0.30904731 
-1 -0 3:0.25150069 4:0.085824073 18:0.14939213 72:0.75950793 92:0.29817746 93:0.23526202 239:0.43122304 
-1 -1 3:0.53328491 14:0.41235586 18:0.31677276 74:0.4487118 182:0.42948699 249:0.2437694 
-1 -0 10:0.15968452 13:0.5379917 14:0.48469065 36:0.26213434 39:0.32373326 47:0.21468685 62:0.29585042 93:0.19545331 112:0.32373326 
-0 -0.5718261372628906 3:0.15237338 4:0.051997089 11:0.097613822 13:0.19616625 27:0.38232503 39:0.47216743 72:0.46015296 93:0.14253507 112:0.47216743 182:0.12271561 183:0.13652784 239:0.26125936 
-1 -0 11:0.1916743 14:0.46270557 204:0.4635735 229:0.34432477 245:0.51300835 252:0.39054706 
-1 -1 2:0.20949695 4:0.037828917 5:0.32622697 10:0.16944018 11:0.071015998 14:0.085716978 23:0.32622697 29:0.26564285 34:0.48432362 47:0.11390139 48:0.16353031 58:0.17680085 60:0.15696245 65:0.12523475 69:0.1019891 130:0.19007138 205:0.31392498 245:0.19007138 249:0.05067268 252:0.14469905 265:0.19948701 310:0.19948701 
-1 -1 3:0.50529123 4:0.17242961 14:0.3907104 29:0.30270952 35:0.29953497 106:0.29074919 245:0.43318626 252:0.32977948 
-0.04812101896046877 -1 6:0.87780632 17:0.47901572 
-1 -0.9353715181178908 6:0.48482646 11:0.28453553 17:0.26456804 90:0.64139055 253:0.45011637 
-1 -0 11:0.25657378 12:0.37255439 68:0.42689309 70:0.30608531 285:0.72072685 
-1 -0.3560377704848406 2:0.15505103 4:0.13998812 6:0.89557772 74:0.34516714 249:0.18751722 
-0 -0.1261951131867941 4:0.073421011 6:0.7045693 17:0.38448075 27:0.26992552 69:0.19794759 92:0.25508566 183:0.19278025 237:0.36890385 
-1 -0 4:0.14654312 6:0.23437837 11:0.13755226 17:0.51159755 27:0.26937608 69:0.19754466 83:0.354007 90:0.31006573 91:0.19238784 121:0.31674501 183:0.19238784 237:0.36815293 
-1 -0 2:0.10833752 11:0.18362326 27:0.35959943 69:0.26370918 92:0.33982951 98:0.36417513 249:0.13102234 251:0.37414261 253:0.29047984 307:0.51580568 
-1 -0.553642746256531 128:1 
-0.9709532988951437 -0 4:0.23429772 61:0.97216489 
