svm_type c_svc
kernel_type linear
nr_class 3
total_sv 136
rho 0.519887 0.356765 0.0233013
label 1 3 2
nr_sv 25 62 49
SV
1 1 17:0.65546105 24:0.75522898 
1 1 5:0.20565266 7:0.28867299 14:0.22383688 17:0.4067242 25:0.46863182 26:0.46863182 27:0.46863182 
1 1 28:0.2731213 29:0.81936377 53:0.50403151 
1 1 14:0.32922332 30:0.68927213 49:0.10958765 54:0.63600824 
1 1 31:0.57735027 32:0.57735027 33:0.57735027 
1 1 6:0.46127307 34:0.87625241 49:0.13931572 
1 1 35:0.70710678 36:0.70710678 
1 1 6:0.22292321 14:0.20226758 15:0.64473274 22:0.31158948 51:0.30208343 55:0.39074951 56:0.39074951 
1 0.9298848207594148 8:0.67814022 37:0.73493254 
1 0.9290804568639783 8:0.67814022 38:0.73493254 
1 0.6115341210560518 14:0.27286221 18:0.49580598 22:0.42033919 23:0.42033919 39:0.57127277 
1 0.7206242440257983 6:0.29109705 7:0.34063032 9:0.51024757 13:0.39446585 14:0.26412456 40:0.55297936 49:0.087918408 
1 0.042991084418698 6:0.21465046 7:0.25117554 9:0.37624867 10:0.37624867 13:0.29087302 16:0.31040334 23:0.3000263 41:0.40775844 42:0.40775844 49:0.064829675 
1 1 2:0.24859343 7:0.34894861 10:0.52270796 13:0.40409882 22:0.41681512 23:0.41681512 49:0.18013055 
1 1 6:0.20088468 15:0.29049681 19:0.33119684 43:0.38160841 57:0.70423898 58:0.35211941 
1 1 11:0.6815754 14:0.3528107 20:0.64107689 
1 0.3693380563925268 4:0.20921252 6:0.25096549 7:0.5873401 11:0.43990322 14:0.22771151 15:0.36291804 20:0.41376463 
1 1 12:0.6815754 14:0.3528107 45:0.64107689 
1 1 19:0.68513467 59:0.72841642 
1 1 6:0.62511801 49:0.094400402 60:0.54786679 61:0.54786679 
1 0.568441766082761 7:0.46701803 12:0.69957018 13:0.54082873 
1 1 16:0.80101978 21:0.45662342 48:0.38712062 
1 1 5:0.35532269 16:0.61637329 18:0.70273021 
1 1 1:0.24167724 2:0.24167724 6:0.57981874 21:0.47797088 48:0.40521878 52:0.39285626 
1 1 47:1 
-0.2691612185420695 1 44:0.29737644 81:0.95476031 
-0.2434480700962928 1 44:0.33463287 71:0.94234858 
-0.3068801819924311 1 49:0.18019182 82:0.98363149 
-1 0.6559237800923358 2:0.44531819 19:0.88071647 49:0.16133878 
-1 0 2:0.4073272 5:0.4073272 23:0.68296308 50:0.44914423 
-1 0.02344436094017567 13:1 
-1 1 13:1 
-0.480225626063084 1 83:1 
-0 0.7691730303638922 6:0.49513688 14:0.44925846 79:0.74364394 
-0.5963666315716109 1 15:0.65323767 49:0.13643276 84:0.74475946 
-0.3069638688200052 1 49:0.18019182 85:0.98363149 
-0.06320779645610693 1 44:0.30615991 49:0.18006892 76:0.93479479 
-0 0.04588724406044267 50:0.48696744 86:0.87342013 
-0 0.3815053682733492 5:0.9401963 49:0.34063312 
-1 0 14:1 
-1 0.7133911248110473 6:1 
-0 1 2:1 
-0.2914766429159878 1 49:0.19714867 79:0.9803736 
-1 1 47:1 
-0.3611158218101568 1 47:0.52031895 78:0.55223731 87:0.65138479 
-0 0.4230749486209494 49:0.5936935 50:0.45172765 52:0.66593555 
-0.9610509594916596 0.6284093529352967 7:0.96826783 49:0.24991482 
-0.8290428186641988 1 52:1 
-0.1857709458899379 1 7:0.46022285 14:0.35685655 48:0.54973092 49:0.23757136 78:0.54973092 
-1 0.2542706850723221 15:0.92461072 44:0.32833407 49:0.19311072 
-0.3069403905854373 1 49:0.18019182 88:0.98363149 
-1 1 7:1 
-1 0.8500621697052753 16:0.97887809 49:0.2044448 
-0.1176238455355103 1 2:1 
-1 0 14:0.53148812 16:0.84706575 
-0 1 44:0.14614503 49:0.17191109 50:0.26160652 89:0.93842966 
-0 1 49:0.21754161 51:0.97605105 
-0 1 49:0.37314187 80:0.9277743 
-0.495937144510462 0.8833492809054692 14:1 
-0.7821357921929757 1 51:1 
-0.007341413176470132 0.48687451966289 49:0.18019182 90:0.98363149 
-0.1937249633517147 0 6:0.95729126 49:0.28912531 
-0.7220044593664478 1 1:1 
-0.5227024719524718 1 5:0.45122971 91:0.89240784 
-0 0.8471256719556026 6:0.50404089 50:0.46332087 71:0.7288872 
-0.9908454886974956 0.3887523426680927 14:0.61766026 17:0.56116172 49:0.20559857 80:0.51119717 
-0.3442831451814191 0.4494094283169388 44:0.28916881 48:0.7870954 49:0.17007555 50:0.51762587 
-0.2229209698517424 0 73:0.39456216 74:0.39456216 86:0.37111769 90:0.74223518 
-1 0.3942658583867649 22:1 
-0.2659012950904799 0.7722341024665153 73:0.51506819 74:0.51506819 86:0.48446337 90:0.48446337 
-0 0.9261807293443363 44:1 
-1 0 6:0.8558823 7:0.5007597 49:0.12924861 
-0.3067638173138789 1 22:0.62915697 44:0.23114425 92:0.74211444 
-1 1 6:1 
-0.2336614370440308 0 16:0.71105038 22:0.68727937 49:0.14850731 
-0 1 44:1 
-0.06337394547875759 1 44:0.30615991 49:0.18006892 77:0.93479479 
-0 0.2503506247776134 49:1 
-0.07342442815344058 1 47:0.97469655 49:0.22353218 
-0 1 49:1 
-0 1 49:0.2175419 51:0.97605098 
-0 0.9676176409931976 44:1 
-0.3087286480978774 0.8252556883831923 23:0.79873211 44:0.29344399 50:0.52527864 
-0 1 49:1 
-0.08300758410720978 1 52:0.53118061 78:0.54789596 93:0.64626401 
-0 1 49:1 
-0.06396817799863674 0.9652804227023875 5:0.9401963 49:0.34063312 
-1 -1 6:0.58185901 78:0.81328967 
-0 -1 49:0.081651688 85:0.89144059 91:0.44572041 
-1 -1 47:1 
-0.4305142670270128 -1 49:0.1341987 79:0.66733833 87:0.73256416 
-0.5453286681927938 -1 49:0.18019182 85:0.98363149 
-0.4699970579156071 -1 2:0.85142589 44:0.52447494 
-0 -1 49:1 
-1 -1 14:0.47605588 49:0.1584634 82:0.86502032 
-0 -1 44:0.29737644 82:0.95476031 
-1 -1 54:0.72841642 88:0.68513467 
-0.6432398666244625 -0.9765548679798439 62:1 
-0.2462252303627128 -1 47:0.97469655 49:0.22353218 
-0.5449198500086793 -1 49:0.18019182 91:0.98363149 
-0 -1 2:0.21460958 47:0.33903678 52:0.34885668 71:0.74456026 77:0.40364071 
-0 -0.9283417326989171 46:0.53424949 71:0.46859679 77:0.50807086 80:0.48668114 
-1 -1 52:0.51218262 61:0.66251601 71:0.54657251 
-0.9446423002442836 -1 6:0.30774181 7:0.36010736 48:0.43014412 49:0.092945531 63:0.53942323 64:0.53942323 
-0.4754064818853016 -1 23:0.37992579 65:0.47644682 66:0.47644682 81:0.44813684 93:0.44813684 
-0.3174846807388185 -0.3904636471000671 48:0.49115923 65:0.61593937 66:0.61593937 
-0.3725976690429644 -0.2543482351398831 67:1 
-1 -1 6:0.24807791 15:0.35874234 20:0.4090039 51:0.33617057 55:0.43484175 56:0.43484175 76:0.3889624 
-0 -1 49:0.27983495 51:0.6277723 76:0.7263569 
-0.1331861410666077 -0.4372490950551262 64:1 
-0.5498013134847781 -1 49:0.16980317 68:0.985478 
-0.3091240839228706 -1 46:0.7135422 49:0.26142776 79:0.65001004 
-0 -1 44:0.86196515 49:0.50696753 
-0.08672429295810538 -1 49:0.2175419 51:0.97605098 
-0.838250831406039 -1 49:0.1273786 57:0.7392607 76:0.66126266 
-0.6249242538787778 -1 45:0.77253808 51:0.63496844 
-0 -1 52:0.53118061 78:0.54789596 93:0.64626401 
-0 -1 83:0.70710678 88:0.70710678 
-0.3921490322621752 -1 49:0.049124705 69:0.57020522 70:0.57020522 80:0.24428551 89:0.53632395 
-0.2563033161339453 -0.7957923715011963 49:0.079917207 69:0.46381141 70:0.46381141 72:0.46381141 80:0.39740932 89:0.43625222 
-1 -1 7:0.91570622 44:0.40184839 
-0 -1 78:1 
-1 -1 2:0.1593596 18:0.3151693 23:0.26719728 50:0.17571977 53:0.33507937 58:0.6701589 63:0.33507937 81:0.3151693 
-0 -0.6724854605805973 78:0.35451756 84:0.41816687 87:0.83633353 
-1 -1 5:1 
-0 -1 44:0.86196515 49:0.50696753 
-0.3903964501634732 -1 47:0.69694161 52:0.71712788 
-0 -1 44:1 
-1 -1 21:0.70710678 84:0.70710678 
-0.3715139595040598 -0.992110426898499 67:0.72841642 83:0.68513467 
-0 -1 49:1 
-1 -1 60:0.74533205 77:0.66669344 
-1 -1 6:0.36025496 14:0.32687444 49:0.10880578 75:0.63147056 92:0.59394924 
-0.2291648027757606 -1 49:1 
-0 -0.4745881355651567 72:0.38869454 75:0.77738926 79:0.33304664 92:0.36559871 
-1 -0.9799044029187997 2:0.28695991 45:0.56752749 48:0.48114395 59:0.60337969 
