svm_type c_svc
kernel_type linear
nr_class 3
total_sv 134
rho 0.450367 0.336546 0.173296
label 1 3 2
nr_sv 25 58 51
SV
1 1 12:0.65546105 19:0.75522898 
1 0.9735347147171459 2:0.28292586 9:0.21938055 12:0.39862681 20:0.45930192 21:0.45930192 22:0.45930192 47:0.28292586 
1 1 23:0.2731213 24:0.81936377 54:0.50403151 
1 1 9:0.32922332 25:0.68927213 50:0.10958765 55:0.63600824 
1 1 26:0.57735027 27:0.57735027 28:0.57735027 
1 1 1:0.4188595 29:0.79568193 40:0.4188595 50:0.12650578 
1 1 30:0.70710678 31:0.70710678 
1 1 1:0.20869986 9:0.18936214 10:0.60359631 17:0.29170887 40:0.20869986 52:0.28280935 56:0.36581819 57:0.36581819 99:0.28280935 
0.8903073629599707 0.8201472234496856 3:0.56125703 32:0.60826072 58:0.56125703 
0.8891765598778084 0.8195109487000269 3:0.56125703 33:0.60826072 58:0.56125703 
1 0.829487758220256 9:0.22877888 13:0.4157041 17:0.35242965 18:0.35242965 34:0.47897855 41:0.4157041 48:0.35242965 
1 0.7821163568745994 1:0.24082135 2:0.28179968 4:0.42212215 8:0.32633721 9:0.21850732 35:0.45747368 40:0.24082135 47:0.28179968 50:0.072733922 59:0.42212215 
1 0 1:0.1763043 2:0.20630437 4:0.30903386 5:0.30903386 8:0.23891011 11:0.25495144 18:0.2464282 36:0.33491457 37:0.33491457 40:0.1763043 47:0.20630437 48:0.2464282 50:0.0532482 59:0.30903386 60:0.30903386 
1 1 2:0.28425995 5:0.42580751 8:0.32918632 17:0.33954525 18:0.33954525 47:0.28425995 48:0.33954525 50:0.14673766 60:0.42580751 
1 1 1:0.19695006 10:0.284807 14:0.32470986 38:0.37413405 40:0.19695006 61:0.69044542 62:0.34522263 
1 1 6:0.49768268 9:0.25762047 15:0.46811089 42:0.46811089 63:0.49768268 
1 0.2955462674685792 1:0.19086631 2:0.44668868 6:0.33455878 9:0.17318101 10:0.27600938 15:0.31467964 40:0.19086631 42:0.31467964 47:0.44668868 63:0.33455878 
1 1 7:0.49768268 9:0.25762047 43:0.46811089 64:0.49768268 101:0.46811089 
1 1 14:0.68513467 65:0.72841642 
1 1 1:0.53007089 40:0.53007089 50:0.080047135 66:0.46456547 67:0.46456547 
1 0.5645397924442029 2:0.35739852 7:0.53536551 8:0.4138842 47:0.35739852 64:0.53536551 
1 1 11:0.72865009 16:0.41536889 44:0.41536889 49:0.35214546 
1 0.8760010804020667 11:0.52706982 13:0.60091489 41:0.60091489 
1 1 1:0.45807698 16:0.37761362 40:0.45807698 44:0.37761362 49:0.32013693 53:0.31037011 100:0.31037011 
1 1 46:0.70710678 92:0.70710678 
-0.264110751484631 1 39:0.28503997 96:0.28503997 102:0.91515268 
-0.2308138249888915 1 39:0.31733668 78:0.89364135 96:0.31733668 
-0.352648719399664 1 50:0.18019182 103:0.98363149 
-1 0.9939963642171643 14:0.98363149 50:0.18019182 
-1 1 18:0.64117173 48:0.64117173 51:0.42166055 
-1 0.2035954741173502 8:1 
-0.858201826432047 0.9695363713477128 8:1 
-0.5494020747800059 1 104:1 
-0 0.73602741131919 1:0.44372368 9:0.40260911 40:0.44372368 97:0.66642667 
-0.7362852350363979 1 10:0.65323767 50:0.13643276 105:0.74475946 
-0.3524014904936862 1 50:0.18019182 106:0.98363149 
-0.0167152764103034 1 39:0.29274702 50:0.17218009 93:0.89384136 96:0.29274702 
-0.2386422998481627 1 51:0.48696744 107:0.87342013 
-1 1 1:0.70710678 40:0.70710678 
-1 0.6152201428367096 9:1 
-0.3344287652490503 1 50:0.19714867 97:0.9803736 
-1 1 46:0.70710678 92:0.70710678 
-0.3727044126072527 1 46:0.46157544 92:0.46157544 95:0.48989024 108:0.57784408 
-0 1 50:0.49414954 51:0.37598695 53:0.55427883 100:0.55427883 
-1 0.6932038742306997 2:0.6956165 47:0.6956165 50:0.17954213 
-0.9815603120347509 1 53:0.70710678 100:0.70710678 
-0.3789865094504006 1 2:0.41807269 9:0.32417333 47:0.41807269 49:0.49938303 50:0.21581305 95:0.49938303 
-0.7491243928161098 0.1800110502149815 10:0.87847136 39:0.31194974 50:0.18347423 96:0.31194974 
-0.3526833001685474 1 50:0.18019182 109:0.98363149 
-1 1 2:0.70710678 47:0.70710678 
-1 0.9739860407608028 11:0.97887809 50:0.2044448 
-0.926456333402087 0 9:0.53148812 11:0.84706575 
-0 0.9856664740389778 39:0.14460888 50:0.17010411 51:0.25885675 96:0.14460888 110:0.92856573 
-0 1 50:0.15567801 52:0.69848563 99:0.69848563 
-0 1 50:0.37314187 98:0.9277743 
-0.2044235677097034 0.6662205795193372 9:1 
-0.9492782761854347 1 52:0.70710678 99:0.70710678 
-0.3526746190119121 1 50:0.18019182 111:0.98363149 
-0.8198598079398073 0 1:0.69151287 40:0.69151287 50:0.20885375 
-0 0.5301117164866577 39:0.70710678 96:0.70710678 
-0.5497052494631296 1 112:1 
-0 1 39:0.70710678 96:0.70710678 
-0 0.4886180838081335 1:0.45009801 40:0.45009801 51:0.41373588 78:0.65088108 
-0 1 39:0.70710678 96:0.70710678 
-0.9775211634715378 0.08972481492129028 9:0.61766026 12:0.56116172 50:0.20559857 98:0.51119717 
-0.05367794645077696 0 39:0.27778784 49:0.75611725 50:0.1633818 51:0.49725338 96:0.27778784 
-1 0.5602989462590421 17:1 
-0 1 39:0.70710678 96:0.70710678 
-1 0 1:0.60774362 2:0.3555787 40:0.60774362 47:0.3555787 50:0.09177666 
-0.2783214161357182 1 17:0.6129946 39:0.2252064 96:0.2252064 113:0.72305032 
-1 1 1:0.70710678 40:0.70710678 
-0.0712106451358973 0 11:0.71105038 17:0.68727937 50:0.14850731 
-0 1 39:0.70710678 96:0.70710678 
-0.01680401946861932 1 39:0.29274702 50:0.17218009 94:0.89384136 96:0.29274702 
-0.1272079985816092 1 46:0.69798873 50:0.16007335 92:0.69798873 
-0 1 50:0.15567822 52:0.69848561 99:0.69848561 
-0 0.2595143655462863 50:1 
-0.4755358176709209 0.04851955277807271 18:0.60830605 39:0.22348389 48:0.60830605 51:0.40004674 96:0.22348389 
-0 1 50:1 
-0.01006831703422684 1 53:0.46910743 95:0.48386944 100:0.46910743 114:0.57074231 
-0 1 50:1 
-0.198029553976497 0 1:0.27400767 2:0.64126624 40:0.27400767 47:0.64126624 50:0.16551377 
-0 0.9987273086585582 50:1 
-1 -1 1:0.50291994 40:0.50291994 95:0.7029531 
-0 -0.9361026332285898 50:0.081651688 106:0.89144059 112:0.44572041 
-1 -1 46:0.70710678 92:0.70710678 
-0.447470148907092 -1 50:0.1341987 97:0.66733833 108:0.73256416 
-0.5623142155572758 -1 50:0.18019182 106:0.98363149 
-0 -1 39:0.70710678 96:0.70710678 
-0.002425267530561048 -1 50:1 
-1 -1 9:0.47605588 50:0.1584634 103:0.86502032 
-0 -1 39:0.28503997 96:0.28503997 103:0.91515268 
-1 -1 55:0.72841642 109:0.68513467 
-0.6634508487791492 -0.8266639026839844 68:0.70710678 79:0.70710678 
-0.4040271980636172 -1 46:0.69798873 50:0.16007335 92:0.69798873 
-0.5624746923536682 -1 50:0.18019182 112:0.98363149 
-0 -1 46:0.31071754 53:0.31971719 78:0.68236824 92:0.31071754 94:0.36992519 100:0.31971719 
-0 -0.4695394320255774 45:0.47121723 77:0.47121723 78:0.41331042 94:0.44812723 98:0.42926113 
-1 -1 53:0.45586705 67:0.58967097 78:0.4864757 100:0.45586705 
-1 -1 1:0.22897448 2:0.26793694 40:0.22897448 47:0.26793694 49:0.3200476 50:0.069155878 69:0.40135644 70:0.40135644 80:0.40135644 81:0.40135644 
-0.6994266004877062 -1 18:0.30051301 48:0.30051301 71:0.37685903 72:0.37685903 82:0.37685903 83:0.37685903 102:0.35446646 114:0.35446646 
-0.1441881202325127 -0.1409252523758298 49:0.37035541 71:0.46444506 72:0.46444506 82:0.46444506 83:0.46444506 
-0.4396861807784599 -0.0110491610864808 73:0.70710678 84:0.70710678 
-1 -1 1:0.21415989 10:0.30969392 15:0.35308355 40:0.21415989 42:0.35308355 52:0.29020824 56:0.37538877 57:0.37538877 93:0.33578219 99:0.29020824 
-0 -1 50:0.23700379 52:0.53168632 93:0.6151817 99:0.53168632 
-0.09633938403329888 -0.2591115911002876 70:0.70710678 81:0.70710678 
-0.5919612261135135 -0.9831362772840676 50:0.12094394 74:0.70191615 85:0.70191615 
-0.3816275269412778 -1 45:0.58083736 50:0.21280733 77:0.58083736 97:0.52912094 
-0 -1 39:0.65289451 50:0.38400198 96:0.65289451 
-0.285110037077957 -1 50:0.15567822 52:0.69848561 99:0.69848561 
-0.8816259436259784 -0.9538135853200148 50:0.1273786 61:0.7392607 93:0.66126266 
-0.4328805613614667 -1 43:0.54626691 52:0.44899049 99:0.44899049 101:0.54626691 
-0 -1 53:0.46910743 95:0.48386944 100:0.46910743 114:0.57074231 
-0.07353654168179062 -1 104:0.70710678 109:0.70710678 
-0.4268508662955362 -0.5223445193772319 50:0.038240426 75:0.44386812 76:0.44386812 86:0.44386812 87:0.44386812 98:0.19016057 110:0.41749373 
-0.2342975939362841 -0.9724015709680524 50:0.06682447 75:0.38782577 76:0.38782577 86:0.38782577 87:0.38782577 88:0.38782577 98:0.33230225 110:0.36478156 
-1 -1 2:0.64750207 39:0.28414972 47:0.64750207 96:0.28414972 
-0 -0.9202765202547178 95:1 
-1 -1 13:0.28104194 18:0.23826445 41:0.28104194 48:0.23826445 51:0.15669237 54:0.29879609 62:0.59759232 69:0.29879609 80:0.29879609 102:0.28104194 
-0 -0.5423867450224926 95:0.35451756 105:0.41816687 108:0.83633353 
-0 -1 39:0.65289451 50:0.38400198 96:0.65289451 
-0.237537399844711 -1 46:0.49281214 53:0.50708599 92:0.49281214 100:0.50708599 
-0 -1 39:0.70710678 96:0.70710678 
-1 -1 16:0.57735027 44:0.57735027 105:0.57735027 
-0.2685956028486801 -0.9796713267518261 73:0.58877617 84:0.58877617 104:0.5537917 
-0.341148577502475 -1 89:0.39456216 90:0.39456216 107:0.37111769 111:0.74223518 
-0 -1 50:1 
-0.3411485775024751 -0.7808287891657031 89:0.51506819 90:0.51506819 107:0.48446337 111:0.48446337 
-1 -1 66:0.74533205 94:0.66669344 
-1 -1 1:0.33893181 9:0.30752705 40:0.33893181 50:0.10236567 91:0.59409442 113:0.55879394 
-0.181506645372457 -1 50:1 
-0 -0.3696701832835895 88:0.38869454 91:0.77738926 97:0.33304664 113:0.36559871 
-1 -0.3250570811325209 43:0.50970787 49:0.43212508 65:0.54190745 101:0.50970787 
-0.261254385448619 -1 39:0.70710678 96:0.70710678 
